0.30978840304752603,0.14861426627894442,-0.32382654748724077,0.06390836506058062,-0.24759282500980676,-0.12104367439603322,0.3477363840016904,0.28776202875793383,0.32607834306655464,0.0007955154343044289,0.043026344842565165,0.1622022578840175,-0.27177704846325657,0.01756636274324296,-0.34397948125406463,-0.28489612452955543,0.041846661320103534,0.034457231818592025,0.29410461941254085,0.10415860679007793,0.34475092946266156,-0.16458607257240482,0.23529955799673766,-0.2490846000393333,0.04395587778111262,0.04463038162700031,0.18942304181614086,-0.3506941825105574,-0.06408648744384196,0.07145669156478769,0.07356676950419556,0.2495739699502608,0.1342080181318337,0.3144407582232577,-0.31485510483056345,0.0001592219504960024,-0.2464235983268233,0.3462841115536039,-0.16107943294582702,-0.29014565725802366,-0.007415351940372069,-0.2521309917899331,-0.2748268376415993,-0.3154201151071658,0.31921402801020843,-0.2952879222049093,-0.31556027122420993,0.235686154211747,0.16659137426346024,-0.05940152193600397,0.16768218682628222,0.026867844608435627,-0.3085511636993708,-0.3252701090797204,0.21032022380373266,0.044745265123726716,0.0431793806306026,0.07961104586451229,-0.31497745434625596,-0.25651465745483376,-0.35054349854261246,0.31425136163537676,-0.1794256303808164,-0.0038556493985351056,0.14335549768051,0.3385664318012291,-0.11897372805538001,-0.338671617857118,-0.2488235502615201,-0.1748816603605361,-0.2142944793230204,-0.06189107909288294,0.09752074772726337,-0.33022473477115133,0.054002544621854595,-0.0871505332550365,-0.029921814360358567,0.2394698996973682,0.14454118166488114,-0.06403289079846727,-0.06861438984519987,0.09134212007873012,-0.11497579531167644,-0.03005340102916476,0.04876067133032884,-0.28030595605909475,-0.002609070941021429,-0.2090290279377264,-0.005677502271639313,-0.22354753893974402,0.04521322706628149,-0.2558970322819824,0.32862013593010747,0.2698175179308391,-0.2945328833862787,-0.1944211752690394,0.24899331375308575,0.07399100258324923,-0.08733215040540082,0.32442361098562583,-0.24616494901457103,0.07501108414481764,0.018067052695859842,0.1435532639454401,-0.17432857385953152,0.08576093920038438,-0.0005120952998535766,0.2964768822642301,-0.2994436914622438,-0.2208435827473706,-0.32371226848676415,0.2763552049284213,-0.13870201757641076,-0.3324535967285972,-0.007092320726931078,0.16135314915510826,0.2761754952202027,-0.05847551628042802,0.3219786382655702,0.09233252363874893,0.07669571865185004,0.002963614822763547,-0.040450980398889926,-0.17164254415336752,-0.26498734171816624,0.11066478858885159,-0.056787528548571393,-0.09626426535248211,-0.27298886357992247,0.04507611140886376,0.03691600974903994,-0.1469014167655257,0.2235343038612901,-0.05954936719091685,-0.09462203810298449,-0.1284100924864735,-0.01640676167124593,0.24586895512328782,-0.32187732929459534,-0.22633356654580525,-0.09235050014595912,0.2516608760826727,-0.13803977182828503,0.27794200870531094,0.19880351099057036,0.2039067260964375,-0.2800577521945785,-0.2866084559982267,0.2247425624395114,-0.26922155184558993,-0.35054799853950863,-0.3047543826203107,-0.11927539784558776,0.0028685650056751947,-0.16760455013527015,-0.16503970488897352,-0.27627658392868193,0.2011816990324311,-0.224360569708567,0.24061969882799722,0.21013412171215048,0.03568661914625141,-0.031520986888965534,-0.006711158888245303,0.0686293275757266,0.24602665205718183,0.17536192119747557,-0.3412515518885538,0.2608756884370515,-0.18692826455804196,-0.25311122007588577,0.2972124052264608,-0.2433095104910301,-0.14608623069081342,-0.2225314073200486,0.2154605161000463,-0.05199321207705184,-0.00787313112315163,-0.1349092754926238,-0.11997060101142148,-0.027122706614439766,-0.06689683973506838,0.2525975402132724,0.033203915717516685,0.0223357545424218,0.19179452276202888,-0.21640174395095066,0.0951594533534388,0.17644999823339697,-0.3474820799654196,0.03499867502418549,0.18966857792589598,-0.32501317025953436,-0.04282486547940905,-0.3314685587948598,-0.052417726925131636,-0.3068930727572905,0.33743241159072385,-0.30512692683599846,0.05001588030935363,-0.09594995599189224,-0.3095196867788442,0.02723654008869312,0.06694781755462262,-0.17993241991446066,-0.1514940014896681,-0.11251045752165398,0.22856824327952585,0.038232608930648226,-0.10195816034271367,0.2694208241273039,-0.3341198171169047,0.09208010196615496,0.18746230051370655,-0.23171023909071053,0.22280100691711668,0.24969055271528584,-0.23326423758292078,-0.34845858433069454,0.26446926504132157,-0.05807178501336731,0.3210599644823438,-0.21882023111504192,-0.04848482971935103,-0.15366519572594645,-0.1333536426854602,0.3223287478287942,-0.14176462078540544,-0.06944742199126097,-0.35124653122526606,-0.11270544523733825,0.11328841614326925,-0.017127142582085565,0.18882251205552208,-0.2406969774424869,-0.13074813985505218,-0.08387434052354298,-0.12312128796339616,0.10753947733524497,0.3105799693074613,0.15083751596273556,0.020901234094386354,-0.20327655510221398,0.1328422618825919,-0.2747030793328231,-0.00718297051421172,-0.27160669579589464,-0.14757316520044764,0.29204079010065426,-0.3090846778123799,-0.16917285915936364,0.31249856743011356,-0.11578181467516613,0.3220912385523282,0.06458234986349351,0.16996536488598593,-0.337264316279992,-0.08192905559448238,-0.27070697099970076,-0.11702125334717851,-0.07104594630852717,-0.05413312631809955,0.19219036816926363,-0.26919326043101727,-0.03494976441860226,-0.10546812061061789,-0.005675943206845293,-0.06048615359638811,0.08381930509391501,-0.016421988651516693,0.1872908225775721,0.1671126432695592,0.13124404999689818,-0.22393834655022146,0.3435015350216257,0.16446573996235062,-0.3392146452129319,0.2845048196120305,-0.3256155984514828,-0.16485097307690214,0.0016848116668326698,0.20436582224925334,0.1424862435846715,-0.26795526116565327,-0.006917866051455597,-0.10994112672551487,0.0656319146188096,-0.30237951687860887,0.11060381701957442,-0.3170059097067746,-0.3015392428604397,0.009272545901533862,0.06475089939114029,-0.2735724538770716,0.33369333125881545,-0.10231477023483404,0.1948937790437088,0.0765718203229136,-0.10515613314416211,-0.2916524674764026,0.14066039308451134,0.024623497670651504,-0.2704921284989346,0.12854146061732313,-0.03974326758917893,-0.3457199725504443,-0.03453979938646836,0.33891118172890417,0.06637641166051676,-0.008252396019790616,0.09502782425135477,0.007031031898029677,-0.29584396786920825,0.2656357765235452,-0.25114490956698865,-0.07393630304524969,-0.12619544276298916,0.15467696400388645,-0.1923671932669998,0.1834587250717032,0.22574757073659754,-0.17780660646663848,-0.19219701742287518,0.3404613336105348,0.06624523245065692,0.256378820262166,0.1805687976381953,-0.1434232859448645,0.06900279217969454,0.2439594439964172,-0.3469496279593994,0.24932713631661313,-0.11239416214219447,0.33789263758699073,-0.34952021992513904,0.2627230542237963,-0.15027008774600303,-0.25528095563918407,-0.21184353235507494,-0.2325269749099548,-0.10877716442905706,0.2313403464168711,0.18368475896006298,0.0535658075778435,-0.3110141804813563,-0.2923768764421446,-0.24164400271542655,-0.274993987717304,0.17493474229644632,0.23933258020135692,0.2618653183976885,-0.2130157598240833,-0.2068708763803483,0.14617743469966762,0.040679345862487226,0.2635864084368938,0.271421508546547,0.2855655539124299,-0.16842709679329337,-0.15594896389989127,-0.01424145672154878,0.16665111998362764,-0.26463122706294506,0.1495809052711772,0.08267750506573211,0.03392256289245586,0.07915843513908427,0.16754188019300278,-0.0415206237553787,0.11467060850209201,-0.20904977420686793,0.3431151914544233,-0.27747415298058653,-0.33451071969566615,-0.32039333340070697,0.3521539135052652,0.024212432758966368,0.16216746138859434,-0.2254516773587973,-0.15315639883620363,-0.30058569608965485,0.24653776469183108,-0.19578930635492747,0.19588592920197928,0.19109529276118348,0.15392522580535248,0.11197659770771529,0.01855281345138431,-0.037414341084579375,-0.3410599927121713,0.02406667498281907,-0.11294456496369087,-0.28943744256191123,-0.3374074643148688,0.11941273663238008,-0.22214689395349846,0.26655425582815917,-0.11227334667213079,-0.030528406274192267,0.2049154245587279,-0.0703373142800855,0.22074086222175363,-0.28598455687022906,0.12340820925666253,0.027997399973328663,0.07173626402903327,0.13920549875529686,0.2133658374381559,0.2806955110981274,0.34059671257122515,0.12819123189903686,-0.28421362569621594,0.2698092730460541,-0.34403245193890064,-0.13250682098611483,-0.24132714735263117,0.25419810485977784,-0.01713681744071513,0.11923640115941062,-0.017389836389387542,0.27360556230611904,0.06957668831677304,-0.12265513137179893,-0.19787917102555072,0.2563689004178023,-0.18950033631264654,0.3043644700758272,0.3407959608511844,0.007099548799071601,-0.013645969693688404,-0.18223833154836952,0.197514822765035,0.06763432587104187,-0.09584508819047263,-0.24558353821793585,0.3292108317060311,-0.15776283231576535,-0.2195782075376052,-0.11044037654674406,0.23119570624635657,-0.1094130074889283,0.27728074081534926,-0.3089425091965562,-0.13512280492566414,0.1380023668899269,-0.1025755008318557,-0.1994301650902642,0.20918668530583906,0.2120820112267862,0.11948148918194137,0.27463337779874536,0.21775395622331767,-0.23034829518913713,0.016844026668872542,0.16369714548495548,-0.32108268504962956,-0.32258498274150377,-0.2581545776926148,0.25006481040050205,0.09791587928729795,0.23895862861021883,0.08487517036526923,-0.07863308236487097,-0.08607278183265481,-0.3138959963396049,-0.3499635278123584,-0.12752913686860448,-0.09666559604077718,0.005592159752703234,0.33246522822086955,-0.20457564090026878,-0.12501811404578855,0.006345990358968696,0.0750074323953301,-0.21797138310805816,-0.09470055026882543,-0.21980431393619018,0.095809753251447,-0.23817394656234167,-0.06290023011318054,-0.013523795924917772,0.26862243648008755,0.29895484482417056,0.24931410641441543,-0.3009828779607166,0.29411845030982103,-0.30285476802945277,0.127015948395517,-0.11048069832606036,0.15904622056811527,-0.3134867914407252,0.11255956484444542,0.263291373369075,0.09854775304566417,0.2609903471123146,-0.21261364180155012,0.1962488502175256,-0.30902733737045823,0.011999836200218439,0.295355372977226
