0.014833585116507534,0.018679359006013335,0.06937747117032332,-0.009294930505887231,0.030186561077226236,-0.023530760695822814,-0.006062072217381049,0.007638367387049901,0.036648793510785135,0.06439424530219258,0.0327676679762884,0.04172815344267891,0.035987744675447346,-0.03089542336930221,0.042142078886085434,-0.0035891689609658614,0.0032770460359511488,-0.04461068617665849,-0.025332616602036236,0.06723009933054848,0.05727111938203267,-0.07115955883073481,-0.055940517820447934,0.0485540629130617,0.010445774792298515,-0.0210796504573084,-0.014767256101839302,-0.023868909011083902,0.06986644314885626,-0.03026100935009881,-0.006690737391102921,-0.004780776017921578,-0.005900527092260713,0.050642693097275406,0.010464900310534556,0.06975298325116797,0.07087228839099836,0.047259817828125855,0.0017685680404147042,-0.057502240074673465,0.06624695631865882,0.0322364697383376,-0.0267851918792325,0.08206099627482769,-0.05023749896550402,-0.0002876804556702246,0.011073527465757007,-0.036131583592693924,0.0693127274997888,0.031408612446842774,0.00710422636521075,-0.0003233837814069491,-0.07358380154290081,0.022689805275065766,-0.06689973644285598,-0.022491496644147083,-0.05474203409674077,0.06424900254567573,0.05476172352533669,0.03946855767492626,0.008613176009667161,-0.05447216095554354,0.05981033698851724,-0.05204812612166204,0.06077430524868853,0.0031400800114130475,-0.033671971127782904,0.026831244091477174,-0.013606382294301451,0.05060379318885827,-0.012944167076969037,-0.03167687885876257,0.012272119542175868,0.012032037523911052,-0.05819555181532608,0.05649205379129091,0.014991797616872034,-0.04173400176640918,0.04303252818564666,0.03656024476519914,-0.06350403947002659,0.06838250528443515,0.03587273900296648,-0.00796860155119025,0.06484471405307853,-0.02097319983637392,-0.05500190270331373,0.020403791860104305,-0.021273768964444453,-0.06191142959623474,0.004117204511882898,0.030198121401818042,-0.006648811155948232,-0.013349164129229653,-0.04828286040348813,-0.03594672043776788,-0.05125538574858957,0.004652085245520134,0.06021933077553309,-0.012407865689119621
