0.00910548994253342,-0.0394325967915979,0.0073027066912946925,0.009497051652265907,-0.007626541092434598,0.005218482046992991,0.020879557387389332,-0.0466168818667502,-0.029421489761225453,-0.014898472844458542,0.04074707313054853,0.014280572058606262,-0.0006676137200823701,-0.030398616718313908,0.02886099783825926,0.00578550154228909,-0.006967807315077007,-0.010516402003447445,0.02992015156723669,0.005003297643442178,-0.001567908412982176,-0.030237617024188614,-0.0009335475612628902,0.0029940971390809107,-0.03835381526847012,-0.020443157825043773,-0.03939092921178903,-0.039968597630816935,0.01323459046062017,-0.0345687780000018,-0.03612114297063664,0.03259093626796896,0.042757454401532245,0.002717642192920564,-0.029379270979743577,0.016712050944216225,-0.042976313432154696,-0.013653371039543016,0.002479639925460452,-0.015584957163887034,0.0406582956115536,0.03633991120975336,0.02768914209547591,-0.013668721285549511,-0.010996089916474737,0.022716820873165285,-0.013806475053520558,-0.006127145480580328,-0.009117170426226083,-0.016631261948908432,0.0014322912138931393,-0.01815285611038445,-0.03763750868946126,-0.02002618336937066,0.036949003357162356,0.03607958787162205,-0.007102862019800092,-0.0009182175207223897,-0.033740039470335825,-0.015233540745269288,0.028254813506513987,-0.029991723349879252,-0.01574237056993958,-0.0005195242655286464,-0.005696535406422929,0.021928174202062157,0.004566363411590835,-0.0340972055309525,0.01414032628189195,-0.00857806582227706,-0.04223299292861357,-0.012808016081192192,0.01782604288083344,0.04116138012191498,0.007079399592958437,-0.012891857808140936,-0.03126029923965606,0.0077705212558935735,-0.019989393217318102,-0.020910470713329694,-0.0417330503320269,0.012197627188405951,0.039727564540321544,0.009994495559922545,-0.002602428522755295,0.019943796995948452,0.010994548312015417,0.024903349485664708,0.02027574149341883,0.020134570643594592,0.015863975246022687,-0.03472221973794659,0.03695643913130021,0.021795012791575946,0.02187535980272538,0.007852367122369955,-0.030648564323208193,-0.021156363469656523,-0.017681296049126948,-0.04373322837145217,0.013077444982467249,-0.02461416591247258,-0.03881771418563395,-0.03568425159022685,0.0175275316187387,0.012242367742666826,-0.03956314113930468,0.017473960297996676,-0.00787759101990114,-0.025835694426950627,0.03575634415187529,-0.015613619941008239,-0.02000248550620748,0.03283504249294435,-0.032944278020536275,0.005964115029915666,-0.007123057380631299,-0.032174838893136666,0.0146429274542192,0.02863648614908306,0.04291891973539803,0.0014111388029092841,0.023837144936850373,0.00113812263803014,0.02932053852492254,0.008620637963634388,0.03223788811637907,-0.024444854481686713,0.03479436770442103,-0.04394426905777355,-0.025541751864834723,0.03427978695768446,0.04243832994170813,-0.002626696873751947,-0.03967331415266288,-0.015369143026224963,0.00701282975434331,-0.005344332864345776,0.029405708745521803,-0.013717445939518541,-0.040216293195069974,-0.006133508945247009,-0.017894335118772548,-0.0027378197632585356,-0.01184599289859109,0.040855300985895314,0.0008227345795323337,0.026609695957375484,0.028564072478312597,-0.036319200889437624,-0.014378309120753323,0.019147399540734703,0.03459522347348159,0.03454950224605102,0.008861778286247526,-0.004689198347838735,0.003060206643621877,0.0045790623134616334,-0.015966806070252512,0.024499553139962944,0.0295566514634343,0.02707926292371677,0.03363547038745252,-0.021227972723237537,-0.010153794651214985,-0.04133993363241253,0.03357977476682191,0.040142290772705334,0.010203935577226729,0.044407907551350816,-0.013151960133811234,0.003004447521848801,0.0389105629182131,-0.044641571628153805,-0.021403129436002324,-0.005819776824936905,-0.001181297547339855,-0.024398497067239882,-0.011786329698435658,0.005194144444436409,0.004011847360078257,-0.015962439399038925,-0.018962468099537364,0.0021643502405959895,-0.024771071288841227,0.03627427447777208,0.0033894645995464854,-0.031033341511481575,-0.005581153086296949,-0.015079365037915205,0.0017903323201216659,-0.02937965605584772,0.016258396298294137,-0.031487723171207876,0.024549023994403986,0.04215171327572701,-0.024031760747210983,-0.03272001173703195,0.03817614520290121,-0.0035237688850241326
