-0.06138632598149088,0.09055535183389465,0.01875041780758345,0.03060803808736708,-0.020071164164045908,0.026077222926681565,-0.0650130847267441,-0.0053927690300623375,-0.03414861723568735,0.10280155784979844,0.08109872006365187,0.00724201968009194,0.08786612204812354,-0.057027498509487205,0.07428469649317518,-0.02284372082755783,0.06958190780045986,0.06779461875453946,-0.019208028254950126,-0.09606071101723924,0.020617450757000905,0.06039639888328085,-0.10829276008763868,0.08367029319355783,-0.02612433230920148,0.10634000203276552,-0.10277831787262094,0.027623485621245253,0.10751459552761675,-0.004048709181308096,-0.07248152525896459,-0.007559416270553964,-0.02552535560896209,0.019008167131689416,0.04785592801938679,-0.1162872249149872,-0.07896989583230474,0.10871798754604521,-0.0738968457969702,-0.07286200358088131,0.006614100423645077,0.06174346668269535,0.09941671393475854,-0.0879455182355849,-0.02279507120172239,-0.018087009838026927,0.02844389660970442,0.10492474281813194,-0.11520023894260707,0.12520420152513992
