0.03126231275010089,0.022245137932140568,-0.03264052750115206,0.002096194260714926,0.03622599683504072,-0.027815983800875466,5.376150312096095e-05,-0.007702241838808726,0.04403574365588956,0.015278075533636871,0.026225580610963008,0.031317629706297576,0.03880253819470559,-0.03274825406244171,0.042654617154503784,-0.014209850056362284,-0.023522821529640487,0.014055544650618822,0.035457043661301854,0.03482699666047278,-0.04447637597197621,0.042657231042844294,-0.024175251003097014,0.03224751913874836,-0.03371828018720752,0.00523405423549702,0.035868834598746985,0.006682930945110633,-0.013940161412169682,0.034647860973269586,0.037201834252282524,-0.025228110294546545,0.017070175341589156,0.02051633246913655,-0.033653773704599564,-0.014958546876883892,-0.042441068354613455,-0.0009004642254226419,0.025061951463666483,0.03231918072416909,-0.005642947377506244,-0.021665007405621488,0.009987213637870446,0.045646739693304635,-0.04428049069240692,0.018064927514555292,-0.025687078819480857,-0.014155700170453766,0.04432850721483788,-0.020543151195684225,0.03551847554623406,0.013645175313030035,0.00532298882422582,0.0380731005554741,0.018578006864182754,0.02250289287268851,0.04676939858868476,0.03598095411085756,-0.011253834716978262,-0.016550334039825827,-0.034735394089665715,0.026150177047851587,-0.023147087504385138,0.00770860717529553,-0.0276087240549636,0.01005755118319791,-0.011787970242722512,0.03538538671734296,-0.0036228177061895118,-0.022715655040151776,-0.012438330387734849,-0.006835363008006479,-0.039916566393985,0.007231463280570054,-0.012350882707508521,-0.027235584730128277,-0.012319919833615307,-0.036726902906674304,0.021657241017007757,-0.02069690585689548,0.041769877338521263,-0.009861900102519673,-0.043399937360309615,0.03912112460341064,0.014110725543617803,-0.013279553033724306,-0.001033760383686265,0.04401840625422765,-0.022903979784409403,-0.032524311493474956,0.01852222751419811,-0.025379664561235683,-0.00032094648393381914,0.002826343700100488,0.03289784899278128,0.03460463882362897,-0.007605060064025629,0.005511732602072967,0.03228630177548838,-0.015052763334176045,0.03282267668873876,-0.0011003933936950538,-0.02026666054373689,0.04302658736347424,-0.01709028512739513,0.00740194458893052,0.038237911319683425,-0.02711067749391304,-0.022401982255400424,0.010171103297154108,-0.00391420770874238,-0.026117110354061054,0.008347351300015035,-0.012910115891410426,-4.182682761156942e-05,0.03325717811489557,-0.027926517657811657,-0.021073498772840312,-0.02451592532688174,-0.0430543614138342,0.009209488941924006,-0.003482995699440573,0.019007348099507902,0.045031914745310396,-0.02458100630159965,-0.028681111520434323,-0.02434835204985543,-0.042647529954792235,0.0074722615953343435,0.027364496324634772,0.02201872223283237,0.0010079157757016538,-0.025834034072294888,-0.04165452800700322,0.01565499874665178,-0.03959468355390155,0.024878595116128905,-0.026683092767127287,0.03915542343991297,0.0031806472673099845,0.01650643594178197,-0.0051353482675934245,0.009498131860514214,-0.015376178276285297,-0.010335569110232583,-0.0031447513409728553,-0.04483037564631295,-0.028254001797429908,0.020452327163103034,-0.02968169579879841,0.03396518370956181,0.04275398763120972,0.012919831912287107,0.02360779668027137,0.014535495423969398,-0.019776781009183383,-0.029548841126814673,-0.020352215048018506,-0.011107675709011782,-0.0038829366708762053,0.009818781448525018,-0.0021054556173434394,0.03560473707023767,-0.01692905715268898,0.022797436309394854,-0.0009594971365775053,-0.033478046865003254,0.029812703379279982,-0.02502257549606857,0.00839492943987261,0.037809064880517766,0.007553026817997486,0.036221835808987024,0.03301106018249258,0.00694230445455294,0.03828330468786801,0.021718584226100596,-0.028234287153086502,0.008409804123126523,-0.03452136922042482,-0.01933968688189466,-0.0060180104748476185,-0.015789505463179226,-0.03244127008419355,0.006573510418350824,-0.04795379807431878,0.03215451568315555,-0.04152171728739926,-0.004112191220546132,0.015188707277468584,0.03806031248659921,-0.002250545569816721,-0.03907693777347303,0.026612554169793662,-0.005269065282357113,0.030448829996854502,-0.030517622994843428,0.02066818544229618,-0.010948140321304384,-0.030692089442849513
-0.01936515440081835,-0.003221653183850988,0.04399814487286822,-0.02290709808079391,0.013385288189094346,-0.010627790644324793,0.015495778477537131,-0.04119288568646244,0.04330316008332193,-0.019187322335850975,0.019448397104417627,-0.006423241314622708,0.005213279000512078,0.04275514811367486,-0.010397617576528784,-0.026853273541128868,-0.03711551289656066,0.026217501329654273,0.026093859260565323,0.03089285467940197,-0.01628120190215001,-0.012826040000770717,0.0389410834865622,0.02425778307114205,0.006157905836585091,-0.04377160972070058,-0.006214131943813293,0.043529174885197024,0.0023156101576344516,-0.006098729037016901,-0.02774879725903499,-0.012403523120926851,-0.037153188896719994,-0.022592644366246657,0.01796547310882212,0.016889158148561727,0.041373639164948156,-0.02933337965054949,-0.03950580402688189,-0.001714077705138422,0.043509056057590846,0.039857051730812235,0.023053265333120927,0.0047946897828417614,-0.026087771514819624,0.017229670318059498,-0.028219365309748296,-0.029461719034873435,-0.04349504412121017,-0.03537180504703596,0.0007665534481480829,-0.0429980616869044,-0.03361812404294418,-0.03616045204868207,0.0185059083593914,0.010734875577442255,0.017167138548638612,0.04329062198423347,0.028843707509055065,0.03707153147418942,0.025475204491219438,-0.0009804466277428883,-0.031590689821021735,0.04256610953391101,0.033957373209965606,0.029908450105002017,-0.014689686157963771,0.0400742893557282,-0.024289868476739578,-0.0008924376269622489,-0.008062826717529323,0.031155077098814966,-0.025221505673345496,0.017846390634502572,0.04246613715790761,0.018806607105563956,-0.03774200898411974,-0.00040591193279723383,-0.030579960146703958,-0.038681768468099835,-0.03179914776986156,-0.022878237595427807,0.001997192464199631,0.038931334687004375,-0.02066870250719547,0.0029900709393113245,-0.033263476614434136,-0.03428826217367073,-0.04007152792035251,-0.003563455379999539,-0.02176399855872887,0.04164796315990002,0.024954011991017502,0.0029276408310083928,0.041734430645359026,0.012872551280863662,0.006272534087531631,-0.030856257115590084,0.008424910761264962,0.013640405893644257,-0.027241730233353707,0.0380126009563652,0.007775481885670613,-0.009141666578783946,0.01195986365691888,-0.019452735490842282,-0.011230747552903916,-0.043537703186214714,-0.00985266703840429,0.00254784863271702,0.03157961995137537,0.013622780619450523,-0.013650138269970392,-0.036777026867316896,0.013950489105885172,-0.03737136956613419,0.0071420546760576215,-0.03616547171715966,-0.03540442510998014,-0.03568324731334247,-0.03605008984942016,-0.010061255885284897,0.03266638323392996,-0.043880510195651756,-0.032272764584812735,-0.03779137437287751,0.033673179161705,0.04274595594987823,-0.02025607630065582,0.03703794798878021,-0.006999903962892052,0.024068750965680806,0.03682489868972121,0.03356897652615659,-0.04082277202674375,0.037587667486421554,-0.0415948676068761,0.026092024979924737,-0.016660877313674122,0.019507116142220997,-0.021443066073474713,-0.005193228711526542,0.02783547817778039,-0.022848870203402708,-0.01605712613597109,0.01729656471278415,0.020100010384873503,-0.03815777612390935,-0.009780711305184663,-0.025141560690286415,0.02047140342764273,-0.00181477017750023,0.03955413405687055,0.014991674562276442,-0.027655908942172357,0.00040875923949608087,0.017649295034200416,-0.023020195141263,0.0067528208128839464,-0.013384580918883872,-0.04468788511231142,0.033861131374707344,-0.017997107238976906,0.014258466468893428,-0.04409641147693825,-0.023244313831204254,0.02125943794547312,0.02103197582902441,0.021266970160069655,-0.03829879395613172,-0.015741142672193547,0.013648668578277623,-0.032274723481763835,-0.028470613819201285,-0.030743542025550692,-0.03559496866646833,-0.017168279687363352,-0.000979010431556269,0.03394708464138981,0.04408389608910752,0.023486548944812197,0.04443319598424559,-0.04437080894022791,0.009402739733947264,0.04180678417191846,-0.007663404741570539,0.029510113871698437,0.004512388659397848,-0.04134380648799955,0.0259590940801356,0.004071557649789922,0.02913108894834273,-0.009646905900603558,-0.022807551745721556,0.04144329030825721,-0.02617833381929239,-0.00946998268809592,0.0007486012135098433,0.0210892550464329,0.0059998830892074514
-0.0073145346204525515,0.017405745163501966,-0.035618839006954596,-0.003640358691883224,-0.03715079071855885,0.015913900728900986,0.013354322111105486,-0.035752535256468446,-0.002887343457037125,-0.03158742280091403,-0.0029347720735310445,0.019900455481958738,0.014119852245161935,-0.03926195732093202,0.024746631077125086,0.03488843684580764,-0.023277547589808704,-0.017372540286285855,0.032868971160370936,0.03333451442890483,0.039881825799304486,-0.025351338734309642,-0.009593887486375158,0.047289174765981226,0.01759125042635924,0.002427500296862614,1.8892759054341688e-06,-0.0036001113280409074,0.016280560565446515,-0.030712674843286457,0.026354123959840648,0.02477752086429196,-0.01350207206854181,-0.02860140325877374,-0.02914688508676114,-0.028916695050667286,0.031360564300641776,0.012781615686412649,-0.018572079672436514,0.012883347924404414,-0.022068175319596227,-0.026992428527852844,-0.04295836724286004,-0.016544031223803442,-0.030770730310745925,0.015637594470484125,0.0027029247237357937,0.001431895949098046,0.024335851229768505,-0.015029602020104173,0.031200344520533833,-0.0032030001665176167,-0.031193868174413723,0.013475893002285343,0.022768990757781986,0.036296364748399486,0.05580131018165312,-0.03079319187765504,-0.005460989212775484,0.02974067626439344,-0.029081941210281577,0.039537421334667484,-0.029028681185141455,0.03906539599868972,-0.021124110807033174,0.011259883560167081,-0.008273617777301878,-0.0235155359592915,-0.018098950909691793,0.004002864660127106,0.00694254035043798,-0.030123138622472633,-0.04367167665896901,-0.0203448983966363,-0.019203034673779498,0.007040320972536854,0.03756994313031159,-0.020406451339815397,-0.001068954881259701,0.00290581337689432,0.01599993052908297,0.03553476789365843,-0.00554144804265449,0.02813187020976018,0.005313069655028494,0.015242187770003355,-0.03933281583508701,-0.0021932491885886247,0.006738585611149949,-0.017483540577582994,-0.03005314085726099,-0.03980713587932772,0.012471649268065127,-0.011884290969229692,-0.0240893768176728,0.029008171989994114,-0.03477235402317585,0.015769021837801114,-0.006210703956956414,-0.022532582217730492,0.01779212138706806,-0.013434984268222048,0.027771670736258806,0.033294478701192454,0.044409045291925256,0.008612624919170805,-0.03390231015661024,0.01201895395871971,-0.006614450354157336,0.023051506570054947,0.010787889583069086,-0.027682531702420823,0.036493667293618845,0.008889854689493198,-0.007813777399149029,-0.03339346285166957,0.006125057490842335,0.0019683737567006638,0.019594037745564296,0.008205412913456923,-0.01526126443988748,-0.015695378523611154,-0.037114048590544055,-0.016003446973014774,-0.042088433723690914,-0.03649907604551488,0.02161363592463414,0.029066578556025065,-0.010224541373594116,0.02461688154577178,0.02906516868658503,0.03268806101867664,-0.022497618434583824,0.03561236624221313,-0.0192540951834159,0.02832772113642982,0.007170912460654023,0.012557371476803053,0.022019767814529217,0.005952148432338733,0.029323709134287463,0.025657602910477292,-0.00671950742097817,0.005015899331790908,0.030806066089239754,-0.00874630987363366,-0.018590412805975967,0.020354522182504817,0.0350092594051114,-0.001300721142828709,0.005100478947200984,-0.0018656540899597365,0.03666507356038717,0.016681679205732283,0.011753255452764315,0.00918477531081824,0.006279620512315051,-0.02464591314230103,-0.022352869984990666,-0.02904245778717774,-0.012753918909281582,-0.009226571447009821,0.02977303038870771,-0.009770574029620744,-0.02537640550881962,0.001479766952969497,-0.0029316857168530004,0.014136890997425286,-0.02921946709140618,-0.018487028323852128,-0.04849245215322792,-0.016131590745372792,0.02449305580063508,-0.02484089449006359,-0.027097900759599374,0.005363520726137279,-0.029579114658080535,0.03305878264421273,-0.021702703012973914,0.010485758751484019,-0.03628795147054448,-0.018007240693784163,-0.0005662013846232661,-0.01761302312182293,0.04449092200174671,-0.023043807190521542,-0.004565893777660162,-0.03415862928888977,0.009375193259756075,0.02759467984252318,-0.03953022140113333,-0.03816658613038928,0.03272219730685858,-0.007525229896767215,-0.01805985072148068,0.017733351799691346,0.011491095075263452,0.03351860388288911,0.00015114698069156572,-0.03289374138114782
0.014664503898338635,-0.01716926284216234,0.034539430346552526,0.027040139819431132,0.034125622993542847,-0.013043141165323097,-0.008881778455086274,0.03626890981167246,-0.001623483491096804,-0.012234845324809944,0.018562060081636418,0.022973124541435082,-0.015560874634025085,-0.009068255763926662,-0.029353951636438197,-0.02587782741377352,0.02557778087079058,0.008257768538324634,-0.015911073392680587,0.019638912742558516,-0.027055507818304958,0.04311675775707128,-0.03184738979600703,0.029034706313445784,-0.038890741319319765,-0.012179884894030157,-0.014011846387073482,-0.019233978214235604,0.018780590814640598,0.012796260923512139,-0.0021600113970200938,0.006504688081448835,0.03426045602091981,0.02502558896278414,-0.0035909230833130468,-0.02010100975727653,-0.0407898436345435,0.00031651192382230187,-0.0019174219038283896,0.03080577988933817,-0.04335249244720488,0.0027997151190967268,-0.014321002819152578,0.03931541386895355,-0.03303570404217816,-0.0011431457769988315,-0.036092087843280725,0.03135190956130383,-0.018000039352133613,0.04174741463314418,-0.03427812488365393,-0.033776490128136966,-0.015686437089371383,-0.032103738129008866,0.030974006850865064,0.015820947159942464,0.02841533788495957,0.006186956731086268,-0.0091529385145033,-0.04435546581332826,-0.019412768646255026,-0.012703225696414001,0.04075336261976004,-0.03387324542585676,-0.010036390091662038,0.023559680521923372,0.02059399378189592,0.005874208628564935,-0.018317097932733017,0.008880267855215743,-0.012554459551770127,0.025335195540002346,-0.003696196055979803,-0.007636605559773843,0.008826304716010328,-0.026817760496962398,0.03530968596385919,0.03833995937792294,-0.025982998077618884,-0.0061628405896835894,0.022072679823568843,0.03904800220805333,-0.025163841167026215,0.008300620174284241,0.0007314913101267098,0.018986111100727336,-0.026350972028144223,-0.024722771233437055,-0.009241685473083426,0.03641977390748961,-0.022702581404904946,-0.04295105145568019,-0.0005873356718345546,0.034124792728209445,0.02905864782916103,-0.026954142448076358,-0.010973806562345638,-0.00835370908291276,0.0010821634077827005,0.04343906003398707,-0.010329076135140551,0.0208480897086638,0.04059444839566528,-0.002023518451087121,-0.003243997207093084,0.007437520205558414,0.03189677255407348,0.019262781474437475,-0.03203014853290491,-0.028600613442852366,0.0013913155771162686,-0.002996789345584429,-0.0037380400635436267,0.0019725960451409535,0.018525152930088447,0.02911706463241128,0.034074527715087975,-0.0015363962967974987,0.001733521717866296,-0.013485105245914085,-0.040846372682085325,0.009750109999280498,-0.00544315463095902,-0.033264748864182785,-0.04368556235031372,0.019709565041193762,0.011468823050010644,-0.04005609895496479,0.02086340263488267,0.013118511045279023,0.007346451501382842,0.005604169769281443,-0.04397125038002042,-0.025261573858231787,-0.03867245250814388,-0.0011785763772603347,-0.022435322592826625,0.011592345589371549,0.018534424479101926,-0.0025011560268260666,-0.03693462123383849,0.03667757804536207,0.036166162526577735,0.03578308403685974,0.02904219063126249,-0.01284260452820328,0.016827006650318416,0.02103671528512987,-0.037623963514149816,-0.04147337444424721,-0.022460660855194513,0.018458793768217636,-0.023982669931672914,0.0391052241858068,-0.01831440998086014,-0.001003366846565143,0.01292468088595631,0.04189264317372111,0.011613549363814937,0.040204895390143304,0.021869060006357542,-0.03389403347345945,-0.023747091927916745,0.012104099530977075,0.005811011634420084,0.017228385998033904,0.0428547811093059,-0.03391930582809811,-0.031603729343544024,0.01773029401283386,0.025822299169946973,0.03636015155618034,0.0189205015369548,-0.026458426989517888,-0.03351667054908687,0.023639980845102958,-0.03892159940902308,0.04111637800865935,0.03890154730449947,0.021378659799212114,-0.012388726762834,0.0397594599109786,0.010669986498605587,-0.012867764287518332,0.03072811061709533,-0.0043092467744302795,0.013133778100393963,-0.013210300132735588,-0.00019444003247809372,-0.023435478562921525,-0.03902774117112197,0.00038723374403806105,-0.00194917244693852,0.010543842027223124,-0.012832694714311178,0.024717015750046846,-0.01547789828070886,-0.02701999842382388,0.03189890054887697,-0.008150890911115032
0.03487979551951303,0.02853724603046958,0.03487978218285424,-0.041345767407966666,-0.041383917613892145,0.016836620197109485,0.04075008882428046,0.014575565845669429,0.03556406460535553,0.007586218346592566,0.03924652042294593,0.04470957807495617,-0.019631990360701266,-0.0008467398639454629,0.020194735417993166,-0.02750314833162544,-0.04070131304050638,-0.010300856129522286,-0.03789863549161624,0.019495595756375154,0.04380121869502627,0.016926229647709373,-0.030545597901046537,-0.021290990930900883,-0.030804223541492343,0.040111832636870536,-0.004341038953203098,0.03730789891025447,-0.029985499828909107,0.02965727573697042,-0.0053372626774135165,-0.004421180478338414,-0.03171630903701855,0.03733011748072528,0.03792361623232062,0.02402501643474838,-0.03602176383863999,0.00793001569050164,0.019669598584199595,0.023477143200784097,-0.023150277227314005,-0.0233418818945982,-0.006304888577262649,-0.010464598020321465,0.031208764795031797,0.024894062871716686,0.028572476150376315,-0.031850828472954416,-0.033582352045528306,0.043139892231093595,0.02701196764692252,-0.018163032660385565,0.011160539462283868,0.016692218061613896,-0.01117723506128198,0.029178039893385417,0.0368636400582792,-0.026133371902695317,-0.005194212416516554,0.002702258659291315,-0.013982873087417816,0.0440280247815344,-0.022255699328429437,0.03305374076124155,0.03964028177697613,-0.01661130126584003,0.031720517219776735,0.021552498215105652,0.03989029260128205,0.0400803244394281,0.009395024183654614,-0.017367027240815694,-0.01293414553124219,-0.020904705145382466,-0.013457398202759513,-0.01475036126464721,-0.03073535303225529,0.011716195838877758,-0.02408521270340238,0.014178046757366211,0.00400336010752584,0.0192125531222739,-0.026499223289307823,-0.023263092227625713,-0.009416002909278492,-0.04174291647997659,0.033164136940331,-0.005501524293678346,0.011422653946039064,0.0360078169063426,0.014713940524940294,-0.028365846334047942,-0.003462531503061188,0.006618639959845116,-0.018470190195403326,0.01186692001101338,0.044271922084038386,-0.03960640042700876,0.01797060653483428,0.026680903269415183,0.016408178586817854,0.011505165642704665,-0.011017971675688257,-0.04211337481656231,-0.041120309932659575,0.012070237182768846,0.02642424803110139,-0.028243303125922978,0.0054337588725378305,-0.015409114842967173,0.020769110580705095,0.0013095050174290399,-0.014798660161429306,0.024053959174057428,-0.028211316581799994,0.03072172044239225,-0.022094208220591875,-0.018712827857604072,-0.02764368968500992,0.01482795661350498,-0.031840466183176486,0.04037442707676702,-0.03178872404076169,-0.037726784808287624,0.03127184074538642,-0.035762830644091664,0.0035109104682307588,-0.011107252846538254,-0.009579678866525727,-0.042320942399241765,-0.0435279173325118,0.004922238752207049,-0.04226176024169105,0.03862783228236571,0.04307134838816152,-0.004288382447729756,0.03920304833484969,-0.00803963698792242,0.021248841215071722,0.030772072286041847,-0.03582173440465295,0.02174196943660183,-0.03800286101446309,-0.034255900718044595,0.02604719157553468,0.006496238286959097,-0.012044773665956215,0.0029312219136108167,0.02434839756044873,0.005886822636294385,-0.034796225026816424,-0.041932578744994155,0.023430609669612544,0.014653924194956397,-0.00519348945933374,0.04328954070207685,0.032281633478624124,0.03516198069455218,0.006679273509964959,-0.008100355750975285,0.016854182979437714,-0.02266493495610579,-0.010555777100745616,0.03088093657021427,-0.005983098994196967,-0.04323574333729457,0.04284918770407247,-0.006396353214948532,0.030883657617019535,0.009397612164380523,0.003175405342421965,0.016235535136117057,0.010283578706941424,-0.023478932194846654,0.00930638086127114,0.031036708420477017,0.0418120879552878,0.012390599360077588,0.03924215978237904,0.015722635311343276,-0.03507582238566688,-0.03882187645719118,-0.03947000334429822,0.030766073863709352,-0.028562254111495246,-0.02599840799829236,0.010388340047910928,-0.03860369297607888,0.005845865001739739,0.0056001316238113025,0.022233479824077577,-0.0038029581022462275,-0.015704007816294982,0.011014905129671314,0.037539236649683234,0.004368957871858203,-0.013119192433988146,0.04292989069619454,0.019317281007888563,-0.03811054025916559
-0.0015863884386912142,0.027321062322164993,0.037138277783412756,-0.0027242973192201907,-0.01107446633227238,-0.028947835136581293,0.007732795344558446,0.017428288587973413,-0.006741936238148279,0.021160770711859313,0.0006109933290807459,0.04225715410928915,0.03581487816719213,-0.005037382146350546,-0.027962933353414727,0.010029714907625565,0.01646293127857662,-0.05263874317622638,0.03836708072460628,-0.037148266436630606,-0.018246661865194223,-0.01201207908354616,0.0351890298952473,-0.017640359063249296,-0.023907421906002885,-0.0018158785480469394,-0.018040808349609305,-0.008922541701727288,-0.02853678605894234,-0.019914341089800926,0.0036794326976179173,-0.014159130023378031,-0.025003879954824174,0.006108112322327871,-0.02995973501857514,-0.0317224838616308,0.013621093579128449,0.006336727034284972,0.015184152384600828,-0.045539876416197625,-0.008347920295727985,-0.03275434361520156,-0.03627727780000637,0.00806939387518083,0.005876686914996723,0.01831415516708662,-0.020631104902637212,-0.026378859227958813,-0.005754136128466583,-0.04023348003842569,-0.024387266951331046,-0.021455564972013837,-0.04140122852041376,-0.006795267971376665,-0.031241658740986653,0.030964562362699514,0.012383610285441217,-0.011289129215930385,-0.04568056453539974,-0.010911678347238538,0.03900485244669096,-0.014460799659800534,-0.04189103574467394,0.03631545642090504,-0.03011070861566701,-0.013845495311927778,-0.044740745638213605,-0.022888443260369706,0.02203406018847945,-0.007969772205192826,-0.009641250915905387,0.0013107830194474463,-0.002666064564888812,-0.008541235699744479,0.014415477808595577,-0.0015834876303012764,0.04385438393893183,-1.1779902767662746e-05,-0.02119310125302935,0.04061199587950987,-0.03570076538025383,-0.032477927387933536,0.011210160211312397,0.023800179121181857,-0.039315085336490974,-0.032228818569965484,-0.015885549165770188,0.043528759108848715,0.008738139631053025,-0.013842000188989834,-0.032624021694393525,-0.030547956101107533,-0.01745614834858155,-0.02539451502027716,0.025615315423312766,0.031267694137877874,0.0006354546631139255,0.022472465396217372,-0.003171778267843391,-0.03832877796774305,0.03273649904026267,0.016748808297420755,0.010963239436421962,0.02445075653044838,0.037619907985520826,0.019176379216012656,-0.025779537689561167,0.018995431855931767,0.025753281455928888,0.033754593410988284,0.0045854893908782775,-0.03265116063061574,0.031301459676706875,0.0004998100706446395,0.0073756082943918074,0.02417051868043716,0.0021322059653715864,-0.02272324587522821,0.030502417390830792,-0.031581174804994276,0.010285051976953535,0.004688478013471248,0.03236090531303056,-0.016472884445982158,0.03363501145857021,0.006381246669715394,0.009668462131668436,0.017700099265247755,-0.016099017160656388,-0.00047549526178692876,-0.031448934617262315,-0.02650918877370946,0.004571864080595527,-0.042540212134087714,0.03171731948065005,0.03722692375921947,-0.023126978366426926,0.008369375104277467,-0.043411811125831964,-0.037914301907357395,0.014262041192843949,0.04714097068600117,-0.006381288531736522,0.01711458862687175,0.030995423924645653,-0.012187285878605958,-0.035767504378900264,0.04045110193679114,0.0020296191958260722,-0.044889998134936056,0.022640465467961553,-0.03861328250963478,-0.036603865178240824,0.035365907164922605,-0.02701303953971092,-0.011370417693693208,-0.03800999200864952,-0.030019196613402785,-0.002109020609659925,0.03327784292748703,-0.0037099738518518023,-0.03957575975672706,0.020617103503993005,-0.011361875562327728,-0.04059123192582243,-0.011667763287019399,0.025070260098818086,0.023756284730628584,-0.0049132348240816595,-0.025639306112675942,-0.03633376418694823,0.03852375349444779,0.03460213073014011,-0.02730746430717517,0.019115993576504633,-0.021343451905221168,-0.028249862862612267,0.037053125191486305,0.009501627295171155,-0.002722675757217602,0.03737499533394345,-0.018439645318366896,0.033002183632237996,0.031246276387632756,-0.01634781162144082,0.029005606954294508,0.014527970213086194,0.026556055261374407,0.02409362866113513,0.015253493372714087,0.03206258079412909,0.026540246411362677,-0.030572816569415028,0.05082457335886269,0.029922944162801605,-0.0361378668595224,0.0340079300008986,-0.028512861929184615,0.006416113734899235,-0.03465923899036249
0.029416997663337024,0.031086194126974286,0.04393358306658071,-0.03006207114581946,0.020687194968847876,-0.01406554017812099,0.0231592432050242,0.00890990312209952,0.018733228059224553,-0.03450556634855764,-0.020490729193128252,-0.035534115497075004,-0.024374640874755372,0.01368110107110159,-0.02316632414397898,0.022641581536288976,0.0383587562212004,-0.022492357371027092,0.02951622757462908,0.007870901135973121,-0.03611945002734347,0.0335083495668444,-0.02024760343137609,-0.04231423824686627,-0.012521507556733775,0.04151531468239099,0.040575542137045624,-0.005962644522717828,-0.02878538142762274,0.006731043564362639,-0.027204070463442587,-0.025234903951342823,-0.03530573747005502,0.016255124852398713,0.013333663094407724,-0.04101148740786482,-0.012287591184573237,0.009461061608618433,-0.005275287580546356,0.000346254526480754,-0.013245117289500707,0.0012766674691730257,0.029538233023687573,0.0356993949434291,-0.028363349721590717,0.03305274640551789,0.00526701392100566,-0.022286261504432286,-0.030954083350322213,0.038306582188073764,0.023910551531372577,-0.03198301331900154,0.037871486459206676,0.013128901279935748,0.03314823574140161,-0.03676914154766037,-0.04942008576783441,0.020156352732983523,-0.03830730004201059,-0.006162908656783393,0.0006966217032124085,-0.037851273892697906,-0.02852087697993252,-0.005808584745613717,0.03887994631513359,-0.01993514774746092,-0.004992128347299368,-0.018023321273919757,0.017950612938202166,0.022698810796065824,-0.008865477911030177,0.005862005777765512,-0.04375102995972434,0.0436838535037788,-0.01973925284762952,-0.03437504628609694,-0.040745240760773176,-0.04096130341658801,0.00476191380589374,0.03983228504970139,-0.031937638951236066,0.00016240899493936983,-0.0011711808524934243,-0.02585456456742146,0.022006690257228862,-0.0016350752831174173,0.0425784633905874,0.01213144899514104,0.029356145403372988,-0.03786432879772274,0.038613134748088696,-0.003319664286244526,-0.04421002156207012,0.011697588210255868,0.020889744951563777,-0.0281502757904742,0.007943097534850736,0.044586935094230555,0.0034577071143200213,0.043500166216812526,-0.0480395531576362,0.0361830852433492,-0.009874968051339719,0.028186010464248727,0.013794234659454117,-0.04516234319627028,0.037670380107950645,-0.0065165523105195945,0.017992764355571365,-0.009859531878221965,-0.042960267528568526,-0.00010421907654008086,0.031140975157419898,0.04094087589315739,0.04397821262877056,0.013828667638680736,0.029836106226794633,0.019372925994227755,0.042042691423292616,0.03143397718822318,0.018928003576871265,0.023440488679353326,0.040205236246587624,-0.028647002000354038,-0.04288620375688752,0.039795007208536966,0.05265305415311429,-0.035021786612186905,0.015411573986557296,0.03652808420412454,0.014278938450582358,-0.0064692128358591755,-0.015167468977024376,0.0020307303635807785,-0.03673119574801343,-0.03920812183913423,-0.024924965347892746,-0.03964122282527467,-0.003348323563670756,0.026280610063030636,-0.03574979556926728,-0.03849405609855107,0.04583209309436184,-0.025819932509072132,-0.02060286478085264,-0.03948969140007442,0.05772033429552879,-0.0222178847471405,0.04162465712002011,0.02737516268760633,0.020519562224474402,0.00010862204777044586,-0.011863323870293478,0.004366777410509282,0.022657974581096335,0.048427494899268654,-0.035254042566525944,-0.014851794131271124,0.01360267070449381,0.006262684410329775,-0.04180021474400904,-0.02134111655407698,0.029596245452324154,0.011302236248626767,0.035810255891113,-0.01221323333214735,0.04303878003892153,-0.034525648380911406,0.005534693184896085,0.043195651749786304,0.04041370128804455,-0.011531119724885464,-0.04177460347252141,0.0007972247690214926,-0.026331404683614598,0.014446332989277,-0.01381319584863724,0.03015470438405209,-0.026576638488720637,-0.030954958143174234,-0.04626036502347521,-0.02689203997237585,-0.005195084417197321,-0.03749737126909932,-0.04278887110814802,-0.02708419163423564,0.02145562174989499,0.0028909024540215893,0.011250690375353742,3.647907493448916e-05,0.032635957492745,-0.037483853242232926,-0.011691380379424951,0.01783787338539955,-0.021901951162146886,-0.016933386375330945,-0.01846438186017041,-0.005979982053255657,0.036572437702307975,-0.049220453039625515
-0.03892944952734714,-0.03214433565959015,-0.012716659488776634,0.021463824627116417,0.017507002238612106,0.014851832447847962,-0.01341290726315697,-0.03072012965159379,-0.01724608460685386,-0.014647188733820947,0.03745554511472863,0.028478230853260327,0.022900546740478013,0.006546098864262474,-0.039281204180204164,-0.03351629840963237,0.011313799564849958,0.008467538270695742,-0.03251158070494061,0.013851746451619719,-0.031222999423631347,0.02765228737193709,0.029482429959090416,0.03616657786433052,-0.0035073196343247265,-0.042875400921141664,-0.03190233497393398,0.03230936893864605,-0.01111941287780575,-0.02810965508905212,0.003793875509716596,0.009166187811578443,0.014262417993799245,0.03673761935278307,-0.003402603193914008,-0.03137654775328004,0.0411267194773476,-0.01462609515510518,0.011780091270626635,0.01625249466116672,0.025427237706947776,0.002418205496067131,-0.034892233039949254,-0.01907853842384275,-0.023813928551759126,-0.03068924501276944,0.003350707023924482,0.014284321532233517,0.030945919780496694,-0.04364863363320826,0.015897800760690965,0.04041981806091908,0.0070691426563243565,-0.03780042835701443,0.04264009228125496,0.01288569377818004,0.03553812765312731,-2.050705665299242e-05,0.007948437829122182,0.022357692907675038,0.022644781465324566,-0.03426203971084733,0.03543014813961816,-0.013834280707922838,-0.005753752600364717,-0.014764455493144446,0.03791593218609089,0.008125975028129706,0.04053799321107602,0.011548649399184756,-0.009434127791216008,0.030409934614300586,-0.03989039182119593,-0.004671681038786853,0.01555263355613712,0.019139008914013246,-0.037677653610693265,0.0321243646481881,-0.027627250131762277,0.04205208080514444,0.03517103774360389,-0.031561384191968814,-0.0333123054642469,0.011587534495449872,0.025090236885548803,0.03021906610828069,-0.017266082449608207,-0.044048585500589446,0.009120169086480211,-0.009052066187172421,-0.021606274829969817,-0.027250833747194073,0.014119377526877704,-0.00594509833250164,0.014873297517651719,-0.038180532830137684,0.014872515230089693,0.028132397241733723,0.020309928632963027,0.026436869352572716,0.033182644628273326,-0.014805207466601036,-0.019145364312535964,-0.03941795104440555,0.04249411934597503,0.00794662577085943,-0.03815006967451194,-0.03926048508861049,0.04352343268332675,-0.029225517161491802,0.017758679365071826,-0.039123919592873944,-0.005557631060549821,0.025341502367621345,0.010029623490227697,0.03715867548293759,-0.03295787814499326,-0.0035035026796144935,0.030196648029960544,0.003521148431280839,-0.02266440426548232,-0.038915621659663106,-0.015050856826623042,-0.03990337516403496,0.018051091445920292,-0.037810519991769646,-0.01836919208198176,0.003616208986393563,0.0314173678909358,-0.0036599574548647805,-0.004892320022351647,-0.027296155352670614,-0.03906794603782108,0.014859029392166385,0.004752192734037437,-0.015875527250503153,0.0003722777619763126,-0.016149072961768457,-0.04138818363775177,0.031002519505295596,-0.010880800587254665,-0.02950840263112806,0.009795857679411945,0.01334982376815743,0.041494120926725046,-0.018357434425921255,-0.03238581628589939,0.04222073118983486,-0.042879481165385744,-0.01683514912399258,-0.017275059890772423,0.007842767939297337,0.04339649400188294,-0.028712983651769594,0.024080342682691106,-0.02358482508670904,0.019518514075392294,-0.018825624954240696,0.0030876944041851226,-0.01961183598154479,0.03159778013579929,-9.140449606553219e-05,0.03424673390785847,0.02645245215867418,-0.0018131317320128726,0.03267095417302643,0.018078946921432082,0.020240147446763633,-0.02776747554307734,0.008777261747195779,0.022195094663916566,-0.025274268854763304,0.019815188339045435,0.041900311556483494,-0.0409353569501121,0.002332952657680734,-0.03723274951101201,0.028834728908786737,0.03378481439245389,-0.021410299037331788,-0.02993912512644438,0.01551050438470375,-0.02153938572540922,0.04403717284923839,-0.03777687906698628,0.02505845816874352,0.027158882223081583,-0.0031743104335259995,-0.03794523626275094,-0.010975396610862307,0.012263433609049905,0.018361351514332207,0.014905883931724541,-0.0024343875357642226,-0.0013977602592254862,0.04423976379890187,-0.00479885970279878,-0.0018428202848653323,-0.038880998546777325,0.016549000847866795
0.040161108105139294,0.016457874517855436,0.013477581001495596,-0.033344097038527955,0.014480307364225621,0.014790107321482681,0.03259981829718886,-0.04181303432325529,-0.05012218654599448,-0.026614988212888838,-0.029459842758364947,-0.010435692736011097,-0.018872447075864066,0.04044370241298483,-0.02842959333917221,0.008744869422999232,-0.014294373894003428,-0.022788837287903894,0.035376775037666806,-0.02117630604790117,-0.0393837339461505,0.00811337564827462,-0.02716376654291219,-0.04117195382912285,-0.013143288002702931,0.013816056132148887,0.031830949860399534,-0.022252716153421802,0.018503129219535307,-0.021800015110727024,0.0400179751456219,0.03293343835356697,0.004646653914047724,-0.024665817159642573,-0.0033522043850600022,-0.020469103009888228,-0.036724860965626,0.030594958666950545,-0.008380181916752528,0.01689914804798647,-0.025600601047270823,0.04607870609055265,-0.042947461904243714,-0.02744577485083176,0.04041256554093494,-0.024865103566407493,0.03407124097496102,-0.042006415979764976,0.036084166016829164,-0.03824778326800439,0.011391496967081034,-0.021437185777310432,-0.03950723728607621,0.04710149632291183,-0.013708659891459179,0.022317082213724252,-0.048894063973454506,0.03006526278643074,0.002998544937002034,-0.04185487088165427,0.03444701626943679,0.040822022925373534,0.005831502417673503,-0.0021557973017624146,0.01907918331815627,-0.020773712201824127,0.01269974867152281,0.02352501349320633,-0.0038460245987294223,0.01478181622286833,-0.020057993814207854,0.030262118558784877,-0.028793483897761287,-0.04398972013087857,0.007670251119022442,0.012361818199980227,0.014955077231914679,0.00654806193967908,0.014425977576431596,-0.03963973880482735,0.05020279048443935,0.02379382664575002,0.04116692814314529,0.04111527133137162,0.032085537445453394,-0.0049041741106691855,0.032023554108500725,-0.030565090931396557,0.022108725725948547,-0.031414161002959365,0.015173536116278665,0.017415591612487246,-0.00504128579776949,0.022775454419610625,-0.030654725920564434,0.03567058336092134,-0.010136213644170528,-0.020924812314373042,-0.013120625951409658,0.028421398743346708,-0.03232295347685259,-0.012941696239136071,0.0323583747138124,-0.023612509614732446,-0.032251716871296514,-0.05407223059483131,-0.02327354510260234,0.03998668430449298,-0.006927409733016407,0.006797670836899147,-0.011263798166905266,0.001225745929599271,0.008023919079355507,-0.028595118174383594,0.021585579589693055,-0.03309616564805418,-0.018479505926219067,0.008045005283841231,0.03914777097301559,-0.01954821778217489,0.04243357090834086,-0.0285333824284289,0.01777104917314066,0.02046669730842945,0.010250593688456704,-0.016752967133727533,-0.016365751282626146,0.03767326474613777,0.04229123000327343,0.038931379384659605,-0.029144112122990604,-0.03538307976732134,0.04123347264557947,0.010509176364004773,-0.032389085083991916,-0.022561850399984644,-0.041340099258554794,0.008112601990784014,-0.007357855041000656,-0.03536155367421214,-0.020021566306983474,0.007962786494894913,0.013578013388387832,0.013620810965042945,-0.019493011874528128,-0.03322198826027065,-0.010385701144181326,0.027817828824480407,0.03700000523928588,0.012471749573829401,0.003702075784074267,-0.045384289004487176,-0.004362666148353088,-0.026426908755860214,0.031437591713294084,0.012319523090211601,-0.030376708919801407,0.007482657236036937,0.002454333182235501,0.029303512471399347,-0.002570519563151556,-0.0032248212611937985,0.018131355794888487,0.028668697213909845,0.013271049813025732,0.04087053391241788,-0.012674852041379154,-0.034359981576071695,0.029884387963883645,-0.03278092316036686,0.028941289157342606,-0.04098113866182058,-0.043724141240155265,-0.05099847876071303,-0.023239294255923835,0.028275396162517077,0.013422912559498297,-0.023532964660912568,-0.01620849222744289,-0.03898543971927095,0.015488440446002774,-0.019241246726119623,0.034585074522670754,0.03178603966092322,0.0019664506491818,0.0027576413529862604,-0.020121890887286043,0.0055041833989155145,-0.015660556456312258,0.03159516366818304,0.010789341845735873,-0.021357637550756665,0.035561762398408095,0.04465326374448724,0.031263676633760056,-0.02494432186936374,-0.01030080168271618,-0.0401243364465802,0.041235730703223304,0.03614100685759268
-0.0178874930621372,0.02569882461420976,0.020619970958646056,0.022480813030583278,0.009485875471098264,-0.02670317949161216,0.014556917115003001,-0.016771642531735353,0.04656987486001954,0.02913388065843016,0.037398160329689505,0.03355336451059925,-0.0031325357732796266,-0.03923126452289585,-0.038278801276179636,0.0019148703951358472,0.0031666425601223945,0.04868546801153997,-0.016845992116193503,-0.03606509823392129,-0.0343727520448359,-0.03530073458797409,-0.02550658034761679,0.04428728536230841,-0.006940122884173713,0.022514889422460896,0.005701874969567282,0.04694542021956491,-0.034422156773496436,0.03534830623523679,-0.023197730062558763,-0.02321788132681883,-0.013098884710365757,-0.02823628283003205,0.04340565118485302,0.027935735488400264,0.006627988738409959,0.02284549965908468,0.011425160019389792,0.02175874865169688,0.042018966595861275,0.001601993685892539,0.007199031143730569,0.04443647140014264,0.028666691836368365,-0.017667793757713168,-0.0266536131040979,0.032096829597168246,0.031244840861743207,-0.01240468318290876,0.006714620305694547,-0.025926489924294725,0.03154852706579516,-0.02784814294423448,-0.020288997634156678,0.019260319738614654,0.009717319252510355,0.008436138149939649,0.0010481283333664496,-0.03448613670066464,-0.008925841678253617,0.010633879416168952,-0.0061945939795740495,-0.010734122560233775,0.010566815535532181,0.026584254535323724,0.021376376322505653,-0.03529821782429296,-0.047640106032060994,-0.04464225884162447,-0.03516980252559507,-0.015863712392206637,0.016950427197496475,0.010734073210379357,-0.044138911271438215,0.038942694905974955,-0.020128574413938012,0.005044144140066646,-0.0360068203393649,0.02672671843596455,0.012619047559616979,0.02296033496227324,0.007174729915716151,0.01037994544229464,-0.04266081262661117,-0.042287332619089,0.02800350581000294,-0.005670214652288252,0.01701050641175319,0.023733538386913743,0.022108120568435693,0.00038061681859847613,0.009882824008761032,-0.012218256830180938,-0.002952942431051514,0.02369201767732658,-0.02882908209334296,-0.0357815662181949,0.00305205296064497,-0.023425818816162545,-0.031740297580791825,-0.015943190213349123,-0.0308435567900851,-0.04148779717250159,-0.01923017306272536,0.013040397759615636,-0.019553373858948973,0.0022073284410908905,-0.019042806923949527,0.02071379881908149,-0.03380117088674678,-0.007440181740632212,-0.03265046790531638,-0.02984000907082902,-0.03285444450879374,0.01582021192277802,0.035206572490810224,0.04887056210517012,-0.008731445287307023,0.021177838127807012,0.007101047859680326,-0.024893010143801915,-0.014830561933816294,-0.010879519326432767,0.03614736174356493,-0.009944979012795785,0.007324920179340719,0.00443262744136271,0.03151797485471744,-0.017061617900700703,-0.02005599857814114,-0.0395809776675915,0.013246030581370461,-0.014787982371430837,-0.0058386792765969045,0.021230754748191458,0.042998800826754835,-0.03806126779505244,-0.014120934369109482,-0.04759821555988124,-0.025586967557630777,-0.029137036380960785,-0.027708838413884197,0.007938430825419947,-0.01594525255798488,-0.00992813792514046,0.005957186925132285,-0.01969589681116571,0.0438139454949954,-0.004281941601182449,0.04008609237782639,0.016033487589424383,0.025732040214361894,-0.044856928425782296,-0.02595523086348512,0.017349714319628395,0.03462133713452568,-0.01658576445109696,-0.001060698889516144,0.022423759895620975,-0.010065928016887576,0.03181089592834819,0.03523633673469794,-0.0409153923476913,-0.01207953005946284,-0.029903595438641947,-0.02941057107769504,-0.0170400829267129,-0.0446283958244751,-0.012545646717473477,0.009894405634646025,-0.013987641746026364,0.011412558700923373,-0.017387636205764476,0.013178496616756883,-0.041774850508044845,-0.03920840324705167,0.024468494735658285,0.010066178284413087,-0.038871046605137995,0.009138575085065725,0.03687368761773394,0.0411409856115481,-0.04356379619863901,-0.041998558109091984,-0.024653377187297265,0.01643109768924991,-0.03719078671694814,-0.011651959816438524,-0.015723567421075117,-0.012138706297760158,-0.03007983225342701,-0.016319744477229843,0.005497139758684384,-0.04341493138409291,-0.020004920084481754,0.0055365385288813065,0.02598328388494055,0.0353083526933987,-0.0186827420446892
0.01985584528782288,0.01453996634769426,-0.03986984678383963,0.0009701906111804484,-0.02006874374899502,0.01304208059082851,-0.03189083546384095,-0.04365207349875483,-0.0220738120647503,-0.02111944186908943,0.026539570140993472,-0.01765275725572497,0.03306227521260426,-0.03015307035858393,-0.014640710950276416,0.030218147115704076,0.018456418520227322,0.027906609688861696,-0.025600769322248685,0.0049698984555148346,-0.04280751179024449,0.02581021719869086,-0.038185005452113334,0.0038618995748452636,-0.03222390342988802,-0.04812025926642605,-0.03273167635018864,0.02821316859820562,-0.032527585426116765,0.011547953840586794,-0.019314531247578915,-0.007084881064899955,0.027718027771514754,-0.023047256002425503,0.0024973066090042345,0.012733871840227642,-0.037687769024573194,-0.022620371198336164,0.0012441358501879714,-0.02056080036702926,0.03827676447107417,0.04235515347057493,-0.04001918417607802,-0.03664229625190718,0.03875113461406598,0.017236216561106577,-0.013924665254723988,-0.02659020623925637,-0.0007785784266215762,-0.020679240025153103,0.030344650278285645,-0.008818620163170608,0.03928384660223042,-0.012594706099998082,0.028040916546525095,-0.01660454644329975,-0.004879459427106698,-0.0022524299367006587,0.020973861307600115,-0.024601333818924893,0.029782037709086166,-0.040411707065599316,0.005827126478405242,0.0133737955886616,0.04377969622963399,-0.013866600782078521,-0.008326023125688278,0.0005998494523079792,-0.026055868754632568,0.030649560368329817,-0.011940021190356509,0.012438924235023928,0.03661884179887195,-0.03137903293662326,0.0334709762196877,-0.0241818444143576,0.028864794810587097,-0.02316331366800313,-0.007479509078910061,-0.029459715508888536,0.04067822487057534,0.03267960828061365,-0.046828341274649896,0.01990211972262321,-0.0021042100801389684,0.02493377576178321,-0.009302679212013694,0.041302891036120476,0.01958914025527549,-0.027136769913102324,-0.02961471647956271,-0.038923796152155285,-0.04031141458326084,0.03994121407093392,-0.02476458993878317,0.02745133844686566,-0.018131849417026794,-0.004209665559229757,0.027368499348925164,0.018876253219395393,-0.0023677921415940334,0.0009204795501506828,0.03673255895698821,0.008573575494909549,0.011192805200199007,-0.004961366377663536,-0.03434800773990179,0.019674223677601178,-0.040609620979363256,0.02578876297326521,-0.014016024428542943,-0.03763972814148162,0.0015889674882140134,-0.004268992728693664,0.009528036865819746,-0.019999997649286748,-0.006276330175835038,-0.042059628268674286,-0.012554335669965307,0.025757366107034642,0.003008790623899818,0.03184387003669114,-0.03154104833198244,-0.015439655605054321,-0.018851316423545473,0.04358797574320721,-0.008872615292963794,0.04790087498138358,-0.01620476571297695,-0.01782279941602652,-0.042166932787342286,-0.01936674523675367,-0.005473865526734994,0.02805799325732602,0.025066806302336132,0.00962082917234065,0.03971084378526923,-0.04454492340322848,-0.03803821165643708,-0.02849797248702055,-0.03761848128028366,0.027182574135305688,-0.04109857427304508,0.030799864005137855,-0.03226395158375725,0.04394094950273659,0.0022800184792224868,0.005936834358245086,0.005512201294070802,-0.02583914541661468,0.024393596994576532,0.03613144680579821,-0.0032062962459621577,-0.04428707916429465,-0.030055841889472603,0.039866189512598994,0.040373408472139515,-0.04206280893611198,0.030559625770180596,-0.032684695772103,0.018558166813318146,0.002215804743253995,0.0421574754436831,0.018789287672862462,0.03207237135619222,0.015875171365545733,-0.004099931911462447,0.021469524456839827,-0.007259466158120544,0.013048961769969546,-0.018980951129454596,-0.015166937308139198,0.008348283037132984,0.011963106885937073,-0.03295885741236645,-0.039197359966124425,0.007799561234385628,-0.044736742686930904,0.0032394459405312975,0.013769702348840222,0.030824947492825983,0.031933879729139567,-0.042531049439271336,0.03941911151157561,-0.036485854646335816,0.034535825066524174,-0.0387037144955065,-0.027008950041855596,-0.008142379397978627,-0.0320174705226908,0.014071417784045486,-0.020967057151233346,-0.004992808237075615,-0.0016986445394463923,0.0036212706861495705,0.00776312287337627,-0.014988974371361343,0.005827152441896268,0.02014573872934676,-0.0238092731360757
0.028227096431672843,-6.568875131453165e-05,0.026354779014145412,-0.012690848910484371,0.017629777171477713,0.012865243831607939,0.019589062361064953,0.033636173045199474,0.02601168075090298,0.012580720201775818,0.025791548986085926,-0.019812423481691415,-0.0007282813566336338,-0.02582921289945269,-0.03067077136686605,0.003961881543301666,-0.014124087633220655,0.059030829964900264,0.0224577897346631,-0.04314949628516792,0.021413475254430596,-0.024898524013219157,-0.014633999763234554,0.0036563325316969985,-0.034781593086840444,-0.014812083044568231,0.02780050361633054,0.009279246422154358,0.020166365049105597,-0.0332354077973999,0.04296657518948393,0.015904360511032757,0.034423414375394354,0.03466892858833046,-0.024710850814962968,-0.00947718732629569,-0.0016961929842850226,-0.014341260911399418,-0.006182424164770397,0.0044642599412649045,0.0076081050913291495,-0.03296247250842319,0.016595052087391593,0.024597486091798893,0.033452893104429456,-0.015762239800858533,0.028881163533415098,-0.0398078295147561,-0.021767780816963362,0.03474667453991497,-0.035777541259785516,0.033190069981650236,-0.044078764536022275,0.01706866580619376,0.03309084548847966,0.045543081244000305,-0.00773881884578031,0.006737965039463425,0.032123658603512475,0.03506640391830466,-0.011418704235772932,-0.030069164577757997,0.010670550415806038,0.006936323227811303,-0.022553584311870295,0.018483041595659114,-0.007538248815520713,0.04592379343594171,-0.02868109328336163,0.02647609923820534,-0.002250478920148193,0.03679432370491681,0.0024042939303745223,-0.044153505587586156,-0.012815417307655607,-0.025389038317444983,-0.020751054214100315,0.01776815481429763,0.0020437699746310017,-0.03995799215186496,-0.02690180502615453,-0.014609266845156427,0.014878691787136305,-0.01737119875366912,-0.030157075439679354,0.041975962508813275,-0.024542864808105552,-0.011982725643655262,-0.02247852990292041,-0.013369426551206556,0.017490142858868084,0.015275772774275597,-0.0005389996178711994,-0.05992780379032549,-0.046759883154993125,0.022554125503461187,-0.026739571742226693,-0.004002985017969384,-0.02426697768586513,0.0362941965862516,0.038158023802676196,-0.031192272885165916,0.039087556203786566,-0.012357032598754437,0.020353246937867275,-0.030338983272124236,0.0048004804415535075,-0.024202929807632282,-0.009048453709801133,-0.028762336195484538,-0.012490523802209344,-0.024093981802794578,0.01686813470805892,0.01599883373875667,-0.007060904734526949,-0.010522838380533188,0.03762098424339557,0.03795657482385774,-0.037606257980460814,0.021822658956138892,0.04062955873869651,-0.010375784595859666,-0.027632837180661275,-0.02421077767440157,0.024859424293325095,0.02575268609026942,0.0217117401471356,0.008152616049401634,0.0020864845649581684,-0.024412188514063668,0.02067195806491061,-0.006376760744103517,0.04799910609147149,0.015649077559147073,0.010974799749256303,0.03232636427945292,-0.040767452360958883,-0.02678799306045981,0.04116555388662071,-0.013396712803185053,0.010314680841688463,-0.013344295245316154,-0.015480861473428144,0.02894809389806371,0.03706305181592547,0.003098060083061731,-0.03741786279371336,-0.0368351626559847,0.013430884563465122,0.041238805912273774,0.011758794513340921,0.005080214504868942,-0.014933306260318361,0.002477742035193066,0.02484213101927701,-0.024620733409985034,-0.004058880788751889,0.03614838636932235,-0.04213444707912864,-0.027349576204450138,0.016511192104453072,-0.005021278823492188,0.002045501832605634,0.04191550094408256,0.038661513694268144,-0.011488996301211283,-0.03973976435353501,-0.018023074973757314,0.024425116897353376,0.028362542504792327,-0.01899551739478301,0.03655852609745713,0.0047722990725925655,-0.00022491537961422337,0.009461472664192089,0.04138057768273923,0.01647603503947106,-0.017494064736570322,0.03342370751087675,-0.03908165524643725,-0.04263971333616641,0.012348785418675647,0.0244708453838206,0.0383185769016547,0.0004989002359155961,-0.013203936124131087,-0.012784071831757084,-0.028869087279812612,-0.019493948705904766,0.021958474898069104,-0.009076429572914393,-0.002048877321935115,0.007209143797367849,0.012385940740524948,0.028988415031552438,0.019898143483243248,-0.014175383445238533,0.029798611139379705,0.023405419458670994,-0.04711610102430663
0.015469966900426062,-0.013387334973982243,-0.041067060891507835,-0.02974256621156647,-0.01075488899404189,-0.0254045596707714,0.0027319643043827446,0.024797537615662942,-0.05285589715157092,-0.017147405068109172,-0.021257940568072075,0.021332565494210122,0.005550487232474994,0.03586813384346569,0.023476823302424628,-0.011383473654823187,-0.027994588521300146,0.006458750923407845,0.025707729406441004,0.021749735881774944,-0.040893596480237035,0.00024278667508933178,0.002280818590949127,-0.001528491963297266,0.023424975277658102,0.03172312026137476,0.007501547011722662,-0.006330021419423279,0.00288621301567979,-0.015127483851815511,0.0010548499923146042,0.012704126871527957,-0.0218038382574387,-0.027446435391157615,0.042858132054853476,0.030506925597235536,-0.012016688859341148,0.005506308167614436,0.04438259773917035,0.006286385403411311,-0.015005983874670066,-0.051280731158818794,0.008002419806097033,-0.03532574054603922,-0.04344738493633579,0.030552573069630027,-0.009135200126572865,0.043125050183324076,-0.03699703610094751,-0.013130990920416143,0.022794073731364387,0.028790733963144924,-0.03847341707065743,-0.0002702548835041526,-0.0024210173368717364,-0.0276822992186088,-0.042630232391041974,-0.02888164144880494,-0.02328601227020263,-0.004856749082178771,-0.025201009087937785,0.03494891951166643,-0.01788034288126452,-0.030335893699288217,-0.026324083519429057,-0.007200765353513072,0.007217479031187739,-0.007446616866935188,0.0007130209129467243,-0.034881371635611114,-0.04440049520578854,-0.0186443356347954,0.0004988515791053763,-0.020550859839301418,-0.019490138522158966,-0.03449900655549287,-0.015699613711304256,0.0020528901053189826,-0.037224117157130115,-0.012781731233786214,0.008512708402510956,-0.007367114300004903,0.026298468637128876,-0.0018095520644235991,0.026113583206653405,0.032891781941136886,-0.020501075537687503,-0.0021200857413166303,-0.015061118435728885,-0.01593446914031907,0.04134709464750925,0.0001545250181073794,0.0187179976211209,0.0277455075140217,-0.027165001177994426,0.02963697931940868,-0.02132026143957894,0.01264614313809783,0.04191246050031027,-0.00843725444489365,-0.03849879012584782,-0.0416170103805825,-0.02341070520669309,-0.023237703313406775,0.009234338239217939,-0.0498952330824933,0.00607735665431111,0.028080376576287334,-0.03834636685031689,-0.0040997954987585915,-0.011382778411003635,0.015245531635260552,0.020854075690935444,-0.029622768816732068,0.03066323557872567,0.043001638052940265,0.022605018763083955,-0.017446006422728116,-0.027920493231967106,-0.03462837352763908,0.01329689741912271,-0.00849386491763558,0.043322054298580555,-0.025971124319594432,0.011300392410833643,-0.022993881629749652,0.03433567113302727,-0.023418571933466473,0.007906218753613022,-0.04428104957588984,-0.008060745110095243,-0.02058231904876528,0.010374273309633326,-0.006487407302899468,0.029730969669117223,0.04445038922458491,-0.044029345097381004,-0.029843677374462523,-0.037090026143787126,0.057168301443414817,-0.013445890836261328,0.011500427588652955,0.040447943159174354,0.008279598976784548,-0.013968707392740847,0.020949512690838702,0.03756095444126531,0.006694922443432965,-0.009203682295215987,0.01189403793338646,-0.01364993189549808,-0.045356110175441305,0.013420289963582431,-0.04247858832499751,0.026348637334189146,0.0352242641617886,-2.8646189823670342e-05,-0.032239343538637166,0.04245535227875731,-0.0005930687561788647,0.03290103079658818,-0.02696415386284772,-0.008779466788539459,-0.017347595535091798,0.03967371091860337,0.014556294449144538,0.016543994058305797,0.018661686323342263,0.008264985680962615,0.008516825027400666,0.026054343037386647,-0.018279715526353716,0.013161937005265538,0.023766523375873597,0.012218197904613289,0.029281161442939893,0.021409397081984704,-0.014367828769560801,0.03352853753827758,0.0160369347990894,-0.014397599021427692,0.03409857869398794,0.010266167611644998,-0.02347128250669162,0.032718244672573026,-0.030850029877492843,0.021323149166085575,-0.011794960225492833,0.011387154719143042,-0.0015073266300536102,-0.007612254916306071,0.03203686386950074,-0.018736623598925906,0.057470716812387246,-0.011208522992343685,-0.02890065103855429,-0.05693865313210635,0.01551394621878337,-0.014256817884315414,-0.01306067976209981
-0.00039517266046989785,0.021294981484367537,-0.037425026380200656,-0.03455003954663585,0.034241605326339915,0.021084490539026127,-0.027730331150662056,0.048128516789473795,0.0084343261472994,-0.03630903872324438,0.015282043590338898,0.0017835719769400597,-0.032815870113693246,-0.013441143510725777,0.008116718538669987,0.015622236573713174,0.03391941239189063,-0.03735951601776514,-0.03345124692291034,-0.025376574911188544,-0.014300199840658584,0.004903506952495393,0.03620535910054961,-0.021968368529467756,0.02964653324383547,-0.02927240061872963,0.010796107757765927,-0.030647188968986463,0.0028050021893997372,-0.0297676408154773,-0.044889572459590285,0.0297240662363027,-0.03453262592143222,0.00035741254565494894,-0.014207944814773289,0.0010406017465658616,0.00921060004832844,-0.007421832441746968,-0.04579896359657546,-0.0034422843194239616,-0.022460083798964917,0.022319428956022902,-0.025275277138801386,0.03696856813830969,-0.03926652033795861,0.019109983897821592,-0.013357231384888183,-0.0014173340104675892,0.01690567482018042,0.035379648991728053,-0.008247098244709322,0.0054437910300683635,0.030852331809852633,0.0023608421395418847,-0.03802899991565066,-0.022553036928260783,-0.00424098705715954,0.03042945084736491,-0.007930866633300844,0.005116887329265837,-0.0041678834109292575,0.015800071803672655,-0.03773142498525733,-0.027956185776159572,0.026887830120713493,0.008983870121417922,-0.007407337359333058,-0.037636450874478755,0.024858727437533444,0.031666221049804676,-0.01928491494177356,0.009165647596209968,0.01362555798075634,-0.03992027511177741,0.026181107105474503,-0.018411850735148238,-0.0024575690016239394,0.011825466720579238,-0.04400843326621527,0.013833014457105657,0.04770663148502557,0.0008164617497363956,-0.028073996005234608,0.01952571032650919,0.02099162516614176,0.006830863298826987,-0.027204085895956,0.006332456514297125,0.05298112115326969,-0.00837488188133785,-0.036181941826577003,-0.0007867530415386275,0.0397490646201544,0.01581195861158214,0.020848914623252637,-0.011473215542824822,0.002487060203659283,-0.015819396033051804,0.031173536372127723,0.02152802029778115,-0.035261879743138644,0.011099765695646871,4.1816450034084164e-05,0.022634651971501163,-0.037766438203483535,-0.031041437625904177,0.029411559721565797,-0.038247393109539084,-0.03450304925491046,-0.03715580257245802,-0.021618839938521924,-0.013276952847657224,-0.0013345352581675353,-0.007929387706115941,0.04868793060960908,-0.03166558844081015,-0.038130736489140636,0.020567986124597107,-0.008180926728659041,0.03746684383234999,0.043503557893282176,-0.028222575437532232,-0.0029709471144223273,0.028603233734653573,0.032643530667421,-0.018307853525518558,0.025420714991063156,-0.053716349094704595,-0.019940483382108302,-0.022071058583549456,-0.013283931633851961,-0.02416558740058826,0.0025545906854770118,0.027320984687034873,-0.015886066434081397,-0.041105896223894295,-0.0016118153343842824,0.03483499123914122,0.002844922813828403,0.046505195643389466,-0.028875829039716576,0.047642606480568665,0.031102585158291264,-0.02252002520794562,0.04243652315432362,-0.029853037018916347,-0.010908083874270683,0.00709584523863595,0.010307772217562766,0.02744631546314312,-0.0378624428048488,0.015734253598103272,-0.02909140292674368,0.017420636649706178,0.028936935116476346,-0.002299646644628402,0.04206005613301296,0.014573949072447016,0.033912976710886805,0.011597838525370566,0.03910042948348494,-0.011525082327887307,0.0063275066539815366,0.005301844335249204,0.0017568142102509351,0.008701942448392827,0.0246320687533361,0.04159688039048724,-0.03686030608187519,-0.0356659050907045,0.05136013595069232,0.005319481230754884,-0.04290255661484395,0.009160761790815496,0.00323479935116434,0.027058087495891076,0.011954143206623143,-0.012343489743574852,0.033034199757245156,0.010703342073660624,0.042936749495651266,-0.03806209605263291,0.037102093364776496,0.01964910835615253,-0.0201009422648716,-0.013576269338368236,0.0192705199176307,0.03966525481926284,0.023799188700906537,-0.037315414060747745,0.00991564500653083,-0.029504950792754364,0.00499193692903658,0.024817145936545534,0.01802138639109937,-0.0022501457052263056,0.047179597019744036,-0.04535912315731234,0.04574628741333602,-0.03908309401305852
0.029659069600453825,-0.03129012450208595,-0.007585224059984406,-0.022165884501034735,0.045607642469697805,0.04048175563289497,-0.01834137645379639,-0.023055656500835887,-0.042469370687265556,-0.01920930516905097,0.015778216082956605,-0.0077558520303129515,0.018216685000288224,-0.01487840077277474,0.00489730069805836,0.024793871943432404,-0.027893124873344256,0.016876956419711642,0.013305902227363688,0.00998175449377476,-0.009600033912255328,0.02980176047768708,-0.01347855180948103,-0.040533305473887844,-0.045365702648910225,0.013733188295863598,-0.033102124887204536,0.007281891450998526,0.028597692404593873,-0.03152058329775592,0.038926134947884404,-0.01249382652954846,-0.0016419501592430498,0.03381083518074691,0.012733266596599506,-0.009352457993309258,0.03833768222572931,0.01643922130184763,-0.007293086815550308,0.021952912598992513,0.01971565866073032,0.02419795975786937,0.01699764410863515,0.023576484816262018,0.0028340960252857816,0.006679426176418011,0.0389297061230409,-0.0012029186786231695,0.020586191193012974,-0.00646943998253106,-0.045887274622150746,-0.021414600867660033,0.04301237049419523,-0.021872134293529175,-0.03279405588396497,0.03538695887259202,-0.00028752686734990053,-0.02356079408780274,0.047829975516256555,-0.021693916859175183,0.028404414044972806,0.04234919478207296,0.035615597397513875,0.015901918709466646,-0.005105223341780055,0.015074033125753082,0.03606885300829636,0.0217435361677818,0.03911527560573601,0.027945736905856076,0.019213888662092837,-0.0047395353177327425,0.027708229098908833,0.026868945617656133,0.010323594378774503,0.02174064247967407,0.0034535511169303036,-0.03517785718928518,-0.03932730617078179,0.01627182153971642,0.025423204142195323,-0.03638701444127256,0.001132655091962991,-0.04002198622031546,0.024328445456508467,0.0033678933831548454,0.035086728617621944,0.036998128148580244,0.031217561728689613,-0.01900425723796679,0.03647210296394445,0.043273795747113424,-0.00828937120537746,0.04435600486809744,-0.005522368736485217,-0.0036780736396582465,-0.0331998354419784,-0.02579008622182886,0.011939646673233962,-0.013362688040435028,-0.011744791300857971,0.027122509192480368,0.03174951481899399,-0.033079859212232346,-0.05648596962211448,-0.005837394247991676,0.025389629564240783,-0.03374970784318718,0.04344158817528234,-0.0067839595276356695,0.01567742026427839,-0.013613991606356565,0.0034328927461677546,-0.031028289051701574,-0.02391638830683765,-0.03238105574454245,0.03409584129635949,0.027710571203926917,-0.011070203353942574,0.013054772787985287,0.01672326133266644,-0.03168054918527812,0.011548618168532053,-0.026621150925580345,-0.003874826408055593,0.03817014493301386,0.029066960779585052,-0.01393088074852138,-0.019035603886488298,0.03501736719534508,-0.03252553852161443,-0.007867824668695143,0.00019415640530955492,-0.008712492946985364,-0.024403972785414715,-0.003948579150263208,-0.03335535870693348,0.044022990773572364,-0.025676644090325614,0.02532926271242495,-0.015150821314057872,-0.01547346023557438,-0.012983244268925555,0.04026769347650291,0.029698279830646858,0.02801685977954905,0.011750555981313596,0.0015080315927520484,0.030631958937389653,-0.01804028416243962,6.879046800344994e-05,-0.028122969928004834,0.03460143464258262,0.042136698439932924,-0.010695446766257014,-0.04807779624361894,-0.04317113956117456,0.006357096698912747,0.017289070526013375,0.021202717024329555,-0.004910113644243621,-0.037842622923180025,0.025604507808352113,-0.03350661905526886,-0.040288864903200994,-0.018932137309856458,0.0008761406794209237,0.037313549036786436,0.006398562247439281,0.04451829314310609,-0.003297655670821356,-0.0005239808131076371,0.02501039871214354,0.011944613423897832,-0.005940137577809355,0.015667882609540388,-0.0033282307862380384,-0.029258153140201255,0.027074736915088715,-0.029912503129044667,0.008085338804881954,0.025741270919431326,-0.038175574579271405,0.028770544748567828,-0.04156862167821588,0.007275533544160828,-0.011673190411068965,-0.016577663664748686,-0.015145176423695237,0.04522517398229182,0.04119825894731893,-0.014617015036014331,-0.015929501018060142,0.01807634959475532,0.02223302537931373,-0.030870535828970123,0.04053307857666116,0.029139788279406373,-0.036349435673099686,0.030788286842850447
-0.04497753999509259,0.02010773059154929,0.00961917986947412,0.03800329640778389,0.007769074182022497,0.03910180013119992,0.017917916483516018,-0.03082601482101105,0.013532886962415194,-0.040931003013213646,-0.004021502265019003,0.013008918983314448,-0.03268270847067172,0.012313292416304501,-0.039817599013168475,-0.005861124642646666,-0.0375768812165864,0.04184152031870501,-0.035048045568434126,0.03214834647984232,0.038802721397077945,-0.0169270010197833,-0.014659747047563367,-0.003617190702900194,-0.02447288147926094,-0.024102042977140147,0.014082543022595477,-0.0039043174062550518,0.011820180281992393,0.027985837721105154,-0.029021620242458336,-9.323814805263508e-05,0.0223902642262826,0.00105982524069851,-0.04128686085714374,-0.029550811968315643,-0.028293789634488368,0.05160068493221831,-0.020556025240765406,-0.028940829472244627,0.04286881850211248,0.0008498577437528215,0.0049786796653624454,0.023121294515966888,0.015758247572552925,0.04060877966959996,0.025914282871971023,-0.011411850584298434,0.004558411856497545,-0.03640331642104315,-0.026629916099197133,-0.03858960215799235,-0.01997061445102328,0.003355071368945591,-0.02178359057323934,-0.012118330451458078,0.002100905684597189,0.025768930968407457,0.00048608909191875455,0.016901261877329023,-0.03879296118909056,-0.018124137776561005,0.04156781027914354,-0.043188422959960025,0.031116521034189833,-0.022734419627433715,0.020238460293987834,0.036330872405671066,-0.05573525470150523,-0.019799131777117437,0.01277189702075143,-0.04301410379559244,0.025210359468268335,0.04007847529101862,0.007555347334852212,0.002197649429306711,0.026369115917694103,0.010031326837325032,-0.038157663617601034,0.007398587382711251,-0.042917509411584905,0.025546501062530307,0.01597101062766513,0.015779337608075053,0.0028510241740978557,-0.004480007676820319,0.006620316914489957,-0.016540774695851235,-0.03664077362440234,0.04397683093128462,0.0156579974682849,-0.006345937113333758,0.03419902462039144,-0.03308720385179455,-0.023251370473429782,0.04342911250801083,-0.023238986743281703,-0.05271470596457782,0.042174702674993174,0.0017846141515567363,0.026708281956734043,0.006136827916547168,-0.017010334661974776,0.004161346351579535,0.007895216478808791,-0.0006933086537367722,0.03606703062748377,0.012147746486553342,-0.024003320959251263,0.042324519674986884,0.023719854731339984,-0.014241942543628937,-0.012017490255582616,0.04345350123541874,-0.010312482823435429,-0.012597429489059016,0.005570516072782972,0.014495498195138278,0.005924634744828781,-0.025766002419719162,-0.01978066799419965,0.02021655462136287,0.041603345628306095,-0.007710087899221039,-0.03717652128985762,-0.020431586659530137,0.013284149419622042,0.008409381921027966,0.028540856888821464,-0.036446265355985545,0.030613422218490546,-0.012912084505319207,0.011292382697893602,0.025169373383104095,-0.04160455292032347,-0.04820780876047587,-0.0025554674189491055,-0.01481404838145007,0.01720874567530723,-0.05551482279860409,0.0343220923410874,-0.036382361642555226,0.004106515116505764,0.0033447576304105123,0.03413076352344411,0.01873353325183285,-0.04598939059145821,0.008454568280793004,0.018203533668781184,0.009155101486231646,0.039313114402983185,0.03916072891890866,-0.030409867487565627,0.03221196788788971,-0.0024643114435415644,0.011638968117263978,-0.03951755468910657,-0.037145233264387546,0.024404727314566534,-0.0304148353249983,0.030066878321861164,0.007205276246425495,-0.031204648421879793,0.010792110579357724,-0.008527856353645146,-0.01148378238426255,-0.0356811831848232,-0.024937088589981685,-0.02964182912318864,0.03458279765142006,0.039746249860233264,-0.02535078772139901,0.0017312897868612311,0.012303879974589507,0.01975598005429936,-0.029541251887086215,0.029973664078128865,0.009108483307343075,0.026512626761688488,0.033358035722367306,-0.03836735387629109,-0.009394225550822546,0.014804078496790087,0.025365208233154503,-0.01574839619607595,-0.04424074718046608,0.026592356061782008,-0.016536732936160706,0.008502855430637559,-0.03939393442755637,0.016394856454056337,-0.040140753745571835,-0.022983778649256867,0.031894808076965514,-0.03517987060569403,-0.01075945721258189,0.04415907611974578,2.0059464183889608e-05,0.0073748616188969145,0.004754132855639074
-0.016127557673511952,0.010773205135750573,-0.02383411195625397,-0.010968444956669984,0.012861981788084934,0.016699730077256187,-0.01039964106030436,-0.0014663347662832102,0.0014327647415926412,0.015992059633546055,0.021482451198953083,-0.03331510334469283,-0.024355907922582715,0.036694016347131646,-0.004561464060952051,-0.03789153839810453,0.01862108175393055,0.02603275422860477,-0.040098501943466286,0.0029289534875671236,0.002892396101939816,-0.03963827595840028,0.009077312707387292,-0.007423332519560405,0.02541529534414646,-0.011217234449904672,0.0002351617425658305,0.030746534623162156,0.025286230945520988,-0.02616091742929414,0.03611173705612737,0.042482031456013335,-0.02350479721632259,0.031046684500036198,-0.013596660905669206,-0.04251967926850207,-0.006714558328581709,0.016804282624838244,-0.00027055404461701895,-0.027180722579689426,0.02843407543353457,0.0400722955928285,0.025311072450237067,0.0424193822019547,-0.025839047666575597,-0.02499426230610301,-0.015354580611283261,0.01132945708382661,0.004877368795986395,-0.00250736853572487,-0.025297030425320707,-0.0027723256968088515,0.011502079748353669,-0.00045798018380776434,-0.017222118595200217,-0.03433314791692752,0.020907907210014676,0.02416519112825172,-0.02772633093368461,-0.0038845641893969496,0.036106627466907425,0.037096141298047565,0.0023261798276982665,-0.009467751374400295,0.04111018536633137,-0.006240042551894781,0.028491297451947478,-0.016690624104269615,0.0019127158211359613,-0.03589542257668986,-0.027024413742675706,0.033509809631595576,0.00465021003143383,0.020828062355535547,0.03408360091941793,-0.03803786960205619,-0.02085825896750448,0.004469331867676016,0.006007325753861162,0.018357337208530854,-0.023864386457997492,-0.041296755893602266,0.03810086323343633,-0.006469850349574216,0.00991935935234671,-0.026965031300454547,-0.0386870865116872,-0.023925580713308848,-0.026455996587221888,0.021361827937407575,0.016887161007619587,-0.028214859915896034,0.02652053853793753,0.0299917702240792,-0.03629318159399171,0.019760045828693965,-0.013349634350106818,0.01462276419141506,-0.016727778903360736,-0.03945732397180318,-0.01595914938164602,0.02675809905897648,0.004653099674413491,0.029914625426492168,-0.025318152464459707,0.031213495647914473,0.0010418927868754363,-0.03452228829171431,0.00017680837286335876,0.015575631142309124,0.019955850132571645,0.04130345963084072,0.0234298427263783,-0.028374563924115193,-0.03925862138358767,0.022252726404119356,-0.04149965208539414,-0.02844577223026168,-0.0015417358596149545,-0.011026724548009292,-0.02287461564465779,0.0011852411744161548,-0.016381680623886737,-0.016046874079628067,-0.004223861498512688,0.0006632831335832146,0.02251571425133984,-0.004782646110422686,0.005765220427551771,0.004787112886749999,-0.013621975754259783,-0.005596722428527608,0.042338658977164045,0.01944530275293344,-0.012252863204358096,0.00835126985327694,0.024335786899665084,0.04137388813588499,0.009247649091919113,0.016012249364020015,-0.018662533630028295,-0.0008267141484545742,0.019950897693975938,-0.014116175748573646,-0.008249981651826319,-0.004595559661265548,0.006994989241099361,-0.03701477616128145,-0.02025500798768931,-0.0018011988675463186,-0.015491406554467837,0.010525373977362147,0.0036393664093685926,0.022004008837353997,0.012959670657448748,-0.03620947748647353,0.009936002657031198,0.04388276688681036,0.02768218375226575,0.04022900120950935,-0.03556497904859263,-0.0005555620640997766,-0.04596240070426364,0.01261203754360663,-0.02490732461749767,-0.030185893624412905,-0.0092578259657834,0.03380170829725073,-0.005779215517241226,-0.03644658842168386,0.009427933865157744,-0.011680093271594555,-0.02632458782218726,0.014497211809942337,0.0161464081280131,-0.016949336147402846,0.027239962699284047,0.009772174606088993,-0.013104959033228612,-0.004151396204353369,0.007806023033187871,-0.044432529418232516,0.0005334393486137387,-0.01333757038306986,0.04159000646516776,0.026266133012011434,0.009516112190738335,-0.005040091861868011,0.024687269855349428,-0.03588727360832858,0.013436293548938664,0.04416182885334121,-0.042852039255090735,-0.010674057216186255,-0.015885192628120787,-0.0197933072351847,-0.026248199982532493,-0.03890802126489589,0.004165137480162928,0.005207646209369594
0.014720604164663484,0.019375340575798074,-0.005843436399811827,-0.0019366826641182568,-0.025887491323243427,-0.035973524846023605,-0.0072467199436105105,-0.04290294064996661,-0.006836686631940118,0.026079679879592747,0.027503151179118286,0.022756544001974573,-0.009689088642908475,0.0167935354536404,-0.04348517033284815,-0.029194581834204807,0.0041964535001665455,-0.013951744634107024,0.03148671352596635,-0.009480280043510994,0.03243099625420429,0.019323875625843322,0.033547119748686606,0.013360632311368527,-0.02013789032003764,-0.03994292739670267,0.04880287489568952,0.036487782428663684,0.02074370033220422,0.0377227162299179,-0.010268914511388836,-0.03587896618325016,-0.02788362016584674,-0.016202376426696283,0.03010131607933102,-0.015390846135873996,-0.04743817976801395,-0.024172881359821118,-0.0009242941316695873,0.04182757956752322,-0.024560681015208224,0.034182582556917016,-0.004553968308767943,0.023814804371973558,0.030859343244624242,0.03183749416744832,0.03336182156148957,-0.027088188211292056,-0.01065786826557185,0.011650692695506107,0.04180259743852728,-0.043736069966668116,0.0040340885701604726,0.021690929123595656,-0.001747120710790022,-0.034929823480464924,0.035823461689332994,0.018890878222536385,-0.03961446645114069,-0.02838322004671015,0.043346263430654924,-0.011063308641585515,0.009498417000809991,-0.006007514521060198,0.013641093309734675,-0.0339359581008546,0.003541185346687936,-0.04236419314487028,0.01787259038112465,-0.04249693111031854,0.0211919578648647,-0.027583654817107905,-0.013143242799046634,-0.02739582341322375,-0.005616675273897372,-0.006858026222921267,0.044236299325472635,-0.004161677380700687,0.04066581525946001,-0.028903646063058362,-0.03540237407209656,0.0382336921982755,-0.015810614021141072,0.00806738232172336,0.009065041150216238,-0.016054843041813517,0.030670035879613942,-0.028170468148626907,-0.04512212643293953,-0.018995932025765317,-0.012866033875316315,-0.027986729311339737,-0.01826282557025915,0.011311025908570495,-0.016278525867695588,0.008338936313614414,0.03423711461501384,0.012774632067394522,-0.029463405706133112,-0.026386743276331996,-0.011294790447692953,0.0436010985766379,-0.031103495510341046,0.028032174951086633,0.026665148913911436,-0.04822915354170841,-0.015610345187769903,-0.027941116955890317,-0.012211238267204202,-0.028601288768577184,-0.03729477326374021,-0.05390459002432369,0.024460741621362442,0.03919559864512275,-0.0153131410217204,-0.01681943286966245,0.018359184923754067,0.02374310560047518,-0.015058750366721427,-0.03754331383124258,-0.01796178432214449,-0.014856310515190894,0.04293751088266714,0.002480558518477992,-0.013863334817213012,0.026968153973774882,0.007568833196517105,-0.01433787720384835,0.010178380939410188,-0.018287562527811094,-0.03516705100134722,0.0174397475618243,0.03520186548912047,-0.04376136036394963,0.039880145153683884,0.028944132358755228,0.001119734588346167,0.03297990704844974,-0.01499364539381709,-0.030789429264855037,0.026292047395745363,-0.040127998485695704,0.043222912196055736,-0.028431566728588785,-0.0275257756857875,-0.03486032266674183,0.022034425764905306,0.021472347317961354,-0.017833710996385498,0.002326323924663109,-0.0023512690087138634,-0.0004951185700609425,0.0421282266303848,-0.005654948959622708,-0.000696635527896562,0.006603592576893003,-0.03161812993065671,0.013256738784378969,0.022073473906239018,-0.026668843092583897,0.018516127741439636,-0.04431271551744697,-0.017382399335284123,-0.027616703563161767,0.018639259479505416,-0.012905208093521036,0.029024226256895262,-0.001954376476589244,-0.0028837954098047194,0.015396744087568075,0.016425167709194794,-0.012150791695476467,0.01480320560712651,-0.01405051900698051,0.0007675368039668252,-0.01405794609451262,0.008530643741565013,0.010846270916198445,0.01938099960611172,-0.022736192309240396,0.02265340710922782,0.04101044400410645,-0.025538714616807238,-0.02963392954516419,-0.026190645738940446,0.03648427791649653,-0.021621346446139673,-0.021757522399941685,-0.0015094847845542258,0.02387698593915956,-0.017042207790883154,-0.03304087336646611,-0.04264702167983021,-0.03904161945565555,0.007773128683115492,0.04451162446715388,-0.03195281261809203,-0.005652142632497111,-0.03989340365678876,-0.016726640163662883
-0.006959301952092077,0.034889384793264165,0.04238019970104079,-0.019394992830698263,-0.043104758192020504,-0.010166304996993714,0.036567142120934794,-0.03553224665117377,0.00076852030349516,0.06648525360589351,0.002947738245293166,-0.012177254952453783,-0.005509114593438838,0.011483255196901597,-0.04024816091600313,-0.0002021443981641485,-0.023824302481891303,-0.041646887100038284,-0.032942247730923246,0.030293871474335356,0.01333742592771233,-0.03488077821617551,-0.018163553297035975,-0.0332311743988384,0.011852487787002219,0.014513822070325182,0.03901114710562759,-0.03425484226835983,0.03278380702987048,-0.011205349836834085,-0.015043397635585373,0.019699488863866833,-0.006351238719687579,0.01132843761639223,0.012534979477174617,0.0034541752781780334,0.027196555734279787,-0.05512840351119132,-0.018101701919285167,-0.01721630157538956,-0.004540672559741725,0.011447588549006486,0.006384313288087105,0.026610568057517,-0.04000323282108728,0.02302696321304188,0.02382235679314715,0.029312751984427943,-0.010460457938322718,-0.014248933448818672,-0.00405995702292269,-0.030843192876357887,-0.033155173493613355,-0.05466446143405685,0.013017651520918612,0.008459876434459541,0.0031149725432089346,0.03680142151857348,-0.0021105616192089722,-0.008703587911415907,-0.028830305008054086,-0.042074032014769946,-0.0001893760109415497,0.030302380818183563,0.007844872818267064,-0.013757282424255116,-0.015027763696161671,-0.01547514814742922,-0.012210529289412337,-0.022109990673063084,0.019634745163850213,-0.0069997915111981515,-0.03318584551180196,-0.020791986045609202,0.022056180891548587,-0.011552732131630099,0.02969891578630613,0.021884669736612593,0.007401410872289987,0.03016105679701117,0.035750438156686735,-0.005194960611938839,0.04225020385286801,0.004568058297845646,0.012810605949484645,-0.02180706681338707,0.030076140145565415,0.03607328556789153,0.015613183971849137,0.025545656981726485,-0.010786264188684985,-0.023054750275921645,-0.01793433574818351,0.022482943691109154,-0.031755022015038194,0.012174481498327777,-0.026228236244352294,0.039453040432551684,0.02802849373115294,-0.041049530473216175,0.029372757957447194,0.015517655948968248,-0.02193408633875644,-0.028073424133824083,-0.0543523417938601,-0.008962019325407843,0.0100816553292,0.01464239334843722,0.01319224730978194,-0.03251110231092353,0.02033025218206648,0.0394524148896757,-0.016465435456936368,-0.021180707603307376,-0.02267456156783131,-0.024524122234305872,-0.012423966523991338,0.007598871733952869,0.0056349648581282,0.00014428911721456328,0.04298397984454875,-0.04754801369361697,-0.0063782016065081285,-0.0011695668709174776,0.03933488178317531,-0.030460538819497323,-0.02575143555933075,0.003290548691612464,-0.002318963325928585,0.002402950486093399,0.0328181494058608,-0.010176965891252887,-0.011805178916791736,-0.022560745453615767,0.0055435759684780705,-0.033635359686128415,-0.041746207000805224,-0.02096575950641618,-0.012628058113944568,0.009777052853044975,0.019543824671666814,-0.03271583818256546,0.015645094737909763,-0.027923319567635593,-0.026907135595244724,-0.038734654916346756,0.02022136084391712,0.0012572745435985295,-0.018986962429878036,0.006396532194508401,0.003929364682059775,-0.025560533686141525,-0.039542573536183304,-0.007412626603260057,0.00948632027169216,-0.01279656008956941,0.02131954468453466,0.03319000706662525,0.03740809916552718,0.038454940051249796,0.030416380911317487,0.02062059426185691,-0.002386143510582869,0.016767118547449684,-0.0006895050467693189,0.005981443543131605,-0.014121487616069524,0.007328673704747773,-0.04338858559296131,-0.02551109908724412,0.023568001382412895,0.03266578274168242,0.011853010325561596,0.020446816975816656,-0.04103129757920298,-0.037012878545230415,0.028269560958609934,0.026934037567057416,-0.03983980652896064,-0.009380342935371926,-0.016391147062566423,0.005699840694105139,0.01501049540847118,0.04095576816308145,-0.020454646519251826,-0.015285470374218808,-0.0014049531531745499,-0.006976021044830492,0.011969305019740981,-0.017803344205612304,0.003519517440576082,0.023698028163388,0.01713013217439186,0.006641297969923384,-0.00866888796018999,-0.009324955856154697,-0.019449581158945635,-0.017072953028488654,-0.020609864204243874,-0.0028454875952652874
-0.02989196322313959,0.03983185708347028,-0.027902728987305423,0.029477057342656175,-0.011668715851073416,-0.008080763769972257,0.021718232699917427,-0.036006226232970076,0.0363219134692404,-0.01020362064413409,-0.01933289635289511,-0.01111927203467987,-0.032904190724208665,-0.03617896304910548,0.0002105698959448954,-0.008047804038518666,-0.00962497195940075,0.009433823593494338,-0.008157688436230562,0.02828569943181241,0.024390176411990212,-0.031594706668396776,-0.00011746945996776725,-0.03669138210346598,-0.009174073469814019,0.010854648862421441,0.03616525049818293,-0.013150507219876963,-0.032152929697783904,-0.0031416055117374705,0.0030752345675762738,0.01509075649886795,0.043923599089077246,0.026988600823851204,-0.01678607664884865,-0.03392327372514028,0.005144166008790321,0.03044023151242136,-0.022535333805044723,0.005547137706856588,0.015476083101336732,0.031970623643024866,-0.019174470778741234,0.02022981360950917,0.0015695806159194692,0.005216659422361207,-0.03082646172460056,-0.019632059852501767,0.02600466629159249,-0.015462923258801001,0.00949415930218464,-0.02760612677830055,-0.003684497494408606,-0.0328576519860668,-0.038498826345214475,0.042301900331127885,0.03982386481165711,0.017424229043302833,0.01591694378163791,0.039203548735060066,-0.02981002194000033,0.022093891198694503,-0.04439717628895776,0.04089357768634153,-0.039770637275751905,0.0256804357224757,-0.026257932155739787,-0.007749611816500107,-0.024462983366553302,0.014141255717145827,0.02722938455281635,-0.018544851935475927,0.022581960177746323,-0.006799253008721216,0.0408113825745361,-0.020895610011811956,0.010291357655347493,0.035160400474636914,0.0119604805508964,0.011625298064927486,-0.03252182734239708,-0.01621637917584376,-0.032650046246696145,-0.032365229864702846,-0.003213152367936782,0.0022400074073696333,0.0005282490436082019,-0.01888487754292634,-0.016726134350433516,-0.006922423905432656,0.030035439477306018,0.04363650751550901,0.0073143239482347105,0.008526299788570592,-0.03263326848176711,0.035088957633005034,0.012686833629343426,0.0040396544007570215,0.019146002690291507,-0.03710912638659833,-0.027700761600167885,-0.030257605751581762,0.015265244909591545,0.03210719262885329,0.02954034104136282,0.02743542571073388,-0.014628410019416373,0.02471985477132465,-0.032464505338232634,0.013283493852636372,-0.038026329825172116,-0.018840518681826488,0.020485372460394176,-0.00825600782469224,0.03680375901473513,-0.03750062029862726,0.013165136527534788,0.018967924182806274,0.04368250614159449,0.021757992271919567,-0.0010695540085293026,-0.042374967707739575,0.030985471987862757,-0.01642560836974133,0.010582061861701957,-0.010372303418905646,0.023737376026817462,-0.008670722531222495,0.006772403230725366,-0.01318162617214845,-0.031992481995696334,-0.03648608110164028,-0.008540979156749118,-0.0198896065217897,0.021231380790714106,-0.025978594310343016,0.001192311967600064,0.006342285564067192,0.007749871375780919,0.0415840161736618,0.009192313225526931,0.012480331563758641,0.04450233940858921,-0.010975920412489494,-0.012712472369387592,0.04327437644126369,6.129262090287524e-06,-0.03996298824070096,0.007670739240667919,-0.035102273385732644,0.041447763061339606,-0.03972966494931873,0.04145045417263551,-0.03177111100389482,0.02567290178889666,-0.005602694305506799,-0.038743661383207915,-0.022266562773699358,0.003197849960392851,-0.01340566369183914,-0.006076333035203524,-0.0017146245028856893,0.030923444191026432,0.004824388773594111,-0.0177526722298276,0.023553618121163085,-0.040727749482225545,-0.0007932876316614629,0.004406910542081713,-0.04316051753352621,-0.0024619173840781036,-0.038977330092906846,0.03727405059881827,0.010671541106867653,0.02715634757685364,-0.010975659052655448,0.00472188695690591,0.019646756828807795,0.0238139898579453,0.015226296436244194,-0.027553809136406687,-0.007741618377469749,0.04261078007364181,0.020104738614100066,-0.04307355450600714,-0.004536445579383659,-0.016844899755836265,-0.031921175906184,-0.0034051152832200657,0.00415132320684071,-0.004246685781363051,-0.04452882757151923,-0.023643611336095802,-0.036707191495435686,-0.01487819864051921,-0.01050883354853261,0.004162076385566843,0.042654359435108764,-0.04462411852459171,-0.025667451680269213
0.029781506440710433,-0.035321090575288774,-0.02862092616262782,-0.015405737955993436,-0.025859621275646734,0.04048595057082154,0.01856520437267594,-0.02751636010477116,-0.03320323810740558,0.01952234973144035,-0.043329363558417995,-0.03862894578215194,-0.0020022542270391186,-0.03554401882093639,0.012115128571656052,-0.035063174984829706,-0.03449231687742324,-0.026793528374763887,0.04297181048455994,0.013262436189697031,0.02569800818172121,-0.0004443682414907803,0.01604508980436549,-0.03871232816471441,-0.018209288463275856,-0.03713122385493093,-0.026875970678733173,-0.016548294633339043,0.003737489846785749,0.02501854143124977,-0.006980095672546384,0.004471616513538085,-0.003055530983726989,0.04550613612253232,-0.0375842397412943,0.0361171647281335,-0.015396331347001184,-0.00807037669378738,0.021004163735440246,-0.007864062733000209,0.016410639498304964,-0.03520685550095939,0.0008643224591512386,-0.016122743687322007,-0.02922432187730681,0.0036049724727456756,0.027267422461786976,0.01893047182268568,-0.03303458015438199,0.026326752250649572,0.029547593327428675,-0.010126650811567155,0.020665471944303786,-0.015617124627124838,-0.021654258036823474,-0.020576496786720216,-0.012720112901127296,-0.029680220299328,-0.03828249247616015,-0.0359436596820559,-0.000333360688051902,-0.014199182901085763,0.01794360628386749,0.009436730943716212,0.02598719038937256,0.017939679563062628,0.024105345299508477,0.012519636773315284,-0.0389975967603168,0.018476972598969767,0.03908488135376537,0.0029596055227468798,0.0050620919340050585,-0.018849725123661443,0.026977130787704515,-0.03149026880748311,0.03858130132772835,0.02443281969924346,-0.03844229860022546,-0.003051940924030179,-0.010708968067576196,-0.009940267130422925,-0.00421335921436523,0.00048786837190997745,-0.017318315636003855,-0.011601403557604327,-0.02354358131214807,-0.0008835193108687857,0.03985656042188239,0.010336544985365667,0.03799801103530185,-0.00961891923878158,-0.01537489291015599,0.04150820349399495,-0.011219924490304995,-0.00678900797261776,-0.0032870558442237505,0.014233602554653784,0.0010072735519615142,0.02807868647739844,-0.011089220658167878,0.011100881818462159,-0.012858937032625096,-0.030253590398731565,-0.03308206559087459,-0.02975014088129706,0.03436853873556279,0.03941994654615099,-0.033739796385885035,0.016962908936191862,0.02549427173385694,0.03440126326168817,-0.04977366184980674,0.011810286943406953,-0.027080043889898226,-0.04378376753286393,-0.004802492680514324,-0.023119479400663858,0.001217882903912025,0.016854786233906044,-0.002258252279524038,-0.031472123720013054,-0.00715444549001857,-0.015547756566360512,0.007190101600276812,0.004719122871795808,-0.033287195447095685,-0.019418869408960756,-0.020424676690593814,0.007947379476610185,0.01867779337874803,-0.01948284430203503,0.02542299833346539,0.01711344187069593,-0.010860174733431358,-0.027787801396607748,-0.035675462104077474,-0.006231300641171847,-0.004086461645841047,0.021776175454600165,-0.04399232806084964,0.010342222772711263,-0.03236319498588156,0.014020417310331866,0.024693010508347456,-0.016827364748635706,-0.03911504692846491,-0.027571430508288582,0.010999867490084343,-0.0084002571468787,-0.029322874795954534,-0.03943000183508975,0.03396812562143441,0.03859003173322662,0.007426671679565067,-0.01620304766499442,0.004128190233679911,0.005037743469589462,-0.018422794101476563,-0.002678582760025111,-0.03295701273134173,-0.009445692821542985,0.02963525013990245,-0.0005476033925367858,0.021338700662976294,-0.03137350339372854,-0.01635556675460955,-0.0005000400806235974,0.029516951804596785,0.007680888073703415,0.023653342376347284,-0.02044520957549813,-0.027178597959653522,0.007048123048420971,0.03565868545601989,-0.011332507825215719,-0.03828503479928802,-0.03566846832180064,-0.028828747010501733,-0.00020837374721321966,-0.008595334831588766,-0.028701448990539103,-0.0015152355580718216,0.012019946973313829,-0.026100963547137517,0.00417158554287444,0.003969613570107659,0.01578188729742959,-0.033455034152036045,0.0019726924207625236,-0.020226618525341647,-0.010848891450776325,0.02911350515851097,-0.03701766749319719,0.03671057533242835,0.027766817873825393,-0.0031280238855186013,-0.04058634562890941,-0.0034840922793726,0.025977057010222116
-0.012259365778052832,-0.018587253593953353,0.007648121533275064,0.022891823027087914,-0.034493356794316865,0.02547698612765959,0.016072339339539977,-0.0012930635598498302,0.008954039402782867,0.038632905755496945,-0.012999502366448111,-0.04337399691040694,0.029342693475730243,0.02928935238319206,0.0029009322595221487,0.04036689861722461,-0.03360728637136967,0.039852172279729724,0.005934943240160202,0.032188998720583804,-0.0008043238693852053,-0.004748516972467538,-0.034950748168558775,0.03622948909241463,-0.01669418251790912,0.0025661222979620826,0.00511626727979711,-0.03246047719936468,0.02515074804663698,0.0024128334079443828,0.005078958561110222,-0.003715185812269685,-0.01317310383737734,-0.0046141222314044425,-0.03332622491329608,-0.0007478532918915315,0.037909879102614626,-0.01169957748523038,-0.01269396511492616,-0.020385949554407347,-0.02899037416021634,-0.027584347737597208,-0.018985817024742266,0.028092954149556502,-0.005515060895986336,-0.028895987231561216,0.02636888283041359,-0.015021220271054722,-0.028705152317801685,0.028623764268785802,-0.0017596870297964945,-0.03996302472861715,0.0310523586889477,-0.038059442379554755,0.04349363479874029,0.04415362095151249,0.02344886893239826,-0.04268375744445155,-0.010177437290112841,-0.0205001748218234,-0.017417162817999182,-0.004250282315099108,-0.02254709090077935,-0.03120911349023653,0.022134693030823167,0.014710732797058944,-0.022868262388072404,0.044657316905080936,-0.008739310742446854,-0.028285864018501135,-0.03225059721694323,0.03405255237438174,-0.04243935006752627,-0.019943593112677644,-0.02773842874119606,0.00717150467947044,0.016059380571173967,-0.012340853940625236,0.04359373807619615,0.025236779007871253,0.02922823566236183,-0.029146598563160778,-0.023267384555859423,-0.03222331493239747,0.023582428876817545,-0.02627534752764281,-0.042178618102267806,0.010364188520571402,0.002600353551762677,-0.03851490012361879,0.03969656494570712,0.002675271867497657,-0.04370996270740531,0.024370785941762375,0.03751471719276168,-0.043588865957933515,0.000887587100718748,0.014951095436427662,0.0027196224803460872,-0.04093738911466836,-0.019621565046371487,0.033485927561981925,-0.027473958879011214,-0.026846858659365664,0.02847372536670508,-0.04009840229878438,-0.04415009202989249,0.007806505683358021,0.022449399364297275,0.037879224135316296,0.029719386740046046,0.02102135539870522,0.024795671709637084,0.013169536715188522,0.016614892122845802,0.022669516359472557,-0.043768762904092075,0.020103241149128877,-0.009975555406651099,-0.03447405182068814,-0.026676228081872224,0.04341492464813073,-0.034377327546081006,-0.02499868063331405,0.019083239342124338,-0.03945756668464536,0.02506817102143278,-0.039400997781842896,0.027637337495190047,-0.027470370506898125,0.03582291938011432,0.029527214554759255,0.033421271156835165,0.03409271277501515,-0.015269416262246961,0.004719542763696918,0.001664043156634834,0.04371762679991711,0.013217084998085549,0.00549010782218607,0.040763877299418626,0.018826920179014918,0.03749921372356458,-0.013141136657672255,0.03704859982615915,0.015051660721021251,-0.006955330697407218,-0.008115154703363409,-0.012250882813666417,0.0193519158095004,-0.025416226010516567,0.014428653528963574,-0.03452945934617435,-0.04050668033979906,-0.021050329741236804,-0.0035384423657931485,-0.023319174732884505,0.03437106414401558,0.01566940640756543,0.019605266267495515,-0.006472414214650238,-0.028489493368908013,-0.02997973105111334,-0.0077770956116776785,-0.021424074922095165,-0.010142345423592838,-0.005711685934566939,0.043262664198522434,-0.009333868992023077,0.02789088745938064,-0.023246280881459087,-0.014391530891777676,-0.021997853645362206,-0.026777865065226697,0.02845652366322373,0.012750196807022551,0.014669063301941579,-0.011683681935019952,0.013364668707820472,0.010024182152707797,-0.038538694439111905,-0.012901138654469554,0.005500389794675091,0.005515949311369672,0.04252600306547446,0.027423649631910872,0.02214269584531959,0.010703345116844017,0.0375646514177373,0.013788657891206722,-0.0381651619898402,0.0031154378639360186,-0.014793747771769047,0.02283145759122742,0.01935634739542453,-0.03111887478083917,-0.0032211987911556703,-0.009907857060309722,-0.0035487723207862296,-0.021511300394317374
-0.030985283819513224,0.043281810725427305,-0.012395592067251297,-0.0016888991062740401,0.019448976479177756,-0.021510199817798337,0.01295794370640602,-0.012689573445434558,0.054142573397656685,-0.04174174106312868,0.003934343103930579,0.011646326655835709,-0.007677209600223226,0.013078638329621084,-0.017044477570679277,0.025527439164863903,0.03936741864435585,-0.039720155948613826,0.010696900672642558,-0.00011601128954590034,-0.037650372563923756,-0.0028035083373416877,-0.0010053603471524633,-0.000447310963199539,0.023275994917422254,0.0028635290834985523,-0.0010638793491129339,0.01930386820299605,-0.03300552741649537,-0.02868596871194421,0.006408588925234592,0.01805778260097498,0.037045732136426854,0.021643789559922775,-0.023518769142919654,-0.019387431179459597,-0.03538210852621704,-0.017842064137645088,0.019383813694501,0.033452424169760686,-0.03963886231675068,0.024864096024822722,-0.036769819416489664,0.0076769730500992756,-0.022219512518727672,0.004215843961371207,-0.020775649160570266,-0.015899953818290492,-0.03155296396397731,0.03796762114694737,0.016986257054680456,0.042286458332886086,-0.0047442105084727695,0.004949626317630932,0.0009823781917812913,-0.021540714988685,-0.022077900748912433,-0.04256684957437145,0.02209053741901084,-0.0014387260424026174,0.04241991185760179,-0.03693632174558029,0.009082013210688938,0.03924882724255288,-0.020676821438407298,0.014688081844646548,0.02648760727157322,0.0311963108488006,-0.017008642624520225,-0.012716228566288852,-0.027070013316384343,-0.01773015079374426,-0.04122046444311663,-0.03126282954752739,-0.03254437110430163,-0.02604880709666879,-0.0007670517953038722,0.006661551511612236,-0.04143277211048089,0.020694656476102642,0.025677104750588868,-0.025066225844138867,-0.03855185995697262,-0.036634077632439525,0.024368787026941518,0.03330616351039893,0.03890819707980181,-0.03289448528988654,-0.03134710120621008,0.005558155498244503,0.007266673583421735,0.031206754281336683,-0.03148823634483014,0.028207712952140068,-0.004120618121607513,0.03276124228665605,0.006033945955689249,0.012882592272177367,-0.02493760508039929,0.02289604489443588,-0.013095013548644835,-0.0418815686770153,0.04225578127959578,-0.023897146623617364,-0.03397036933067763,-0.0018911759875405185,0.001924098367888666,-0.02978225783527704,0.026804057126984755,-0.04120536766661524,-0.03453503929215613,-0.005670460676213037,-0.0060284687975008236,0.005325562939691826,-0.023157015391009974,-0.03739532760023886,-0.034217491659231596,0.03925991196228701,-0.04017862116647168,0.005612378417223417,-0.029658390402283817,-0.03831403328623248,-0.031502779822836745,0.04032634892156607,0.04052280294175033,-0.02964377890391109,-0.014457625428974658,0.022743962683222686,-0.026496322857516606,0.019979054297281352,-0.005348533546296544,0.007865944831325265,0.04546502887898109,-0.01085766398288621,0.007284431718945057,-0.011258237795477799,-0.028410092719796803,-0.018321233488556708,-0.03740658665913844,-0.021400419861920573,-0.032917014009290105,-0.020604091623953037,-0.02113331398957016,0.01372172934516706,-0.025431623586607065,-0.04411753508279008,-0.005093454461409744,-0.019219432377107146,-0.01746370121261092,0.033765661228622026,-0.00990843895486056,0.0035840667924123787,-0.02069359530502343,0.011739341866013237,-0.024981782024244337,0.006687680896048387,-0.007016101522201204,0.02565404309208267,-0.04434108926170222,0.0030276932487064492,-0.040940063312246776,0.03737357094158788,-0.010292096976032257,0.03460181754842071,-0.0017341410918411894,0.033454183598450205,0.000478575166402358,-0.029681523773581978,-0.03647756764872405,0.02545283653158694,0.03508952558270394,-0.037968813529223516,0.04096109604281608,-0.0072870958567418185,-0.04177647137041601,0.005233827666982744,-0.028965505790060398,0.009745122345088689,0.017883168855531192,0.032668374435793256,0.03410223270702348,0.0366673828663853,-0.022438995452593768,-0.03530529119141586,0.04003109181212528,-0.008569047437903259,0.04024981860813992,0.024284573694371932,-0.006853021973962205,-0.012663720481691893,0.02671251102674033,0.034859253627293356,-0.009706326933464486,0.022691866623038483,0.0017037415881438825,0.0021385313677660025,-0.032937502306574586,0.0020029207985944823,-0.045026040722572214,0.02606448621024147
