0.048120465730536,-0.054934015106143146,0.05398966270058609,-0.02670007554226373,0.06678596266457595,0.009870850375150717,0.0022768409959187117,-0.040885652171065726,-0.041842273740117494,-0.008196163097328563,-0.003044394290119896,0.030778122309997255,-0.0338452228687019,-0.05287293859010521,-0.019565663639121572,-0.06853217094956948,0.031786482589083384,0.07113360662315873,-0.02099918369581633,0.0735286910806278,0.05412750715267602,-0.013708240454875184,0.05659875931684023,-0.03242647527268403,0.01591559804654928,0.047347489350340784,-0.03847752900342846,-0.059605133624078405,-0.05200573383750545,0.07068235987835983,0.07261734934804333,0.06256367832068423,-0.04959172882627616,-0.059807420841401296,0.05964486394198471,-0.06317651060458827,0.05657290601542292,0.03585333729305271,-0.004836613889673415,-0.007012984877280236,-0.04776319138363513,-0.04761454128724212,0.05470301040078139,0.05927953541816553,-0.04954952989058792,-0.05395274472458353,-0.04717577635085695,-0.08037162886850051,-0.06642041570268523,0.027596412976150654,0.011270533445076947,-0.06030980892969512,-0.0070070256360727536,-0.010217083692170012,0.057686230040811685,-0.029848891096607197,0.04151811552509951,-0.013659727915803338,-0.06106073207688795,0.04326809515655853,-0.0008396494522178328,0.007853070673015059,0.08067774906564652,0.027642833501467925,0.042823078588111456,-0.03203359462869174,-0.004666294955806771,-0.07036636610627166,0.050596832603540316,0.0526651807252278,0.01216379359891882,-0.04305656966011278,0.06811205663609941,0.04625083005195897,0.0023965390049511875,-0.055470934799353826,0.020890027800658472,0.0036709550013828006,0.036323940244407125,-0.031668405518299365,-0.022256706271449014,-0.021588308071205885,0.07397702735394623,-0.08100865088493528,-0.016082232039906927,-0.023717050449056053,-0.051648080528090244,0.035756112577599884,0.05546513463167123,0.012889113293624507,0.015487806555851233,0.013124488708033729,0.030576180804905966,-0.04348737304534185,-0.06008786251773987,-0.06361193748905114,0.05157141265292454,-0.02750865348301283,-0.03417236613946792,0.036635231534132943
0.027383753042771162,0.031160144928117205,-0.0483906440737416,-0.0676214453221223,-0.05348522519988862,-0.045245053000964194,-0.05880802024745313,0.05332058612069752,0.03317219276243452,-0.05740782386903952,-0.008594749056631497,0.0026656608357166914,0.056894083885528884,0.03356625057338615,0.03913096311203554,-0.04434459668330215,0.014101353904044146,0.06235051668832274,-0.05822442140741578,0.03531938846709223,-0.015292807106131408,0.016372110389463942,0.04723383348686476,-0.06165960404851686,0.039449660534137704,0.00921981373415018,0.014639894898792572,-0.06842612156560549,-0.017780252293901986,0.03437013550167571,0.027198052197955187,0.0025250467178846436,0.039784404009941654,-0.02176303334943335,-0.024689373288922917,0.0265549735839639,-0.06020363282738974,0.019903008069293977,-0.050056092616728526,-0.04769824343737444,0.03317784869466477,-0.05509852430575894,-0.02423994681015424,-0.05810439573691705,-0.06993712212589594,-0.036039896352604454,0.007866350401798703,-0.023770899296693616,-0.05079932950898648,0.04012299181568765,0.010203914973385205,0.006752518572009606,0.037354168625466026,-0.022903093981231613,-0.0662832664387726,-0.02806709863419849,0.06937841800487343,-0.0058428271614243575,-0.06688323519870194,-0.04922219889484829,0.027042994752732936,-0.02249727809828763,-0.04710314275970425,0.0641631777183403,0.026097533422399538,-0.037200590778528574,-0.051563506304382736,0.036654456589642455,-0.055153459262773444,0.02652655937703309,-0.0023511622240369426,-0.03500002349116532,-0.027458163647306792,0.036275330888849884,-0.022527383440499392,0.02138876202678562,0.03835103303126084,-0.015341562692659478,0.02942585331968375,0.03803518650291099,0.0022332328353184697,-0.0222801748642191,0.05871412672191008,-0.05428433850950515,-0.0037481346501855696,-0.059712014009938315,-0.04415409114863568,-0.0025495929543441764,0.03065425602867693,-0.05225542655739762,-0.04499769458453448,-0.03525074348584409,0.015820282510707374,-0.06271791687087389,-0.04740140376789395,-0.05729091695589639,0.059441539784393045,-0.036667894981540466,-0.01929525865617521,-0.06406796474402397
0.06682249344942408,-0.05949401731112513,0.0713507525878192,0.04615268266076974,-0.009098738458103488,-0.0065638012318545,0.05273141381786476,-0.06582230344725921,-0.06435696108365582,0.032791035773852166,0.0013129761651501396,-0.02868514988695228,0.04285604978618146,-0.05021389142284883,-0.05861939425678932,0.039204515749188845,0.03776238746259565,-0.024130378439867487,-0.06323004974370733,-0.0494792702796179,-0.04202643175519508,0.06101402405659603,0.06580289606664082,-0.00744417566205663,-0.05618444226067266,-0.04161887569363444,0.05605715729372369,-0.03241617140534906,-0.014915548724105984,0.039841196364863364,0.055561147221430726,0.05086712530924797,0.026222171869656655,-0.034183070196539295,0.06477480614643645,0.020748125710273246,-0.05060665195480277,-0.015722623038973513,-0.05511640726430146,0.01988140312669112,0.054362334085930775,-0.039158585043790314,0.0053780519869724725,0.05138542845864044,0.05702162708556264,0.027282115885659066,0.03317065810894327,0.010495029353695074,-0.0494988098892834,-0.04187121731337193,-0.04572405061468786,0.021271449275896005,-0.05161117785377149,-0.05103732200466392,0.022187837929911535,-0.05899581501300999,0.021738178558545884,0.04020765392246037,-0.0021035083818902334,0.004373983954606136,-0.01181370827511498,0.06579853649144199,0.04629946279035314,0.05504361268946393,-0.06158845571598876,0.0372063452085118,0.04324927389879295,-0.036375785760609854,0.03428398122456668,0.06982398224060286,-0.0006717972376949757,0.0710904844192555,0.024762098195990234,-0.06131881509858736,0.060636145766314126,-0.03834729495194207,-0.01743770226664505,0.03097098915133169,0.032701640224859406,0.04695324521412419,-0.0014533582331739462,0.018700713513080086,0.06668037825586855,-0.029033927557492914,-0.044361820482001796,-0.025582141685436807,-0.057487944770797876,-0.018087796921675302,0.04199492907838302,0.04609681556533872,0.02394534657667491,0.016127530491656508,-0.06874615033049714,-0.017056777022193742,0.06419410630227552,0.008822419344857715,0.014647715898288418,0.03593138861899099,-0.03325447465029938,-0.030879814598231844
-0.06486590865816828,0.005009040511801083,0.04457725609629142,-0.02199642587401452,-0.05235038816220128,-0.011063693540722539,-0.028453483612759546,-0.038403735642847214,0.0250938506271346,0.04518265366614561,-0.021104374718465508,0.020116199879199465,-0.017086538542260436,-0.026468796877407504,-0.03633960370971215,0.011400512053529458,0.006910106658782418,-0.04461228503333354,-0.05283541033211102,-0.013568487744636003,-0.06230319358891144,-0.035792698159370445,-0.022216835701805226,-0.050103151507695724,-0.07245021487846755,-0.06711027807337701,0.057574674390261656,-0.05711919169305534,-0.027839878491694288,0.06254411616686022,0.008304771001079134,-0.023833317618661014,-0.007758063283709468,-0.0639373697178333,0.04455613602082121,0.03354529282021054,0.026514626143982263,-0.07268275781740541,0.045814460676636914,-0.06892044005765667,-0.03417157772530002,-0.04101023502420379,-0.08867592574528671,0.01264163877813858,0.0072966000589192274,-0.07220344475940167,-0.02907640512376379,0.03446093083417342,-0.049896349736701616,-0.026491754358852385,-0.02395362810482053,-0.012153198991429259,-0.004693547147344291,-0.0400691294101557,0.01562999203015719,0.048045169689285835,-0.005883683612809686,-0.04345487134320968,-0.005167162473417241,0.030417669977809265,-0.031242346441751726,-0.06786578600427814,-0.012644712369292953,-0.03834851959551114,-0.02208210337049296,-0.05494588484641056,-0.00027497714502819576,-0.016465687077653966,0.014046314294668967,0.04719758584495863,0.005981638487594408,-0.03216002861189664,0.03008586359630214,0.0001412142629875572,-0.07764992297675731,-0.07026528417771585,0.048135956546110095,-0.0689292959811126,-0.07207002037413475,-0.025495223185965893,-0.0057253678172503744,0.03288900789899749,0.0141483906882064,-0.06592750426588143,-0.05842133223833892,-0.044317022594350705,0.08426821484535596,-0.01643164064313721,-0.057419752829537596,0.019769400433945237,-0.02395102835858201,-0.04717719663771362,0.026395828896379963,-0.06981624270365573,-0.058071779979344686,-0.01453295894497914,-0.0831006303376507,0.06124940077339983,-0.03481108238483737,-0.05416184115352922
-0.0202343113702442,-0.003895246473328104,-0.058356251026876554,-0.06131834235617803,-0.05907444735552919,0.009416515208650361,-0.006751680946310997,0.009530807877420694,-0.022722657400181236,0.04190823949300198,0.04883739243828302,0.008245630031999683,-0.005460331229443253,-0.022041544325909962,-0.024685751678360787,0.06844582097723881,-0.0042769647059189755,-0.05735180010389478,-0.018798609247039924,-0.06099817540844827,-0.00936730658833465,-0.056333740619453655,0.06991960735038139,-0.055697931332187645,-0.008220137515549595,-0.04239537154566408,0.05268206154606509,-0.06706732676788696,-0.007622550067747164,-0.058752668724401505,-0.03559165483059584,0.04608772248763364,0.0019554108375289697,-0.05255494438989099,-0.04623645521526368,0.012128261810643236,-0.007032770082063042,0.05133008739092235,0.06562917356495757,-0.001613603824630285,0.045121281270029324,0.01364141234822122,-0.013262213367932228,0.041338610583546,0.012650835735654455,0.05012861204653429,-0.008210377634330551,0.048499043716838774,0.03874221636677247,-0.023178381551401186,-0.06913664745593219,0.024842082055791432,0.004821378158156465,0.04130408369623532,-0.06615528452167291,0.03268047507771337,0.06346806545159162,0.05292130223503676,0.030076875900182036,0.002937873468590794,-0.06019286973524754,0.012794049872568141,0.006035149990599173,0.0375493611803476,-0.07067640118473552,0.0029634308898462674,-0.04948725867117209,0.0675216051899351,0.0634055170904023,0.007142206448566073,-0.04243403329191416,0.017234219439661216,-0.061828370021833154,-0.0656315767531691,-0.054004260244723434,-0.023455685683024637,-0.05804983982944987,-0.0417825339163693,0.04383257515504032,-0.0049971182007677315,-0.028499318595782367,-0.059774364527345386,-0.025849955046990964,0.05833343289540787,-0.048352186709155864,-0.032161705330749024,0.05844165690399272,0.04993312054653717,0.06246826747982108,0.023751404906238255,-0.014419140652121796,-0.0005146960527677506,-0.003976210219834433,0.06417338798898584,-0.014476076935156082,-0.05379815989815562,0.004649600893019442,-0.06424809029760517,0.05424527051594107,0.039932888033512935
-0.037251683627680526,0.0010527901369221833,-0.03592704152343312,0.04495880558599995,0.004604112810270677,-0.008773705751038792,0.07688824849468294,-0.030470600222087734,-0.053448120761343726,0.06004253703494878,-0.04011516793006259,0.035387765914641704,-0.05202180240433555,-0.032744497465911855,-0.05439166099789303,0.0458092918023602,0.05107231080094436,-0.007913167775301405,0.021871927921574805,0.07864959173230493,-0.0019955423012378427,-0.023301609046714498,-0.025371445836546887,-0.06099504586651867,0.06384120050541671,-0.02897113997782888,0.03752449724672387,0.030252025243975238,0.04148323427729686,0.014362833861780637,0.04737713954444725,-0.04732168081905702,0.008114331619356463,0.0018105472343179884,-0.022077880890568072,-0.06209058580726457,0.04513416743457323,0.03484962541714694,0.05486421902889987,0.0034101000983225147,0.014057665398240654,-0.0301479639692118,0.04425596524963682,-0.0591947185535784,-0.07135918197877107,0.029842433510735813,-0.006958467273018171,-0.060613334505103623,0.02671458160207236,-0.01661251481879904,0.011416156045098028,0.04039019309813119,-0.04900949086942547,0.0083766032654848,0.015923132709173945,0.0007068165044329794,-0.06881692339025132,-0.0013595077049253178,-0.009500220864405943,-0.0734294347561714,0.06284064579005465,-0.043185520228215396,-0.06733420224882941,0.0453887473673397,0.0017205942467306875,0.07612387678773594,0.04599619393856528,-0.03290633605221609,0.006705683116139358,-0.0236756101079081,-0.0687702126611114,0.05435016526049933,-0.02495656618543861,0.059010100912727126,0.020332114670634612,-0.057029834972549744,-0.07329222387778726,0.025755102768945885,0.03685762772202752,0.017111430344184744,-0.012392319987180347,0.03880900026042619,0.016117280384846732,-0.02203282179905403,-0.0007678460984487656,-0.00342433009353903,0.043699514290816296,0.05556943350910753,-0.05642032002348267,0.04718938359176849,-0.018619697272964995,-0.010792928445651339,0.04115276758240004,0.010564087528647435,-0.04855977233925012,-0.058261660348531086,-0.0586169788144937,-0.04345173480678745,-0.005043810743796277,0.007853411016321058
-0.04188023961546748,0.0555451569125463,-0.02350989253721617,0.06424478846651638,0.031374252615235645,-0.0324944382599946,-0.028288016059771624,-0.025159146920281872,0.04659456095889464,-0.009059065732864378,-0.014705015827873633,0.053178883597886785,-0.04012671752561196,-0.05159711960992862,0.027215881424526328,-0.05102823706242157,-0.04563685505914242,0.03442601058210808,-0.04530543760278539,0.0325589177828578,0.02634334681347022,0.011029752595252781,0.013448729453297212,0.03059938683601797,-0.06847019949397824,0.04363295777015448,-0.007311528193244071,0.032087750885455915,0.01245303651523802,-0.05972639912912265,-0.03338038825653382,-0.03932534418206257,0.002466280655775285,0.030209985268623618,-0.05256415106300319,0.05377896668041161,-0.05947082807866918,0.035588670901537826,-0.010642692565535329,0.036840368301205975,-0.07059144819981818,-0.0047466802220611365,0.06543637280446951,0.04350799573844762,0.0033003533710544986,-0.05487558166019982,0.0295576688307236,0.014844638978901453,0.046538406095780326,-0.0056388262286858675,0.04665237374910275,-0.023125303244055415,-0.04737502038128782,-0.03692690464023162,-0.030162065918981323,-0.0391925967434958,0.03764608251191965,0.0123674545895853,0.024024084222696154,-0.02714848682843949,0.03413747653412703,0.008447536749709317,-0.04305686260665083,0.03144284796336511,0.012702019801143223,0.03416725475542325,-0.02296573153305457,0.02674983061147182,0.05442207363668011,0.03577593598441932,0.011345180248539097,0.060693663881044996,0.012351315758148837,0.061469195613392584,0.0036793818223192624,0.008955386420919545,0.018518126649693822,-0.01189132727480804,-0.017901784035782232,0.04409867467309235,0.047457935356768975,0.0023126548725543603,-0.02384290580147478,0.05347632337477341,-0.045793365350129775,-0.02320197405995274,-0.006498964599971408,0.02614257105926705,-0.046657015856181074,0.06368750094449323,-0.030234874264421535,0.008004880983871768,0.06689368932487227,0.023687826354189673,0.04562671148390007,0.03982429457053699,0.024082436946959242,0.06701530755239932,0.05223028798186766,-0.0005379943648635466
0.020544451097560982,0.01373480347599025,0.0336176744727029,0.018467959705798283,-0.02818937322796853,-0.06351829304525623,-0.016315758723967948,0.03723665992367659,-0.031765275280143106,0.030484679474527293,0.05540967620738087,-0.016651845131803254,-0.04842208030547536,0.05111059948416712,0.06258883769934916,-0.0104670195611654,0.053666718649943074,-0.019168349218296042,0.0666474344464505,-0.015958387138477064,-0.036491603208605256,-0.048607848800282655,-0.07277858210897266,-0.05964989176371249,-0.0030568545692667413,-0.03972380799749102,-0.04203287472491441,-0.009359625831534326,0.027689484404947933,8.653801805189947e-05,-0.009936611160281253,-0.05726960474471163,0.06671062547567723,-0.029878948865021918,-0.026656123950667368,-0.032860895813465435,0.06893218540399523,-0.031535586802940316,-0.04079359778600166,0.00826532450535347,0.030666629410463983,0.0029799158058756024,-0.0026125622725240855,-0.024709939794540822,0.019728251536617503,0.007049858022964328,0.0069673033643596225,-0.016383822780621008,-0.048875374843155295,0.016401038228888967,-0.0932358335706515,0.02368911763830979,0.043803326416071535,0.029686286934905076,0.04673832980549255,-0.03984441294621123,9.790440684379177e-05,-0.015509968288269732,-0.04940530043813208,-0.014641891554788735,0.0611182773204143,0.024333060311295784,-0.06232896626684112,-0.04079112096010033,0.025890278970083336,0.013810607513155883,0.04983439194805478,0.018070963430329504,0.05577266457355248,-0.011574116521505525,-0.0045252794514370675,0.020481663838530634,0.0012884167885692899,-0.02696376832346331,0.04299246277794885,-0.06511467340288392,0.03595149476994249,-0.030480891542724094,0.041952394652579474,0.019855757225662077,0.02899382206123904,-0.04901867758223473,-0.05681967078013692,0.007441819778184245,0.05603394100017973,-0.0014735376194432138,0.06785604179842358,0.036477487411060654,0.006269164453882915,-0.014237681100139983,-0.013931897445529832,-0.0330803131028924,0.042165180503840195,-0.02011460666578593,0.049710319783460216,0.06563412973156603,-0.011676852423729546,0.010523715483922714,0.043336171475446,0.01732842880420305
-0.05454232435728396,-0.03636170970524129,0.03975690253622461,-0.012378590673903431,0.00583566730474375,-0.01561346179907538,0.06546564848621356,-0.0198773561917052,0.06799914928609184,0.03465675248830004,0.0773085586387498,0.02269603623730737,0.010907810528087251,0.04280806061658554,0.01549516018934501,0.05185772021126213,-0.050961710142498604,-0.025474905535229304,0.017742266274501206,-0.021739418940607446,0.02091091298530267,0.04856495101291146,0.03272237876502805,-0.00421547489037297,-0.06617927498924743,0.0697376732502979,0.008723106583669885,0.06570382061757372,-0.010724452875786158,0.021106526031558513,0.03975817398666405,0.011651956816841322,-0.015215894537511468,0.03547378595081634,0.04230122186143225,-0.04558323840140024,-0.04972340663145135,0.026806861323133594,-0.009215569661544834,-0.050147842125354884,0.02230686409329106,-0.04585737704895122,0.044092019842042855,0.07673485522582402,0.034542410636879475,0.059544612282957425,-0.07677050714747576,-0.05381989189557866,-0.05923940678204313,-0.041143159933688576,-0.04642448897983396,-0.05684276740869229,0.03319606989482399,-0.05104582108409992,0.039718792114832556,0.043613271305168455,0.05556494696188954,-0.0018608914156234477,0.009226315083132644,-0.05208272407280247,-0.010894591372315746,-0.026641525554291456,-0.05997923035387786,0.0001676999100160462,0.014017036244573285,0.0621746276463801,-0.03722149182822885,0.023332593998924706,-0.0377172027342208,0.012039780310219971,0.06849066635571088,-0.05687900652196032,-0.06768688533734117,-0.035706442977415126,0.02235270579395311,0.019830791764853733,0.030524915384056186,0.05250369604142199,-0.07054596580128206,0.06697092594804512,-0.018563910565863352,-0.07073446441318816,-0.06339985745975121,0.055101783048980696,-0.046957823846996,0.05335519691576162,-0.04597615429219579,0.015484864591657488,0.0008977369531622974,-0.010029677173451327,0.020620984774386182,0.03990684946806143,-0.061698678975937296,0.06088861945228712,0.024329320733123893,0.05914268681802406,-0.01619791876468367,0.05743724530707766,-0.06725652782228435,-0.02835183854234404
-0.08113849371070027,-0.042885740089668625,-0.023075464073453074,-0.045779104257813404,-0.06504698333538396,0.07189880638897106,-0.019107105968407073,0.019830301130500758,-0.05271790181569267,0.02066501538541726,-0.054378328311671366,-0.02758698260235435,0.05912056922657875,-0.009309389008819263,-0.0429110473515503,-0.06327088455312978,0.05285226555205463,-0.03321443712998722,-0.010490657877170585,0.049881592126176995,-0.040797287092482655,-0.039847686614902574,0.007999757253811697,0.05403977901067041,0.012322426906904169,0.027461303898498546,-0.043242074273625725,-0.006492661448799449,-0.05837322723197331,-0.01609011820304148,-0.05898848945043413,0.024907660874743612,0.0212658204263279,-0.038868122927272444,0.04016891184713028,-0.03224098868570153,0.00992971251733332,-0.019269200433865284,-0.046610528317406474,0.04716172525379586,-0.03960877036935856,-0.06918458246752152,-0.05251820325614011,-0.10715801513978766,0.0084300410313117,-0.034010367976206,-0.016130970443821304,-0.029248501716966913,0.038871421033910766,-0.030254439759880396,0.004367253572040458,0.005858134021161869,-0.033784768477499644,0.038897391530783094,-0.04567721768690176,-0.07081186590297926,0.03778484910492976,-0.04707542350815753,0.04510217468041176,0.05949623483532147,-0.06206351564806771,-0.005773862249152141,-0.08391618013961878,0.0779293685399123,0.010454403966236247,0.08379582657569849,-0.026401422333199927,0.03951673127173465,0.06386751730573584,0.00551078319990643,-0.046449281410145545,-0.028536506407131904,0.03492712800420866,-0.06842567061120745,-0.0225266991333162,-0.054936092749462144,0.021754847434054272,0.0445145015141221,0.04666609826233971,-0.05953295324176313,0.03812351158566053,0.03683365671215676,-0.05353392313516132,0.0597729911912842,-0.0217714184203972,-0.031236455943583555,-0.0697548035030634,0.0049989758400695175,0.011658587578151792,-0.005949704088677205,0.048426861066000595,0.04363849428688503,0.07305585383156943,0.05844989622942879,0.022911821288024572,0.07724746808112927,-0.004788872513131691,0.019332672528946104,-0.0650954172746503,0.006529075081007067
0.040670226352908206,-0.020986587084590107,-0.05067271757386152,-0.06573599486808648,0.03827597546007089,0.025249523725107373,0.05260153946847734,-0.04172663638980949,-0.012020369609693368,0.002955791815226913,-0.02042068490188259,-0.0028717611913803287,-0.05170452298566321,0.02582920594957372,-0.03174558472368293,-0.016884609053088542,0.06644504833483128,-0.00518826164387326,0.02757002749500785,-0.039727130981643405,0.0006311643533088718,-0.010563675697514457,0.02584700186411075,0.006825789745028371,-0.06391023221081367,-0.04675035537017627,-0.015344990033772585,-0.056424471129601105,0.02760914856044608,-0.060950398193285946,0.05650770494897908,-0.057411628243832225,-0.0666702359652516,-0.04594640432102917,0.05199633147400072,0.03780472273469117,-0.017151230573088067,0.008593272025921125,0.059234631897424034,-0.06300037097314297,-0.04532233240061548,-0.05306873040166192,0.03656260738993618,-0.049157090279363956,-0.02466379634290286,-0.06652109971813822,0.026263772859952753,-0.055653668418037795,0.00809567481829826,0.049659662549313435,0.0504224887734384,0.05083290242495858,-0.049412366323090526,-0.01162509846323661,-0.03656926769729482,0.01787237580347921,0.00963134700828018,0.03424056651534113,-0.06927737074851335,-0.01982364078907678,-0.0252941294684765,0.036887570168522024,0.020092749896549633,0.015429052303781193,-0.039096263598431574,0.06169638631612706,-0.005892317021119073,0.04415811703217032,0.054706483518565885,0.009878259993634342,-0.008342977495869139,-0.016311224458633894,0.051606283796129124,0.00863821095677575,0.009084175635259081,-0.024163215141810086,0.05262081039239304,0.011670744822679671,0.0029824675902962172,-0.016740068580391294,-0.01466661465050284,0.043322564476109465,-0.029192332415217306,-0.021004776658982607,0.0634846644416161,0.026404483352117578,-0.02228984382528866,-0.018066353219593177,0.060275225038836755,-0.03092359282755438,-0.0695077288857646,-0.023491747597514163,0.052867759928333535,-0.010229317611129975,-0.003796966652936537,0.04910879306277165,0.03011340927540361,-0.06590347112571493,-0.015185049633348525,0.06267193668183826
0.01902159318729777,0.014684977814469376,0.0023081852773204313,0.023581852189295677,0.04425865696659394,-0.04090862926490366,0.06514338842128496,-0.051499341362177986,-0.05603598285182906,0.05964307488122399,-0.007232496665597529,0.048411345520625745,0.060333917049284445,-0.04662006345896973,-0.014460920105145306,-0.07068856107625625,0.01347939279245104,-0.028023969605432908,0.025868045110020343,0.016011104876473198,-0.010561788305503455,-0.030107589258467703,-0.05949922891947117,-0.04371137618061597,-0.008162056938128454,-0.06141117612973929,0.0544215577243949,-0.06730515927835887,0.05190390337939763,-0.033893131154409804,0.021550039746963456,-0.023422929901812325,-0.03231389405540394,0.05657470678094153,0.035469128172079464,-0.02110388544718391,-0.03155622472995854,0.06607847991299864,0.013547294015290824,-0.05777049984852751,-0.039558693043429155,0.03751752020927812,0.011350353965922601,0.05435003840875224,-0.046333710668993895,0.043710378443195676,-0.012377640243089962,-0.018535160696951197,0.013728409542593504,-0.010140025284573077,0.04779458446618047,0.05249475911861103,0.03657687613126378,0.0296832746737549,-0.04357836465496242,-0.03139035121972565,-0.04179339665461032,0.041927808734223304,-0.044093715758433044,-0.0008438651267531476,0.056848400390068096,0.06165151066620673,0.06346110746746063,-0.06423260685635337,-0.046195946133304425,-0.03951288046556914,0.03861508084184849,0.055377534529542284,0.05881674459786774,0.03750625337195345,-0.02354631186986985,-0.06656179969434557,0.01704340288675231,0.02013876501099433,-0.07281762685208472,-0.032018220994325164,0.04714647877073779,-0.007191896901974924,0.02051494848250471,-0.036838534845530936,-0.023088937967640777,0.015764430489554292,0.048686587623991605,0.0036855295336091416,-0.06774267639022134,-0.04058818465588469,0.014005541344038782,0.05356486300019067,0.06664608600952325,0.010229792251663419,0.07435520494126491,-0.014310126773147757,-0.008976295006495476,0.041706216007601445,0.04225626770534173,-0.03837262358756353,-0.03182063830235455,0.043833364763393896,0.05709700997787969,-0.06193879552686671
0.03898112435169948,0.03357629128968826,0.05823981277567912,0.004321317129714667,-0.013997748482765138,0.05642227881077625,0.012751747377309221,-0.025815467019908448,-0.016399791274478236,-0.030291613166416938,-0.06344157264319654,-0.007649046341161809,0.03099382989704616,0.027308270685240693,-0.049768734834327984,-0.06211709161035163,0.04655095960658718,-0.035454161260988555,0.0366858219577422,-0.03504058597261524,0.03234366960152188,0.03259038081181,-0.027233527501558226,-0.017712423654029173,-0.04113628537190437,-0.03151988200221963,0.04438026763327663,0.024167678467251916,0.003837270250985829,0.042595848540400306,0.06517422894716966,0.011189049507580665,0.013412938613903134,0.041540929145890956,0.037446605536914944,0.034189342056684335,-0.029764044708554968,0.023595485056050806,-0.06348458951340614,0.01347570737986045,0.058287993398690556,0.020856256080819972,-0.015796565876172248,0.06883984057576768,-0.030281040647170895,0.06478752220089354,0.0015626873436061942,0.02665606946720602,0.03974922263187955,0.034633189675487126,-0.059455773719447325,0.0014959881915305338,0.022709539959453462,0.016178464626487928,-0.05126284759253701,0.017791678979553215,-0.0560560217196313,-0.057799404130688146,0.04709007211150491,0.0569298522137511,0.022203938434779774,-0.06621571359951961,-0.017773416926814806,0.012973987232021473,0.05339977187738517,-0.01555598967608219,0.06265896687617725,-0.0037337873978701003,0.05215887563534368,-0.05729520702354546,-0.05889628501432005,0.04860327668808976,-0.026811994035063652,0.015758370658086045,0.01673583840586005,-0.02721600605749852,0.043943804191675824,0.03322792752445733,0.005046688365665055,0.044166481634829856,0.037918948316702464,-0.04733087902742361,-0.011042827980427822,0.03755318021398406,-0.03347197557909391,0.06073756843511565,0.031643253008747985,-0.036320344353471284,0.055482935375248656,0.034697930191418556,-0.04975648922350832,0.0024614179388480484,-0.04261779077298494,-0.029602340960414537,-0.009149302720606956,-0.06924468560461437,-0.046530801270717695,-0.028139289380366236,-0.045955088009567324,0.008535757707807297
0.012515277648840348,0.062073513329245614,0.0496387437498883,-0.0038383814368820324,0.051835641838586397,0.03340752865166297,0.03683092541883941,0.033829875158180034,0.04826240282126584,-0.009423368626634336,0.03925765750533581,-0.06566552133305036,0.025865388079260834,0.05580736866939767,-0.019607869495052412,0.03275797952050788,-0.06464821789905414,0.05282085027237281,0.07015935054083391,0.056391834285068554,-0.013090446739602263,0.03748467823318333,0.005717451270923738,0.013635021564032871,-0.061841056225463535,-0.011556944658719117,-0.06083091076479259,-0.05052691976130499,0.06757737661348578,-0.04521094009692783,-0.049138613020911576,0.046554239314264084,0.006652639453686646,0.05868256254744092,0.0425020171790271,0.03199405532341315,0.019558991906509088,0.05643460411968387,-0.021636740449182748,0.0440619686312506,-0.036402557318977874,0.05001607180462089,-0.028863406398104037,-0.006018887522697691,-0.02890565768418165,0.06103023854850251,-0.011470859234536373,0.07002746897875974,-0.06751113595518556,-0.0138523638877908,-0.05321781860413189,-0.06898693208442974,-0.06759668857966208,-0.032199121170131406,-0.030218054303432926,-0.06429037548728152,0.024969802849730757,-0.06801204208479565,0.015773291547405144,0.011995274574686271,0.0032685665308771206,0.016294906939643694,0.0658818459674596,0.01235412763627022,-0.05199645130627391,0.029117087937482827,-0.06349621181960417,-0.06542466521456079,0.0380755275351818,0.014714736817840747,-0.04665221272206291,0.007264057594457363,-0.056575755785242765,0.025152124728857625,0.03458176776136718,0.03505272378555743,-0.06491444886027165,0.03456303576612704,0.05190227819127659,-0.020187871338095555,-0.03800438449077306,0.03224461344830708,0.031007281550562107,0.030660068736603534,0.010824096772337907,0.03609040988299636,0.004847086463818791,0.031071811224277004,-0.06939325001903715,0.016031320807113086,-0.01441569831666139,0.05058312765993807,-0.026323930525577688,-0.011393805141601751,0.005184180590522858,-0.012238308275404031,0.02653625496458302,-0.0013451138065510848,0.012032345445494686,0.04972646212326532
0.017017958512342415,-0.07073096778542558,0.03381815475552967,0.010325755327635747,-0.00675563971283285,-0.01040586567048788,0.03328619166379693,-0.018974371613587476,0.03918808384184044,0.04057283723469862,-0.02739273813120447,0.04268385068910879,-0.011030324963628874,0.059206010634386325,-0.020130442481541395,0.04277844649779648,-0.05044373741924669,0.006602752585012681,-0.04727369885172474,-0.012646071657284179,0.02180655722022881,-0.0016611592271840495,0.030095233540935507,-0.06895805295864105,-0.06836333140060928,0.003488533711551257,-0.04929165044736832,-0.04911000571571489,0.0440805370308899,0.01166909648926856,-0.04439265596832827,-0.016182018331165327,-0.048734132530485315,0.02427709962862943,0.006898988264829289,0.0649801770531022,-0.007981716940673886,0.005220914603745378,-0.03364542465831401,-0.02849502702529901,0.01610206338035896,-0.03587080297901358,0.009175489285247591,-0.009808029997928439,0.019466474895040508,-0.015413951039813276,0.05727718841877777,-0.06984461790478441,0.018032061480121406,0.06605887680616333,0.012613104988418618,-0.00028451723056803924,0.00809224428530951,-0.019598120554749736,0.026827734985531912,-0.02157913622478094,0.06956841702928165,0.051734388582851,0.05840011326829212,-0.054741874970281636,0.021562781205520343,0.025148905153900978,0.021545948977479645,-0.009181342327935561,0.009434030474030825,-0.010164104785906097,-0.012927490409555426,-0.010206317919788975,0.05774467828621495,0.047060075866731756,0.04867558260487465,-0.05814964896604929,-0.020120371089176282,0.06493334836317795,0.02867081391506447,0.03162893533836527,0.06489305546722168,-0.051910345273941685,-0.05032527516912411,0.020030897337329635,-0.06550748882839072,-0.007032410353008047,-0.02332721265922167,0.04168485961054795,0.005068227235172322,0.04785375065873669,-0.003804294967906962,-0.03490701992111306,-0.04829971058374982,-0.027442354450064103,0.05138992260397607,0.06449372533400699,0.047974681248698074,-0.02425322487588729,0.05201061028238341,0.04095195571108965,-0.001978274361188236,0.03727802789076816,-0.0690439127285733,-0.011528906537706723
-0.07565101425376798,0.057305369133182106,-0.04111031493357414,-0.05137053728824874,0.05305619135004778,-0.045213127651392335,0.06931181861818458,-0.01263654955308413,-0.07260617769867941,0.041635315679816876,0.04939829634895079,0.05219580828508561,-0.030075269190884435,0.005359739269875553,-0.05553696493609225,-0.04095035855312249,-0.06751821767246369,-0.03756315001256006,-0.050243201876015144,0.029956691674148675,-0.007235808572538743,0.03326677092596313,-0.05751812782995594,-0.048069188174431045,-0.041929326254175656,-0.03047011298770405,0.04494507379842269,0.04720048361379455,0.06677456687040088,0.0236603882590174,-0.008623925500132723,-0.03417069267479644,0.04420533983690226,-0.030045208097902534,0.04523105413723092,-0.04921229440385352,-0.05310143645211866,0.00939920511760257,-0.03751057267088159,-0.03355029490850554,-0.002509010991613614,0.0761177305732042,-0.019448390287073937,0.009205345797254736,-0.015038645006485952,-0.02630015513993787,0.012918007172038374,-0.036914327696440596,-0.059570273274431956,0.03249171432344585,-0.0488903980246632,0.052463433086637555,-0.01287768516091598,-0.02845377710555609,0.027170826930611448,0.006557402266479208,0.047290811801680446,-0.06965323463643734,-0.024171745631916045,0.04417486387067973,0.07083195678861985,-0.03753434143248528,-0.040925614712148,0.04193313864847532,0.05442178307418129,0.05248152276165519,-0.053329891355174915,0.01136714695877284,0.05341488658874996,0.025033807584031814,0.05820993606697165,-0.012241235896298589,0.01969411376899679,-0.06749263394159982,-0.005569710930970134,-0.016332081533919234,0.057731962172623594,-0.06283579337770727,-0.042722696092103725,0.007538503075184639,-0.04420150186581782,0.003113936635720477,-0.004241388052967927,0.016666966963686847,0.06611732293906161,0.053347101166358706,0.027069560764489825,0.04864564268479441,-0.06611277595215213,0.04939931715560399,0.08657893081853633,0.006410660549015807,-0.0009065153695461372,0.052849566811802626,0.02497910934048057,-0.03809867137056077,0.06966641613839179,0.01012739065010998,0.05645415227220223,0.01072810094456018
-0.024243725078346698,-0.011755724941111483,0.06884277858978625,0.05361830054624244,-0.06073978875846675,-0.03237612251781054,0.07246523980638889,-0.06400681905127222,0.005880563174692342,-0.0268393555581951,-0.030385664707611795,0.00465028793024063,0.06952881370149834,-0.04408648368775334,0.07090712466532202,-0.008387433546514545,0.06161471916024712,-0.003194625293957631,-0.01577851563325002,0.004851982840767179,0.0326150455448724,0.01751747609984466,-0.00011550969318026646,0.05258599251938478,-0.009443223618833983,0.024358040906582012,-0.0248270386693699,0.05235509487698553,0.04408961765844465,-0.030031711785657358,-0.03079762386594773,0.043100454993782816,-0.06793575518353341,-0.008068634479573818,0.016398733880854315,0.020769674402734393,-0.05200214570843132,-0.0658591224507814,-0.03734288115619093,0.03827439018522644,0.023618130752765507,-0.014306694943517459,-0.02044747844451168,-0.03509902113798518,0.04214061652468146,-0.014253800581625438,-0.02235820522238211,0.061677483457508696,0.037396183430829504,0.02022633050655227,0.018295101291284314,0.057293619687530474,-0.036189766907869556,0.0010561623804824284,0.03219384213475004,0.011706589921259163,-0.022710111023429652,0.04549759553700841,-0.050240930898020536,-0.07600740486227725,0.0005436576749007846,-0.04654625758113841,0.030830956309120944,0.02218034806981956,0.0027262785158939044,-0.048223953988739535,-0.0248975361729721,0.022371204506003658,-0.06178206018616801,0.06406586678060633,0.0768004845576878,0.021604431866734185,-0.015110197903403432,-0.040790201368105836,0.047321390696395384,-0.055725733981246375,0.04712639263268504,-0.04805290224813971,0.06605832628763665,-0.04890030151003179,0.005644431162767056,0.035473507095721106,0.04722631132693461,0.03751128510261744,-0.02937826006562032,0.014899969774057525,0.021345689329057855,-0.01041359756544875,0.0019227124327229471,0.035115768060301054,0.01867588526430384,0.0032452404027374857,0.013309949908950514,-0.006289620617868306,-0.005034721442270259,-0.024855312572150505,-0.04893514652495881,-0.034074035004570374,0.07039572769585171,-0.029255199675581746
-0.10843699328154172,0.06517090367413178,-0.05141682732802396,0.000507951875762266,-0.03166208958091078,0.020774597643741226,0.0015587321710489443,-0.03904213708501513,-0.04955711714963218,-0.052951653613623584,-0.032050585461228895,-0.047487869814718905,-0.0009874451581249433,0.004834514182426895,-0.0015479998130827908,0.00841881825924122,-0.08409571825229081,-0.07607288480749723,-0.08920791204461548,-0.04064030891430564,0.040786361607977197,0.05354988883514378,-0.00876901321310221,0.02182431922776497,0.030003725421499775,0.04177276893210282,-0.02357992000268162,-0.052903251595643505,0.05384961755610859,-0.0046165677906950114,0.033845033194336197,0.016372746994243927,-0.07916661748328788,0.02507437004599778,0.003999849221486563,-0.07067972168016214,0.045875612211977085,-0.06615389406029032,0.04214831918018479,-0.03630876963123711,-0.05623587857135926,0.007011823897419821,-0.1058563997016322,0.07995078982543666,0.015774905245692042,-0.06414618519884574,0.01047310255601447,-0.02886841805163118,-0.04597583740442387,-0.025804410475604205,0.09941267346732552,-0.06315067456384943,0.0327321741207176,0.06784926866546465,-0.033391075118715384,-0.03422459736077839,-0.05249769174210287,-0.034860884117289645,0.02995598517110889,-0.07930801258214219,-0.051625310117131284,-0.010588777234757318,-0.10479196771154917,-0.07383531662062966,0.06600056202634697,0.02933200110848648,0.0211208070847216,-0.0033985266357552738,0.025671075131173796,-0.03724561783960302,-0.06570065639251099,-0.08203208131971688,-0.03412522633263849,-0.04757002390714784,-0.08191009384812308,-0.04415651639321392,0.018438635307360108,0.037890615536912364,-0.01630696046342375,-0.01926646858661017,-0.06649192036128276,-0.055516436426666135,0.022796360819134068,-0.0007320359116725411,-0.06390408575945238,-0.07241000471395133,0.04997055630140785,-0.055460009534110975,-0.02508094206746666,0.04336746202133339,0.02963184216119829,0.055547443272292725,-0.0801537797652479,-0.02224447336003925,0.04806589908525519,-0.0489107427483333,-0.10273254891590272,0.06117344737590935,0.058484152328473274,-0.06425242273214389
-0.058575063937339286,-0.05964660115252137,-0.0040402539681785934,-0.036447823545938424,0.036949449145309746,0.07262092135301162,-0.04688355942647196,0.04513141704868509,0.059366413171926785,-0.0676715635687488,0.014994463953243659,-0.02177133839947238,0.03310922338609683,0.05957587407899212,-0.023380179139878908,-0.05597957294711816,-0.04360918326959411,-0.013185656235436063,-0.005313116083915312,-0.02745807912767273,0.01804891831152751,0.022964859828629558,0.06383617598634853,0.022348445130236642,0.044111188874260125,-0.017099159345565888,0.007559360603982546,0.02541262192014414,-0.0703527387191284,-0.007448514565390012,-0.05386231801198638,0.035682732021136906,-0.005701467183905563,0.056481373661088914,-0.05880259566828591,0.023439948648278055,0.04478045856873647,0.011580269420389278,-0.0011126381002810523,-0.01597563235884366,-0.01646574970363942,-0.024682293579285072,-0.03607713815954143,-0.06593965579588763,0.04449254233262097,-0.0658719264011393,0.013695223198109088,0.013306438532460274,0.05673495813952815,-0.0391522404525425,0.05061151997924912,-0.011172767282724242,-0.02684705799479204,-0.025737763429312985,0.03919244111275265,-0.016464445070184932,-0.06261148570990896,-0.054370079940868,-0.020128167710895338,-0.049700652991032886,0.05067095350932858,-0.026969160556159655,0.011133915852797,0.0051233422187997165,-0.01800735045569433,-0.007028530272323745,0.05233864218411825,-0.03760789023777278,-0.019805011057964627,0.021819007100877478,-0.06065255496456486,-0.009954141372073939,-0.02169925731833846,0.005071552837079348,0.03620102952517133,-0.04748169937252549,-0.020667112593884013,-0.06360507147085429,0.036940827148502726,0.04500889838329058,0.036097157128802695,-0.012589075134932261,0.06305018123968102,0.05071242126559112,0.024838702176981992,0.01416104214691009,-0.02449061533428681,-0.05942733529517736,-0.0549946304057402,0.041672366585436875,-0.0037867792648914093,-0.03240806056352909,0.06785485256181803,-0.0429369559209796,-0.018150640170713633,0.026227462396721923,0.0004916914480789097,-0.014425062307944884,-0.04041215601800926,-0.052566235260376674
-0.03647453321911441,0.0471563217022425,0.029619742956285305,0.025287205081086783,-0.0007573820223369249,0.039693402073768994,-0.05755815841794372,-0.051794715357970936,-0.021769426246005252,-0.007972201010014529,-0.05241739348148522,-0.024699221145763166,0.05563209305773392,-0.043913964542352774,0.06141374599771682,-0.01742013100500618,0.013696991625713861,0.04559842268943129,-0.03557897312946287,0.07067452548324704,0.009841227866718164,0.03959915074383773,0.003890219854896987,0.005116606026477705,-0.024622539953970658,-0.03546641430458896,0.005142332095726815,0.026964568367074268,-0.04811062682080747,0.05088903461841987,-0.06871993294820189,0.0637764809295813,-0.05965296302405918,0.06503333975119716,-0.05197367780934575,-0.05897975205532172,-0.0654421982471883,-0.033194330508163075,0.0010044574508387,-0.03621082382545097,0.0015866762148968178,-0.03309172489321631,0.048974696140599086,0.027051588579275462,-0.04951370481540919,0.01647991897643794,-0.0243893113319764,0.0629613270868338,0.01891586071841897,0.04545627791851585,0.051584185789168166,0.0003773278407745717,0.019239876063582087,0.0677843652267838,-0.06590726692630845,-0.018307968815843303,0.016237714426157887,0.04617999003233135,-0.026153322251654204,-0.01947765871941621,-0.05441128475343049,-0.017082335751877988,-0.030618774799494326,0.03969059565797983,0.05984995048613953,0.03367900183636191,0.021921334440450926,0.05930352873537342,0.0336509680597324,-0.030059522284911634,-0.024077504644822813,0.0071166586882567134,0.050078471199433996,0.015225640653246872,-0.034472577739945214,0.0628438735916089,0.02173898884408841,0.04077552484224205,-0.06565902478427277,-0.05448914183039062,-0.0009309213195418942,-0.01832596587941672,-0.0184016392472134,-0.032750393417743565,-0.021913345806277372,0.02312792621973249,-0.025904900467804783,-0.06138550639243385,-0.014985639823828084,-0.06397434709067605,-0.04908886378387126,0.06425644163713123,-0.02492905230221098,0.04420196038337726,-0.003178384392223302,0.05689809782926927,-0.0573403431743203,0.06099651274028858,-0.03285554288669388,-0.026481991744975245
0.05534812742770656,-0.022951609467951647,0.010253864498736456,-0.0608346251849113,0.03767886833800946,-0.06979323138022962,0.041185909415502375,-0.058757901766991256,-0.03430949966622585,0.03532378476627855,-0.048032727191258284,-0.010657454966539186,-0.04513781399975407,-0.020867845773441522,-0.005270435514512409,-0.007974602627366711,-0.058003519942614976,0.042054172458309974,-0.024826251442886194,0.05280732387307423,-0.05352033672168642,0.0334740537623156,-0.013575587350943698,-0.0687182330854135,-0.004947438077464228,0.018470884441584026,0.01842922099386017,-0.013497592529404738,-0.015334947236087242,-0.03139658764908887,-0.0016738138560747629,-0.027770522887168206,0.043870960163524375,-0.033323867013203015,0.04619842100307882,0.022110014941511505,0.06225560881492534,0.03407988302853972,-0.05305581741139928,-0.03752777436829726,-0.015622926616044593,-0.01516849825033971,-0.025506389524156847,-0.030283716671600583,-0.04577095913296894,-0.020192797895070537,0.06403841807343838,0.06743046459241084,-0.013532130827450632,-0.029455558683196104,0.061843579387440034,-0.05086096386103245,-0.06339477456142535,0.01192387062760547,-0.06095094173213288,-0.04450172471674851,-0.033643915639672194,0.05341622310029695,-0.05437815444072157,-0.07033904649073212,0.06350119100242516,0.060853326793268964,0.05075630272741713,0.05891133889059824,-0.062289056182399646,-0.031002276071107525,0.030002213235088684,-0.020014767198880276,-0.04409561754118496,0.0018489935912948119,0.018427719296001427,-0.06013850689662151,0.005802508037978327,-0.0010806170342202298,-0.005745260547403708,-0.016096119470873874,-0.05691652782890884,-0.04411643030079147,-0.029507082583952397,-0.037164083266902244,-0.016401044861950397,-0.06192284374281171,-0.041494723997762384,0.01771571378088696,-0.009143901824075498,0.013615829745896146,-0.04674929480220832,-0.0284827800106863,0.016473214687813292,0.02197821698925098,-0.014709827947276148,0.061528201077421185,-0.007936228784537827,-0.025821213201595035,-0.03131304754015594,-0.003566036854281446,0.035404048132546315,0.018499250867624675,0.06145692655396104,0.06748659992044259
-0.03176829960827715,0.025360544358893913,-0.0025573674794147085,0.05234778292394316,0.06435906588669853,-0.06061280308086064,-0.016215391115129926,-0.027977606703568088,-0.035622087403438286,-0.05959415659405817,0.018013790907589127,0.053060863070894124,-0.05573334251581793,0.024330274476558323,-0.03237199858370913,-0.010363493296705545,-0.06943340546966464,0.04804998109596876,-0.05785002658680848,0.02718831196323083,0.010373943753046858,0.05024550161944428,0.035815972349511914,-0.03853086471326601,-0.005973505043953488,-0.0733038391404404,-0.04115662354750064,0.006920223436241299,-0.060077546903933104,-0.021542176616115686,0.0030580929220033457,-0.03890205807617992,-0.009612922669364305,0.022366021704002557,0.07290736244679323,-0.002705841689116239,0.04818800895369617,-0.06990918639133593,-0.012642856181130363,-0.056353612129408065,-0.011431071612813214,-0.05907513321778229,0.07617181822033588,0.01657862303289531,-0.032583353834142896,-0.023155427685817118,0.06269706710113013,-0.007597807577857014,-0.015326096749809672,0.042970798208907965,0.008657012239627308,0.022797350988313137,0.0220265394163631,-0.04220066625049618,-0.006662964860772163,0.01794938528130408,-0.040952558006691196,0.06127468546572409,0.005380923697499993,0.017586740331542672,0.011042748209243492,0.05481676689119677,0.02800894967867352,-0.05994184354329664,0.041481012740286274,0.04857777588076093,0.013588028289728347,0.04519961299670319,-0.059741471899828764,-0.03271661822000703,-0.055040359336320566,-0.04083890469815312,-0.05525663372845387,-0.03288404465850346,-0.06055609937227991,-0.029417264975767216,0.020913472776745455,-0.0042020169257439245,-0.014450586452983147,0.048608329075976404,0.03502429346886046,0.07180589032193332,0.013702089071932242,-0.030885385377315357,-0.05867786472713119,-0.003115430624682269,0.02519420369302467,0.0013940080423235342,-0.015413055749840093,-0.05549594913134561,-0.04384830389311133,-0.03183753108511176,-0.015823034982774608,-0.004861424148481155,-0.022628740937908034,-0.05655011787961092,-0.05207367859031572,-0.027936882133630863,0.02834490977009952,0.05754016192297304
0.06050843255878391,0.02276798221095648,0.04398065340040197,-0.022554567257660918,-0.025683134265437786,0.06467654541461265,0.013118055315732333,-0.06947529298931311,-0.040566824474017105,0.01637878579700147,0.0199522191294757,0.012785328403998958,0.03167653066972778,0.06654248934362789,-0.040716424623668895,0.023694651412908094,0.06360474016307405,0.06473778924907636,-0.013776488743703776,-0.029434334133020948,0.0582650028330525,0.04420842318124382,0.06881652927454102,0.045993332925101826,-0.02156762539781997,0.03975124217069319,0.06474162140491496,0.02885066147126368,-0.006091386380401367,0.06768709376329071,0.03527292093773855,0.0324019419679962,-0.05185895681178243,0.018016269114574948,0.058344294236284566,0.011373275035550745,-0.03680083626287307,0.044680493175214386,-0.03622687127606887,-0.019549995257383657,-0.022188334798393432,0.06108630884975916,-0.017872927665165426,0.010340140306234813,0.058039581830163806,-0.05607404362919534,-0.04163832221826061,0.06449361145194787,-0.04967489377513286,-0.03484336433247027,0.05461977220650999,0.001107920841798532,0.053936861028303806,-0.010766870110814335,-0.02267303534626483,-0.0031019835024985593,0.044863719368647206,0.0296199552124201,0.06239644646048301,-0.0386746805921731,0.010220855624658604,0.06715080966201897,0.004266448930203448,-0.02894977400504544,-0.06364302642724182,-0.052476330495301524,-0.011380602668639626,-0.020909286996371124,0.04451952479192471,-0.062334343232619986,-0.034081611037215874,0.02699325216761185,0.03926736453443315,-0.06668679092980238,0.03491760715191369,-0.02279030966052057,-0.06586367466540824,0.021736562591828823,0.04551740839548321,-0.0576065393499175,0.019528703824413393,-0.05989683030045009,-0.06569990960286538,-0.03673381852925836,-0.051837149715585264,0.03267416150714543,-0.043520222126019484,-0.019359317061569417,0.05832223936383299,0.06183450559807499,-0.026951982989928534,-0.06611376956517132,-0.06892555525924998,-0.041325983106521455,-0.045470831614549095,-0.0003291563170782219,-0.056237908917232265,-0.07003506772600607,0.05422227992046022,0.05607687303273151
-0.004213552057898728,0.02216271079223538,0.030269086620409634,0.02975689415161012,0.011656496675955958,-0.06183563817982422,-0.038956135011456346,-0.06492546523950936,0.058908958124965244,-0.01964373413743431,0.06063379639846949,-0.05964354045781734,0.010791992491986877,0.005867883467061371,-0.04947302660350478,-0.03832865602850606,-0.04441026427297732,0.05476860511237595,-0.017602814452323146,0.07133843115976304,-0.029939859689098357,0.008118632917194928,-0.01888403863352331,-0.04727370410641132,0.03786880130759115,0.031242760475153022,-0.03979046231764324,0.06421509809143704,-0.023065989378782556,0.03356932132734636,0.021247133512999797,0.0714539736939688,0.020201638438412564,-0.06914538600866388,0.061773487166079236,-0.03949493830185304,-0.051428086836930065,-0.06613585975998897,0.02924902230650885,-0.01020828715436676,0.008641678442454096,-0.04102100413030419,-0.002267768970242649,0.026217450703298326,-0.014596661105321491,-0.019850977376959737,-0.03844468991641694,-0.060049628456621505,0.0027951293578377563,-0.06585658400160357,0.06956924024866057,0.043359512152800705,0.052648246480342185,-0.052381949003384616,0.025360637534729488,-0.07162426169793179,0.049134406166965405,0.07090671848915893,0.03585856962296878,-0.000985541671477667,-0.0006310688940461943,0.03146331760049449,0.04178009430291988,-0.05256281364266334,-0.05451789780937399,0.043970889750322206,-0.05920868374485959,-0.03712758163230789,0.026453841639801846,-0.0357149867283716,-0.04106354917305405,0.0010611255100170505,-0.008099644020790553,0.015083642563770008,0.03459470464022355,-0.029505473032055578,-0.03928307712559625,0.0014370486039540756,0.0281492366312082,-0.023432646568163903,-0.05175560099175462,-0.044665597140156055,0.06249274313669944,-0.08990518846044519,-0.016174000812699194,0.0534529490137628,0.03004344251452879,0.05609453817893724,-0.03868132679284024,0.054445474038357325,0.027869398795726023,0.0019637979061191756,0.042394372180033564,-0.04194159162822351,-0.009085125199525496,-0.028109891982479634,-0.004377193954120229,-0.015234581411101383,-0.05743703232457602,-0.03049389136101609
0.008917593962204496,-0.03407821330686552,-0.028741015326943876,0.05229395049747108,-0.0157098315868489,-0.06395981471914397,0.03434507212591379,0.025370114927821562,0.031913420714172414,0.04633218569477298,0.04974214419330177,-0.01530310947073519,-0.04735701037154131,-0.0019683660655960833,0.018108280430870732,-0.05689347535937453,-0.035695861441884504,0.023016956262326114,-0.046245985406713944,0.050995248428564906,0.040642685797148366,-0.012177854110794735,0.06939724989901726,0.03455134473606593,-0.05434447323819409,-0.06895830801278281,-0.05499020579109033,-0.03630065925133424,0.04161968299290896,-0.033626908458071016,0.048419020167764455,0.05355549888553472,0.002877260322667982,-0.002702176745672345,-0.03499533962070878,-0.05711553911989769,-0.0018127776885530772,0.03409205056683968,-0.008343337725256169,0.04524907616670174,0.05765815790763973,-0.03943196294373245,-0.04692832393802805,-0.016379807014535955,0.023535952937436544,0.026199523914641646,0.06737480246470366,0.011729181558074614,0.05220989317570537,-0.022615793187284287,-0.04038070313400091,0.024370930716486168,0.028613645977790845,0.057229954333419396,-0.057150880057069704,-0.05713059010821613,0.0578556890572115,0.0012299335590907217,-0.05727387964491094,0.02583319183321429,0.062456578352497134,0.06031176162799059,0.04696648687017902,0.034658377355902756,0.037032209721415674,-0.06716511149170747,0.06218164087340263,-0.061460940192779284,-0.018977899572895113,0.06984596729660966,-0.037063275615927205,0.054958800538495445,0.005407820795679474,0.00030296273882035704,0.024112980767775006,0.003335664668818722,0.00998937372866105,0.05050638763724366,-0.04968788807912018,0.0095569247703482,0.004189331589814513,0.012963127426810456,-0.006967053435540704,-0.0568098597448584,0.05315480555502926,0.012732335349521605,-0.053000375482155956,-0.018498685128510238,-0.05233775655838669,0.016226031621771896,-0.06728623736942026,-0.011064469285138094,-0.05122113682039945,-0.06149029320416433,0.029074646830992413,0.009482425257084462,0.050089889259527474,-0.02337875222188345,-0.04314033400301708,-0.015819381372041953
0.06482608449613551,0.04963423776568878,0.008310180209424292,-0.06269188042384348,-0.006604570354825298,-0.018872305063698625,-0.03610202611087772,-0.024702854588859895,0.037069558044243556,-0.02621081836209003,-0.018464144310122763,-0.0026736391758581074,0.0036040811889995724,-0.03546232416314591,0.0529903338707212,0.047551579441657506,-0.004715475317546278,-0.053988718520013,0.06568757947065738,-0.0135327571613082,-0.04251369457447473,0.043578888155623885,0.050001525000304484,0.019620198071097737,0.00034942994893540503,-0.04633429781646307,0.06300941745619106,0.06349622277469272,0.044328771880737694,-0.0434984449440095,0.031328610933429715,0.04094079993245438,-0.019903556187433887,-0.047656378198657055,-0.04470345905186465,0.05697765051153236,0.009162952683676727,0.05483988647087304,0.036795983073194094,0.030715215262685752,0.0028098019223029504,-0.06391154097751192,-0.04841511596377975,-0.03252675276407939,-0.005005714109970316,0.003128923628025595,0.061216678924025665,-0.01755065609803252,-0.03828472552481603,0.024993805945037296,0.037262143114585235,0.016398272116679727,0.0290914657547724,0.005877022593232092,-0.025234625165127995,0.060510431802530705,-0.001992104862912727,-0.034795827195797255,-0.006093035772393201,-0.033005143343639715,0.045052923568074,-0.0482129326499351,0.046062771498393114,-0.04479710055102392,-0.05928921080770433,0.03400654976641187,0.04226169938713567,0.03397726291309569,-0.028185335448527866,0.010161722410865461,0.03717041382348544,0.03354640257028574,-0.022090138301485915,0.015108711564223038,-0.026837269656284485,-0.04146330769179051,-0.017440338157041994,-0.041691597494720706,0.04388457633042689,0.01845460408217786,0.06440218951684826,-0.039267953208792256,0.019102946762815886,0.04986539125520601,-0.01506326063360085,-0.06605981325173917,-0.007955302875827804,0.04267990022517968,-0.05902548483943064,-0.06368200546435679,-0.070914556789207,0.020173434828926,-0.0031654308776491984,0.03222753817052955,0.0028319658577495538,0.025624878913167524,-0.053352688588343106,0.020717545612687856,0.03908343181784237,0.012389247422139583
-0.07437114786407846,0.0292757940491009,-0.020074113496690534,-0.06825738496659982,-0.0026775033648090245,-0.0016019510387402286,-0.04567849476674594,-0.06054330235356624,-0.05146261920063728,-0.02832271450963355,0.003086401724087119,0.010214812569311105,0.03834733553437386,0.048871417203853885,0.0700406758335878,-0.046756601955859,0.06030665505015492,0.015199215966821009,-0.023491718176892346,0.02555980600697778,0.006829869098267373,0.04696036482737415,0.015776176992181187,-0.017752154161611154,-0.005035314661203318,-0.03043271576804837,-0.060741117200749865,0.04292460598019454,0.0026078959587766018,-0.05267789090795002,0.04439298200122185,-0.029998023329302702,0.022954433423927032,0.012116074740717322,-0.02457509368204643,0.03298190129608989,0.00427279622349318,0.05205676705635846,0.040475972931537964,-0.03375642800347728,0.018073429382056343,-0.045849893408319436,0.051209595936319775,-0.04100079472836868,-0.05731873087800483,-0.02317623774092224,-0.03821617321165758,-0.06844466733162773,0.011074709572487892,-0.0076452900663898015,0.024328544424001664,-0.05258285034989913,-0.06604645603050123,-0.0034921584319680572,0.06737346915400601,-0.048409719391878894,0.0496627251470174,-0.043193967320322005,-0.06665595426278301,0.06353298225294132,0.03041900624338364,-0.05368232083244442,-0.005674929519872105,-0.017939941668857685,0.04431071847651334,0.06505848675899624,0.010830229399353138,-0.057041895756535024,-0.052312994336932,0.049739424161505265,-0.06436035832510902,0.04798876096284801,0.03156164144622408,-0.05625716126309173,0.0353836177769956,0.04711859616582199,0.06708857711900011,0.049313380087791896,-0.0623001506024294,0.004088872007460162,0.04806131933565865,0.06241895007887928,0.011091252031739976,-0.05467800816905869,-0.020694685633892394,0.040133649717901156,0.052513712382682654,0.04853950032157677,0.047896609138566464,0.00564701811676787,0.0075713185212851475,0.02078001327932534,-0.060601370263512956,0.005537680020063405,0.008984155900283166,0.05956612250699908,-0.024009727557376775,0.050899246929079295,0.0022924728671104627,-0.03690860892035434
-0.003637168722472763,-0.06779892425369956,-0.039806459242783906,0.05281781673067652,0.053636090790012636,0.03530208887430975,0.03986377074609793,-0.0590360829870275,0.025132504614959583,0.06368802155873116,0.06534548785710817,-0.07042921740735583,0.029199476150954765,-0.05775573929165555,-0.05838267222449235,-0.05671749140453483,-0.056832850012865546,-0.050603464137618695,-0.029820272889476626,-0.06836395024232184,-0.045655663570328034,-0.012630601102114227,0.00999546323287225,-0.051984107044086826,-0.024350465432417374,-0.032798662311612756,-0.061950074992466415,-0.061498688537243856,0.06808483742952581,0.020076916898998584,0.06567504068097081,-0.05439874791592834,-0.0625563544011688,0.054466669391321304,-0.038506521292968866,-0.0627453231229253,-0.05587439727487197,-0.06135035810384693,0.06485901196257603,0.05781186588092901,-0.03756680751440588,-0.029893158509737863,0.006742007903157326,0.050972889120834544,0.04352361989516817,0.026933416044159685,0.03803713090797755,-0.0014012163504553863,0.05534019123299392,0.05924324352875711,0.027733830139984664,0.05583603971074464,-0.05624828516598442,0.054378495663009244,0.03809287761530606,-0.028694665274697877,0.027704705836138502,-0.017999725634161075,0.031398501827529186,-0.050219490823500426,0.030225914619900568,0.0389847049345773,-0.06988122833022888,-0.06905617606672021,0.06270344356672797,0.049800288916483394,-0.0075847841514270755,0.03323142184491115,0.06001300856888238,-0.050127664037955474,0.004894706025457713,0.0160361666453094,0.04989727375070848,0.023675250432205513,0.03193375020005447,-0.0022711822628136494,-0.014771102862367493,-0.02694990961960077,-0.02677155720642951,0.06389597336669828,0.012906089890687216,0.027414714618245076,0.012355250408579474,0.05907386720420739,-0.04536623699666514,-0.019145610632674007,0.034775859443762006,-0.064639856004173,0.023874683722341198,-0.04576754380974877,0.0613270470054566,0.03148571059231633,0.035112455337246544,-0.03822867854205505,-0.04122554148712683,-0.032912667831517285,-0.05724459818132837,0.0435856073013929,-0.0241865366894656,-0.07035565591377725
0.05510648818421485,0.05694082557491756,0.03726086320414402,-0.01579411717532649,-0.056393901749900284,0.02355684703061026,-0.05885577514788478,0.018860239819139132,0.05639997459069275,-0.056137746069319525,-0.032883520206963446,0.024037972492252944,0.05578989612645321,-0.0690173820562836,0.003550362202130234,-0.04147781565656332,-0.041359014868490016,-0.044393734073483876,-0.008119441164654146,0.028124672121712494,0.020987951457663464,-0.043469504829606466,-0.014819757273519273,0.042391711371336564,0.01824016818562075,-0.05796497758288428,0.04515093768671831,-0.06203547295570736,-0.06231726083292502,-0.06049019178263301,0.035959449440212864,0.004807202052079865,-0.016242947059007674,-0.007096990427425371,0.031273340799029756,0.04412513216807159,-0.0008055100280172735,-0.018182865904166616,0.040801209884672854,0.04800440206906003,-0.015961837176430533,0.025671469509056726,0.023572768276548618,0.007024162854605601,-0.001743149587092229,-0.041762416812580014,-0.03603393708991209,0.05045744831551908,0.019131959582433647,0.06611565362105451,-0.0049184403020953405,0.012302061380060328,-0.01917624364363289,-0.03878035707822182,-0.05936022886435148,-0.060782168152274184,-0.05451210856911759,-0.06743604117382367,-0.04237160097312728,-0.039763050585963584,-0.06354677326743169,-0.04314047731817886,-0.03849826518272422,-0.011653612344872078,0.010194402726281868,-0.017048060928693008,-0.01296588212716388,0.0009184845669194891,-0.04760203123353398,0.04205968754154745,0.02033123026833807,0.050017009743187076,-0.029318557631609697,-0.0033640067237849557,-0.04612508181946266,-0.0037849052766040364,0.0374530293088452,-0.019717034714768128,-0.014172381893213345,-0.0074701953055342964,0.051610004927704754,0.009842646367732837,-0.05005507401550538,-0.04861629541132275,0.008108643347370416,0.06776387604023708,-0.035171202164305304,-0.014389068314159417,0.0031681842840831074,0.028348450659405406,-0.01639282086754011,-0.030087541050952682,-0.057795935775385894,-0.01965819581565685,0.017841439635367527,0.044623391406654236,-0.01583002252633886,0.0646189051044479,0.023831341360688003,0.0549564577183507
0.04104599660810632,0.07032949846748854,-0.0560784452925876,-0.06872099511726101,0.012544152485251703,-0.05760278883682486,-0.0310243925982151,0.006432013131427869,0.01353248074758702,0.042708025161804025,-0.0003342050717290296,0.06019711391985208,-0.026256400657788836,-0.0625313143644115,-0.001970445541369617,0.0069528890252220504,-0.022648238916662046,-0.06446126992726389,0.018302746676465628,-0.002446248752434682,0.009659213729120195,-0.007008955176551576,-0.050068532618713815,-0.05900422671788804,-0.03857940916460134,-0.029684066159837312,0.05296238805346065,-0.012194388894820218,-0.038262494903687196,-0.006674728053583295,0.006062836834815927,0.05219249614329158,0.05102884583846963,0.010319446268779925,-0.004399037728705701,0.024722634980767336,-0.02389616387137277,-0.005924125095987914,0.03626923546532425,0.05652102594965688,-0.004629258796615937,0.047504490030160454,-0.03852653280043425,0.050118096375193835,0.020409634190519027,-0.026662371147985933,-0.030750289463238545,0.03950139240363783,-0.05107322922524482,-0.02640122863341063,-0.05094128313194391,-0.04339536445003408,0.029097145313801767,0.025870044754965363,-0.0675257782276392,0.06295893763964058,-0.03306873943791176,-0.03726748959370229,-0.011013198043553156,-0.0685535169409261,0.003939419320737686,0.02024471019497992,-0.05139700149721818,-0.052287367771741367,0.030768490779901986,0.05449581882788468,-0.004132942967903869,-0.07029326209251084,0.018524459607655808,-0.03164979023687582,-0.036981552410093405,0.05860060370215825,-9.111112119947196e-05,0.03548084089061415,0.04401955973726221,0.04578746905000164,-0.056466743681240314,0.04015363748510398,0.056741231656783075,-0.04369644586349389,-0.05703710972488994,0.0654176456609139,-0.04905725955663004,0.06612020923594991,0.05117978777741297,-0.054884204430343565,-0.06979523953539805,0.018478013864767967,0.04932398650563809,0.020650574477661027,0.009560767850419538,-0.04082075093100722,0.02732934714643656,-0.04811043648223848,-0.055218667458512505,-0.01645456653720534,-0.005282855911733025,-0.020173499294949215,-0.0481686974758264,0.0009970192378777748
0.005074607122207768,-0.03425507752352133,-0.011565678190534109,-0.055047472828871465,-0.02929187257858513,0.06211150148265386,-0.043316275998326284,0.03477834001671379,-0.06367756897651944,0.06334373617958779,-0.06270271339148016,0.0011789164700198756,0.07034019434650846,0.03560300257226336,-0.04072686448229069,0.0426986976365775,0.03608331363832601,0.03367548133682668,-0.014760860544106285,0.005327750600409678,-0.04987286797166309,-0.025798947140368726,0.011451108425797791,0.04381643166227753,-0.015305114072211693,-0.06987537043566854,0.0181470455121557,0.05713380729865925,0.0519227790967783,-0.0697418128348563,-0.07208429878704606,0.07729094308723164,0.011537332447093252,-0.05899356625562273,-0.04546786025960212,-0.02923724693923748,0.01830918432594822,-0.0024751334134920705,0.04805347903833145,-0.05291369014572943,-0.012698790060205674,0.03729602555921625,-0.0512635497127236,0.005620009110573962,-0.05999096706716244,-0.019914447888878115,-0.0461188488397931,-0.026481111711935103,0.022611987503908144,0.004035304202114269,0.038077001804654516,0.04457709767203024,0.042299812215122155,0.02030301339050951,-0.04008666294103039,-0.003049777571852259,-0.0577757606795918,0.039775275621408215,0.04355369579159237,-0.07315592744165017,0.019511275781182953,-0.03781155573255913,-0.007204534888364244,-0.0522832523613791,-0.04497708377561301,-0.05764782008282449,0.053437657464658915,0.012242503462191358,-0.0423583632305702,-0.058021702031193216,0.06633125080712193,-0.06666217648507418,-0.04711654289639515,-0.06073683725430538,0.035968849723608386,0.04803057620595221,0.024190175793800225,0.02887311810416089,0.019788474939340227,-0.015816091379224868,-0.03295094914741234,-0.026368324372603964,0.037673427848327425,0.035010450511575204,-0.05524458327717334,0.01925428601121514,0.0526119100844848,-0.03500002958905074,0.04561842844814205,-0.03570296264464029,0.032215969639480944,0.03952434888609923,-0.03947413625921492,-0.047203133123108344,-0.03548255139538978,0.019748530422705225,-0.014747899630551956,-0.0006020205242698452,0.028900079330024607,-0.0011269953214942245
-0.022978962008878313,0.03972075376582569,0.0004719854006930563,0.03860541922644396,-0.037130338043189166,0.009676272823946133,-0.032814512979137254,0.026303659945597954,-0.06293234155680336,-0.006244565925123957,-0.008892790540208452,-0.01978181130941086,0.060042889421055956,0.01656494529432126,0.01123962882352128,-0.03260263142828941,0.007230200767114586,0.026139351387027207,-0.0003498352495703433,0.021084699470952484,-0.03331807768252802,-0.03709281065349999,-0.03952973899586751,0.05955754678680114,0.043800005581792756,0.0706028624064381,0.027338205920799177,0.046362903873630956,-0.05123810636846664,-0.0547569835207937,0.062321270148343544,-0.012899598723351911,-0.05745503085085029,-0.05796087889455338,0.067305524472485,0.04343061054249192,-0.02829169005620908,-0.03589320165349936,-0.012718154150721049,0.06464549981022016,0.003097021541793213,-0.037650675025425594,-0.006907288222440466,-0.058092085557493664,0.026607485782663642,0.05429312846421325,-0.03871392918931196,0.027677103530726138,0.04247583093956703,0.017112832933045857,0.05538259015486394,-0.021182904347364383,0.01574119648495155,0.03483059914380267,-0.019536040591254397,-0.03053014741189545,-0.023824597292355018,-0.014640449098102838,0.03358670090804569,-0.047124503280334046,0.040486588633803666,0.06900850895808547,0.040506590216027094,-0.040772426504206566,-0.003414772980116998,0.04771207900088435,0.04473975835318368,-0.04306683517949572,0.05865198853220158,0.001173995526735111,-0.046284291721077654,-0.03743699125721375,0.0678338323475168,-0.040585478053974104,-0.0626677567655011,0.005532503713046616,0.03539646055214429,-0.04712248005793189,0.03394467765383875,-0.04240878722544139,-0.022201025524584375,-0.0025383640101180327,0.05621721234567653,-0.011013084674207745,-0.01927963503802988,-0.052125114306938475,0.048890594962146885,0.007451938453958473,-0.013025838401090471,0.0034245301086949786,-0.06939252125888604,0.04583932701514959,0.041821491955238904,-0.05370222841574978,-0.03842267870958174,0.0125843463880526,-0.04238979149658666,-0.06393209160604726,0.019331022870212863,-0.02490913555207975
-0.05062650667461152,0.01560453481226729,-0.05879249128076051,0.007085809904032667,-0.029560343597018084,0.004846983899945098,0.058644240716342666,0.0517054457027269,-0.0516158651447031,-0.04341765183024745,-0.05484506263707957,-0.053113957428785497,-0.05973433892906159,-0.030673078084358922,-0.017798437888828275,-0.003342794589116363,0.016856814298764188,-0.027027762726907743,0.04473761275878996,0.01129943208317117,0.06236500031670281,-0.019072697895559827,0.04255176293965024,-0.05149261920818527,0.018259456993072395,-0.04894262150842487,-0.05916433963469713,0.038264443135495096,0.0529881628715914,-0.0694774197326374,0.03419220868847788,0.009454163823898354,0.026854859554971022,-0.06844231299384798,0.007164444469388346,-0.024783353763771974,-0.01965355259755834,0.06787490591216701,-0.004077427965504716,-0.006159096776779559,0.012946183589614474,-0.02530358486678954,0.0018118747891375977,-0.04956453795300802,0.013267277698665439,-0.01696595604885298,-0.020184236504451204,-0.05276651414175661,0.0033332551635935105,-0.013956445071816504,-0.023785175358201897,0.008777262741437098,-0.042899939374962934,0.008249216287889312,-0.05897610013303482,-0.0013968894485794576,0.023646037107523086,-0.052704436601710106,0.06842269701674876,-0.025603233430661745,-0.0610986428252651,0.029590960345484824,-0.00789348774576165,-0.04400969946105847,0.046740702073959105,0.03335561837853555,-0.06987481475559182,-0.06306940690195581,0.033132411176497414,-0.06644553321405154,-0.029316604387580682,0.03413836392304691,0.06589494573560178,0.06354842282659337,0.021856900067541433,0.06604950585520167,0.04216229895758545,0.049854265731646016,0.06117657637501319,0.025833040830519613,0.015280719571633499,0.04294862907741592,0.018659574952350537,-0.06305655975783044,-0.01615250054211945,0.020997930691740132,0.018484113312196487,-0.06852874921496423,0.058423736614004046,0.04940714455161883,0.03295189691690003,-0.06347260329521526,0.014125778284304297,0.06223503994875665,0.01102124733248721,0.057527793171743134,-0.058654644375499373,-0.02732350368494718,-0.034315117623835684,0.04819510553015888
-0.0023396658642448904,0.024590358039182345,-0.0651647481843604,-0.02487575586431361,-0.04990980798123773,-0.010338371262732805,-0.06665980823696588,0.013267255747046566,-0.05187830344155245,-0.06450657365557937,-0.047438697797344054,-0.013224516912529011,-0.059964085973054956,0.016555635824218574,-0.019174837614524976,-0.0388695231892134,-0.025697128324317052,0.0013740340772399194,-0.04093124662207963,0.03225422170776828,-0.031680587323098176,0.04583476752302012,0.053269854604056706,-0.055816610124966096,-0.007009765799659967,-0.01409185055192408,0.038959439686376114,-0.01615953635007742,-0.02766985438149423,0.02395446085486974,-0.00840445655969832,0.012136297869994038,0.052856786739342916,0.06079374536179085,-0.07052261587777793,0.0043032853105048246,-0.041813207471661076,-0.054144844909842484,-0.02088741009896005,-0.0698341888774531,0.08552290135352865,0.037852969093142494,0.054542881287443626,0.006113086139414915,0.016830761192362508,0.03291846348988458,-0.0023599046948359955,-0.053396391694057015,0.0017167279619028026,0.04128059231546493,-0.06942662893840533,0.04156032531984711,0.011998132183889015,-0.023927294040612838,-0.023248433352259967,-0.06257552541440167,-0.027046000870322096,-0.02361325162866492,-0.04131426396746499,0.040363647243580006,0.0027231504308217512,-0.06371060952918833,0.010428783587420462,-0.0487425448288605,-0.03422143433744465,0.06532811024872778,-0.02985583957489583,-0.0021199581518601338,0.029043740067721018,0.057120106959342595,0.05372505786347021,0.06970478597856135,0.05711309683206661,-0.03553471970700757,0.029061420336864003,0.017360667079747327,-0.059336731251894176,0.052510150174622586,-0.051223864023527646,-0.06638160482267064,-0.06671695579426033,0.04655873035101828,0.04460727845425118,0.006014422508623447,-0.041481565525659646,0.026504379541321666,-0.053698349057481304,0.04165554060030399,0.035338399619803236,-0.01748826533254714,0.0684174536296563,0.03794672932540875,-0.012232321718154509,-0.04741563892530517,-0.008905777176816575,0.06705485553687388,0.05904078568361189,-0.042861490956879286,0.029401733576210943,0.005421388291639939
0.011654211345613383,0.0619794150230822,-0.03256017285223558,-0.0691211443122254,0.06198296413030279,-0.03314684392876535,-0.052668404655115936,-0.035619560936061674,-0.0465153375559699,-0.05100065628140841,-0.015970937780434572,-0.05859488033703812,-0.06786258382064331,-0.06449092240603639,0.013449463885741149,0.003709905121247248,-0.046284618411211204,-0.047965537252563424,-0.012696412306822844,-0.0350515492496265,-0.010038953402737425,0.00036012203298295056,0.028905629323735353,0.06578914629210557,-0.04106422279196961,0.06229866365952355,0.05398004898438504,-0.06418692790819397,0.04888886266348996,0.028563061144041266,-0.007863726989360421,0.024317307410659846,-0.01180637850151939,-0.009974249087246126,-0.06313282221041083,0.06240671563055267,-0.06094732314451588,-0.06175782863674834,0.06813951105114052,-0.033677953234418946,0.04569654608401308,-0.04184718175290316,0.04467127763382869,0.027979357632558276,0.055242134410991864,0.04664138262072934,0.024307822743757194,0.05436277317273718,0.048351983641737734,-0.046001424320185974,-0.0538471556372143,0.003224840695218808,-0.013250263481994928,0.047925008069368266,0.015412327140360796,-0.012601623548981714,0.03312142447182277,-0.05988070613269651,0.05895522967079299,0.014526071097580672,-0.06912410171157572,0.06612921279705763,0.07292077675964806,-0.0455899553033248,0.007083941621100253,-0.02434887307958139,0.0026699583267468002,0.0024379235832758805,-0.038720293550778585,0.010051397268599646,-0.05149131808635719,0.043705283726064345,-0.02446222677400588,0.00967904666384695,0.027359002330299073,-0.049823047731684195,0.03492261654777618,0.018100670088361723,0.008999021826124663,-0.04091360354270763,-0.03170471170881641,0.06717000499229121,0.04878115803663303,-0.009334715138707836,-0.03967832545503977,0.021903914035758563,0.04782823285581254,0.04431808240018843,0.0463946157489834,-0.017716040268062744,0.04226069060389957,0.03055346546940113,-0.016866605023760847,0.04721870110726155,-0.00034530734818934757,0.0630284831304759,0.03609971270181762,-0.015419811913263325,-0.02053329649056903,0.022777702066763713
0.010582362444880944,0.019138114408287908,-0.021870042212362842,0.0036646695945077882,0.04974664088274826,-0.06421165431369093,-0.016575015896169838,0.03728297351344624,-0.023396600035439596,0.040477239503157667,0.020776455036848405,-0.062068819800142686,-0.04991561406567219,0.05604154945925483,0.020846251919192465,0.05269147191521144,-0.05737603418008613,0.062489831111731314,-0.012260323063166744,0.04455499033432471,0.0047970213949541955,0.046700590209270934,-0.027509494393664315,0.03293875478166196,0.036750286995817595,-0.04098486870794771,0.06556487467847409,-0.02116096307520048,-0.03501892556382973,0.045648620771042765,0.00883885295732061,0.005213625406837234,-0.018040031417633617,0.019315301826665767,-0.02375508908670584,0.030822117791352428,-0.018769641022863007,-0.05247534767445589,-0.031056213086797794,-0.03297949106933542,0.02708273602318515,-0.03797108860818796,0.03737391258604516,-0.023647371952560982,0.02808453007999922,0.039288969354230215,0.0546189853637443,0.051506364726423774,0.008647613382331215,-0.028025072320894927,-0.018813931726441805,-0.007854416763174823,-0.023547686902433387,-0.0023550215677919217,0.028431746213610457,0.06738481265215014,0.05715966344172972,0.04427559049019798,-0.016303268303475133,-0.06649484390396761,-0.0035258872635238483,0.022020321993551105,-0.022733958875049646,-0.027285189941711443,0.04462574605625273,-0.055706085257102675,-0.06775611167040174,0.023956243906123276,-0.07683636759630404,0.03382631262277069,-0.0198766790455638,0.059650141144727775,0.03536796541829719,0.06883062200961507,-0.009447961794506824,0.007070152367300818,-0.051254575026398276,-0.012919234448710758,0.005755128630680998,0.010904598864039099,0.06912677688420635,0.0507488258783858,-0.0034166064689083644,0.016707636937513974,0.05768155607833438,0.028563733064854366,-0.06632380739804436,0.03996636220912112,0.01959514012776428,-0.00556773517922506,-0.009597837036296384,-0.030582016045595056,0.07034745426277135,0.002006633765392386,0.06381112057407726,-0.016417891164470108,-0.04895864205222403,0.059529634138463426,0.04207483525087602,-0.028498219028722738
0.029380012178128193,0.041805222502615966,-0.06418986048549115,-0.003304816777059406,-0.06889651692342116,0.0533763784545811,-0.007366604847061562,0.03134701891056275,4.9367955799638624e-05,-0.024365534127474185,0.027463540503299216,0.012853155803495355,-0.03835394519730388,0.04748222616834216,0.04876953308486043,0.037606682514554915,0.06737000659462666,-0.07114843795208566,-0.006384724084822185,0.04487788932797324,-0.0058307428426322356,0.023679532383304773,-0.029405916798995416,0.0037855166514887875,-0.02096614146673632,0.04872641145939534,0.017208046142010738,0.04023856633310998,0.03610232988677719,-0.07144190383154378,-0.05943487796005904,-0.005553894566508587,-0.015798608570215103,0.06444786702852695,-0.030232432666027233,0.021367539342984018,-0.02099776342930932,0.06351523964414976,0.04455235339384921,-0.04656283186616404,0.04603289460868839,0.036938253565441836,0.004330044001337642,-0.038667567118570625,-0.060614676229435824,0.02198360679231945,0.02724571987568666,0.006934170594728682,-0.025205487189133034,0.039792369339663715,0.03490616140311674,0.038335253492875046,-0.03785793692783415,0.04821271215258021,0.009575913361741786,0.008327809726409448,0.05138926263031366,-0.031094640152426013,-0.03616030334574096,0.012902346269195456,-0.06909555512208974,-0.021874728091263073,0.06433643016378998,-0.0625052923910126,-0.01700350954616707,-0.030065603820160696,0.0259361631040552,0.05493287525976293,0.05405585109210031,-0.047517688227254835,0.0671970460134822,-0.07228029703765644,-0.0648205650457226,0.030771308817864974,0.06436138576294523,-0.05499830788589897,-0.0008292711868595319,-0.028442375867696885,-0.022057622920649004,0.011900588212842731,-0.014524057681620624,0.05600139623596359,-0.06560380325537446,0.03782262108528072,-0.02181982161196058,0.06450402989375731,-0.057876606717513594,-0.026230468420527467,0.0534987792069599,-0.02529338199165283,0.04383185044087719,-0.06485212466971838,-0.054054011076513586,0.03099288832310747,-0.04222867191948645,-0.024569217737643576,-0.04719898921557784,-0.03095486015097367,-0.06272539059738538,-0.024031021971770518
-0.03322995936114852,-0.06478961029880685,-0.07380467925424913,-0.0025681577641055615,0.029732909971899583,-0.061513749363133884,0.012685100863412624,-0.012424569937699371,0.015720297321498423,-0.021379191910612414,-0.05829880752768745,0.044827014183419125,-0.017589245773322652,-0.054736408547472734,-0.06946243826415571,-0.06594846296568949,0.01811296614294909,-0.026651802682973284,-0.00640305354547266,0.07625285064143536,0.0017337775574024208,0.05274818146468399,-0.015263679733845778,-0.036521751021614576,0.026641431868461452,-0.0023102500045351364,-0.06577723044043005,-0.034452111282019415,0.044276651191961745,0.013713649548661104,0.02960598143042047,0.013062318397246642,-0.0467745816528808,-0.05360692884063355,-0.01581305451925551,0.03551289910641741,0.025667848370877166,-0.023652329113603078,0.07759885349718973,-0.003451032945660786,-0.038294331225628114,0.027174936236046717,0.01990613873854767,0.0955536636189577,0.056030532276002444,-0.07066305105342503,0.023519165139143382,0.04647172271020872,0.01978780697534803,-0.050521088572594006,-0.03275131866060063,0.05351831404430229,0.059414240525477224,0.014765624383315015,-0.01816299565302248,-0.0040241055104565555,-0.08566891430975593,0.033030889049875306,0.034888564450066405,-0.05199966697394371,0.06309486077603586,0.0014360778379879603,0.03765149907483157,0.011902663970318467,0.06117059219028993,-0.04678418536283851,0.017889331329614806,-0.05984500367514125,0.014988476514035084,0.021070516059792065,0.042092428509896584,-0.06920572264834286,0.0338249022489609,0.012255741802621472,-0.05503551167503004,-0.029121736680794034,-0.02572115487751727,-0.008786986418929516,-0.03334584277949539,-0.019369852920009447,-0.04889319804051597,0.002001583258377957,0.03371787967243173,0.0017513728106006042,-0.05285985033462266,0.022352993456490722,0.05390092162862819,-0.0604793983755165,-0.03419316317508102,0.0401716475348986,-0.06754424284428902,0.024503344946045082,-0.014932660884351422,0.05320970938868314,-0.05698699713680317,-0.032239823389139326,-0.00557683328114306,-0.024823234509500296,0.0047831162951348935,0.032930775027916054
0.01105124905336005,0.04660964477606093,0.05140426575551776,-0.04867260105863638,-0.06911248141037656,-0.029744672558580612,-0.06545342533939497,0.013571343944289752,0.01386396142215445,0.06175392968003256,-0.06609927667232766,-0.006532082116036062,-0.06994088872247031,0.040047935095712243,-0.039878413986955005,-0.030979858322747293,-0.04255700919644148,0.04683839488220165,-0.0068460357816828585,0.06929644174102377,0.039100370490268425,-0.03550030511985524,-0.027538538184852284,-0.05987133131041993,-0.001026416706436359,0.05777271356497353,0.06774256204485166,-0.032708917245517576,-0.012945740557017641,0.0002350260212825402,0.02579792506327354,-0.06190806379771795,0.043089655917720474,0.02711509157517101,0.02368226370938297,-0.02648825047589204,-0.003006861736698833,-0.05092107576794541,0.0229841998461924,-0.02649825853147731,0.009839139620973525,0.04349467252648386,-0.07018185428584844,-0.01751122756221629,0.055353618265583895,-0.0023592613600863584,-0.02940192608542153,0.016262737918594325,0.02388490705435877,0.06450426793569125,-0.0011439170782859406,-0.02274875915066746,0.0030354051954371826,-0.04889967795992751,-0.018631476174844296,0.009553279376174752,0.016082145871192832,-0.04852418882286648,-0.04026033524951646,-0.04112576195190021,-0.008210748479328584,-0.010423945100108828,-0.005474748349574384,-0.004941579564612254,-0.06375296473877831,0.02228033079943325,0.0296528851773178,0.06492059975731808,-0.05309155369629135,0.008726331623869592,-0.06895079514030583,0.023585776450276028,0.03809258002210748,-0.03681240903881319,0.0720917822851906,-0.008386653467394936,0.03077468456065316,0.06020367842705406,0.06767271179519928,0.058278393132701896,0.022663594196823122,-0.04196397452987159,-0.05717197033545814,-0.007860387229459455,0.06151375491334317,-0.003982651544174028,-0.05757795628552484,0.06461662020950298,0.06766748975731615,0.036626290011089815,0.06855142847927784,-0.017235473874063472,0.061792428115936666,-0.06516006173236158,-0.04989956016246127,-0.022791914603482837,-0.006882046731002036,0.04899078756917659,0.02858344251530946,0.03622768259885489
-0.06864732108933455,0.016223269756930794,-0.02537599192160766,0.06476957100441443,-0.06550261410426475,0.060096536767075534,-0.06595571543831691,-0.03853443922961112,-0.02042366032498995,0.009205687108269108,-0.016955666911078596,-0.02039977706573054,-0.06541331602226154,0.019107521410394238,-0.044622981306512384,0.05764689660006156,-0.021967068393016202,-0.05814451537924632,-0.02127555619607988,-0.046618400181528026,-0.014288054402568503,0.05121327170959867,-0.03383538010018389,-0.05537701980561959,-0.002660851554379451,0.029761690275628933,-0.03865438500670426,0.059868335971662405,0.05957858907689302,0.04437339154871837,-0.0309014997298447,-0.04672813913254985,0.033992766318222255,-0.05696400045298549,0.04814246845837605,0.03818686960219735,-0.003995128093658255,0.02960384389752568,-0.03154918031470793,0.03914779857963331,-0.05019340780011838,0.019645046514405635,-0.044236208033939545,-0.0010341578905528875,-0.0601072012779363,0.030826375121592045,0.029510853307519364,0.014174047827161605,-0.06299213231107932,-0.009554028523670667,0.021232139702860465,-0.03201451500184415,-0.0588734335768428,-0.014621888604552796,0.05888914532395725,0.06631286207111192,-0.03260020724224967,-0.05681330039968498,-0.06220304593546846,-0.01008528886269987,0.01308663961062362,-0.02968482043559235,-0.0014828231879564357,-0.05175181656188396,0.05551121810568669,0.03849782468308214,-0.0706636259837528,0.04470651848967146,0.011121832389022463,-0.0017207998798876801,-0.06971197228925725,0.0500062682424279,0.06952183362455645,0.026180174013701943,-0.05426232729707535,-0.05694038298911279,0.029978247788926514,-0.000270797518931577,0.048843404983560115,0.008381562507153923,-0.04106663109094306,0.05026388435539237,0.057358259355088335,0.06141623292627977,0.055992559302387675,0.02321300265882268,0.042097405494184656,-0.028520733850105697,-0.014853812270470695,0.07099016615387639,-0.06567931371510442,-0.06518909897667625,0.06809173095512153,-0.004760195518213349,-0.005744631130389211,-0.04836915299490886,-0.03003181041018897,0.05133935721887218,0.059762686027445985,-0.041752390085908295
-0.05080076847052986,-0.032552939303168146,-0.009869792241199748,-0.03333132334004187,0.02567273380816916,-0.04393985488429634,0.06397027563213045,0.015091666026709865,0.022650863933941893,-0.06782803047069574,-0.0591301739232629,0.003775040823770664,-0.0405153663428551,-0.041290080905245594,0.05354758519699418,0.06381336682354746,0.04434563831051773,0.05485584778298534,0.055243978056828354,-0.05949878926936916,0.024506897741553332,-0.020973289114580868,-0.05978277850817004,-0.0009654927508646666,-0.021048783259079815,-0.062220745740955846,-0.04457344005793325,0.06482351204547818,0.058704768459802915,0.02385686152983585,-0.05160604465921591,-0.05897837930094005,0.05007244616004289,-0.008267475443521428,0.03646259641605561,-0.06499973447914847,-0.02103426618596651,-0.02707175872332435,-0.008172868838874851,0.05848335746260862,-0.001701958791209956,0.0658450275002149,-0.053391553987856236,0.06889898133693467,0.05455036142481703,0.05858719553698408,0.04260979712114729,-0.016148762107118003,-0.011974384771156303,0.006232938452279557,0.05742933863820925,-0.027965524184711998,0.04127462582693279,0.0631019845806041,0.018070221814419894,0.06701051359244006,0.04901174984716661,-0.00012296511156522245,0.014807072477759269,0.002723072007955631,0.006854030646301108,-0.018952514153095946,0.04498057045812327,0.004941646637990183,-0.03515098108992845,0.037445566980862294,0.018023176072858426,0.005324727590336814,-0.03771002281527461,0.06604643973396322,0.06694791036643129,-0.03126208158815729,0.02486539460154026,0.06352995369023605,0.002173477422271618,0.03244709367346301,-0.04209220855390502,0.04836014759652793,-0.04597362875058962,-0.05734597953216644,-0.04402853149191271,-0.05097067428129508,-0.03338088592039357,-0.04639354513819954,0.059602663212211276,0.03831307843676179,0.06009979937028354,-0.0645577377793287,-0.01902121299216387,-0.05200966900838091,-0.05782855116006307,-0.004784103014625549,0.06674498639411593,0.025791087250431624,0.04292670840503086,-0.05711546116812112,0.052443140280355766,-0.038125098148800836,0.05865529381328233,-0.009940076819762712
-0.02844964214263044,-0.05399742793251995,-0.02819719820929605,0.0045176341580395515,-0.05936706049472652,-0.06584552800521903,-0.03027041326589314,-0.003594405552816289,0.02051423226210326,-0.0072914071661501515,0.03634609628937196,-0.009917841509828568,-0.017374924739581323,-0.06595241686201103,0.041549477363013496,0.0019317691925954698,-0.006068250540886731,0.07525571719217279,0.0008809496601529048,-0.06354686042787527,-0.013869321805354537,-0.0037425771752045266,-0.0500891053296213,0.03911167980868532,0.039960219783069365,0.0027759116635975934,-0.06670518436100406,0.06657744665974065,-0.07424818873743122,0.04317139816235919,-0.0599278919919621,-0.06995052982418745,-0.04519297025581523,-0.04794148598906163,0.04766254380368829,-0.037626761158986194,-0.06338988965183952,0.0009021866278056042,-0.021460651130828644,0.015355012540778807,-0.006057472728158199,-0.002952898101844549,0.05679260832165966,-0.0015917652541566215,-0.018027368874746024,0.006734500098427242,0.004578166492836193,-0.04920191729259079,-0.03998538229085091,-0.02897458307313066,0.02076240498643936,-0.01979546654156838,0.030269548339674206,0.028247502463319814,-0.013036448932854194,0.05443480752262772,-0.07530430676436911,0.006757488383384392,-0.005437485825613029,0.01585450227895294,0.04654974340035478,0.032127021078623884,-0.016872157502030805,0.04241495330080424,-0.042172601685805416,-0.03148016880746221,-0.0733104623744051,-0.07377477844662123,0.049305286032312656,0.043545378592349304,-0.009984800528018256,-0.05773771421269458,-0.06991584188167407,0.04149843934563434,0.06801229543571458,0.058448137452101034,-0.07080386301628529,-0.06925533738571142,-0.03445823182322254,0.011529110925459735,0.05741499852663456,-0.06806834593772895,0.0019371228157987535,-0.007855122419925163,0.002963550480205488,-0.0398790098106806,0.006866839488777536,-0.05105493028417974,0.01892352980258765,0.014415022920128267,-0.05527150854139429,-0.06460934692636747,-0.041657403973801285,-0.02016988589462158,-0.017196129355501622,0.0026214255348024455,-0.03553123922288562,-0.014318267887365885,0.017717839891253598,0.017493436730634183
0.05467772784055474,0.030471420950671943,0.02324251188554053,-0.021574533158623586,0.014074299389160638,0.049337327593749467,-0.06448837130839767,-0.01242429650439398,-0.005031372399498972,0.017748883038649937,-0.06441289138173495,0.024794180618820025,-0.001918331569266117,0.021534370807620162,0.012518846166708716,-0.03114694174962266,0.04036046353052704,-0.06784170650863186,0.06316840647126709,0.05918805561443472,0.04680353562658159,-0.06152965905738081,0.02874958331970889,0.0023108103640495647,0.019764856810122012,0.04350782350566002,0.04423008391815356,-0.019451962541767117,-0.0483195805157436,0.02952422471337783,0.022829030912177136,-0.0032871346726966438,0.05929392854711798,0.05748777831952355,-0.03380042486824157,-0.01678903751160796,0.018177430506803885,0.01884068066984381,0.07011032123734441,-0.05474646237584837,0.05710292832560663,0.04067733795528801,-0.03564725461272168,-0.016922915351672348,-0.07053293765164168,-0.005148445469884653,-0.05810792464254093,-0.0020128115685271453,0.02388262275342096,0.030140762978547835,0.05270745413114496,-0.057518408110095724,-0.057178946725076014,-0.03840496626591947,-0.008772850169704615,-0.029631148147434453,-0.05273590393035773,-0.0345986785868533,0.0648375760843378,0.0531009115446862,-0.026027045949540844,-0.04243304758192055,0.025141719055011447,0.037110583534349484,-0.001077931435111147,-0.05222434804759104,-0.039657008101103966,0.04255325351910784,0.06567252147066868,-0.008950965315595272,-0.04608192870547194,-0.0575919630627197,-0.05102678088189885,0.002208093500845296,0.0013697098012633716,0.013169715819362009,0.050365363933756395,-0.007217449208027885,-0.0524322411656196,-0.06160888533481354,-0.025905704849589886,0.03681460742466801,0.01815626265677139,0.014266254392978761,-0.03331116289139078,-0.04707748520112915,-0.030220689259667713,0.022225440950785165,0.02658338092641634,-0.03997618503696472,0.018308676108920927,0.01853005883123686,-0.06715281582953216,-0.04090965128531237,-0.05613013054412499,0.009922989043435925,0.06399912856708508,0.03527383855213996,0.0049551707642694785,0.048061142092708876
-0.056118611620279396,0.01630221958760033,-0.020500844429045314,-0.02378193042758869,-0.06586909506813507,0.056596499391876165,-0.03390467834512862,0.03455030471928869,0.050852338422003075,0.027571965986439555,-0.06293248977272084,-0.051746461893904735,0.01715866574165,-0.0516444898306981,-0.02874049150681916,0.030645347910214907,0.04940521316264824,-0.010061930480101941,0.007079627098110435,0.03132099210051142,-0.05923276385656268,-0.05971755716509262,0.02469742612147154,0.05765376045249734,0.03683993463794868,0.026194173996796064,0.056670049102146916,0.002437554162026449,-0.06567232946125014,-0.06230345230156968,-0.06052151208181698,0.05765279118481178,-0.006085044162273516,-0.06592322835921412,0.04469928858351881,0.014888306150274117,-0.039474433447581656,-0.012944592978231804,-0.06819854039463934,-0.010726115302568227,0.010090785549202905,0.04027707557574796,0.05816782148420959,-0.048897161824777734,-0.014975914238180003,0.053575472290011444,-0.03971508332007213,-0.06114176143478598,-0.01239711428162689,-0.04964543970616783,0.048446327864551615,-0.005593513579383997,-0.06523225410800189,-0.04341794718520901,-0.03181334893151997,-0.004396229263038707,0.01836432953041502,0.009336251602262357,-0.028939833174586833,0.05724855932907372,0.05020631302757419,-0.040931647658645195,0.051075881709700725,0.045458532833212446,0.06279045853139552,-0.01451320394712567,-0.044557083076298284,0.025307665375215664,0.010895453488661163,0.03730866273525825,-0.059071864668929754,0.03756545450648404,-0.045007997729314554,-0.03756298546674113,0.02416953200181572,-0.024053849262041432,-0.07237068098542458,0.03481145536558218,0.04584049077335707,-0.06712550914357243,0.013473699657016815,-0.015676307674434054,-0.010641930080230264,-0.06965970617327896,-0.044509815017980695,-0.009592910541745252,-0.025587128978002,0.013113189105169261,-0.02937403498523426,0.0474816044528494,0.05059459041697988,0.01561663170953957,-0.004623899663840003,0.029004708995042636,-0.06514231389257118,-0.03757477058017753,-0.0119544435606748,-0.024142956048177466,-0.005850871841797916,0.026650057132800137
0.01439531285605987,0.004968336606778687,0.04660050063756378,0.03958058112354669,0.0038964684335567185,-0.004200765357549721,0.01905765780402345,0.0389762669722913,0.06058697039002908,-0.060907075550905174,-0.008272698662227865,0.06355177744726487,-0.057150708302068795,-0.01137326735150114,-0.02706491021187523,0.042591670378918964,-0.025875506035790204,-0.02381731117828157,-0.052696019019126863,0.006151189209706837,-0.05906749327599472,-0.05841973027918575,-0.019394118626936727,0.04877407153680312,0.0371010931341826,-0.04506063929933053,-0.052842716604897366,-0.0002940120405436619,0.06960323294710546,-0.0018061668277569581,-0.011019319732940666,-0.0029676606554196044,-0.009760276689239726,-0.03960308001104973,0.01052887372749449,-0.05456439461530688,-0.027847747123057744,-0.06069785826169674,-0.0192995503099613,-0.020112421592321024,-0.058721065509956295,0.013837378066895098,-0.05511222038896318,0.01452955224153514,0.00991698066086813,-0.00519800681013112,0.02918727659534158,-0.02506672893005915,0.0009016206808172417,0.05152525019432261,-0.04662381906566058,-0.030945227464717853,-0.019941089175829194,-0.0033487848902073875,-0.047216303554557984,0.056439986191269526,-0.030520348491758498,0.030606335136347987,-0.06627078279679356,-0.010451983193964648,-0.011565460366104001,-0.023207566571389185,-0.02060488156178792,0.022627152147487548,0.04789259129308393,0.036418602775274714,-0.0171029859074572,-0.06959308403497155,-0.00933869375124595,-0.04545095480259293,-0.056616057748321014,-0.06843168368855629,0.042042685453927975,-0.034809049041451386,-0.04822255065368534,0.05790549224312161,0.022143238278908045,0.012089755398162205,0.043628862200018576,0.019925811591729112,0.05177905958892605,-0.029515455050801977,-0.007189403686366752,0.007406793855212659,0.015708089852756416,-0.011093807922899102,0.04702599295400468,-0.0652918549979919,-0.0005124288501642538,0.007078504012301798,0.04423629693808401,-0.048566915648847145,0.01226788210555367,-0.0012659657187571033,-0.05483886855649158,-0.027367967412601855,-0.042390631087461925,0.0488665384664342,-0.0033240872873655652,0.0024087000918287943
0.006407804832536058,-0.006416496214544089,0.02225154435223681,0.012126706458339218,0.057154228905399486,0.06127556736343763,0.024820146367755234,0.04155109599060794,-0.033382092480273275,0.02525778563403798,0.05534805981868878,0.06610516038757269,0.05042509357299037,0.021376216478014555,-0.042838282218060415,-0.06490630488011377,0.06268137479511103,0.04180076378205742,-0.0016105784091956642,-0.028947136527485755,-0.06797917474056804,-0.01988493824465881,0.024194301666607278,-0.05023690158801647,-0.013720843655402928,0.06388588217963907,-0.05007392473987223,0.051071842494604974,-0.03939608251777157,-0.07167283286570818,0.06241092737379638,0.030875650237891152,-0.05566088520996406,0.047276609589878484,-0.013753537503649785,0.002811622674285452,-0.03246320942705196,0.038302163710607906,0.03382689213864149,-0.058461585620241764,-0.05783505747518779,-0.00990609073029616,-0.011531451659316412,-0.056459817131167364,0.024961658183350447,-0.025066793585837965,-0.05741969038397515,0.010569516591750002,-0.06190005758280173,0.038628804910146614,0.021475043352413382,0.05717698811152347,-0.01001259265085555,0.05321781674748286,0.0027551459968005085,0.05404805565287315,-0.05974377747917144,0.0014480750813397367,-0.013627503724073809,-0.0015754309184749086,0.05505209829514407,0.013477036694437826,0.008901806946640719,0.062012236066962004,0.05301394479633325,-0.001574272564890295,0.01936313378191371,0.00923630567716136,0.011808357586079772,-0.028312817255751133,0.05730509967016743,-0.07197060466247418,0.017527828212976358,0.006138729152667525,-0.06539786302062159,-0.026228855934037683,0.007270338339528338,0.025430311421426686,0.07402345606121062,-0.007057687946145162,-0.065854941541864,0.030713703964821613,0.039804194183845266,-0.07564540984867874,-0.04687579259595903,0.024580245222923708,0.03642843470228438,-0.04428820518277158,-0.028430956990342583,-0.023917902600361203,-0.019737387059881255,-0.037178237473207525,-0.04060914938749137,-0.06640119531298519,-0.003543886868182886,-0.007868294378931913,0.03933080811418598,0.03356434367139213,0.05746361064046774,0.021592730891139642
0.03022299906956197,0.05773542667054388,-0.01268910873649778,0.00858240493160159,-0.017063958136370343,-0.06314745658554678,-0.011776254276193584,-0.007122661789772191,-0.06784814764265143,-0.05400916772651946,0.04523966445656728,0.02103378689324061,0.06017087724083742,0.06740662503169265,-0.015284660050507666,-0.06545790304037373,0.031767937953073984,0.03779616769510627,-0.059897991512020035,-0.06710114788718345,-0.06355035290963232,0.06952904449760612,0.05021090606344275,-0.05559177819811769,-0.02524590706093549,0.006646823015255145,-0.06182940716762752,-0.057152144628004053,0.051405305623397006,-0.05149496595150555,0.030953574917620665,0.01780081526405569,-0.05355740958088345,-0.052406392360471295,0.06564876033226758,0.06615736621237933,-0.014355356564488594,0.040742549148255584,0.02201149329882514,-0.06533001712032309,-0.007756761390827964,0.04029762085014929,-0.03069526171231303,-0.0006567092314013381,0.06582570463642884,0.042846744966619416,-0.04200930488186221,-0.05511342560634299,-0.04381099239710054,0.01596485067195152,-0.027975525762675403,-0.0431833286418535,0.022427614334325482,-0.06487909650623244,-0.014816729455879925,0.06578048008426984,0.0654434618581522,-0.059693954750182396,0.04992004134179624,0.038384221996967796,-0.004698955642230798,-0.026845366942139723,-0.014556880715554632,0.02640848531629472,0.0010602914084396982,0.0018878760658637556,0.0028896899772407805,-0.055191383750996734,-0.04584389488153724,0.04816880427277224,-0.05456987904704414,0.0020282593820410005,-0.004178185936643403,0.023607612582115318,-0.015661066636353884,0.0546397858879443,0.026868672034031798,-0.05207357419501049,0.029817412098355176,0.05072409386490588,0.037767861059282,-0.05903301004525838,-0.06480635623730545,-0.017287804800910044,-0.004305161472129462,0.011600684471373291,0.04194760008223233,0.034354529448828344,0.04904296023592554,0.05109832209123991,0.06274452116195063,-0.011758032392959715,-0.04213273563436303,-0.0057620781643911295,0.06453440769650119,0.0499027675149767,0.065654529893473,0.0438202873981347,-0.05364902426077938,0.032986222987572866
