0.0021430544950585377,0.057250811376471776,-0.06192775082407849,0.056662271082627565,0.04318986961946352,-0.08894308350408572,-0.037852099649336474,0.044003586139127526,-0.012372934934560135,-0.0386487406786307,-0.0035658964683935182,-0.10967256835815094,0.020215146702115012,0.020826000089701202,0.03981277877270888,0.005651096424282278,0.08143193171580201,-0.02871644485966742,0.06086935169369675,0.08365252793960294,0.12578439923014656,-0.06989027375609899,0.08956371907145388,0.00025562348289117075,-0.05332686145304636,0.06141253653953426,-0.09090502605361801,0.040649790934206495,0.08550878991364391,-0.0957679388204458,0.09829950495767169,-0.06396498268240848,-0.03645305141324717,0.13052592417363837,0.09791031103923739,-0.08609424644796967,0.08389475770070984,0.1191384267821794,0.01643386550599377,0.05736255728003562,-0.0045756212942448,-0.01904456495190844,0.09960489029863641,-0.020763337066446737,0.07408117360306721,0.024617646411486793,0.07314684834752697,-0.009864451070209845,0.00923782820337401,-0.022536120348471453
-0.02927522577047739,0.017502981494501507,0.03909205878178532,-0.0017453865392241224,-0.04939239016511879,-0.09465815493308001,-0.036922428645826455,-0.010602233821202064,0.0551290467567902,0.06141145125449217,-0.09123556173495526,0.09127358253353242,-0.0074847663893163096,-0.048171368556560186,0.08250134467184757,-0.08008260927851166,0.09810335774597302,0.048272086713998984,0.07064167147500207,-0.06168634664929288,0.0454192630787671,0.0850713421742501,0.07851610850502283,-0.07422325679248992,-0.05080688742790631,0.03031724332778664,-0.019722359318221905,-0.09736347695821547,0.09186981358764108,0.03224866873688934,0.09701875498441137,-0.03525426673667932,0.01892702222635368,0.06283388029296287,-0.06910884016981983,-0.0728737482924275,0.046647543070601434,-0.022356592049220064,-0.09605741066002445,0.03849210543195942,0.022864073335070248,-0.03293162958551973,-0.04449349369013564,0.012418199724379516,-0.09223458580507299,0.09959717548615066,0.08748589894083195,0.04370559025156222,0.02314906642467455,-0.05218510134612579
-0.034824748554015954,0.028993358876806114,0.061901910075183496,-0.07061811243676965,-0.07092289055584473,-0.0839743364757996,-0.06943462405983057,0.018049542256100694,0.07608857341125358,0.09376604954371393,-0.07231080040788336,0.034868566827320646,-0.04222729102276026,0.025967680529177806,-0.03236425265160245,-0.06632558241375938,-0.06854333915280682,0.08692108769491502,-0.08638784266850358,-0.05713273202793673,-0.07308566237596173,0.06456127199433337,-0.046289621597268134,-0.05233494024511398,-0.04929382658568047,-0.0646897851544095,0.042086362468077,0.010286662664397258,0.06927332814583835,-0.02666116265391651,-0.016031538774670694,0.019121754207804646,0.04158481855243527,0.04109544574342119,-0.06252561130134951,-0.033072739565500366,0.10238437575414322,0.08703709380220617,-0.0804633001596561,0.004309411826597367,0.05892559108433082,0.027902651414277217,0.021714917805189075,0.05292131562384324,-0.05210407874654033,-0.04027482366462679,-0.028659537067995285,0.07762882693473466,0.04461789148549153,-0.07149134989667313
-0.05575754478822142,0.030051257436871814,0.09572647632149828,0.03332771781753422,0.008940344379912049,-0.06070794903438714,-0.0013852239430387089,0.0985163110669166,0.08578270440200883,0.03465879107205665,-0.029770405772534904,-0.08450535757485421,-0.09191567667013892,-0.08897808860959776,-0.044291033400570654,-0.09009668972609042,0.0903958065833087,-0.007317498957409873,-0.07660819486569242,-0.08501652585741329,0.030568577941822203,-0.07762611659563333,0.08066756198251625,0.06923494723144957,0.1077697191330347,0.010785630376029297,0.005035159450119299,0.10105020160520856,-0.08666846924577956,0.07018130693204438,-0.061459952266233187,0.05247194093286826,0.02527677117820667,0.0550086391414582,-0.09658741201140049,0.041863317527142355,0.006137844396944192,-0.08263186521766983,0.08066980223899818,-0.08075033351009787,-0.005184187795218871,-0.024301368881415347,0.054635051354396245,0.01900300732042229,-0.0749785659140125,0.08197830268753775,0.038790500375068156,-0.05756924970333593,0.057288580764347743,-0.05805693942606822
-0.01087568027189803,0.023915039345329427,-0.08125199995486553,0.008414976830552985,-0.09939546065470804,-0.03685697497012499,-0.04971752497772075,-0.01769010666182547,-0.028282506102318875,-0.07376575964473675,-0.055023326917087605,0.08467491126861164,0.09587884491386127,0.02317963867879304,-0.027446281345247833,0.02338278991737623,0.06527020494630556,0.07966197813648598,-0.030464280682663217,-0.061714560007620246,0.02228422160964009,-0.04906778652792938,0.03165821108100623,-0.07263795446916575,0.05770538819344845,-0.07377683647869629,0.027560686130955542,-0.038810053587953086,-0.02446318679916368,0.04542500215436654,0.010419131648281873,0.056178575114564075,-0.0825360569208487,-0.07157203782044243,-0.028931723855933594,0.06129182327290314,-0.06440028526575658,-0.04551855280718497,-0.011275593770929127,0.04868868463703778,0.07064261233633233,0.01891049602645986,0.03555789667271486,0.042134017939010907,0.023876220321812393,0.01930764904433634,-0.08364222619352575,-0.08533475309360464,0.08083127939094689,-0.05115036502620428
0.04468580388605276,-0.09646554054783844,-0.005292046468913162,-0.004559937112850987,-0.06798112560874342,0.06917948370885171,0.0622237789739589,-0.047637285184017386,-0.03691445652766481,0.016391799400013386,0.056880189889669176,0.05173963842811067,-0.02605105883590463,0.06501876235664013,0.07743623999819965,0.07884556440996929,-0.07357532826670922,-0.04156698286561055,-0.00770028912039136,-0.004960990342516626,-0.07137410170385518,0.07899285983936759,-0.06207300805457493,-0.016857868039478932,-0.011656597987691555,-0.08262556747940128,0.06467956450569239,0.01708408383130808,0.04906085975497044,0.09037595655119587,-0.03804691668365819,0.054270289071340405,-0.06297792381715518,0.057820480161104346,0.04468873088496442,-0.061747602900036724,-0.05219181691797985,0.05467285866633601,-0.056277465900663085,-0.08128060549137076,0.07315520716166547,-0.016354499817183076,0.04919616848461178,-0.05385933067731503,-0.05517591619382507,0.04673753701464852,-0.07662839319599718,0.02427730320216674,0.07254009831441154,-0.016473020911283113
-0.006484589046802412,-0.005399657890330564,0.04972098710346669,-0.0288480774633005,0.005373480137431655,-0.0618671120953698,0.04217390505746072,0.06049676234362428,-0.033188818311008714,-0.06016756021162077,0.044852632083978654,0.0010061521382652462,-0.039233894479653274,-0.027420709068019782,0.031103688781430088,0.02156419761027407,0.04550885016786366,-0.019904138150105992,0.08762754147544881,0.031269673361001324,-0.02861719383819732,0.02193049761658489,-0.07611207536970217,0.007961247304671551,-0.07920033377984367,0.09554976620282238,0.030614872063828336,-0.0015835981930603681,-0.03767673450119909,-0.0812883128755588,-0.0010404192988422627,-0.08258617562164007,-0.04099629318955697,0.010269999751464047,-0.004350400614994555,-0.07287273934009574,-0.04088546565086723,0.0020138940068357273,-0.07115209947075722,-0.005636092652078569,0.053853337927929026,-0.04284692030865956,-0.045147700834429295,-0.04118711823189338,-0.07349810068171815,-0.056921199824058,-0.08113839700003256,-0.02359172970443881,0.08547192687445358,0.10058783283569803
-0.09965383689004802,0.01499974630375717,0.003874913280757553,0.07559471629535452,-0.02244192294197907,0.09040677161517256,0.037385040509456874,-0.005784508499151201,-0.06414000524420667,0.0843809180145687,0.0965566306926325,0.03287169115901549,0.09121279788217351,0.005940555524080932,-0.09152180366563409,0.09902645580837782,-0.036781449039855,-0.05385232789942007,-0.10047716739644787,-0.05945821250083833,-0.04612326913214434,-0.028621239248760415,-0.04934603133089542,-0.09693653952827377,-0.07096953769302088,-0.021341162913447943,-0.04738462372356935,0.0655448757564892,-0.07020162830220754,0.07123321619632571,-0.09081841426622712,0.009472965302028177,-0.06587700316327759,-0.03922825524839495,0.07683500048412246,0.02027589908653142,-0.028417621254447464,-0.06415410134436764,0.05429559719126643,0.045899708595241756,-0.010582266426585095,0.05386464415582194,0.0541319799528791,-0.088397681062813,0.022580938926003078,0.06596820543542377,0.06525120685236456,0.0009852822313509788,0.022250122918324473,0.078697269285161
-0.001552776710300096,-0.0718387635410583,0.05367847729683552,0.06580827367031618,-0.01043215521319954,-0.07502879728294688,-0.09303032388863736,0.04812881479789361,0.0572422578023184,0.022243785583341363,0.04524412071615998,-0.01663471014152199,0.053892906355008804,0.07350495641225854,-0.0759067089017881,0.09826581570816928,-0.0662382406576893,0.047066225235127296,-0.09514767572505033,-0.00011985212168507404,0.1015209959876645,-0.06472148600466128,-0.0801210248027816,0.09351752497940047,-0.07144787141272069,-0.0067564971228424725,-0.004142690072245524,-0.015453714594360058,0.09622844336368445,0.07671875270954717,-0.06280302790774275,0.0256659877277237,0.03192649859185617,-0.0695231181841952,0.0017271449977210736,-0.09222641155040649,0.015356651171109728,-0.03798229534146893,-0.09969391481482798,-0.06788102906729575,-0.045337240797365085,-0.03151074615800128,0.030314365128549264,0.023087622661680015,0.09587152892899652,-0.02287050608884741,0.07059277068875008,-0.0636368077949031,-0.028298696639352937,0.07141415379528922
-0.03318799719809139,0.07763143404413972,-0.06744759238167165,0.09772528546826806,0.0034618583733718373,0.025804106326877,-0.03079120718715055,-0.08707247045373592,0.054409035739897936,0.08501080038011784,-0.08244167282963435,0.07888533711372096,-0.05423257821727189,0.07022359060991017,0.033876877098296704,-0.00845645808150162,-0.06642345087166952,-0.012211008214604888,0.018556474861338795,0.001965071089940825,-0.04089509349495092,0.028456460545417873,0.08582119482723224,-0.012079084630984374,0.026324211066289918,-0.03561640326165189,-0.02204380883824044,0.06314860791778018,-0.05543806663711512,-0.05373755123397472,-0.08650988622633089,-0.029566987820117418,0.07622303174674012,-0.07837916953466892,-0.029900323183238584,-0.0799493632508963,-0.018364031985149153,-0.07928009948868599,0.0038430426581953607,-0.09313995358621352,-0.03546323362351795,0.07293723617928902,0.08076696028765445,-0.06777772894750865,-0.03883736656113375,0.035676585746837186,-0.010422391154323925,-0.0119167738852251,-0.01686923519316944,0.03655293819458324
0.06687658290031032,-0.0036196632989116354,-0.08378453613813121,0.09154570113902968,-0.06699880341008621,-0.07885434965318525,0.05957131224827613,-0.07325637770418361,0.07919372757646904,-0.05542240954144796,0.07866070703293666,0.07508274335265637,-0.05635033042361677,-0.05535123685452148,0.004116568036012399,0.0667994512829412,-0.05296867759306391,-0.006044370455959523,-0.033003424003077104,-0.030353311748734305,-0.09069094428161269,-0.07225974383166871,-0.06012500730215281,-0.0884369024912713,-0.013919361388736128,-0.0678196181720423,-0.013676792890230034,-0.040578397772285196,0.07118896853237966,0.01230614584835966,0.007281619665925517,-0.07105609666385677,-0.01066160394917345,-0.044965791557789715,-0.09387906967529301,0.01869225665693585,-0.005108094996101694,-0.011289472241946355,-0.0573507981258133,-0.03828239689011789,0.01040628430696708,0.05475510901914007,0.017524258423465035,0.032272745611126516,0.06765455626933534,-0.07058477238919471,-0.053866672667284995,-0.03138241376617014,-0.043543369381566506,0.05039756339672267
0.019255820087013285,-0.05678374436319732,0.06566261214636623,0.04444895908897294,-0.020013855669095693,0.06222363142021208,0.012986162741282592,-0.03719231772910022,-0.09628234572656165,0.0331848232527579,-0.01463058558144646,0.08219044282262818,-0.055867932332574304,-0.041541402796961724,-0.031143803510647473,0.08391048854156695,0.019609881850083433,-0.007969640248616938,0.08783980389657682,0.0027891203443620063,0.08702747228896893,0.06874288377545891,0.036395994094466255,-0.06629295207746821,0.06813273711556198,-0.1098771135140033,-0.004772224652150909,0.004495953856990431,-0.09946439618825037,0.03971966787156034,-0.010484500013842941,-0.04988646646651183,-0.0806003850873589,-0.006972380280234799,0.004825900660246954,0.004448832387603461,0.041719827849364684,-0.018824217926430926,0.01395670372418446,0.07654046791749183,-0.07409902710448443,-0.04103058902035953,-0.041740702375901294,-0.015569367239980106,0.10002501310511633,-0.0032407700360625,-0.03963391517439997,-0.005159787962062981,-0.03031441491867258,-0.010323007155904944
0.08995207031110447,0.012445468555564783,-0.08789913282483043,-0.05068708378754729,0.01394873431709606,0.07003379732084816,-0.08925825294534945,0.037241798842595354,-0.037495617581008535,-0.02013572632929593,0.06476851302614521,0.07386901638771945,-0.0719712628292473,0.008297420310563028,0.09314489282354857,0.08705695388410638,-0.030407330641746503,-0.013792121396003922,0.05459203033894886,-0.0807871200323524,-0.02939189172480698,0.024399617378057917,-0.08569254060662,0.004527243265178824,0.06861647113731191,-0.03706405745106944,-0.06730495179351635,-0.017429749325095802,-0.0873030435080154,0.024958745104321337,0.003748348819897803,-0.02213329790906719,-0.05823753895819501,-0.028824110875681243,-0.04433952861662278,0.09705269559686325,0.07833952681161344,-0.03849797111928191,-0.04143384824985969,-0.024111934585470278,-0.03399284027135144,-0.07104685846395771,0.07661793611958233,-0.03683375510502776,0.010851223395446695,0.02524368613063629,-0.06971438964855778,-0.01987248826364807,0.07304620583752879,-0.040273481267205986
0.09060947453836567,0.01655152362214887,-0.05677627594151121,0.07772171758646561,-0.06587613679202475,-0.04561029887998313,-0.09212386752820968,-0.06412895085023669,0.05859702412259698,0.07289282541123247,-0.023645658456082862,-0.03550765807588102,0.006403557527112953,-0.04931371931678569,-0.08122454058905107,-0.061863750490909405,0.02587585788203433,-0.05265494895522737,-0.07655066964586951,-0.09767504506063103,-0.06288605359057435,0.09016773716185432,-0.016290214823399485,0.01401774092024777,0.019201483268572406,-0.023746670356477928,0.006106186353065024,-0.07799016699701675,0.09888183578492686,0.07976824867529594,0.024472818336335644,0.08042361401734624,-0.02033648664739897,-0.09025602508341898,-0.023672749803681163,0.06605898389019639,0.04926064856246424,0.03586725037307544,-0.07487987385441262,0.03849067999728632,-0.018349063632094927,0.0485367867368214,0.07981775869025891,0.09892188588353949,0.018557474209670022,0.023492907163310848,0.015406959523497068,-0.0012190900139887586,-0.010812484142402877,-0.10110971360302476
0.025010656477886115,0.00042772188304477813,-0.09978340502169446,-0.06356409668692563,0.004255418985593705,0.050343922236907396,-0.06663042843429319,-0.07510906503310788,0.03730250677110244,0.05707300447066011,-0.04349618709223667,-0.025217231861692696,0.05299363067156734,0.05631517732175666,-0.09532349968878953,-0.10103057342152089,-0.02473444111501038,-0.010773331957286924,-0.06235158150486362,0.06404321846687627,0.021065212357079813,0.013002315502207904,0.03155917061255744,-0.05901979953544438,-0.011167182661644374,-0.058432574845316776,0.020901171337282642,-0.017252087518802493,0.05982228453229517,-0.047389109071002154,-0.0124005731352877,-0.11327536061218944,-0.027490900918989505,0.10492236517101834,-0.06249617921990979,0.05763589334936141,-0.059124015081814835,-0.0010967688845151874,-0.07626171047165538,-0.03406827117314221,-0.07101361459125682,-0.07170182049958748,0.10073377290018722,0.07264234406422806,-0.0674910290588789,-0.08390675510865278,-0.0596163332873953,-0.007272700019327846,-0.06089102613759626,-0.0449549643286253
-0.019076161167989374,-0.0697213323558703,-0.013958538646770017,-0.021363143117298283,0.05722972126857914,-0.07432838046506225,-0.009540028583206368,0.0992277567513779,0.007404357691374146,0.04480968736553123,0.0008656860128152118,-0.025135404142303447,-0.003679993506170835,-0.018122406563273394,0.06962985289893474,-0.008183723683817883,0.0633352635245848,-0.012354997899582162,-0.07322484340608665,-0.06861904329463188,-0.052227167471070916,0.0071784520308736804,0.08162889017479671,0.09609633952375628,-0.026406192933791168,-0.04302505482531422,0.025501700040756886,-0.03340941846173652,-0.057547258335499174,0.04158336572621433,-0.036891709689892534,0.06133749209376063,0.0996101955817783,-0.017412578709654594,-0.0488783037374094,-0.02591618686145073,0.0314093818277419,-0.010367248503538914,0.06245360993030577,-0.032300528835772065,-0.08763461145917043,0.042412812165791514,-0.07751304829880544,-0.02242538088265007,0.025060413915840164,-0.04774974285577688,-0.06079114936632365,0.06772390188139071,-0.06393423441871188,-0.0927508072178096
0.015326837894867837,0.027356039094764802,-0.057015117679196585,-0.036240786415627314,0.0805971629977332,-0.0846838038074932,0.010098108847659357,-0.005643953228267384,0.04576624661448708,-0.06847064600321211,-0.04856264120735384,0.09581374356936248,0.055276008573068754,0.011834684573408628,-0.0615941667047262,0.07138173247788977,-0.05909955641794338,-0.00884880024585091,0.06687167253353316,-0.0009101002818569646,0.04403218557206468,-0.06519849077288246,-0.0836391870150245,-0.004113302122514631,0.0006313901884249397,-0.07299327996319456,0.08961078100321995,-0.09051662687761682,-0.08409984284800572,0.01388083759007372,0.08425370141532151,-0.07648393564883357,-0.06440535905201984,0.03615507683552041,0.07481767972628965,-0.04968306278677466,0.016929741422402736,0.005818553573208129,0.05453302228230599,0.004571664592354585,0.020343281020895734,-0.01546905199428191,-0.09137382312527793,-0.06559927249972268,0.01917965407476084,-0.04319665284066533,0.001785623734889773,0.025704011028839853,0.008776460606136538,0.056011589069400944
0.046105069886141915,-0.08865903264487326,-0.06935600815482226,-0.03301102535175736,0.05518375035326053,0.05720946470639613,-0.04125299646989435,-0.07733312282101588,0.05511604702531596,-0.061230612466513734,-0.06989746360486425,0.022303625828929825,-0.10959518793320984,0.03511196946477566,0.03887021753335261,-0.05327863282904285,0.03367445824473707,0.010577917432070042,0.0836376701669304,-0.08743748165787671,0.08277940752778755,0.012432291642231202,0.09733540946855605,0.06998225072351277,-0.028355552613546203,0.07088519189393104,-0.07097530377797173,0.004323626178084481,-0.05562528147119161,0.01654401577694718,0.09400305734758856,-0.0697449387697917,0.09612916907781655,0.1318012286357207,0.08994180612849198,-0.0444897728780545,-0.060425594902666954,0.10996493292315852,0.0657413371248417,-0.004491102740041842,-0.008124666314606352,-0.10030253726510217,0.0963325039629278,-0.0010461590079410424,-0.06397145674833322,0.055510534665414515,-0.05589160366542911,0.021052496564624417,0.09348558391585271,-0.11492216194323084
-0.09548406156660724,-0.01700962255048755,0.036126745102878124,0.008531091503459699,-0.05011299841542663,0.07220211118721628,0.037122067212501005,0.0268025397311602,0.037396313427244886,0.06694402858675114,-0.06173083432319619,-0.025141338392540763,0.010084625404249216,-0.016044212844467574,0.04018798817575084,-0.017119584504185364,-0.1075589749340977,0.018698593081579444,0.08786352786756946,0.10032031327818637,-0.04940979255506852,-0.07477968102058309,-0.054945185325021975,0.0009186799886862904,-0.03519544281066189,0.004559909464990079,-0.0036186347754722167,0.04023428874745372,-0.013453507094794608,0.04308444503130972,0.06147317372223623,0.06523272640110293,-0.030708592108818586,0.03266744415737549,-0.051185556401859844,0.05527262769360743,-0.012163859525000247,0.06275511838387063,0.07734373958173094,-0.049293547330800457,0.04528361420204266,0.00033869319194333714,0.043663183720753465,0.03534632459034254,-0.006539372414606522,0.03337782076373098,0.03139823272591342,-0.09823966430279858,-0.06206797151323746,-0.03896067240352446
0.09241156626553591,0.0902472172898638,-0.08906509964513314,-0.05086349874868395,-0.09992659222519183,-0.028198500146459263,-0.08388859938919109,0.04010243684066925,0.08788317503001386,0.05245300441034081,0.06131926507933365,0.04452410649556716,-0.046727445904550725,-0.018455115571395116,-0.09127773792158879,0.04459234621596901,0.06070689942410785,0.027492532110083616,-0.030490741551817906,-0.038494932446189095,0.021960032353660335,-5.2946593537177216e-05,-0.08653844245051896,-0.02715229203665325,0.03134633870367229,-0.07143990065033068,0.10423634672612986,-0.09611191814323912,0.07863976501912714,0.044279484039640965,0.04647294799680774,-0.05530796207840634,0.10324417840912334,0.04416540841116275,-0.08920779329123518,-0.095886358375027,-0.05779249636054467,0.05750131440968321,-0.023876218313265172,-0.04634772385492789,-0.084354326358818,-0.07230082490402162,0.0166625859517279,-0.04576178441457375,-0.048737736833422696,0.01656642725940722,-0.002144038986524615,-0.07652764159643775,0.054781733323281144,0.10712140255323031
-0.03878381130630884,-0.0805856440560023,0.06810525519889447,0.032122295878616994,0.0736629490126517,0.0942786412982333,0.07729422519008358,0.07807587722348774,0.03412850344039192,0.04298942564424298,0.0559630344682993,-0.1067690887409241,-0.07546653224832084,0.03870113925080313,-0.001067429164840505,-0.04922355945495655,0.00812202779803286,0.04703156801752308,0.04728578518372638,-0.06527040706169793,-0.08677811072057144,0.002949163982569242,-0.05703799591026255,0.030497997051210177,-0.05563075710936834,0.03930274281850543,-0.025129568293432915,0.006327463909951377,0.00042761632152829153,-0.021481153561789167,-0.09334865302447154,-0.10202330827254559,-0.09402190633008442,-0.043154519084218294,-0.00033496581698091787,0.0018681795371505248,-0.05592745191949454,-0.002712708823767451,-0.05877573355994744,0.08170390793688219,0.09202985752860914,0.036623404189156605,0.08746074338406443,0.073487383339169,-0.08104604660282244,-0.029775499065995116,0.025112208107503406,0.037268266807144484,-0.0022949534679492984,0.033684066057548374
-0.007334707074027778,-0.08425121631123961,0.07566594815068355,0.015140687227196038,0.07881715300629086,-0.01812666466465683,0.08019179600431482,-0.009116348066839183,0.08623852948689213,0.07105068983905422,-0.04805779535281973,0.02550791097546091,-0.035654635635545426,0.07169485011433735,0.01303685072206796,-0.05049254279926624,-0.04008684019828173,-0.07307480440229874,0.03632449264625815,-0.07991239072193027,0.0637419168227359,0.052738588885264684,-0.07137286423832107,-0.06101647583516118,0.08523916310774246,-0.04100255938556533,0.04059041277239074,-0.07618097080421432,0.0568300396361401,-0.06106622603144175,-0.015792916149276144,-0.04690389283723344,0.03932154392183748,0.06112579587736887,0.029492354490193162,0.029592234802628636,-0.034195964305098955,-0.09660048617953604,-0.08697781024564238,-0.08177557250542762,0.07913483367212301,-0.040685918786155614,-0.09012067087753811,-0.027967024360932593,0.008692419253377465,-0.0019227824369198552,-0.072447296741918,0.07734915413785484,0.05079266730230167,7.883117185900797e-05
0.047212439108617776,-0.04021516679250027,0.052582196371170696,-0.051984313742785254,-0.06661774984893357,0.021499799517702103,0.028265652244831838,0.08106520862375097,-0.07979261755972046,0.009801911109393099,-0.0896407609121356,-0.047236516530845964,-0.03894468311703722,-0.03663505610355653,-0.011583565205758069,-0.04155799777992844,-0.04404435276857855,-0.06059067511816073,-0.07743388663287944,-0.07408775967095729,0.08068691305607714,0.012591515409169342,0.06839742623915059,0.07088119568297314,-0.005087516183888681,0.0078050454517020985,0.05444598105195254,0.015934365436852567,0.09718867446118823,0.08446580000235437,0.011037277352341404,0.09209462855304623,-0.02433864384857537,0.00857770836830528,0.054372803689945196,-0.06386323541192225,-0.07688950242945516,-0.047320008741540215,0.01636358012616826,-0.0021234957557579393,-0.02336782159576238,0.025692108023933128,-0.09099913585500254,-0.07738263193471852,0.030004606624357447,0.035406340334765286,-0.05703199221943859,0.06826285198388007,0.0032505106207869135,-0.07963456747110305
0.07853498248962602,-0.07621970845942945,0.08338735376513731,0.06991275248238876,0.014862848892857097,0.08075966123313698,0.054106973150915234,0.05668894976940386,-0.007015165218061065,-0.05043095900393954,0.08830950292832701,-0.017086053394244606,0.04223688329623103,0.060353549896103115,0.09806471632637968,-0.0773256979500116,-0.08937953655366271,0.07912429207270577,-0.03796362683399661,-0.07402145667004709,-0.06503922083728575,0.0069417892805632665,-0.01906523229849349,-0.059272176839332995,-0.04558935180136051,-0.08929445632051349,-0.09631048107481895,-0.06588947835457988,0.002860683026451946,-0.032068992473642505,0.06751840946039014,0.04890698563505691,0.061669822343361116,0.09698204510434026,-0.015367747995246824,0.038697236767880956,0.00803593359968822,0.0744733278010634,-0.02650587582521933,0.029198258741046014,-0.03806456459472881,-0.015482281726159912,-0.0008023734375839456,-0.0686651086675808,-0.061372820663148225,0.08281707447040304,0.011062547317485197,0.010973854859392585,-0.091349014905368,0.08400384403728861
0.0782310972179014,-0.056304308660928844,0.044731967013857746,-0.06551652517255328,0.05600559213689537,0.007037091130415205,0.016145598389166235,0.07596528365475032,-0.04548663421151711,-0.045772318793541926,0.017398794375867315,0.07306116395980375,0.0001803739163832275,-0.020191292824764395,0.04911104123256631,0.003679069464116201,0.09734939693602367,0.04681265960057004,0.10326824626914123,-0.09314211447710184,0.07693040032229698,-0.05611376952120948,0.06908762561770984,0.026459055480019384,0.07024129459343557,-0.06960415636307289,-0.11163666246298137,-0.03462099206759073,0.04040738469953872,0.041555883361426,0.02630545171003428,-0.05693785453906521,-0.0108344416987045,0.07072822368570128,-0.09928899766169187,0.04683587750401869,-0.016355596266052423,-0.08368266260221552,0.08460173963306526,0.04070984338701388,-0.02289923860744501,0.03421420049609778,-0.061735447909305775,0.08475315144507982,0.02005781003540773,0.046868671312295704,0.05045320513383265,0.04119967381097084,-0.09237263148326637,-0.03177940860354497
0.054594462509006084,0.06331213635276137,0.08484815389029587,-0.03604996269166766,0.06363473442458178,-0.015660062633618927,-0.04958615099350932,0.0018499092966756097,-0.01413991582261571,-0.09625972562460668,-0.06329439677190225,-0.03725429087323226,0.0814930221166406,-0.0880800320548901,-0.0017233285795912301,-0.006297036859804981,-0.07820263037646852,-0.016342904476283837,0.03259162194887135,0.012509008915604925,-0.027030066953161493,-0.005200697984314878,-0.08750999320537577,0.07357842321379192,-0.00763382997219937,0.045729833512035856,0.007567816209738908,0.021988870402077487,0.03277017223087302,0.0643465348639376,0.07231614796727641,0.08685277748916859,0.09619187375019515,-0.02198248130511558,0.05080262587355244,-0.04212942164722708,0.06293515769902307,-0.012400674546033939,-0.023992829776536804,-0.036885905168407195,-0.06790479155520215,-0.01991652181229249,-0.051393769806770156,-0.08613364633772068,0.052264338192553786,-0.09828689299359794,-0.022507751081479725,-0.042238618027221356,0.043448772326886514,-0.04115685364512274
0.02926799957511717,-0.07674700268204047,-0.04747642262873151,0.033201402117045586,-0.08268961630859836,0.08948841092032991,-0.036049882461955104,-0.09122465762072357,-0.030625746613680095,-0.0015547295230422876,0.061752357132003645,0.020285160780061488,0.06909547261197774,-0.034608116417092584,0.0460973341132163,0.002905901101609305,-0.06278104539831585,0.03347709672225708,0.04706041393809172,-0.08720515384065425,0.024717376797240096,-0.08684017658666829,-0.02941070462803164,0.041503094384758604,-0.09878720863107121,0.07513959651140605,0.02424226009140006,0.04900601612047056,0.014089436364915322,0.060889583672560976,-0.07513323392308642,0.07980208229014418,-0.013589072195464385,-0.01645341025978779,-0.004358778966608618,-0.0992580493888036,-0.06545956807580329,-0.10034398545641204,-0.08919286681157682,-0.011102724456993906,-0.08065837462436086,-0.022608129852888906,-0.015526415569088499,0.07012877502760989,0.003935496046943932,0.04616493482396673,-0.004186897125741311,-0.10794965750982738,0.08398310644570588,-0.06460618743072129
-0.09581724571315534,-0.03030861675812451,0.0043208445595692814,-0.044492700321524616,0.07597445794646877,0.07938209885226015,-0.09209546171965252,-0.023867177085354505,-0.0911257209108042,0.0395815477705778,-0.05479700291446447,-0.047458786482695386,-0.07684260606974587,0.03888477169509391,0.03216150125940296,-0.05586101965675941,0.013555010472653999,-0.04140047028888131,-0.02917264749126454,-0.07903779630071453,-0.062251533259638274,0.03724732987193312,0.051338003296247256,-0.10165982600737085,0.0777927172557247,0.006499045793275639,-0.014987362381182043,0.02993224016426609,0.046359747019035294,-0.08120615244196905,-0.08549137069242096,-0.08417435918053184,-0.05858759466450719,-0.03417078937458703,-0.028914848176435737,-0.005158511396516722,0.04453829279260836,-0.08600630906687763,-0.007788106877288367,0.0845621240700037,-0.007413140148291671,0.006329234879335797,0.041949590516414344,0.09370813417190027,0.0005531851043807176,-0.008406517282141198,0.00404744999642051,-0.10901176582463579,-0.07506549064280724,0.014828675051761421
0.06191706949942742,0.07969048655137044,-0.008623487790854848,-0.03439858529533044,0.0287006419369509,0.09978187624847061,0.09975393317874043,-0.0364321891808455,0.06890626676558849,-0.004287444954766546,0.03732016923783926,0.0502550965003074,0.06170496921368216,-0.06751609798702582,0.03987745297195594,-0.027165004416928946,0.00018373814427451843,0.004263919618354621,-0.07894038047232763,0.04528221873068755,0.09956143736622816,-0.019220145596753575,-0.03884647113768578,-0.08051245511186977,0.06518000998629336,0.009181358674385116,0.07878426214452106,-0.07472315046169946,0.07193438461364457,-0.06480188265739607,0.0961220711787237,0.022342008612144356,0.08337956187353435,-0.10056176408701004,-0.0865115026168068,0.002176786105523107,0.047668879254681905,0.05183858500783717,-0.056688141724539357,-0.053080500681969026,0.026308163694415555,0.05083280366308676,0.02534467945181257,0.009019917947815004,-0.03412748526342062,0.0800496408653291,0.08131143689638676,0.07105296433192856,-0.05284300050748092,0.0220087131881553
-0.05481508084159241,0.028279137350831283,-0.011974590950781053,0.03043667231082476,0.013506760473867296,-0.08112030610532787,0.02395304945961599,-0.03219078107315268,-0.07676788699754324,0.08246360432445574,-0.03505254444634485,0.019866179162568123,0.04898383784346105,0.07079803607607475,-0.050482641901786446,-0.008173340520000098,0.076188655586991,0.07645875105912185,0.08484862296717309,0.046405726950541556,0.050333711334547615,0.03790028900362807,-0.025126772852737032,-0.02956494665098895,-0.040862672808107466,0.03692927743600911,-0.06943991901446193,0.07043966040140143,-0.10562346460272137,-0.029186466410432068,0.0862988573897646,-0.014175510349080916,-0.04848553971964192,0.06635438134997833,0.09721471564203672,0.04541502789422317,0.01712133360396989,-0.00109861616510595,-0.07749109021429261,0.0408432422930748,-0.06930732084648795,0.0051057137068896705,-0.014180764310662557,-0.09568076850232443,-0.00922901631314182,0.019485319956877478,-0.032991979606427524,0.05329804919974101,0.09482414950650773,0.06282228592566978
-0.014420277315816498,0.03331071540570672,0.06205883080752489,-0.015495558796337818,0.0070238583279292974,-0.029467532909862388,0.0783869718186739,-0.05372659628663905,-0.027190435934669948,0.06877266269364304,-0.04486833435819409,0.03198352198482482,0.046379112520092795,0.004038395018688721,0.04632876896118592,0.046435710331570186,-0.07817258760805869,-0.0070516453885827845,-0.04462429987487537,0.0016191978408544114,-0.08593920333734607,0.025197196624531966,0.10001241940317156,0.0782601101135035,-0.042416943748209104,-0.05166494727936878,-0.10273225029702596,-0.02590797279276347,0.05464948354869613,-0.009352284482938586,-0.07721932336246051,-0.11607219752530001,0.049409490707405516,0.016224130176332622,-0.04786049449219329,-0.030777447328280756,0.0839970453358578,-0.05683729598787586,-0.09985331805565993,-0.05294309987178468,-0.09577891611775073,-0.08879458086681641,-0.11079615494421678,0.03270704535756276,0.06275651687982861,0.08214467024566745,-0.0729312667001127,0.05021099045465695,-0.081368500841355,-0.04683324946089906
0.03380813785998953,-0.03242503581121962,-0.022899028942411845,0.029557754401590305,0.0230876094089896,0.0034521201759202943,-0.09264011955615782,0.0862908472372694,0.07199093491137376,-0.07623275931131482,-0.020149735088089538,0.025979446670815094,-0.04564267783069477,0.07534572009863494,-0.07235563940386072,-0.03170500652199902,0.08497663243619791,-0.06392983419745905,0.027724286046312104,0.05203678208267754,0.07371951925851791,-0.07298287200988095,0.06816712477425683,0.04621440021542562,-0.047486716206178545,0.008386815873630129,-0.08793341386260073,-0.017762682542522192,-0.006058122900091862,0.006050887223302739,-0.04792368478749907,-0.08474682960199431,0.005735780785891012,0.07235450345304455,0.04456261996747616,-0.037878206908824145,0.02546131717095325,0.08459579969500142,-0.05183702315394717,0.09148157147822332,0.05903693699637199,0.09328479270105779,0.08258134554809447,-0.021728927966987367,0.03438662989852903,-0.01641643538127256,-0.033115354645326014,0.03329014282935641,-0.0009098959912507539,0.0897989393681711
0.039583109525563404,0.02863121142237069,-0.0011453136048971133,-0.089928218761339,-0.04760640767723394,0.007465662585016467,-0.038572600652528544,0.026656885115334424,0.029675785521147472,0.07325416249140869,-0.03554235001819121,-0.08473767171736737,0.01998489460737849,-0.03590045838002965,0.07204353943505866,-0.06198130755955209,-0.01627396693076894,0.005711809712970928,-0.049365043993372694,0.028720447953274112,-0.050052052332472716,0.06971405194458338,0.06562468708679287,0.013262132981075153,-0.07199845183948825,-0.06825968001848967,0.03329110330572381,0.096091217040914,-0.04603875511847172,-0.06202883685156627,-0.025605765145088066,0.009508443370358903,-1.8161788529165572e-05,-0.028568731448228288,0.01183643576857615,-0.012548455120764884,0.057602898043380965,0.006617159736206262,-0.04312052740592959,0.056694593036466706,0.08511796919998992,-0.09714541905257075,0.046738252413290875,-0.015150190340584145,0.09479847934166591,-0.07263350819618586,0.06508338000423612,0.03965636375237521,0.06682033337696108,0.06649039908950694
0.05422510172747784,-0.0922191998150732,-0.03979078365981622,0.003957305748350854,0.07287111541722589,-0.028238645139468728,0.03130227421540397,-0.06630620493980144,0.03316165298952325,-0.01043356080795512,-0.06697918497671147,0.06621654724787661,0.05592091191407703,-0.05831516864854864,0.055400084975374166,-0.09061194244176596,-0.07020176060740586,-0.019585159637488272,0.017802985772061266,0.04257906504873458,-0.08272982169461275,-0.07424326486287285,-0.040071555349709936,0.022430958605305293,0.03776751522959431,0.023650702805410238,-0.07635983107548912,0.04176563672517188,-0.08655590522485548,-0.04394131228332574,0.013130662547606732,0.07025509121283026,0.02643954083677669,-0.05595695872777364,0.037453125689141754,-0.07266213159488971,0.09024485045013438,0.0538088508192968,0.06545559354948897,0.028431961411304076,-0.08585286705018119,0.05586901467597738,0.010324369552811383,-0.03534678934030389,-0.023144662257906696,0.018893626286532357,0.024228936659655434,0.07519880624103083,0.06264802586147128,0.03051050980951571
0.006837239569590653,0.0053171896309891975,0.04849648641612721,0.06332251139543922,-0.0865431061682178,-0.0798640683016221,-0.0550803587249693,-0.08934270649793476,-0.06264919805706147,0.00732374806605081,-0.058910974695239544,0.0780953256787795,-0.0699315591461995,-0.010577569597002694,-0.015652929251080226,-0.0192086407720421,-0.036592742376515844,-0.0015325288700237909,0.013144401181530003,0.007427074984504202,0.08329745575278492,-0.08440000951976903,0.005801878423483427,0.006516120387458229,0.08654946100740601,-0.05366825095186502,0.07649963559901737,-0.024094800007324342,0.08586471455123719,-0.01183623833774292,0.06047879455667119,-0.09035322881601261,0.0869363449743266,0.051594196614926535,-0.09562382529982359,-0.06654554982692411,-0.06421159116468877,0.057400184490102105,0.05180171566526234,-0.10024446386197916,0.050029147202998614,-0.02028057066639841,0.05754533202521773,-0.0222991342967097,-0.08243329773863557,0.08931693538819663,-0.07238310716590199,0.00027007121284233434,-0.06990888573771004,0.07208743217631462
-0.06793117826179101,-0.07187086388183155,-0.0038092802658385135,-0.02242248497182511,0.04461308191025994,0.0604783526002771,-0.09345026854311857,0.00659555675220701,0.07089445541653833,-0.07306284019105477,-0.05989151621797556,0.020083418878134855,0.07969393172373493,-0.08960856562038996,0.005884014916875795,0.034860502223113654,0.01521547852099002,0.03701020611069181,0.016762407248279165,-0.05365387225455807,0.043575139538103755,0.04182643984462574,0.030556521222179774,-0.023784429144755738,-0.021802891112246883,0.01610558098268026,-0.08092792306544308,-0.09940557557864403,0.08066434563418201,0.09056941753285208,-0.07616849914130022,0.04938182217201327,-0.03942830366234073,0.0222526899941379,-0.046480150372905114,-0.08857424838448497,-0.004408464428296508,0.03132604857204734,0.052977127097530684,0.06662373124565886,0.06418162782819242,-0.005713387857407466,-0.03232640255388603,0.0966661036862689,-0.08343126224078,0.06159509275710528,-0.08592219300512745,-0.07174952275987276,0.010578028610415282,0.042238486645224206
-0.05484948089499101,-0.05841731919317699,0.0704463526416064,0.007014317099363731,-0.06399509113445269,-0.09283522961076218,-0.06729543531996177,-0.033666379096388574,0.027179234607078436,-0.09126451105929444,-0.09313679475626564,-0.04349705770832164,0.08692169254612579,-0.0638576470774956,0.021591696958162463,-0.0002119223141776438,0.07382314653894492,0.03917017186250772,0.04396655128373292,-0.04513249856052615,0.0017099147634287817,-0.08299599381052193,-0.03737945340737249,0.013619456219678742,0.09224214416073911,-0.062345147394185625,-0.06651507524446623,-0.009503164081167147,0.04921122451812268,-0.039492966806728584,0.04515701035570407,-0.10314230642056745,-0.10163451032467698,-0.03677087019280205,-0.07670509178823297,0.0887896001813195,-0.047736498290231674,-0.0317973884448746,-0.0183022447081195,-0.07645099769659464,0.015998712309660473,0.014582721749564907,0.0579169287933258,0.01352019616309684,-0.018914093663724877,0.05836724077134205,0.030707937669373405,-0.09931245066474796,0.09786190388385711,-0.0005643469062364164
-0.0032083154915260046,-0.0023928332479650916,0.020862618884312994,0.08131497846323335,0.02263406880900293,0.047896167984917914,0.07916024858243968,0.07898599248183455,0.07463455864680447,-0.03634995484804746,-0.08331020633148757,-0.06928794778233384,0.021328195119109536,-0.05865768507708866,-0.09489297336509868,0.050636153147845114,-0.06252457136861916,-0.057769397081196786,0.06561872892868909,-0.0397188303648244,0.07176343855197707,-0.08003247215512538,0.07059982238395071,-0.006106238659633241,0.018299676772283908,-0.05306992870474018,0.057611175079674816,-0.05177634160875659,-0.09588951053672395,-0.0316608632679907,-0.016880252080862992,-0.049814871108457476,0.08773425061887438,0.10270506911968065,0.036085966688670985,-0.09397862260010738,0.008831615809529245,-0.08606150401217451,-0.014414180846351932,-0.04612469827660341,0.07033927832621614,0.05645479865069085,0.06779168376941654,-0.032768150667206716,0.006256368306604011,-0.09545237812077038,0.0447812858800865,-0.024863222211431862,0.030756598863950175,0.07098194791521911
0.046967721806764874,0.08878522867231402,0.06565763574674287,0.02767725711426686,0.008698770603592598,-0.01761794835097607,-0.008271843717092834,0.055540526742011764,0.025896949001544194,-0.0932835900567131,-0.024800995166593443,-0.09073012688572994,0.09563365287473184,0.019465052223968125,0.08531629122305046,0.029763039292310996,0.05122881262075206,-0.0975184160249116,0.09216654471699082,-0.033467598076124525,0.07081894713610275,-0.036576167136048957,0.07867125693304917,-0.07647341475067289,-0.006017133166821913,-0.030470752988128045,0.036113079866117746,0.025171224085751277,-0.08029100066386789,-0.09270770690553663,-0.07359068575904784,-0.08404884326794942,0.046083257026719296,-0.07879476301778886,-0.04211558309891118,-0.05228387824989647,0.007349544587244514,0.04314092038997314,0.0500268366636526,0.04406530043537268,0.006471929296067364,-0.04859987041710702,-0.05678633037568345,0.06926040889929652,-0.018758681525552833,0.07163546640990871,-0.09356797959418668,-0.044257237513406225,-0.013937360895441628,-0.06309859412416734
0.0012400423668794656,0.07674723107614315,-0.05804102329963382,-0.06925781111024938,-0.08256581087176369,0.07751357965812765,0.012588523343372703,-0.09379326193391742,0.09041505144586989,0.08780182422548867,0.0456219459275699,0.060538888100854955,0.022689760073406395,0.07947629810105686,0.07504610466447093,-0.06776348555597898,0.09590034959122122,0.031975052169943965,-0.01937758364123964,-0.03027240987802162,0.02912505220445787,0.07329715117346561,-0.07541343722330425,0.08924465050151818,-0.029993005376197483,-0.027785829160639115,-0.042260320602002216,-0.08823393109529803,-0.0354146196589111,-0.02792146231717754,-0.0781673709385432,-0.04692487947120977,0.056607589049925064,0.023091686398223402,-0.05966770736845215,0.05242271115849893,0.08063022205017673,-0.08475113812720067,-0.0456996974627623,0.06922715372174175,-0.08778723016112114,0.07607499657016681,0.05871321291511781,-0.045201760895261525,0.029979719878611224,-0.03170138090734105,-0.04910576921442752,-0.019890123167916038,-0.06157148370378349,0.0022829994728433404
0.02823354616619931,0.11085088996989703,-0.07673589434015014,-0.004447623549483386,-0.023995530312219446,0.027591238306853286,0.06835292664174139,0.05037268927358188,0.09096657957085424,-0.05385030654026911,-0.06001757327377785,-0.0026699794708106277,-0.09705197298197818,-0.060282533338987476,-0.04217491511489585,-0.01764399959538797,0.042227359727130744,0.021302611170990537,0.024258515417997173,-0.07563375993621314,-0.018249302566762375,-0.025839734498019455,0.05797782398778601,0.09277224872732841,-0.03156151348671388,-0.03742444639169771,-0.03278902213281941,0.1069218775837102,0.03082129605096733,0.05275551083124253,0.04811260818772185,0.022653293347997983,-0.05648946772142591,-0.03262763789082171,0.0668814994291238,0.08473868061098425,0.047497166999795365,-0.08366922546226663,0.0685296331298593,0.046036854091098846,0.09796328740853412,-0.01578231946495254,0.11719725201936274,-0.053397983096950756,-0.06646702240113479,-0.09497418031898475,-0.05901408106958036,-0.0919378161181245,0.004161032702638479,-0.08421299621286674
-0.013582853503079941,-0.024973633038947302,0.09277589950857278,-0.02187365707161554,0.04771637053990542,0.09534100518224146,-0.008161042076274322,0.006571101005725077,-0.014993728034056223,0.07790777609674848,-0.039733503900411346,-0.027036960483508624,-0.07957574997959256,-0.007944022958421514,-0.05431424689389797,-0.004222104834053405,0.07666028745708522,0.09945312682568559,-0.09164475931189932,0.06679925956654419,-0.054901609419246364,-0.025636270965620232,-0.022163087246864555,0.09908015602669537,0.08723045242820475,0.0016069984555192225,0.05547318379014224,0.0975888580512204,0.016421982166841424,-0.007722106028299317,-0.04025824748297031,-0.004045305797074058,-0.07128089688365162,-0.060803016122170796,-0.07268664253855729,-0.07603077247351459,-0.05955127347344654,-0.05127614140656012,-0.0786754942069565,-0.07601926167769797,-0.012658604697772576,-0.06755591188341403,-0.06586503652109846,0.10056375197676441,0.03311227110809251,-0.06411788535198834,-0.08336089256421089,-0.07595842465452103,0.0055736940456485255,0.048045156091618045
-0.044864210520515486,-0.041827623761811816,-0.033073786247528755,-0.04128132424476631,-0.06076506574154486,-0.05078602012871848,0.013060391406374569,0.04937559800980938,0.07744008461011088,0.04353248623051166,0.0725238663646071,0.08982375734214823,0.04094721482700341,0.027403706656519377,-0.030358354139240127,-0.024502376223266946,-0.024585689742774267,-0.019112573866189832,-0.08514698188005027,-0.0038543471215673093,-0.032491920132011035,-0.09356166026144036,0.09682464200226591,0.056888398529348634,0.03244948320246767,-0.00918886168516306,0.09473015647264915,0.07760539728151186,-0.015772401941289125,-0.06229070183815698,-0.10360833708147478,0.07110258358360609,-0.03566434498985145,-0.08498441733520117,0.07791797008471996,-0.04535814588272073,-0.0012664542425602898,0.04193917084023847,0.0004801448549439618,-0.12768736905350594,-0.028659707130125858,-0.05682309582820642,0.08208595331864803,-0.0886054990819846,0.04077719682097267,-0.06978981000333571,-0.07916158535359324,0.0895264494675685,-0.07776569941232593,0.010321016428471476
0.034274158051461015,-0.02332695546197241,-0.0031481739413796793,-0.10059635509687495,-0.09180243044126077,-0.007979498710764737,0.11519082566131328,0.12247464510535447,-0.09910111357299427,0.11333805512877412,-0.08918383704698911,-0.09652285401455492,0.08689875792927752,-0.048507760080006374,-0.05858072208219149,-0.02876206038935711,-0.010885400509446017,-0.02174171141260478,0.07488807209927671,0.01824547916556339,0.051928964117808445,0.059819219741265785,0.08698986593041333,-0.10456749786075598,0.006375157143354254,0.040566321013782956,-0.05972509202109095,-0.05079111409135099,0.060561763742783006,-0.0007390629384190458,-0.00030141153789262846,0.05451041655961907,0.001005418082589538,0.09014460292518521,-0.08682752668556544,0.07091653912363544,0.021994617632087658,-0.06055936318746157,-0.05914267939897096,-0.08393206231277198,0.05119886049689358,-0.06384576615939137,0.026384999809794467,0.0034362827301818604,0.09879585216428721,0.05825408265437586,-0.10382267962990417,-0.008837423137560389,-0.09047017190027769,0.08830472554873521
0.09127302758910338,0.07605225087766643,-0.006342103585015256,0.07263574647237038,0.09079490220642931,-0.011873724862437847,-0.088064612643877,0.06650014417558694,-0.08455233234231466,-0.02242081698639107,-0.09379810968635918,0.022617315409171355,0.05126815697662097,0.019204427895009434,0.0263016748270532,-0.08043391757006037,0.030347215628784563,0.03596124735818741,0.0839810197686097,0.00954382743562606,-0.09377902953034342,0.017887464767786694,0.045781802871022834,0.09111189247011223,-0.05269045804319572,-0.06269325803488196,0.02655044940828466,-0.03681694112693298,0.06540452934914633,0.07197442100088952,-0.0735902038201885,-0.056679433117914485,-0.0843873649925147,-0.01893627736674983,0.028674912640500462,0.006384359159485591,-0.020676761525316625,-0.0719782011926639,-0.06520499723683158,-0.008622087874321359,0.022933051751286987,0.08784269776899382,-0.07223898196388681,-0.021839898817974154,-0.0012842869052364406,0.06716007343518901,0.03079413901026158,-0.0457172367132086,-0.0899134704294995,-0.022447193139606986
0.012155893992809709,-0.0747983436939054,-0.09277848814082765,-0.03776873909542445,0.03176141941224935,-0.04828900570815967,0.07542687627753117,0.0021346035916270855,0.06455373771799569,0.09751037376030658,-0.0002265045160058472,0.09106115159461288,0.09659718304151413,-0.041969521070677564,0.005410831790567247,-0.09942508482951835,0.08110420620359841,-0.04727650713149726,0.09124493828488157,0.062177377080074335,-0.011256665881725816,0.016082660764659466,0.06088531064282772,0.04019502043598337,-0.07792966353136711,-0.06394793581954858,0.08014329438721211,-0.017234290136854825,0.058314280245758625,-0.07013854403069195,-0.044613315764893524,0.03384260141337021,0.06922999912274455,0.02809418434474239,0.09787724312642213,0.08568337002138042,0.08097886188366768,-0.08125279324075997,-0.030628134093447303,-0.06204703840318603,-0.024127795620857675,0.07839490361294298,0.08334005361034065,0.07596356068248461,0.07420932195412669,-0.09088378592737478,-0.023294525406857936,-0.020594264555490405,-0.0772554643892345,-0.06240631769277609
0.06886281589828307,-0.04624207598956267,-0.030390922121881395,0.027170913918105964,0.02366852480852502,0.008145078235833788,-0.041991467557526974,0.07539070173919919,-0.03281801146104028,-0.03092774475914284,-0.02532315210482482,-0.05304778989777123,-0.031237893174689155,-0.028427562012420346,-0.07117401035317993,0.0007255922246891178,0.07527761208109746,-0.05418489578816238,-0.07700995978427548,-0.041664969999015644,-0.028624336658578796,-0.05362593036634687,0.00860375487849002,-0.07712382353466339,-0.05762776576656149,-0.07681621982183436,-0.024184647648034678,-0.10442272155722714,-0.06656876322482755,-0.057548808800188485,-0.0548852418684666,-0.09532492112415893,0.08486563910853807,0.03725369915444681,0.04912856855837755,0.07971013752776503,-0.05826778413650803,0.002610630759172033,-0.007019178827058006,0.015316438000901753,-0.06897661838602241,-0.009701729237689615,-0.058069352483333316,-0.005303912994805098,0.07533068018593153,0.023890760860089323,0.0007521739523482531,0.04807378465716084,0.059801518601535625,0.022666467527362257
0.09432691144471482,-0.03865269179811363,0.061400480680244,-0.049813648744286794,-0.06819804739390856,-0.05938338893839777,-0.11391052241167789,0.05419215574159115,0.04766404421986326,0.03902281663013638,-0.026929804163055193,-0.08595721973879601,0.08473606638233465,0.003623427017775566,-0.023018828090012964,-0.013405103562469732,0.03233493395510468,0.06202503388883194,-0.09877628559372548,0.09470358935034023,0.041262421001067494,-0.048911932634889035,-2.1549277860256877e-05,-0.0827970197257468,-0.004899740770197941,-0.023867166394600424,0.0666782048526883,-0.08358979153782188,0.0707378938819105,0.05480782015590083,0.09162478601435296,-0.08550229210505797,-0.059146201366251934,0.0513763169672526,-0.056549383082868825,0.05131469517785635,-0.016979501788884827,0.040512785699805695,0.08575052787662185,-0.06571249615579478,-0.05562850048486749,0.09475116667985621,-0.05959106149200431,0.004432695890663993,-0.08908120703641406,0.0603284398257813,-0.015258546967238582,-0.06225254240916622,0.0481204237962643,-0.05879842192758817
-0.06809170215267554,0.038117792823776156,0.00777342010577954,-0.07955927143152838,-0.05259630901113086,-0.008338245415749844,0.051624307089416906,0.0730276431405416,-0.02829540344337666,0.043773379571206965,0.07415325328505415,-0.08784143640646593,0.02243560380047439,0.07691413399723294,0.014891796781406256,-0.03145542456962228,-0.015510874272844966,0.017530766844481772,-0.09421866966165977,0.027586320597134357,-0.03831858652442672,-0.017735824602713033,0.05520408250368615,0.036531997751804955,-0.08256145134121558,-0.08367004382134909,0.09998595362077302,-0.00575359988160454,-0.004959282999505711,-0.05473824985409029,0.07169471115829534,0.03308488858672756,-0.07571665660153241,0.032187697704194745,0.051635050690973856,-0.03545744367635387,-0.031079144258309606,0.005207508307609461,-0.06663988285601283,-0.02699564157523907,0.015449161320890567,0.0699498316451436,-0.01552166170374505,-0.05663468450439014,-0.07157879451066793,0.032445547843686605,0.04663682853640478,-0.0762008231996808,0.01555320420182868,-0.033835591663678145
-0.01989963070527365,0.011790218390317497,-0.044111661954727675,0.04449934623186824,0.08126655953062571,-0.09658876884420409,-0.05091667860192738,-0.08013991008238866,-0.04950193960912195,-0.05598931140793214,-0.08303816825711555,0.04925341473253417,0.051790766890093765,-0.09809233387093118,0.0033459182683068358,-0.09513855390598938,-0.05140417707337988,-0.055752370253347956,-0.059863855663759985,-0.0239071610596375,-0.075477252508047,-0.07962731697937855,0.04287968535648004,0.057621912950107115,0.0058219372906625705,-0.01377645249380572,0.07914045145960028,0.04891234463390902,-0.05375637174553811,0.07341264135213843,-0.02646956830707475,0.08312680170196893,-0.04511016510607281,-0.08996230486843795,0.04332622621294212,-0.09766982067540766,0.033267860691052815,0.0199743820892113,0.08920151260248554,0.05464205749018509,-0.03785570162538482,0.08081478401900755,-0.02577230114607201,0.022315067358572062,0.022662176983457995,-0.010079859773371305,0.030638939159948555,-0.0318482393846355,0.07999246358624978,-0.06464480398102039
-0.05292177412248728,0.0015555226398534946,0.08201757879193136,-0.06070541889959454,-0.0968545821171309,-0.016625308240098516,0.005541588158319479,0.09100296478914614,-0.08464224139625028,0.06261134068418475,0.05149463046501273,-0.07249030470476478,0.08718309599555264,0.06356606602083999,-0.033327663054056905,-0.02159997215094917,-0.06996215935647354,-0.05881495987611897,0.07483310528265673,0.01633718561073982,0.06806572667434313,0.07322582846528353,0.030216001898731807,0.01591714825570454,-0.055264369295114184,0.02522757957220777,-0.0946353406854709,-0.09523983662740536,0.06270736089002346,0.04277437304575766,-0.058377822816331575,-0.08794027008104864,-0.06631622652382516,-0.00310471614267732,0.07308410594741624,0.04222925818408055,-0.060655465991887314,0.10913022823362067,-0.03128479343612852,0.0605388024603978,-0.07475716475924765,-0.03888992664975162,0.07954325917558808,-0.025159097850457033,-0.0853824311521831,0.03636550048558569,-0.08715113249882868,0.02706470497056462,-0.0773803778538442,-0.0427743928973911
-0.07639020786350247,-0.018326121207745214,-0.06462068075413822,0.04272109442789273,0.007463853881891248,0.016038833885730516,0.0890116493136887,-0.09509158847158886,0.05495607769500085,-0.033626331569342714,0.04633873766614993,-0.00044002281472143814,-0.013998348293393656,0.0902499656536421,-0.01356474733800123,-0.053459662368685434,0.0544315969166832,-0.06961342594119606,-0.047814336420966275,0.08102001349037198,0.0515245663811409,0.0036578255588355373,0.0922252492963013,0.07297314104611441,0.0646714902150184,0.08261904886276433,0.062303647087696305,-0.09317621556505767,0.09552128273450002,0.005738156230836476,0.05737813459502811,0.021529271592606328,-0.024779122805570663,0.08966968679862668,-0.06365991011901208,-0.04199723659396521,0.05904957483577829,0.002374584126299006,0.0068075474569298895,0.058489585535455364,0.04518304706027002,0.00823025713238174,0.06869975383390478,-0.0007412275375786602,-0.02442373406499828,0.054051658383607856,-0.08922965426982997,-0.04830417167495281,0.060874462575701185,-0.07564058723946794
-0.09293039813926372,0.01030319611074619,-0.02270493422327876,0.04079432817806382,0.01991862701765182,0.07831196958366878,-0.04391307365263372,0.07402401002987648,0.05570712749956329,-0.004234366201780456,-0.07466887708064379,-0.010570825269502272,0.055558426380976196,-0.046308020734148345,-0.04743544291460406,-0.06629612621514622,-0.014800434888958224,0.056312498803347884,-0.08271827301555604,0.08831160693843093,-0.0459959967620333,-0.05367876559717898,0.03148741995585964,-0.03838721870453534,0.0610262898524469,-0.08493010628027282,-0.07227839407460505,0.039297744078128714,-0.08618391103277699,0.07166905918934535,0.05359912270176541,-0.014399984308034422,-0.012124382530620374,0.00905929785027595,0.01151353602301873,0.07538286468425587,0.026564684865436214,-0.10332017877833304,0.06897357357817582,0.002117587050964403,-0.05199933636965949,0.004277307085711332,-0.007085542222570284,0.07924436819567918,0.022819419431471887,0.017805624920341042,0.05707037296742989,0.09274685421597413,0.043123706470235154,-0.016970793501374315
-0.039010079289461846,0.027359035116611165,0.06889824381861484,0.024059750825517253,0.02087361445716182,-0.10188222412650272,-0.0180249197112138,0.014934818556224479,-0.03948675880325969,-0.010761489130633727,-0.061783332193377,-0.08028031373873067,-0.05870606116319688,-0.10893345767524304,-0.08164400823522235,0.042966250089321256,0.06276152500233444,-0.007907245428603781,0.030213684828602358,0.04797368652180954,-0.12053197255370197,-0.040348809923405476,-0.07282290637610621,0.036905019795593255,-0.005751346274273416,0.01066221946827003,-0.08338115934181047,-0.04314820087850508,-0.10542006063158355,-0.09327442424519791,0.044714684504547915,-0.13277784982763774,-0.08151365449876347,0.010998016623346051,0.09122075932595769,0.058498169228867115,-0.004923159210670426,-0.008437800225862173,0.031060913768722512,0.03376969440583812,-0.02414249873951971,0.01298147467349215,-0.10860585192837363,0.04791068855377315,-0.010020074499691296,-0.10251370711754387,0.045355022537927225,-0.007043600613925322,-0.0364198985465844,0.08427434736722386
-0.09984791485987102,0.09563929053705461,0.020380397428177197,-0.05224950682148651,0.030144029247271983,-0.09000356635992526,-0.018260392403266122,-0.0692527804634136,0.0031527937053508924,-0.05462851492050904,0.00848374759101435,-0.0890389921494452,0.08496780579441025,0.07665613348653817,0.03191818415325295,-0.09263579015916329,0.08309574371027889,-0.0804290066900311,0.0506465328474269,-0.013351780851964054,-0.07442323644392333,0.015325009949722858,0.04730676691333368,0.0014835169508933379,-0.031543467675342815,-0.06655515366464633,-0.07210363137084949,-0.05134634355994545,-0.04202277226711424,-0.04964037219189321,-0.03956513258788607,0.024522132769827728,-0.014790487956217903,0.015017401583267385,-0.030819731898161434,0.07617793287534669,-0.038191335992644064,0.01545919769949121,0.055460874749138474,0.09192456538877414,-0.057572783564617536,-0.03416768710822747,-0.01791140248575444,-0.029299704455343835,-0.0790908652622379,0.05359195086123833,0.04215275262611329,-0.06041396412796153,-0.02563603197538619,-0.014503701845172703
-0.07093644130307389,-0.00553129408291042,0.09499735484003975,-0.008363528224452564,0.09369786483822898,0.078125854425794,-0.03954131121687079,0.04496149437354506,0.08356366933726057,0.08986136186958878,-0.08453007370521198,0.07342597940065894,0.019126441447049124,0.09282408511461666,0.08020815487210434,0.004484543645995972,-0.020576630664145074,-0.004988111631538917,-0.02546359591687645,-0.011238828752247517,0.046021194835352296,0.042624397533544724,0.0358577776190732,-0.08523161519063288,0.04213311746273535,-0.0052457523846901844,0.09751749525692538,0.04494159261734159,0.0720711914301001,-0.08716788778971639,0.030170743438575662,-0.00391808891323373,0.0100490540451052,0.011384844775001755,0.028503680761102747,0.07846262263529828,0.04646640542105387,0.06749809515311601,-0.04736061798040499,-0.0054568567774083525,0.07672417330692591,0.06023313017120425,0.019050977929485888,0.04089141156440017,-0.05931501705279259,-0.07737177448260556,-0.0981161906108591,0.02732052394031122,-0.0796182058375849,0.026619099279931155
-0.0142280676446606,0.07717265542852175,-0.09593268328739082,0.028842105562146562,-0.038860709640554464,0.07269850247346976,-0.061860991040354224,0.060282832645015695,0.095036863656714,-0.09835564699980333,-0.0896578909576062,0.07934867114540421,0.01939926349010004,-0.08583968064315538,0.08347217672272472,0.06769171255056687,0.010563271538096724,0.0870876312480886,0.013872838860828417,-0.010652847084845504,0.09456071939130556,0.027749056264618994,0.024463686004184346,-0.09528794640697522,0.06236909652114878,-0.029202045891470574,0.06334371637181131,0.050958573096133275,0.09642934346396576,-0.09726936244037343,0.05255549009154514,0.04696809732502693,0.07596692568889389,0.000389322540255997,0.02927033417306317,0.0857026666048169,0.03972924541330504,-0.07261671490956846,-0.05505964795312706,0.005259877996056126,-0.06019119842677914,-0.08012703053303732,-0.07145476625479003,0.09799553206522603,0.04954250203799246,0.053421375620198434,0.05255837564561786,0.07087878353515614,0.07121991147410903,0.05547018989413284
-0.01857537175220967,-0.07336833710694324,0.028787286624524636,-0.01951272287648441,-0.05619016006408662,0.10251204393664552,-0.03988049556378955,-0.0910770410378849,-0.025910093853359097,-0.07029274964141251,-0.02500219515269428,0.09490117590802132,-0.08040392142711564,-0.0030946416486069797,-0.08983508952114727,-0.05207514158523222,-0.03576446747451116,-0.0620306711861973,0.08990055535089157,0.06630155079999667,0.018259798664702193,-0.09963826744338151,-0.027269348454557422,0.09450005574891215,-0.05361129038363796,-0.09321724963767782,-0.041245321559601276,0.026392501578866055,0.07720584245688547,-0.11427004545922571,0.009120660637007779,-0.05643782083598322,0.049056772828725136,-0.06600679085389265,0.05278000782574553,-0.08849912392676236,-0.0632501190146736,0.05154103727285751,0.05652106847117598,0.04380998317253595,-0.03972054023348076,-0.10169180509334451,-0.012333432111789914,0.02132156080495376,0.027418960769137177,-0.016030074707585374,0.09715975700912825,0.0756735049675599,0.03707002062047476,0.08084486317912394
-0.0355634558982703,-0.03540753244027758,0.08214754988147722,0.05225221887517641,0.050208626199298535,0.06959728228330514,-0.08034423045171693,0.082281447981113,-0.006155578676533778,-0.07341520317651809,-0.06561507106156972,-0.067223955435801,0.07147479300088043,-0.059610119725626055,0.023383048159543913,0.08618785566510796,-0.03592417166441427,0.014737726739773693,0.05888129066474716,0.028293645706804475,-0.024746487459370328,-0.020743957143822725,0.03590314179843999,-0.07298015644288099,-0.06693167493447126,0.0019900113015840185,-0.040285510202809974,0.0007803120200131055,0.06271405853105125,-0.09203756752873135,0.09848409875198905,-0.04427806912311154,-0.09344929540427038,0.06448175591162533,-0.02049387230659787,-0.05248120927234502,-0.014462169502463922,-0.04773292073818789,0.03236170890316492,0.03002598508778143,0.09688303671506025,0.02358465065921131,-0.04160813936449473,0.004627438230736507,0.07860304712845904,-0.08273348654238692,0.001216385484217001,-0.07966960240577166,0.0934353625028503,-0.03351497567668819
-0.07515412407720964,-0.05002596787480276,-0.0929875112552596,0.015846667178847473,0.0052372697964804624,-0.03130847738860255,0.018653189216020695,-0.019320454495874148,-0.03505977637785571,0.07347402500205948,0.05167223730654901,-0.022504403013207643,0.012466488022594807,0.046732576897565624,-0.08479364885784388,0.0025190000783373106,-0.0955209849933833,0.08350783697223725,0.033236360495525655,0.08405690541338794,0.06781161742087242,-0.026427115149219364,-0.020642507919630026,0.05377571497897931,-0.06115408826245901,-0.08428520209736803,0.06317799358288151,0.0807357319754811,-0.04663147131641699,-0.019198785142242006,-0.03694374140751083,0.004413664989589779,-0.028955761966597382,0.1274200051148992,-0.0982872249052028,-0.03231778902554953,-0.02146859996272701,-0.06284405929384945,0.029837731521540862,0.07656087431773807,0.08915866092644563,0.0963656497942366,-0.0759397172423581,-0.08498110667743755,0.06049890568340992,0.06406323706498616,0.041152804897924306,0.05148637381618677,0.01578575096297868,-0.006328289486742126
0.05266934404010762,-0.05725020279124908,-0.08189757851137669,0.019221262762354484,-0.09444025047734096,0.014718685567904248,-0.0025068658216607304,0.039469362565166984,0.018847746118263713,-0.08395329044553983,0.0397094458547747,0.053620248648397706,-0.08291478994152242,0.04912045624685274,-0.06262984919843026,-0.03978461925246027,0.0764786924328451,0.09616599235720774,-0.08058990593117972,-0.020609142686616767,0.032482742918762256,0.05330686401820664,0.0626015492458752,-0.05968910210442457,0.021393202068001972,-0.07217886287664094,-0.006646268449633597,-0.059552972842093155,-0.088538593482319,0.044857322871887685,-0.01488900848826223,0.026269474094398025,-0.03897220018994689,-0.04849869933540203,-0.025647045283551058,0.036356871544243066,0.0385687739921002,0.06356386082886314,-0.017803014222919116,0.05981924715561498,0.08938356676783142,-0.05279751435840403,-0.01847310616147964,0.05649214875238354,0.09649035406356973,0.06128983386548451,0.0799433683484044,0.0466172443276671,-0.008939993508606487,-0.0976317713638389
0.05363564394434883,0.05549202576536552,-0.05260293663941771,0.058695986362346665,-0.022670891051160106,0.011573610687670453,-0.02419539880946723,-0.06793884650686727,0.030923755708323918,-0.024446476091498023,-0.051126838435633926,0.07588557847057466,0.060518059571838936,0.015706517089618375,0.09062585743291787,-0.0898147758643694,0.043670882364592656,-0.035788520995366696,0.03559577993463499,-0.08667777805080211,0.04769515040572489,-0.10604840799502607,-0.050843520634040955,-0.057278788877994466,0.0886508893351043,-0.03789240905030221,-0.03125122719150119,0.08836858167603831,-0.02484825114604596,0.01306533103843633,0.08793523053218925,0.03775662048377024,0.046044355291035975,0.00677421167797201,0.004773746801034013,-0.0477222659028639,0.007119187555085897,0.09518945493723482,-0.05316739150789319,0.11895894087840667,-0.0031259959170885127,-0.042879191107837035,0.02498031152822558,-0.06998543421543597,0.08595422081622574,0.029781274254712317,-0.02029772066159894,-0.0017706798152435292,-0.011028193800049395,0.041547546922704556
-0.0740824416845332,-0.029260791899157167,0.09109669173423353,0.029703781524268443,0.04556957793823239,0.0969690739154753,-0.02768345823053236,0.04029911106480264,-0.009366367126989626,0.05109042311455876,-0.046705035663069834,0.0705603886834227,-0.02230714160702254,-0.029753458083045276,-0.015312207539367356,-0.0885802569186986,0.06520153482717261,0.08310520536870088,0.037051995870238205,-0.039624003409360606,0.13109441449614767,-0.10038725672323717,0.03456217420798918,-0.0778445404172784,0.011993812347176525,-0.030728020853790356,0.00796710986658964,0.004051329567264448,0.10790982582449418,0.08557038472896403,-0.04288127929029506,-0.06792096850942139,0.017362447533174428,-0.11181854864117938,0.08102615664473586,0.027908746611819798,-0.019151018920088567,0.010475870743988144,0.08439041879513441,-0.10278431739686568,-0.04099901284333791,0.0452858236102851,0.08975588323143517,-0.025767213527459372,-0.07425622714854059,0.024068204338499523,-0.07097541911512524,0.04905977080298318,0.02383254793255899,0.056766680172472946
-0.07373260489217424,-0.09138229020169411,-0.08943049657622128,0.014528269098266848,-0.07971959836285943,-0.018126721430288963,-0.017983025544122597,-0.023951628967224182,0.03336378547472314,-0.09689602069939479,0.07498930812924956,-0.05608575936368169,-0.029795398397202476,0.03620762377571674,0.05545406914502523,0.015661545515087465,0.026359181545665876,0.026411808286245397,0.06455364807344648,0.024722976104328186,0.07177891677281174,0.04550616397105407,-0.0028821027963080907,-0.034345570659432265,-0.07183913746650113,0.016108557512668674,-0.019904865064387385,-0.04106706557289362,-0.05205007930910299,-0.06109850876712358,0.06464140333996954,0.10152727671063069,-0.025849722220400093,-0.01713341556164124,-0.036751524406568405,-0.07351530557796236,0.01650551106890347,0.013100756695865702,-0.0306711681712891,0.009498495812545202,-0.05208592537848877,-0.05163119681362976,0.06230271757897183,0.05131273775806178,-0.0874339231630194,0.025129276678796796,-0.028098850205157132,0.044899297010371465,-0.021261769282368677,-0.10085986868154036
-0.0768478882398837,0.04040468250004415,-0.07365365910522756,-0.020511721664332908,0.07802201730734754,0.06303527312480477,-0.03521891147382649,-0.0791171152503004,-0.07637445103234626,0.07279793862040311,0.0633374156240032,-0.01382386153143431,0.09230097900042057,-0.08705404638584326,0.02276553206939338,-0.09534448153940084,0.05450888489437741,-0.07995524651206963,0.03770885752417187,0.09681915942987139,0.018357316275901606,0.0029071678633537422,-0.009633520643637468,0.06862911237151703,0.00018096886511677872,-0.08606348559672215,-0.0014010132265392435,-0.05183543564017431,-0.03549703298549938,-0.06044767302016815,0.04362936050208289,-0.06752621632606635,0.0008523110092914418,-0.017769054125776982,0.0596855656336768,-0.010942374885333662,-0.05349015564612123,0.054331240357445895,-0.0852053537168556,-0.045930278399305004,-0.0792321980654081,-0.04653798821882571,-0.051813145032966045,-0.02007468337697836,0.03739751970747422,-0.03240647008134075,-0.012028679251757478,-0.035395297304888045,-0.09282965479214222,0.04547306482196404
0.03766792924198988,0.029508342709624914,0.029080010184784504,0.026364977623294483,-0.0622917129259242,0.08367129630163793,0.007566865786674513,0.043300580179460334,-0.042017316405590824,-0.06884259996763809,0.015459896533412123,0.049743798532758364,-0.01860398211931727,0.0023210292935068027,-0.02802891960752893,0.00804699869652432,0.03394981528747715,0.0008305194769276065,-0.016198988706362504,-0.07324645703963509,-0.08952090655923621,0.05994788213874743,-0.055411448317368085,0.032777415160595666,0.017505185565408456,-0.09406757619455172,0.014027780873335099,0.023301558604241962,-0.09747141689452175,0.0676890576722895,0.024304035969569076,0.024966094793056035,0.029959249843610782,0.04339224566238584,0.06319238002960645,0.0950696455322307,-0.07177266207283366,-0.008638737501391935,-0.03971344910161178,-0.07534438411069691,-0.03513502271565441,-0.09412555543489917,0.09204023999228002,0.02573734874273521,0.06114685844745569,-0.06899526090777604,0.07210599032000643,-0.022717683598120503,-0.030041746517115667,-0.07044665748626061
-0.06552623486304318,-0.011888404094247334,0.03148192292353279,0.05353149094241584,-0.0413638159017027,0.04168975883964086,-0.08359193345643995,-0.05638238433825792,-0.04689706974930223,-0.04040827707812594,0.055754785678283104,0.04607526291822168,-0.08465127935215266,0.009304300837996576,-0.029397385992397967,0.05164471964552169,-0.0842576004237978,-0.019357306401755658,0.06987513119606603,0.09100102758895617,0.04350606916997224,0.0941428421190683,-0.045988497637747185,0.07366859318225011,0.05261426636445736,0.07910266056915954,0.04924288600717557,0.07230551126110056,-0.091004613558726,0.03410704333434661,0.05032249885810112,0.044220505722802346,0.06071317723939108,0.02394570314619723,-0.0787615818412317,0.034210936915556246,-0.057314351770631544,0.003607453792206832,-0.04033831821172822,-0.09979535807359505,-0.07892577126266136,0.072316144795716,-0.07537982480156678,-0.08322719474560727,-0.04788204093625951,0.047922496858063025,0.015374948273116553,0.06828702069076423,0.08802350878597584,-0.04083525349180545
-0.04289488751773949,0.07522831934699094,-0.06486579804590423,0.07094185961716329,-0.07156384308277214,-0.006141650413265467,0.011627546665353795,0.06885962434617629,0.04170372885427751,-0.013093230378121015,0.05955481472907348,-0.02206806010235515,0.06132183075342836,0.020820288869303177,-0.04076436766483997,0.02573365289414489,0.057968508730820156,0.04038350301992087,-0.0973747483250654,-0.07007738503241755,-0.08827045578285492,0.02263254395733658,0.04753461323013516,0.013954734898053323,-0.053956889070991707,-0.02112005877148456,0.0843751361005281,0.09440793058298826,-0.07786286041113459,0.08448508755765001,0.09879230430560698,0.03432500183388475,-0.0853198983961966,0.004385215324210096,-0.07193319461402589,0.059061676362149186,0.09678818094359888,0.09264380126968756,0.0872044053927274,0.004213454834200703,-0.0640116988372666,0.038917778886577985,0.09324999735981218,-0.05059091877014321,-0.01740632418632146,0.048982534364183435,-0.01729678295496994,-0.08009676337304507,0.08825990036044341,0.09961005493367232
-0.016191952577731414,-0.019617558473489005,-0.05620444355024988,0.012138044891058578,-0.08509068857975759,-0.10942523453034358,-0.024798343855244927,-0.09167449574428872,-0.05960027719099777,-0.09529683775619924,0.05747590480701735,-0.13631027515612337,-0.03158772851531957,-0.03932629460217957,-0.05576973502794415,-0.10525137643361514,-0.05339569658301192,-0.013567151694305429,0.05184303442361832,-0.07738459342324995,-0.10920433545633246,0.04576813810001024,0.03339473482039259,-0.002805620913810725,0.08420052489431741,0.09488692126604964,0.013641223034419267,-0.006173558132599608,-0.11774799047948582,0.004991430606408505,0.02219233399685087,-0.048316165665704194,0.04014040589318905,-0.036247287564006116,-0.09811511368068244,-0.05106437593264829,0.052687504998629654,-0.08399593340739966,0.05547531644391305,0.03773241635442237,-0.03718566858825783,0.007382164747900568,0.030949652615819622,0.08770841080423755,-0.012567049514391027,0.003667312384931944,0.04380229054706083,-0.11225414036896311,0.06972456479598192,0.016247618325626538
-0.09452259998832738,-0.05913374136833164,0.05792537448134019,0.05770316023275131,-0.007523065249187663,0.07579582288510174,0.06976716659139084,-0.07876565041850644,0.03403788065768834,0.0053988318260754,-0.08567944179290059,-0.07680104863674672,-0.028364350395455172,0.041339137883010024,-0.031153861545789734,0.009285702858391835,-0.026089787079375808,-0.09535791528804054,0.03340197015027721,0.04426958672926715,-0.07812278836228644,0.02775612130316081,0.027615711309548065,-0.04951952072615409,-0.017270090242825716,0.02285605375004735,-0.0841574550573517,-0.08028636348787434,-0.06777072493168877,0.018275077412591566,-0.06487146614290244,0.02477287728125019,-0.07316298661862321,0.07692805712480048,0.014773732154988187,-0.1061545383534996,0.02406227642566975,-0.07663732172175013,-0.055156867987388294,0.085238548590214,0.0798880417736045,0.06870002666256127,-0.07054294609060677,0.09203617595825157,0.04842273496665743,-0.06955934692283254,0.026900253489965026,-0.13010126262011762,-0.06717014680364736,0.04389251774042479
-0.07882614896620022,-0.0868871185339898,-0.053356066498657845,-0.09035209488583427,-0.08819606977419861,0.020751755913797743,-0.09086037758344076,-0.056776523417383803,0.03992222577536382,-0.05538383387386227,0.08157185215210433,-0.03695186399364044,0.06770039136431857,0.08864676459115034,-0.07954955022232703,-0.01969664517685195,-0.10272288745698883,0.03149411039194684,-0.06575012131569517,0.026101010546187048,0.04370119317830212,0.011140661714659404,-0.0017323803947131256,0.08456858875930814,0.06148968706266019,-0.01611147565635759,0.07018895318977207,-0.03875404120803551,-0.023190680317625192,-0.16699174010546936,0.01547285313329932,-0.08436230316937325,-0.043489770626087144,-0.0909518482210009,-0.0993256416583668,0.027328317506339666,0.06332244372862356,-0.09001618955153973,0.011386817442141558,0.019337806895818772,0.054624775161534626,0.05048084809699609,0.022037790243520324,-0.07676849988064464,0.026672041354748273,-0.08888148907991333,0.01935320442444622,0.009003297576728679,-0.08968043324297967,-0.08063841502678856
-0.04101596531286194,-0.03630174135851254,0.09403734327870493,-0.09597462578500013,-0.015198001200583995,0.0777130184947294,-0.062284114606814524,-0.05892497844595822,-0.06755060377175606,-0.07439079927101627,-0.07951201196199063,0.03671428304823147,-0.013515378641462038,0.09462360386361024,-0.010983649888319529,0.006299670812786402,-0.07519715379907743,-0.061739906784674635,-0.08743140646548189,0.07064321168621374,0.03155949247501166,0.0936642409645671,-0.08669839459276305,0.00909519770092374,0.02853830755947691,-0.028001119521676686,-0.10389134618527798,0.057303764664860195,0.02156794843585446,-0.03695013882965775,0.05096758477134042,0.01835435542981523,0.019521652177322938,0.088637379795131,0.05327188664675357,0.076420673745194,0.004017283853804071,0.06496274171594904,0.09070899608669777,-0.050665259666588205,0.09481755191711844,0.013446699582798734,0.06737307286855565,-0.019095668774176195,-0.04918249848599868,0.06638351416016135,-0.08035108415380104,0.024518538065646377,0.009650750140016234,-0.016286591854388292
0.011932832480774744,-0.04742096771669717,-0.09732893256380862,-0.08567682123770379,-0.07683790575197794,-0.05171004078174409,-0.003243906472861907,0.09755802015649037,0.05851650302911261,-0.012843408710774462,0.053695385197882556,-0.004709683498309315,-0.006692737303353625,0.06259394093765283,-0.09717797299639037,-0.07953727817342998,0.01005332300449117,0.0950934561471882,-0.0066170441333596045,0.07603922498910248,-0.07165207579474009,0.007720736996362579,0.01990126693384705,0.08851334571101871,0.005706572956251049,-0.06043127036883756,-0.01583121382421932,-0.07874398060247488,0.008185075922587081,-0.026876959947727642,0.09719908838850254,-0.01749059788011659,0.0054959539614561105,-0.01784851230119513,-0.006005830208080786,0.0870288141517319,-0.046900388025453814,0.000709075193877042,0.03397250816713585,-0.039610833476971904,-0.09259608880824287,0.04301109238562748,0.005067605480884724,-0.09694552768508624,-0.08231896483768238,-0.014712997380118864,0.07743021787831558,-0.06026755786912714,0.0883272495157001,0.06901131080502887
-0.09737512381373103,-0.004217931236473406,-0.061792682303970774,-0.026881326337485138,0.03515550581829565,0.02846980279808683,0.06386474160270791,0.06049718156242597,0.08412088677801381,-0.04492349749968622,-0.0971787605843509,-0.05795377446292965,0.07051523291772227,0.05651614911013047,0.06159540384392486,-0.06299729518228883,0.08060029814963975,0.09530399683681144,0.011918612533556803,-0.08219532143406225,0.005777765241208426,0.019430925227917284,0.07200871531478586,-0.040804637544246666,0.09769547602399326,-0.017018123836628932,0.0922625326125617,0.06503792494283125,-0.011311512856125909,-0.09595171147832111,-0.03860550105110481,0.015763020800858344,-0.0774213196568948,-0.0239520559819612,-0.016372487112575357,-0.059550865078773614,-0.06809666250430157,0.06516405525730015,-0.014512091837548187,0.081938597025418,-0.03474252159901669,-0.04349639551796217,0.09834390462789179,-0.004519494216247803,0.08696833222848442,-0.07187311049702289,-0.07079388977783223,-0.03444496997252093,-0.005989836259944691,0.09062224078374637
0.017967245879911692,-0.04836655348675409,0.09668011135663411,-0.006972734117752182,0.07345030572710948,0.006780840107210709,0.02558197620860243,-0.011337876956777588,0.09633017417791138,0.05509296117537251,0.03818877215327024,0.0826954388807354,0.017332199436431023,-0.04132324235773635,-0.008937429374197142,0.07068319839510911,-0.030960654987603874,0.0014537319522984185,0.08962210022780191,-0.009707123196259146,0.07467865749582465,-0.08765874423003764,-0.01325368897018684,-0.06935943909911635,0.04298894738716756,0.032988433758067426,-0.08498177073768139,-0.04684770483815709,-0.04494480659542184,0.05230136466902204,-0.0028192846135552956,-0.06754356485850367,-0.06788975792557649,0.018424032396174635,-0.08656432366946205,0.04475886298680006,-0.03875151459383091,0.05360842852429286,-0.09811322188876853,-0.09267895497104889,0.021708449136115717,-0.015736409249613285,0.033129905727166994,-0.04286225994489103,-0.009220809940861364,0.060999311548366124,-0.0660558060355734,-0.0672864213065141,-0.09616727859173214,-0.07273353408184856
-0.0449380624078751,0.08901596517886785,-0.09901300835803542,-0.07457186451595355,-0.08598482180574446,0.00513104488402108,-0.0783996572086279,-0.07305782512634598,0.04535192365592544,-0.012610477565003149,0.08450726420458152,0.041963011314131,0.0164901015979007,-0.0837212420258215,-0.07795061724502755,0.05242834686861339,0.05502042833485798,-0.05972779833013859,0.07082736169732472,0.062189101600095074,-0.015219016867189418,-0.0638593708656737,-0.02138724111772133,0.0319653019448242,0.05882343918030809,-0.05704181520078473,0.02004425248491408,0.045788083017177794,-0.04215810207184382,-0.07768002038545806,0.0045339613787469335,-0.05905595074088659,0.09318646847910686,0.06258128014232058,-0.07089794088347298,-0.07833475375320631,0.03849269055006638,0.004768309527876093,0.03187025401963166,0.025835896717002965,0.09266995702420158,0.07801031548273846,0.009338972747913087,-0.08292840778319475,0.03296395958287937,0.06419561509342325,-0.00841268919398709,0.015251186771506456,0.08137592574163122,-0.08172481266512131
-0.08434474377014331,0.02033361862163582,-0.02051815975384048,0.08498794731011505,0.02477028832999568,0.010396660725530011,-0.07124364985786658,-0.07836850722308196,-0.027434531904555113,0.033874094353833255,-0.06062966852896394,-0.032326657598147415,-0.09087799541171818,-0.10376922829019287,-0.05798562111608993,-0.0804769932581496,0.04282216101576113,0.07372589522681756,0.011483457977056261,-0.0022199862004060613,-0.012176161484481087,-0.004662763120237272,-0.013161238265406685,-0.09247745206914451,0.006413826422501916,0.006444757080337788,0.1002404706590562,0.034983221412048134,-0.022544425371345447,-0.04724532157896499,0.019882215162226956,0.08600878437109209,0.09583497316799934,-0.023042242727541788,-0.034649642767788376,0.05241465449053466,-0.04167357094551804,-0.10702789443212977,0.05054082017610208,0.014421280133390845,0.008995339983473311,-0.009217305355999563,-0.026687976359461272,-0.007677244119848299,-0.05525634504714786,-0.0627733242696761,0.01246316722847799,-0.04384695452017473,-0.08080541258178082,0.0038825132825703146
0.06262302810587618,-0.016868148551772596,0.0888036967958884,-0.041047005132629745,0.02813749505101551,0.07558324978983201,0.06728936638557174,0.047762792207958836,-0.07642156579781552,0.004772865848481078,0.07122340409221296,-0.04838801172784599,0.0330101877970064,-0.01900572702402112,0.0917239236431013,-0.06493224019186093,-0.0999435851103262,0.04336320989615533,-0.058123209984459655,-0.06756894345410307,0.04834361131260899,0.08638460920968784,-0.003208195648099672,-0.05746409632353731,-0.08491206267085678,0.011232093749108468,-0.07806931438186207,0.05790748391084698,0.05984852380768253,0.045504697064422034,-0.07328460502826942,-0.013112481526328754,-0.04066681939861716,0.0037556983799849346,0.04917771561642413,-0.07982387195990542,-0.013488824825551063,0.014558178409168983,-0.0674382161598765,0.05915938265513436,-0.08801424557390716,-0.021632548059664084,0.031827741046425585,-0.07776553372831715,0.01285223164280025,-0.020303599355877007,-0.05991407954281552,0.071059295263325,-0.0271887026281107,0.006187122021914423
-0.08836315838028583,-0.020488972654766617,0.003260237516450513,-0.031141146351951608,-0.10404858816074823,0.04889616085923125,0.07909437033142472,-0.06848427027442709,0.021876592871220436,0.053780713301679335,-0.03736086192796987,0.06973301642440148,0.00747182058195188,-0.06306958336885797,-0.07943974828245798,-0.09024913573205745,0.059335141849433844,0.0455602432537861,-0.10396305159969206,-0.06422315571032118,0.06495227122811396,-0.0018914748449599193,-0.058572591525101074,-0.0915536906008273,0.07884280026299646,-0.0295676341075911,0.09880879174042902,-0.05356958304335722,0.06501627877905909,-0.08412952871623576,-0.006127938717977277,0.10091693436749939,0.06700764428435874,-0.07434035336328641,0.07858524796207798,-0.050464024529789174,-0.034261403739217135,-0.006367729859837166,-0.04777555694534467,0.09002471434118256,0.045017282803434054,-0.08943183632391008,0.02723249352377709,0.0051749998341508036,-0.06109152839586833,0.028494472831204896,-0.0890150319492271,0.05496059244236779,0.03123756425712428,0.034771186085170006
-0.07642740298748155,0.05502214679161372,0.03136918373131882,0.049493251131305906,-0.007575448860008466,-0.06289320827814919,0.07614316307660586,-0.0010612316088096747,0.08055278207174506,-0.04761565180598419,0.04327259212714624,0.032222907260935005,0.0715417937912349,-0.059001347808332875,0.0726061614945731,-0.014235364052849815,0.028406955485147104,0.0038950818868549878,0.013998669456104987,0.09523243630177587,-0.08445376532508987,0.09669536231611009,0.06803290146900498,0.02579077838712359,-0.012368527074259991,0.06853265682505708,7.782348409117755e-05,-0.07620559722555133,-0.030421767989654118,-0.052842019983627794,0.04199438211793,0.029063751744872846,0.0763675314014059,0.015779123547558362,-0.0906003491976978,-0.0895918785485478,-0.08716757374429474,-0.08450657524131898,0.035876058283386844,0.030874381943085703,0.04947375035749024,-0.07546734640066863,0.08499251117390233,-0.05560506144388001,-0.07489119447790858,0.01623418985883549,0.07466005650922479,-0.06654639204444462,-0.021281503172998956,-0.06266228437148315
0.0964729750782801,-0.04799976352725774,0.04296007567841736,-0.07970434315570057,0.03691023325660372,-0.06561578713722263,0.022874411953337215,-0.045104965345170805,0.0706863876940151,0.03966540111597782,-0.03828037153516195,0.0747288917548058,-0.08303362178438357,0.0830468720756685,-0.04454918049545007,0.007171646932897806,-0.05153711778902896,-0.09147030434004834,0.08091676533475141,0.0784924570812786,0.02120411324270917,-0.09074050211571366,-0.060160824151626796,-0.04568143554457578,-0.0652666496242665,-0.04874404313972799,0.09101328257698424,-0.006711526019616748,-0.07012967342112209,0.020012801159176363,-0.06251447908160025,0.02367736507655651,0.0629279674904086,-0.022695604511354897,0.06147519023023211,0.03683031023639299,0.09093075132971999,-0.07442208998839689,0.036032631593446406,-0.08267562063460332,-0.055829190105388324,0.057454295364588535,-0.06972364995531316,-0.08996421616240295,-0.026023284162663928,0.02874234337965414,-0.09171518647617363,0.027971567623240632,-0.007113963980496401,-0.06459856021148415
-0.07752878311013696,-0.030549098375658935,0.057990797012796566,0.08268546738025087,-0.013088653375241571,-0.04894801979071284,-0.001977580454985865,0.04442003026008496,-0.05378248302102639,-0.03937816598238212,-0.07852200784216334,0.09485169778415778,0.05173398924923319,0.04992747865650525,0.007461366057578003,0.021545753329373616,-0.025217269064651607,0.026442863534234605,0.09056656092674877,0.08240494538153209,0.07285997100661103,-0.018363912090663105,-0.07983115476496463,0.006818553502337677,-0.08983809547221984,-0.06197236284822322,-0.0008492064316330993,-0.042403680310396714,0.019354663528900962,-0.045063460815226816,0.05790576976170912,0.030406705550962598,-0.10148114011591394,0.026861323577414702,0.04321880079056724,0.038213217269541126,-0.04397635138526448,-0.05869859964000512,-0.0972357079124541,-0.05739248018931031,0.07327159616534697,-0.05302962908840645,-0.013598444971124318,-0.04606415166593872,-0.009683590249177067,0.04828902926917021,-0.09625241117051801,0.007893213095106452,-0.07672692921392775,0.017182218406352437
-0.01602346573089542,-0.003905971664163851,0.011991578555006897,-0.077197665793323,0.06285772157336489,0.00385954297542449,-0.02376918957472144,0.03903405103159364,0.05370528509370198,-0.06184473929127999,0.07409981257194907,0.042536107927333186,-0.028489297437628455,-0.024085903494744747,0.09596893046598678,0.0041493728889797354,0.08359367926900246,0.007484246013421953,0.058920712296857206,0.0887565842251498,-0.06039839380253986,0.005866339163622325,-0.0493510018241956,-0.09626973154605437,-0.06111015916987501,-0.10629240855940938,0.039268115644583684,-0.06644415214893619,-0.06971743653053947,0.015626427419518595,0.027355023067278706,-0.1003980642811943,-0.03702911367102072,-0.029048521339948244,0.028751780626461238,-0.06572141411274922,-0.04206200420997734,0.012407269148485122,-0.053587629834889856,-0.08215349049266213,-0.05732294396408525,-0.06050958289591088,-0.094626569416377,0.03548043629241137,0.05978352689777279,0.07531961294887024,0.07371484719839491,0.09751041810279691,-0.0975394644290619,0.05915023462838165
0.060211196927366595,-0.058899393546514536,-0.09383396237657417,0.09482564510725269,0.015665383084181993,-0.0939689509390504,0.04700612885795702,-0.04136977875206199,-0.02372111362534403,-0.09187088656064551,-0.08629679835187057,0.08296725733980441,0.01668303077716198,-0.0033146413842489596,-0.0895916789192482,0.022778508598979855,0.07432048501582648,-0.0677723015057686,0.02191516327151297,0.08660399272716326,-0.028688348116392856,0.08404289352753987,0.05931389657875422,0.0587509874163725,0.0696045836791741,0.03624105828157588,-0.025615272779482695,-0.08849719700283502,-0.08922288822261573,0.07039813087243599,0.07034004294062272,0.057341348759713875,0.0277402371779681,-0.03249398558544913,0.02397733480153662,-0.05859948606142435,0.08171864316353691,-0.03223387147211346,-0.012376866582199204,0.07844142713570137,0.04383344680753285,-0.002667133034489331,-0.06494372527910824,-0.08209320924277717,-0.015208273823641556,0.06181109011463573,0.010285194381123677,-0.03710198492871741,-0.09924893210605681,-0.10134022546305563
-0.09382436695808372,0.08317177339963762,-0.08453167871133811,-0.0870810882570098,0.01033628008775176,-0.01607596307844282,0.09450733592289205,0.08660020489048183,-0.0691295568817207,0.05412678115141812,-0.09311848625720413,-0.09416816622543926,-0.07724090412936496,0.05230259905480418,-0.005532682851563282,0.08338338760503602,0.03146858523910177,0.02057220044785971,0.04838109376527532,-0.04983524411700606,0.09208492749920665,0.050291570400999235,-0.06931956781494605,0.07119826614371753,-0.018897408305835164,-0.08042125502156981,0.019815371343774365,-0.05557039448845986,0.09118856432231533,-0.04242076496089967,0.009912043833665554,0.041750061968808726,0.009456526903281224,-0.07935406302471165,-0.018886937421906686,0.08669800268570614,0.06040423014150228,0.08586967659750387,-0.08886191869823384,0.04193262560354697,-0.0007664579716950932,0.08391191618499769,0.07773127010705912,0.029884034521287243,0.008342474290169653,0.014255359893137393,0.09537607322870559,0.03708626408495405,0.09750560203458375,-0.07012121441783863
0.011800430286979927,0.05164960290580369,-0.02230331378308814,-0.051103532691503424,-0.08760173795948756,-0.013135706333740777,-0.08931331591854225,-0.09360504435304472,-0.0741986049721648,-0.03450841500616328,0.06465488638849828,-0.09808834875394455,-0.07375031904056,-0.05750198159422333,0.0808070397613097,-0.06100613633281744,-0.07552332752408218,0.06435519559052084,-0.032253034488842335,-0.020771703207121992,0.08599810385407744,0.04808465840786089,-0.01207305139258792,0.025004879247377463,0.06317236058213153,-0.07358869868240639,-0.008192821660986853,0.04068059984009665,0.021191103889357004,-0.0535594540160164,-0.023656492623096333,-0.029244900387198392,0.0879648894632813,-0.025426777474222038,0.05206747407399941,0.08036743148386072,-0.058613652978046264,-0.02641126461842138,-0.057380467053892714,0.04340205716586315,-0.03811407419127562,-0.05477888035234733,-0.04419822614441516,0.09774822917173916,0.016500248886392378,0.07144187928751179,-0.05780471179372395,-0.025147715163299285,0.07260182109093206,-0.023530736648628276
-0.023662980958435338,-0.012828419352403211,-0.011566780561791673,0.001630518512025449,0.06750047561371027,0.023681607154143074,0.0516068479271105,0.08925452817505439,-0.05598210197298277,0.0015228590517903766,0.06348514981487731,-0.10968050219477847,-0.03367385056279101,-0.07885723359674444,-4.0286153553108387e-05,0.06740749105259534,0.03566061812070071,-0.0006681347317037519,-0.09650123607407866,-0.08359968938964372,-0.13661274781882657,0.04288449694387707,-0.01777327686839694,0.06541901704284823,0.06486216773981524,0.04557803310780302,-0.06433650973227699,-0.02003173556217636,0.041128738337768034,-0.07450329899325318,0.07464961449612169,-0.11534384245392515,0.004959173991348126,-0.03605922690138788,-0.08072203242420338,0.06763964491024504,-0.06223081993234248,-0.06567081899109498,0.03545603662677919,0.06706856024818358,-0.060435715640147845,-0.06591036846854435,-0.07457691480771296,-0.09755597669412193,0.036610384674054836,0.031858862110212605,-0.0011170252160828083,-0.06062943872811739,0.08536184072300804,0.05990575942393917
0.09099091691670028,-0.0511066844229864,0.06632426322002613,-0.049091130139944664,-0.044099983617284566,-0.06052533535883207,0.02894074707502699,0.05877257184564124,-0.05778627053606066,0.023718617315178485,0.023782959971308134,0.005358036977330383,0.06306626112013894,0.03566885080136427,-0.08627638037934907,-0.07036954222392554,0.09523941416395813,0.006975101439635058,0.0917270868738622,0.09135021403480814,-0.008448923613573916,0.07666322206655332,0.029343604956755143,0.00724911162389821,0.017576185500166586,0.0006497653487804393,0.052973689154072,0.011146749721932567,0.047711227608456586,0.03226193687644995,-0.06384338371128268,0.055717254309578156,0.055059797753324285,0.08149104205033446,0.02700674590903048,0.08308221077545505,-0.03906516490895449,-0.06629501817667997,-0.0768268108091943,-0.09134704343400907,-0.04437831603057672,0.07289923826580749,0.006145130794182371,0.027256278493777392,0.08204370295099304,-0.09733926584512119,0.05869659096376541,-0.03082923533118552,0.0398745716096849,-0.09037195563462433
0.0027438252877312256,0.07482304781180847,-0.019553779448327865,-0.006268501203193652,0.03091175349783984,-0.03694083712573242,-0.07057103914804311,0.10689007713071179,0.006172837108408593,0.023903781534001592,0.07897720950552245,0.0010016743864776814,0.07852010828095625,0.0559355198596068,0.046270598295850264,0.0721081497558611,-0.028087081667509593,0.057957041203372035,-0.04670105911298658,-0.0009893914945027123,0.06239980734159109,-0.04063725573206615,0.07839418749184128,-0.0017512303977654494,0.07529640186062571,0.02530126217355905,0.07586965924513071,-0.009137197741272978,0.08142047254575978,-0.029258828582868334,-0.10778151271900287,-0.03159207901059089,-0.04356162601175169,0.09990152477463926,0.03353375514226484,-0.0054135058935480445,-0.017345788497294307,0.10216814365074231,-0.038690346031581814,0.06496229620566003,-0.052976255956393846,-0.018998191327497242,0.03162519679774887,0.010374286691940774,-0.008193327461777268,-0.04367470372098875,0.03231999039202918,0.06190402886684544,-0.056655594187480895,0.07010523942600518
0.029256862052580077,0.039362051626722135,-0.048245919292198396,0.07884472925191734,0.059279550023985474,0.08344216685261335,-0.05393879063963908,0.07590976510551203,-0.033005264715814955,0.06074539470250763,-0.011723744113815186,-0.05622941378239357,0.014085888477160604,0.05709491907697959,0.009646793023310217,0.030170209161388895,0.03621340446363192,-0.059860182952569355,0.017114791408491186,-0.015915934294275742,0.021610998342606835,0.07885158210791063,-0.07386794972703507,-0.013177977387388472,-0.04917470620767593,0.012489702268469606,-0.09365187061262716,0.0644892962419788,-0.0736487681580867,-0.025955771908286317,-0.025669573463023572,0.08266805774774533,0.060668409574331096,-0.03635741328698823,0.032426552746101046,0.03304024329089404,0.027052190732878678,-0.08872242299946495,0.09690417378313773,-0.10010341669958893,-0.09515787318027893,-0.025208843746339592,-0.011242613298911007,0.007042466216995798,0.01490666409828306,-0.014629431602702896,-0.054073837484751176,0.0748698513695292,-0.02766647074094301,-0.028948070412096866
0.018316749216020486,0.11577820973511849,0.10043096811374738,0.03426863857504114,-0.045858753098874466,-0.0016155944989793124,-0.03901755631491062,-0.0015733033829915932,-0.014407355235657466,-0.02316846920043996,0.03848514962480909,0.12284414885944663,0.0936740511036867,0.0038122683419651833,-0.08380356178745654,0.01411815279050977,-0.04600625115885077,-0.04770018907558936,0.07245302253215409,-0.052003830332711186,-0.10260094975106754,0.05534689896593055,-0.03782456336670322,-0.0009205783687323947,-0.04915314708318229,0.0691222933287726,0.02640911714448648,-0.05517296165886866,-0.03578429614287828,0.07781888040534546,-0.05823492708198321,-0.0736507622295853,-0.036706351985709984,0.04014911842896707,0.053466579365626335,0.03792400348375843,0.03605718299678077,-0.11464868746140082,0.0011238663045349407,-0.03879237046309154,0.049032019916317046,-0.06849806781062508,-0.09451574734585913,-0.06128553004418195,-0.06950269708876439,0.0028485481114718368,0.05137596971621907,-0.08438479065924676,0.02837527894321836,-0.0696365588654286
-0.09154867851238478,-0.09037124726908982,0.05394303301889793,-0.021733524222033725,0.000413270512373925,0.005312680834803284,0.0031297944897714074,0.07946228468987669,0.060662795993517565,-0.0844456822369868,-0.043454362364227325,-0.0815100885293606,0.04062859394212918,-0.02004226301314993,-0.05116432967994773,-0.006058698399153553,0.0464704486318056,-0.06896039191145249,0.061822136612172555,-0.08659149902108479,0.02238044738268864,-0.04807690892222846,-0.06190910936279895,-0.01796235468262493,-0.04238450557373147,0.06785731779680645,0.06068799439634488,-0.04689466791559395,0.015908303886359804,0.030202085138944495,0.018004534649098937,-0.06334301346238827,0.023974051872003143,-0.09426022385512459,-0.06284352016607318,-0.08914155902378304,0.08192211103075753,0.08624618098298208,-0.012294997912199337,-0.07230431424907198,-0.055873755665007255,-0.01376083067950675,-0.015807232831457917,-0.030340871573124727,-0.043683203896115824,0.0022110629656363874,0.09329240350049964,0.0698617082671362,0.00889766592485508,0.09642234681026221
0.011328315304517398,0.02396970622426819,-0.030098305876170073,-0.02977222824361805,-0.10058320036771906,-0.03126135650849256,-0.058421859434095405,0.0490265913902679,0.057824635214867075,0.059652147895804815,-0.004274451233379735,-0.04294949918067797,0.026447781275418372,-0.04766713112375326,-0.023826971178738804,-0.02368076059342761,0.03990541079577115,0.047771333160713116,-0.06757959432001807,-0.02988914145376869,0.07051110153029087,-0.013577058135269703,-0.08120647894102363,0.03294654639172571,-0.06664334382617815,-0.08756370865727503,0.047306466984450374,-0.06073462910406098,-0.002218829060844714,0.015199514027904149,0.033335291853314776,0.051695815284996616,-0.08417285064069346,0.08456632405765385,0.05143894158919239,-0.0993111888884121,-0.020881744951789287,0.0454729929970749,0.05094841935286583,-0.04821999519106249,0.03788237215364953,-0.07554215234423978,0.08433921562001909,0.07955792045983985,-0.09287427036281364,-0.027954931387887055,9.478812157958096e-05,-0.044097387744561165,-0.04753939579643632,-0.05456288359800634
-0.05125358598005422,-0.09795418063407096,0.09560510231096514,0.011315724132120132,-0.022280302265850614,-0.0727128542593876,0.06966909048498858,0.01661080685297747,-0.08476934952082267,-0.07894525451932423,0.005299464706876137,0.09310782822971955,0.04490908699416078,-0.0445910027226708,0.04134514804736232,0.0743252644219503,-0.06978194478401235,-0.012756227218779408,-0.035283789167423925,-0.0028329383707991866,0.09895582624797963,0.07415150255868184,-0.01385331657823645,0.09889675435922402,0.01644256774292844,-0.06311010442702875,-0.04516762428390807,-0.037298165289408,0.09365402519604557,-0.05068029085401571,-0.07786046356118895,0.07895951313425209,0.09697603077408526,-0.014051176036925695,0.04106114065451651,0.09951074252281553,-0.039036524464685925,0.07393594826827674,0.047293513932880504,-0.0828549462736105,0.0749486071240837,0.03206126405926191,0.027887733928057254,-0.09045488941743027,-0.038825778335150704,0.012537201710256749,-0.09123322885668952,-0.013308219538437735,-0.072608927582632,-0.05838179711033736
-0.09220351753535858,-0.004735898243819497,-0.025560060315733574,0.021570533979832617,0.08903448811570054,-0.05711670004257789,-0.019856752151969064,-0.07065660275340535,-0.06139760310212215,-0.005811451735033625,0.08003376043711227,0.0898404990020963,0.08088495008900304,-0.08383583061807583,-0.014276300607902952,-0.06102156648429765,-0.0445443704217834,-0.011983860300834643,0.07395737332482744,0.024363110863392157,0.0572091308461961,-0.026344424296788835,-0.004674016331980265,0.014668255566221592,0.012760407940527874,0.0840235364852908,0.0091063558396734,-0.05031912382619722,-0.07003994051351736,-0.007623366415526086,0.05569869998066228,0.034961592714575385,-0.03500514882493562,0.026108483241771733,-0.07781349296350391,-0.0667196472164339,-0.08462252166859915,0.08109849674352906,-0.05991744688174493,0.09384080969029315,0.0886952889612341,-0.061978989583067357,0.0970365547887447,-0.0889011699760887,0.05739900972988221,-0.05383347445541146,0.1026984628019479,-0.048224601969830305,-0.04399941854784621,-0.09086095888259114
0.00508684374583236,-0.05106306670520141,0.025397849596692532,0.061598001591860393,-0.06103981619673453,-0.030621030885352573,0.006407011964447125,-0.05896276657590145,-0.08392629411664337,0.07030246471292664,0.013549525968675523,-0.07225815108603607,-0.09841210123478018,0.018827027752954847,0.041011214217587334,0.06270162970656837,-0.07442868415666726,-0.06933489764829373,0.06975190216784935,0.04887831076646101,-0.03333170192223203,0.0733696304914062,-0.066830900413571,-0.029644879446104673,0.08317900470821815,0.0683582310854795,-0.008437665272799077,-0.021805152826634998,-0.11430741554263375,0.07219328254751058,-0.07844911053713695,-0.07240698205448398,-0.022307023281111327,-0.06997913553414947,0.07875030551113239,0.04482217307409368,0.013849274420869483,-0.060231067412842884,-0.08948609530036218,-0.07806487565783234,0.07757313775903556,-0.062050689704853154,0.05396253568554497,0.0691032780602081,0.01759164649366262,0.05508460782643371,0.008623904315926289,-0.09670506377114833,-0.004304096112068802,-0.06946106781580251
