-0.05537628325883688,0.1894482264500532,-0.14096112695448826,-0.3437028068173293,-0.1554121822587104,0.25640427378823333,0.1160640336122976,0.13922742013308087,0.2812423171306078,0.2564341213079396,-0.0935634546124655,-0.2273591092405212,0.06341835388927664,0.2245951770002736,-0.27681982582694087,-0.3344111945110882,-0.08117834755375393,-0.1141480041781506,0.08870134658691485,0.24278868251119673,0.12013427195981499,-0.28184059937888284,-0.174186898180801,-0.029770770463593357,-0.12759434051056384,0.041662424075798614,0.24002573521426093,-0.34118178178566255,-0.038454632217809474,0.06344406848240355,0.3354699016956496,-0.2776465304339459,0.2766375417256158,0.06487489062492983,-0.34814921711475477,-0.13037320293218385,-0.35391971704534736,-0.2659923331683473,-0.22586776205838882,-0.06941707547738925,-0.12940376120595862,0.09640428266226964,-0.20908984606489564,-0.2765817211304787,-0.15645270130373276,0.29823457007275134,-0.12127628684667283,-0.05542275365233861,-0.0582447146565907,-0.06038992654954407,-0.011289878320118433,-0.1519412074563817,0.1456350136249699,0.0041696513598865744,0.3417613266206481,-0.354713593299688,0.06097770096082619,-0.23314248081658265,0.22771490489678137,0.2168144322514833,-0.0797778456869399,0.0564131339739566,0.30247476169361387,-0.34936572057410287,0.27031740992357006,0.2433038353821454,-0.11374502739045388,-0.29130092325207174,-0.04613240850589451,0.2657500418496486,-0.3186418502557327,0.06186213104010835,-0.025728315577855886,0.22836946368027017,0.002700998102021178,-0.1351568436103297,-0.14574806270311505,0.2951166416150922,0.3037529194955774,-0.2688481458556459,0.0755487702973913,0.06023806488238174,-0.038996959003804094,0.06506332061969022,-0.09764568210134571,-0.164493079441569,-0.15029092572780867,0.051073591715100515,-0.10085054137276525,-0.13829685426167834,0.26392082814735807,0.3141997452535753,-0.20220446628902355,-0.05278091732642596,0.25421878704226214,0.11962216649728073,0.12222565029677135,0.030004772509223118,0.32470680469814983,-0.1436812191779471,-0.004256733716944426,-0.010817948411082254,0.009746465626847889,0.09899472727482067,0.3228749753006522,-0.3147570074908382,0.31011806740134135,0.3110213600979157,0.335031632458872,0.2263280118702836,-0.32502274815378285,0.13626374041923303,-0.21897420620201244,0.3130622594566053,0.28876776898719536,0.014828140153126366,0.2231715866444834,0.014727748650890826,0.2398099563173384,0.1905394830141001,-0.05791171734324002,0.3276843309075789,0.32717371889417246,-0.34857639008533026,-0.3368929668229826,-0.19052279732730465,0.1521394555167792,-0.21706636683007374,-0.2527221947351707,-0.07312886312029347,0.29329782469113314,-0.22716861293965954,-0.15108250744880877,0.037129370616166155,0.19115828848655964,-0.3147009991343924,-0.19374217853350287,0.3206780126145252,0.3295273668874361,0.2555516287322222,-0.18616117610502636,0.21706082569273633,-0.15029634657859203,-0.09233106273906001,-0.19450735470878808,0.2868963270960201,0.22367215394275994,-0.15882235445151094,0.24612895594677497,0.31761470927613455,-0.20096674848086354,0.19067198601307858,0.2679524899497904,0.2090848229167182,-0.2615507275064571,0.2489832061079408,-0.31909555668000633,-0.18373400837504916,-0.2723564731572166,0.33513041758577095,0.3203493352110875,0.23169163029688436,-0.2585252608971489,-0.23048003431671973,-0.2450473009757434,0.04366797121998952,-0.25187762744309455,0.3098064234220322,-0.02544703435789753,0.13374766908258512,0.2547838924226884,-0.0244381829986324,-0.028044546778955612,0.3300267771324793,0.06946627129018464,-0.11508977123542696,-0.10751542685600889,0.3482460782639389,0.22571573163888306,0.2710407996760485,0.35850900284969595,-0.23428138627350428,-0.220764554186433,-0.32702708837869876,-0.05993738667199917,0.060405697069837866,-0.3579241753580309,0.22900062320649484,-0.2518187619178165,0.3083144058108571,-0.08195581444666582,-0.17989608708684923,-0.09429993745520011,0.35686573463454885,0.1011540519351946,-0.2155805558179413,0.36715390208725013,-0.059274253911818224,-0.20517381228533527,0.031105066828963236,0.31333927806169815,-0.2768998093380468,-0.18819735207457927,-0.14430035989789122,-0.21915615411898098,0.04578230381586119,0.32410448887664756,0.24475239223923934,-0.03979747249426821,0.2619957530431046,-0.2368163988900126,-0.03980287590755871,-0.31344735232083304,0.32489645006387136,-0.24003416827312166,0.31794861379300365,-0.2612562976105596,-0.25529377638783196,0.08191350033258882,0.003956408902834496,-0.034340882964139154,0.11117195094581257,-0.01580764452506633,0.006676180114282559,0.26899560184205457,0.14533074096696363,-0.26379810096109196,-0.18814972537702793,0.08495651067917444,-0.3101441912096146,-0.18033579044523118,-0.20088821958685077,0.30802315509621564,0.34472370764029986,0.2912030187432361,-0.07323654869040001,-0.27638380246907845,-0.256028675019818,0.18683198334275428,0.20658093824196036,0.17254617200141217,-0.2830574861039823,-0.20157678279070226,0.2523034119628788,0.0898616661174556,0.20469320147624548,0.06880401406298382,-0.3038857936995987,-0.06970361768136593,-0.2083696164047537,0.14324120219649703,-0.13156279238336666,0.26698775903897815,0.09360951314825189,-0.006415202446559814,0.06408747672212857,-0.36519978664403424,0.3020932426004302,0.18647565200489932,-0.06540206709227152,-0.3478478877722359,-0.23500600350450027,0.12793595310553957,-0.2982822916525616,0.1887727183213344,0.04203742098197801,0.33208615784828777,0.12648973980864947,-0.00028301307063336275,0.20115534515977954,-0.345183161859961,-0.14727275045900534,0.020800654808722133,-0.09029482328185497,0.10074255531954263,0.1306391976932207,0.29417110989931955,-0.07402407910102923,0.2574331110340322,0.30980921416088075,0.32290773851458926,-0.025287032466821072,-0.07353131676823293,-0.044943169235909165,-0.18338103993538257,-0.2677801890489395,-0.04836229101582003,-0.06891863649331861,-0.08716893861442683,0.16368921971842484,-0.23069056255947007,-0.07491830112755979,0.1568747799037546,0.3609315581092058,-0.07159516247521563,0.011356301777425193,0.2232428031298344,-0.07680429712029795,0.32936194513917266,0.1189782139094223,-0.15912147485850633,0.07230050183662719,-0.34753526458628553,0.018511497615627266,-0.32581032331751764,-0.22559709079385343,-0.1101802343673172,-0.06908503171129586,0.06116707470145727,0.22380331507787016,0.041652293896388595,0.3214435260470514,0.16148271637429412,0.04561265239067368,0.23683290903967785,-0.09592593418872317,0.3321828764797046,0.0044160648814635,-0.23153143785494706,-0.011826813503017897,0.028539212448091527,0.28220726382326183,0.2059345326653925,-0.3307519271098954,-0.3464116844838506,-0.3209037137034553,0.07389457684733138,-0.08824143596411821,0.029060814665187732,0.2341742748789755,-0.07425857737726124,-0.3553654351074604,-0.07493517909894493,0.2915737892473891,0.31292401659233343,-0.27039060654012903,-0.19908898372875683,-0.20212225242795123,-0.3217449020211638,0.23764535570874365,0.2132681800153691,-0.32838360196658356,0.1433232323110519,-0.011683072088394196,0.3308893607163991,-0.25167149996082283,-0.05523585664762588,-0.09422849798500972,0.24212972674897382,0.2397001209052569,-0.09644586137099591,0.1774174433134274,-0.3582755138913436,-0.2092553652701547,-0.27911084892389815,0.13093009552452523,0.10347855270891673,0.19292665401023462,0.1308422629197559,-0.3195951950245282,-0.20575412219950456,0.0834327054115302,0.21858508191770032,0.2976030681126802,0.22184142647507646,0.14122586602355364,-0.2406938228968431,0.29556936445135334,0.0464036641389107,-0.12162375612736082,-0.24588773392258986,-0.3413289598009477,0.07679278027851495,-0.061630573612089706,-0.04644608289195945,0.027180397567099144,-0.3327512580015011,-0.34847494165260745,-0.06720638715081415,0.009481988412326461,0.10773572682252562,-0.3154703390019874,0.309385020261924,0.26129272633397793,0.3439886135245252,-0.04112828687593041,-0.20549212501951564,-0.25760073311909154,-0.0495650337338248,-0.09048444610766962,0.3263170668850846,0.2131342070203063,0.25367676567530867,0.1807112238472431,-0.012526778899270589,-0.011854900460411433,0.22738768090944025,-0.2782630565166471,-0.31300104734677714,-0.24902205362373922,-0.3465337104556357,0.3401757066776947,0.3193915507200501,-0.2411247355893438,-0.30169439200999004,0.19515008440948,0.016801659297405142,-0.07690585043077987,-0.07913387402314306,-0.0050109382876826905,0.01993867285091305,-0.24886547172944584,-0.1952937477054407,-0.28116013671838364,-0.2869245850809113,-0.1330026291264577,0.20823812699424332,-0.24634817402451908,-0.2015979959900141,0.14512191536694374,0.2762574657763968,0.3019208498184535,-0.05455979784023661,-0.346279429037986,0.0688139660843545,-0.09949311296559206,0.008409341153093398,0.10455180147526894,-0.10038967137090248,-0.14943425232532115,0.1571274151321524,0.12834173273789318,-0.26968917626328276,0.025821101822309955,-0.10200970466912386,-0.09942255829388563,-0.2767192710520678,-0.07975866773590343,0.15371783932805294,-0.03219528655138868,0.07478956315437524,0.16220925731276967,-0.1292050122573916,0.3190255999620498,-0.33542584287688415,0.2227326548792033,-0.14915953349456715,0.03982053008910112,-0.15167082097856127,-0.2979282727273143,0.2976854451666608,-0.28301079365924225,0.05168259059701483,-0.24746528193650197,-0.03354825577125132,-0.1991665516913041,-0.2614047677193316,-0.10358058319087944,-0.08785072281792297,0.3541352656184393,0.2768895595397293,0.08072192206544788,-0.14744880689005402,-0.2007991712766828,-0.34892672131483893,-0.2144530910943389,0.3262937584325557,-0.3255947586728932,-0.18918081040893836,0.3259659196760396,-0.1535451933235655,-0.23005994872278054,-0.2619115580103851,-0.024125679523410375,0.2550075288538617,0.3363038302775226,0.3348962422279271,0.08620498935946866,-0.18516454881076908,-0.2135989927768504,0.23063909321644993,-0.14428331163611732,-0.1755309217522365,-0.0530731929316071,-0.23735635491622092,0.18366501622339665,0.16521974561303487,0.3081015361342887,-0.1664014437941669,-0.08495728379993511,0.014150605982808803,0.30606380841884523,0.3258164120602509,-0.1338812813325777,-0.3261504854802798,0.2915983157364803,0.030642804098499433,0.13063311357912877,-0.32975507852158087,-0.24041949592937803
0.25903616628672765,-0.13755901883380933,0.16909293534407915,-0.11937129636384733,-0.2839324044651726,-0.0032021145076636466,0.13015678236652276,-0.0433183187729437,-0.20440271101071594,-0.2512296545404568,0.11519634409760174,0.25678000231023573,0.02951966522706304,0.10430106670753106,-0.3336222809580334,-0.2541645962640036,-0.1794579164075193,-0.1801653288202208,0.048604550648088475,-0.05356536763108355,-0.000994451356000767,-0.18327487969662898,-0.25204030682770673,0.13654786871424865,-0.33168620931726484,-0.17366204082109693,0.27074919144764575,0.2628831479518521,-0.21342165507284042,-0.32348803848991153,-0.23358834382554577,0.31422208785531286,0.22318272737311406,-0.22594967106722066,-0.07678357691495469,-0.1070681654207837,0.14043171438660174,0.14930725823237845,-0.23866491806077605,0.27684987849675924,-0.0024147497089719383,0.23739601632835228,0.1115162081437066,0.09838502070041817,-0.03395672395126112,-0.1941054255910379,0.07589979264391797,-0.06813337868944508,-0.26481310432983873,-0.14726108694214943,-0.018097421659573187,-0.18360551417405743,0.254795928320178,0.22803048217436037,0.19730875413580254,0.36164294518903894,0.1468898294465835,0.27098949625507707,0.007641731096255163,0.0500137443621192,-0.10813017616963709,0.045647780989579244,-0.27709747386257105,0.03978257471880469,-0.08743227486379038,-0.15858088051794353,-0.32370917439461416,0.22252547984579227,-0.04945551196235931,-0.07659793226436207,-0.17845243182915374,-0.038664003356491394,0.08145590449656645,0.24558195674537053,0.16300957115935422,0.09728855179264018,-0.0678017891798593,-0.12329145846996979,-0.24508608930467576,0.08136963208590274,-0.3438594086976777,0.26042697615453575,-0.16678640419050042,-0.3487628752662478,0.26541412184585045,0.16451975586406808,0.16905600086534334,0.13041819874598523,0.197392712274644,0.20052165498578062,0.11375722068402724,-0.35257959594632904,-0.2527966231192494,-0.04023462027290474,0.19184992031688292,0.014522283973861754,0.3181648417049346,0.07468295869487823,0.2140536439066437,0.10221012753229303,-0.1614548015768009,0.1335665950271838,-0.2858147721980939,0.274601506146267,0.08707182187416183,0.1619499162957906,-0.3088406696554838,-0.0436005997980509,0.25679617265190136,-0.20522930823652374,-0.10392874928860021,-0.36492147348973974,-0.022577526541673363,-0.26445373830525665,0.1400080738049817,0.18127238175635113,0.07252436155536082,-0.3086515042780884,0.2622192756215844,-0.09912736713963038,-0.27664217343583897,0.001242775134895496,0.29986744519150216,0.10452403892726062,0.19173405085466036,-0.12442948039800279,-0.16059355509596512,-0.12868569436865399,-0.3304397810030919,0.12595056156239612,0.11221118075238007,0.33944310085180923,0.24068352482979796,0.33630048388301104,-0.06605262127004784,0.2526197803684405,0.08084190689319884,-0.24790132270625925,-0.0348270660631456,0.13582643955072393,-0.07651727680609571,-0.030773276142017598,-0.3544959138216412,-0.1703087535024694,0.26835449465056,-0.18635539238358026,-0.0298315756502454,0.318422119558502,0.2870533723067719,-0.15980121525016644,-0.071681057433467,0.1156022495789975,0.17854208143512978,0.1611978169839598,-0.09685102414287002,-0.34772550228329974,-0.1705469378034536,0.03991633834873301,0.30551238128436564,-0.11325562803902414,-0.23478033834248835,-0.11469509974542626,-0.1737576019402701,0.24211284454793205,-0.15550288333044918,-0.056583993205491366,0.24166995729941732,0.09745008027691367,0.2783667441861641,0.223564395128137,0.30308359105663213,0.09544141054218637,-0.09304123411350078,0.1316059758983862,0.28516981303588795,0.17166790589287748,-0.07370558999568354,0.08631379513794155,-0.33428905436379863,0.07633376034794205,0.295957662743964,-0.18427216285924755,0.075108581504021,-0.1828262965295412,0.04102617477331503,0.23729922407576415,-0.23015177732145037,0.3275307071376143,-0.26026104877916173,0.29245280894194514,-0.2290382365424296,-0.05154106587910935,-0.208860855288278,-0.06383510765669854,-0.17571130258003131,0.19941171857849632,0.21122728144218075,0.02369666537964754,-0.20733655895724937,-0.3245960363709487,-0.2417770472848596,-0.3141964096474888,-0.2238810975132898,-0.2728857766534597,0.2286216691519538,0.10962697283080257,-0.1691141876846756,-0.08774578240664377,-0.06376409919261639,0.12180488550726784,-0.16704674294944905,0.07378287024668091,0.06605648038284952,0.12109560791974283,-0.061171289027275255,0.12064490396294232,-0.18960001270494029,-0.01958150045916208,-0.2518848589157477,-0.12976940342681936,0.276991629511419,-0.06388123938979275,0.14523959985124427,-0.17707891730896508,-0.2796589239265186,-0.22284627395369883,0.11323580267580158,-0.25176192342934944,0.00461590938693619,-0.10774764028078132,-0.1360282563758368,0.10126827229625077,0.18869656326893255,-0.22364669701881182,-0.06009722020264599,0.16067476021774563,0.287176846626104,0.11840562559962256,-0.06411397706215903,0.05332560046390387,-0.085143759142292,-0.3030676951588367,-0.06118348140300456,-0.1720007336823295,-0.1968968185291794,0.06192363108183051,-0.2802029131707696,0.04282624226306627,-0.0032419522757570407,-0.22780149432121005,0.3601318836576742,-0.11744665610900153,-0.0803148192515999,-0.2703733820942037,0.15995731540262578,0.33710666273013395,0.23518370618142456,-0.24289646039361523,0.07286937000475434,-0.1919160188502892,-0.18675768468544837,0.20678350172644688,-0.33846315785961106,0.16830660757628252,-0.18939810615960406,0.23096865613364506,0.06751589668039394,0.04166851493852263,0.054195453992245984,-0.2325188731336778,0.21141044966535602,0.28077801545563913,-0.18881767367037827,-0.19240484418622367,-0.10500977885433009,0.06848666956945491,-0.3101850796505907,0.3257976329830668,0.32634319876193907,-0.11911829411357445,0.3328157486448278,-0.3048570366004883,0.2637925532526915,0.12755703380207475,0.21630143645474006,0.1573384098143055,0.29431890199085503,0.22063860894958873,0.06950769607305683,0.27808715346495266,-0.19550558634722812,0.13539228464329298,0.06793866547085384,-0.015740232582819837,-0.12202846650113439,-0.13661001578690746,-0.1981353767588463,0.13957829313099906,-0.2561435942678219,-0.18078075694783224,-0.04982036980690286,0.23403789012375062,-0.27185016366015685,0.19419768669381296,-0.14809130998921755,-0.3007275518995059,-0.1004190210400415,0.31142136160330075,0.015208392127898904,0.05110214767456865,0.3070480776967134,0.20500487156791317,-0.13277863503997742,0.02550670196745241,-0.28755035416568253,-0.0790136923650621,-0.13362393007342738,-0.11074264784649941,-0.00658702522184703,-0.3065408101744663,0.18460616424331547,-0.14857840030555183,-0.3227722770503733,0.2682490609552857,0.14429168302078887,0.19022296659364135,0.26882932718618985,0.030178938005124216,-0.301991647822077,0.28438818395990145,-0.04072600295289705,-0.04663247879981997,-0.2967188798336164,-0.10134905634233256,0.18556034780769398,-0.045963125817914306,0.11365257776667126,-0.3019317073660174,-0.1460645784838136,0.1033372625047921,-0.09368739751592733,0.23723826906871523,0.25876258717157247,0.2993688698163474,0.22725563245281458,0.09540049230906068,0.09043366993795181,0.10059120958676045,0.18298660569950384,-0.3521057772027785,0.26633733472629606,0.2628189801774484,0.30001771934750027,-0.15119039488316366,-0.3347216422998155,-0.07937439947309623,0.06628396758491611,-0.17800607869044716,-0.18931051597436604,0.26114746292857477,0.1255088570669594,-0.23474699177125738,-0.22890788121709957,0.27729289732172985,-0.08866831674735628,-0.3670287226756732,-0.09076711760706191,0.06490938090132307,0.26354469707971756,0.014841101306826752,-0.3083014808557247,-0.33898142574738643,0.14131362268363293,0.2330896823632773,-0.16528884526574095,0.1729845626827305,-0.2471902057057396,-0.31870705997971827,0.03464472363569955,-0.21211499369449308,-0.21004038020410662,0.061653589117750845,-0.2706587599932902,0.3008892791333721,0.30231548984330203,-0.14401752678264065,-0.15169963518343738,0.1493569778687593,-0.21474727347417452,0.10045164843218275,-0.242658869764892,-0.004377537053597191,0.03931684460125909,0.2502858049011005,-0.02450354923776717,0.06281415949808425,-0.09651403435331565,0.19952304875475813,0.32966295970660325,0.23078616337519356,-0.3343475684593525,-0.2931190933699024,-0.3463618657092257,0.027333807464962934,0.03260900870237134,0.13069778079686672,0.22390418444067647,-0.3194177913798122,0.3058417908295887,-0.3455902567867412,0.2707427219776236,0.17681389894418612,0.07473924581249891,-0.2492029477655139,-0.2867996054116756,-0.040964591900528126,0.2157224882764367,-0.11819778998919482,0.10317588007377788,0.06055957892910192,-0.33815758279558245,0.10470756832642102,0.19688972279739414,-0.02608892871879559,0.3010691021670935,0.24774457074975006,0.11297474767341782,-0.3505954861123972,0.07605176873418787,0.22201466279877108,-0.0701854270855734,0.07932385556950175,0.24562563744471042,0.0640901801401832,-0.1967926550236708,0.08732181551123357,-0.24687845995915403,0.06729100645809656,0.22358686538121658,0.3119740957563459,-0.11827515226155591,-0.3220665310305708,-0.2859253052794022,-0.04559390607133953,-0.2855461471840078,-0.031013271228581513,0.02353522942559986,0.050588611477142095,0.07239809348650833,0.32521088583665103,-0.033275561758693895,-0.21432139858539512,0.11320409309722822,0.22636574455922112,0.3466503958021237,0.2352331750102867,0.12035113172249072,-0.09504377337178527,-0.18760746976652526,-0.20697495288781517,-0.21228752160800796,0.26044590918262245,-0.18638372606978496,-0.16571090837064598,-0.33562696758868943,-0.03445197670304308,-0.026919464526370368,0.32297611639438073,-0.05410991924285339,-0.14244277668270172,-0.2172019638017636,-0.2592252335853118,0.173672742545136,-0.1597231841587303,0.24079977227728236,0.26498349475211386,0.005670536600984044,-0.3145277775895222,-0.15594763253397415,0.16294099343596238,0.22907736060461295,0.12809780273618881,0.12471484328298296,-0.34954693498293493,-0.15064596778305986,0.07101266495831811,-0.3207526675025734,0.012779400319896713,-0.29847172414467826,-0.3381597008787717,0.16792966464299833,-0.28727097640324284,-0.2728647418506638,0.24449841209363346,-0.012126288027109551,-0.17840520716415895,0.3190299541393863,0.06982406864764577,-0.08819056308999179,0.11440523767891382
-0.23763643692322672,0.10070640264475386,0.2643999876326019,-0.35061170952447135,-0.30349257597308443,0.06932733994972548,0.17353640772042886,0.0428206902231937,0.3108715783328536,0.0691309321090209,0.053263081153657965,0.11100231760122628,0.04926092169198554,-0.03912913675155166,-0.044581388695320065,0.0703862992612251,-0.2516046365832746,0.292067775607297,-0.3302300227399873,-0.18882586781721192,-0.30027603615998194,-0.10027676391046286,0.2305307196221008,-0.08694974647462628,0.16030686890049403,0.2321705807997417,0.020794266751041936,0.06078365697024955,0.02519845913026231,0.08907902544995747,-0.006249169272865502,0.29094785184999855,0.009915895079874473,-0.22195278736584034,-0.10151059068317503,-0.10783532943745125,0.14904957378670539,0.0593894176246979,-0.281458796950296,-0.13066102746147584,-0.21209222046220852,0.005168520896036413,-0.057669548751245026,0.04601181517612572,0.14939027592547208,0.3360325045377695,-0.12491803437502623,0.22291978448189967,-0.19231927885722339,0.08522810787359392,0.2436186276356902,0.3284550908967469,-0.18869576910762478,-0.15173588495296736,0.30584451945559554,-0.3356143387673375,-0.052540677103077804,-0.02173334940399495,-0.017493657910577463,-0.34768092746547974,-0.24370888193642917,0.28981669993998527,0.3161379496748579,0.05908304559778912,0.18245906865629646,0.13874477567982973,-0.20993952819668757,-0.05257303087340006,-0.13269433718538623,0.0005618162444583352,-0.1949137939300335,-0.33602127789886516,0.05404740500976851,-0.2207842136336296,0.08840150915487745,-0.22251166644775391,-0.21136216379568576,0.28740321114501366,-0.10391963780981114,0.3598712068924182,0.3504271286360105,0.08993309239812047,-0.286328436650913,-0.07305287504498509,0.05848914347019132,-0.14543340113470057,-0.34530508923168507,0.007956341820997612,-0.2920471901698726,0.2807191326281638,0.1757192485024819,0.23910932456536632,-0.025861359555939656,0.3185512676569519,-0.09942733546619868,-0.21200687536418103,0.2363700364959584,-0.23137647774923267,-0.17846118283705492,-0.1999998795728975,-0.3343717496536588,0.13315655798655818,-0.2183467196722929,0.08331765633083664,0.11805007218081116,0.27606674604097237,-0.26588025745576416,-0.3320726293846095,-0.046558560011293805,0.13554219622939842,-0.3072754734054074,-0.2091249119435919,-0.20740559317556587,0.04856711722027418,-0.07591385008378351,-0.09643338386587656,0.3243638118227727,-0.1338024313467654,0.2406148207758017,0.15557835858096258,-0.056587105221300116,0.27152066280668286,-0.08205704734317767,-0.03959794708841452,0.33740054349611776,0.12402370228464289,0.2993856747310753,-0.35025204210693406,-0.27211234663844996,-0.009359031266364051,-0.0858954579594542,0.14112904221654726,-0.17054078250656554,0.014713480823513096,0.013449491872900005,-0.05201228792740587,-0.09555424270941487,0.17957171041598372,-0.1930492034080453,0.31380183860881344,0.34736669403943476,-0.21307342953609268,0.139632806418122,-0.35417025200432395,0.11839401724095999,0.13792096710970014,0.2757270521506551,-0.043042690829758055,-0.013357959296258999,-0.102571297818799,-0.2870940403582376,-0.07508597391145785,-0.2340469057709255,-0.02703239029651214,0.16900783115230575,0.2936873274030581,-0.26305972333653543,0.3288978435287688,-0.19669368913076524,-0.15949182173917015,0.051045318502481986,0.31761949887398944,-0.010569085516069747,0.008903776306514535,-0.272432969708548,0.2624048873385826,-0.029220964574060506,0.08057341274900247,0.039829178428805435,0.17003143834494241,-0.22206576469830225,0.09825900946011919,0.24149627099222185,0.3308142586831693,-0.3215434944811076,-0.11542581824001118,0.15081759763805588,0.21602487221592495,-0.0020071310670787272,-0.34495735110556763,-0.22788697156315835,0.3545270196920264,-0.13151478091910962,-0.33391019876375266,0.16849533900496735,-0.007492123400133864,0.3581814141361681,-0.18586071271877783,0.014570720214514554,-0.13707283139327328,-0.06861064527716822,0.15483681685824038,0.11474950323727144,0.20769466220976207,0.22597239485490353,-0.24069692452996724,-0.22761832026468354,-0.14467366409341936,0.15778312328596755,0.2540759505173241,0.21915929370737441,-0.33575541875234954,-0.09971248332544241,0.01357094393615813,0.15350084922250656,-0.1445896330362694,0.10737190571643275,-0.016567814804845774,-0.24413306576190955,0.3615762674102281,0.26235004245135335,0.005370756376871125,-0.3195026150162345,0.2576217298428632,-0.20796684034071367,-0.18410531017412468,0.06436923002383009,-0.06879832154496242,-0.22417346947066255,-0.26079684512451595,0.24238044049100402,-0.1181620160779483,-0.11581428323181452,-0.16633071125429785,0.3305894326060501,-0.18947027678053932,-0.24292346990451139,0.052551605669288105,0.22839490978702207,-0.04687511348519726,0.03667824376426632,0.08955244029189299,0.10751406214931034,-0.006761336669612428,-0.2924894977168514,-0.3001258448756848,-0.16272491080042312,-0.012148989112041864,0.038844392265626894,0.24664674785574836,-0.20325238553594469,-0.1939551609892495,0.2548033371135121,0.1756994783459908,0.2594848617079065,0.24200769290404958,0.1008690266580125,-0.27310690126440745,0.20796863306375601,-0.13867363459236462,-0.1871540425494462,-0.18630046786114857,-0.18284649743489445,-0.21387321556782832,0.2447334060121266,-0.35739680903361243,0.30212010421036284,0.10279685542202449,-0.25930856580006556,-0.3173038901673577,0.06395161391427368,-0.044752992680268694,0.013418717338936932,-0.007328819607554505,-0.08523574342760137,-0.06201573786050597,0.21841302020369355,-0.12937853172199856,0.11389946271910661,0.32592611191731086,-0.2380203443507979,-0.12105866916354814,0.2831126610015505,0.2031783453512086,-0.07813744875674854,-0.14535542264692794,-0.3273759136888519,-0.006647363299949878,0.24312625435435012,-0.28048015395565234,-0.24582281759644886,0.3383950618388126,-0.2500617991463026,0.02397562159848356,0.07103674706208696,-0.09002569123832599,-0.11625344271147241,-0.23744212310401897,0.3085816223952412,-0.35586818497159006,-0.21993496155957665,0.27493706412161756,0.34278113010680944,0.15580126616718584,-0.09710507718770067,-0.06242495291995326,-0.1536313339226811,-0.08904797050267498,-0.2959680768793234,-0.30624296569766846,0.15276741636372215,-0.18375383362289366,-0.20478644660241524,-0.1034921140587302,0.051011952301395824,-0.349169922498307,0.27085331107027055,0.15819576165136626,0.3055484453647221,0.31306422917546184,-0.23692556908232687,0.2771073875948441,0.2798693577786326,-0.09593267536174366,-0.3239249173628822,-0.1463306422503781,-0.15383928705075248,0.14412405709583348,0.023031959998662394,-0.32846653893152117,0.22069054130779245,0.01859990773571604,-0.3170587465795328,0.09730615550916064,-0.2811924507351227,0.04293653064693934,0.32016443885525303,-0.10635472476182913,0.20849302149792012,-0.29432226601135153,-0.23434427018128093,0.2568611100444975,-0.29409635225981834,-0.011129693549798862,-0.22778636204764066,-0.0183418851910797,0.22984616404044306,0.20086119105870304,0.1222860478265827,0.254696360358059,-0.07713742095632109,0.24684934663860705,-0.01611480295258131,0.015446588904148682,0.010228475872213223,0.3403972080862553,0.014684331502118743,-0.36513034380496184,-0.3579334029155048,-0.3177788697423365,-0.3258983335845649,-0.3503173170089987,0.14812796357982147,0.23618865386458712,-0.2817943933135164,0.30941177837660044,-0.27678526567496725,0.06587119772221214,0.18915066285383406,0.12465902066838759,0.3047288906615678,-0.2082682899579881,0.24461862530687725,0.2364107096544524,-0.196743098037215,-0.035356242015049597,-0.3285345930043662,0.13382165187123576,-0.19721053889649767,-0.16766653986996288,0.295558526996144,-0.3409884190075559,-0.19285409388266905,0.20429989900527684,-0.31475151024052606,-0.29239338106409013,0.16034525611711184,-0.15685655368614587,0.010785310922287334,0.2712892186037545,-0.21242610501872902,0.19258189970207976,0.34650130552801733,-0.3452620342179656,-0.3682181517632603,-0.011752276270758314,0.25058197331923804,0.2357740518996208,0.2979142706794392,0.17297448620093364,0.28294122022200624,0.20632130979971072,-0.1553709431023059,0.16998728926885542,-0.03376937354379144,0.05012756191098184,0.011221674796221368,0.14126833611917403,-0.2510721508888443,-0.17330617055726186,-0.024768004873808033,0.358605383495729,-0.07381528114191424,0.08442913757896245,-0.1818928550638969,0.034178609137061264,0.16415843892676893,0.2688288116912289,0.24930781439998342,0.1551598198535517,-0.017802076462317715,0.2421862956871666,-0.23376168108625967,-0.32563349107846434,-0.042693571622407944,-0.07625335569632702,-0.19936920792401533,0.18636239452522513,0.07819347317465256,0.01821694221653444,-0.26369899127214114,-0.33912636587405826,-0.11399443840005337,-0.19921833775823364,-0.3619483833730871,0.1384393629460505,0.20903003191421915,-0.19349449326949714,-0.08562238988961979,0.27179275006600595,-0.14489537187587462,0.10931514761023049,-0.14583249701028334,-0.09399291566284422,-0.35781492148901106,-0.03598552241118508,0.1465608020278634,0.055159269078719785,0.20028190035575252,-0.2576835455612095,-0.236311277780705,0.33175885653025367,0.30933645781689495,-0.1514986249182115,-0.3302735587335034,0.11214849822855388,0.126480176576381,0.27402276498471667,0.290543949841186,-0.34185373113442147,0.3461127725503981,0.027278331701384596,-0.19209994814269848,-0.19359532124178916,-0.3622899224617936,0.10308822259311572,-0.1618600459904756,0.039859775788225416,0.2450977735689354,0.04518149331098493,-0.3049536377667737,-0.19961414777974468,0.2722603917652181,-0.3214728271107056,0.2768526094933935,-0.32761543023886747,0.07531415515436272,-0.12720035784781303,-0.2777683490835403,-0.3498140061298556,0.16809109089113788,0.2691316113171306,0.23748851455268769,-0.08290040591714917,0.023988429388010494,0.3359159044194139,-0.10086682511753053,0.037815146769218114,0.06184065321954005,0.09740701158224935,-0.2795856169137719,-0.3296590916301864,-0.10136617035697076,-0.20908983126991607,0.3384724244268133,-0.3298514399641314,0.1037482150367794,0.002890827501957436,-0.3286140115904946,-0.23475329941085982,-0.16702073591535366,-0.10585977630349236,0.10391504757580981,0.03359224523461069,0.2161995895728068,0.02090131914158727,-0.004530698399711029,-0.31132636494486166,-0.1035063047846162,0.07702700112623595
0.2023689254798086,0.04274451712374537,-0.052861908531893355,0.009997723916569445,-0.29360624346074937,0.036038282170275465,-0.021238014208152668,0.06628774243920639,0.04758417106510935,0.027758159570814494,0.2361867306255123,-0.2769510637409915,0.17768314133235708,0.22183946631499943,0.08698808180017373,-0.15094276106411852,0.1568023647851811,-0.14390979843153706,0.2031118013020265,0.26920183155929694,-0.3519482679035652,-0.11927971487985176,0.059970894626674806,-0.13088885102663086,-0.0005758619179551495,-0.2676179258679692,-0.3334604051316234,-0.04402859202155609,0.2438541189264942,0.2862364111343366,0.0969710046736938,0.12446692921651027,-0.3312648379824313,-0.13126873526289295,-0.021886305436773612,-0.22323815599490832,-0.277374363731054,0.32210216364671734,-0.14382670708978076,0.23312358769800814,0.24351897180248505,-0.11806913997444779,0.24322703279505542,-0.18314139924076642,-0.3096642623710475,0.10331944847734656,-0.252554821897398,0.23571948126435985,-0.19417411839997092,0.3006597587398024,-0.06119765156721097,-0.15480603084278613,-0.35704527960773574,0.34035146193435206,0.32155600225206893,-0.10893600214090902,0.013482497548555076,-0.3432058988298578,-0.09367411642025086,0.09566288308172725,0.25735078830103003,0.3315669448010203,0.18269035695233027,-0.3148557680259168,-0.0322302892924909,-0.3483566432618947,0.1837349676867538,0.17994816220547014,0.039041290833297826,-0.19828166207048895,0.13154967927368771,-0.22064522347917856,0.15719350505945376,-0.3365057673114494,-0.1800934575377139,0.21673346545823333,-0.27655440615898724,-0.0666932381615718,-0.3310607055121148,0.020680330800778485,0.261627062224879,-0.05001006924767907,-0.23051403050141628,-0.31292552984757194,-0.3237864670382741,-0.3303317085478618,-0.15265599429186444,-0.09697207352564764,0.06625221620194705,0.28217531496367837,-0.0166247054912489,0.21726970885516989,0.15773819545259365,-0.038788400188607144,0.056007099706995245,-0.28612160954062793,0.14705149883686006,0.20354167148321287,-0.151740580144685,-0.08583001734836576,0.1773451711295014,0.054560956490338666,-0.3460354669288985,0.3027886595973682,-0.3370433629168648,0.33825436502227907,0.13743516698804942,0.016227126383904524,0.06521452742367949,-0.1299603483886155,-0.14963062430252905,-0.07993008795290388,0.21190610385400227,-0.3190489710673089,-0.24244185646220442,-0.2780462365531629,0.34718934684603053,0.1355418930044347,0.07984194012824704,-0.2043951349088829,-0.1353473025527035,0.07520216534539076,0.2693281123746088,0.33878705476194476,-0.011486227031794251,0.11704258759514136,-0.34023530679531666,-0.27587378167474896,0.16623943193618168,-0.16453909259315463,0.24179188604737065,-0.16287504134099076,-0.2995753691403844,0.03510267694834367,-0.34613310564835686,-0.33139948956061177,0.2751189255488324,0.007894423159518299,0.32770236997383545,-0.2525082301286017,0.3102080967227813,0.35511456399946617,0.09167769344715046,-0.35310496535687086,0.0013562497754690422,-0.24538400497049787,0.16151083319142231,-0.011613308363492001,-0.25001622946925184,0.2084675141729288,0.2297558780104446,0.313440744690188,0.06695892172009153,0.13427684128591558,0.3242574861508741,0.249525117860114,0.034410315742505804,-0.2612259277381967,-0.06169032781087608,0.009822664734731312,-0.0905869318133568,0.3175282294006117,0.27320174847283735,-0.0109352485461503,0.05575075631089657,-0.1945854410205669,-0.2869186560731546,-0.0804036611114501,0.19162464192190826,-0.1921635319293048,0.34695411779857366,0.18857589281456547,0.3152033892292397,0.18213990079128267,0.27348862610044655,0.23661154301597906,-0.047093279139496215,0.0564346715177578,0.21672341299246506,-0.26198182960660665,-0.08823450218065139,0.20394416184513112,-0.1977729100266673,-0.2570212319887558,0.35550781520378383,0.273436689601349,0.24852639418365716,0.1990059557670817,-0.29261991710254004,0.16745557211201764,0.23537612934303415,0.1128884643839538,-0.21547451104035165,-0.30502942043269055,0.016964820528136526,0.11952967392121741,-0.04043404889889658,0.10783729673124906,-0.24901639287752333,0.3032780240963926,0.17385954579515003,-0.2000436076340825,-0.22024072344483,0.030948919588076714,-0.014300973539766391,0.15600197084585268,0.01608519689279275,-0.22587679689587037,-0.26085723128509286,0.12737057315170727,0.2029392977813384,-0.07335262109331352,0.29335692540488734,-0.18606237849600785,0.05104002941546816,-0.12773813009320303,-0.058628288356236985,-0.082440361508496,0.2670233911804511,0.2092101272615447,-0.026214540788808697,0.012131364450736475,-0.20005310646627936,0.010711623033800244,-0.2929560377819894,0.22966950124787905,-0.21991109968420058,-0.03263801344035017,-0.17439532924575343,0.12465656446426132,0.27287451996444206,-0.23110885651922516,-0.3275816167042568,0.03258079841620248,-0.09551296920951759,0.1893865883193951,-0.3024969265326275,0.20017680358886006,0.23773817170687472,0.051873369817521865,0.24716537539402128,0.13397954775869017,0.17108817754635797,0.1777602396574689,-0.10561891073636193,-0.28722437885646873,-0.1988764815544945,0.1727632283496532,-0.06812132995434535,0.3345320782946202,0.3468604150106376,0.07095171469766587,-0.05863136191731474,-0.09323521386304634,-0.3106088239704968,-0.3607618156932988,-0.17007316313042867,0.13710670651830253,-0.051179054355850684,0.04077209129835972,-0.10614168246823606,0.029943345415279043,0.02635796845806069,0.21919776021910362,-0.22832137426084295,0.3514391615646664,-0.16427671166379446,-0.08394163927267552,-0.13751817729600976,-0.20330350432841326,0.18977784795354483,0.2785446349402464,0.0020227750835738498,-0.028150950947548815,-0.11255274877703172,-0.26613011796431624,0.08724182123224744,-0.09837759624685229,0.17354661986050288,-0.12921029026823316,0.01788745846537103,0.24679163113896221,-0.1908316159077613,0.3111934138627004,0.24841005423073045,0.2938273593816938,-0.06956600002837579,-0.3471503593584757,-0.05772688000945173,0.07653296448266027,-0.25409247005228736,-0.15208906991809107,-0.04084504691682365,-0.2733879039446426,0.13344516355885386,0.04757692590546886,-0.026730637193553564,0.0015795292392768994,-0.14323270656958342,-0.26213889272684265,-0.18962071084515442,0.28542641840389243,-0.17605939108033403,0.010493056431089994,0.07566355284521939,-0.09695174257054338,-0.29910829168980324,0.045444506378052495,-0.033462159495128305,0.06262492836392107,-0.2790870592354855,0.0707157116321895,0.2098382288130873,-0.07316398238955613,0.1338868909772793,-0.13841289648040267,-0.1279673915132122,0.07895593283111564,0.0941076920926715,0.06837878845566858,-0.16449944657974735,0.17131744865056148,-0.21783818328698512,0.16792256319562276,0.1742151450502485,-0.028835995030173287,-0.0650080995526266,0.13746762706280477,-0.18246417043296215,-0.14242640793278816,0.12655661594214815,-0.3023712881111185,0.21071470598334335,-0.2033755531157434,-0.266057579423479,-0.20491188075589714,-0.19646944707157038,-0.25107162686437057,-0.19579596526993806,-0.09897161899386012,0.23050851001511305,-0.27121054458343113,0.205083310521593,0.07998278746719918,-0.02404431805847216,0.07711644905730176,0.3329216175981022,0.04867370702323103,-0.04726160055877073,0.21255080135316162,0.28632722521642984,-0.04424982992305455,0.275873048843063,-0.06590141722952866,0.273682888019173,-0.2706451387354616,0.1191092089632084,0.2457222978602099,-0.18190610869143403,0.3155743224189544,0.0029320732298525392,-0.01447025130241597,-0.10852434238063093,0.21007962745940073,0.22841048184582394,0.33205136809877966,-0.1931169663413161,0.2490903658798722,-0.05407682694250467,0.27606001227624494,0.05632181775652715,0.16796399534769674,-0.19499440995458447,0.05413303303715111,0.03332990189231261,-0.15194730617402266,0.2633671242931842,-0.30442035918327376,-0.1261965297456336,-0.3510743961836803,0.20486989008014975,0.307729802686183,0.20536200938453983,0.3311641243635719,0.27321249761662686,-0.03807850028591275,-0.2793063357115617,-0.2798061307870009,-0.31047471010233324,0.3045059703212907,-0.3422744691294738,-0.08405976615680148,-0.32944013856793924,-0.04017217033720455,0.26885053471545683,0.19639766092928704,-0.3223513306672082,0.13203483599654858,0.13503633301481216,0.1707845676269817,0.28002561665750164,-0.14963163985565803,0.3134046784355129,0.34158797560686827,0.11349244571304393,-0.259465459958564,-0.2731521182392606,0.31696824172767907,-0.16923454903980883,0.02328644527617285,-0.11472072930069813,0.007215962959836344,-0.24524604170821682,0.025947100956021873,0.01656120772628332,0.32428113370212847,-0.20005418884428003,-0.35348078828762935,-0.28603174415483246,0.06495756694457595,0.1510606734745797,-0.06577409918913499,-0.01354408273925786,-0.029646625630263185,-0.02701237274056334,-0.039803566180351364,-0.2663269298426288,-0.20165206808950834,0.17607271202572053,0.2868374096807076,-0.09096097922680507,0.27361020749261533,0.2798330893054181,0.20031634132443252,0.015165591615809928,0.1393875590729513,-0.18765828301322487,0.05974167780647346,0.09820206485974105,-0.3388167949915577,0.08245753304738468,-0.18816495621997836,0.34648789811704317,-0.34055944634907453,0.21979786149725772,-0.33325898157162587,-0.23352428937600708,0.1335625806386186,-0.10649997780733197,0.20505268212565173,0.0904563815892634,-0.22880688063926619,0.1701172771166613,0.14381517808622069,0.07902798828559666,0.17683229253239804,-0.23608680760192338,0.033297160556769935,0.2429711372749906,0.21415815835044152,0.055869933700126995,0.16502853536296788,-0.13861778042292783,-0.32190746466522896,-0.10143818752931207,0.24990719604962894,0.3388433867320061,0.12220912038477129,-0.21901398818443107,-0.005554524457224049,-0.12192490948663372,-0.2723420186097554,-0.04562754677620989,-0.11774895756747425,0.3413536102819321,-0.2865036396940785,0.12424846917632348,0.19111558420781843,-0.09677537485617578,0.24383021984430503,-0.11426237227558407,-0.21383994339059742,-0.26612260359663287,0.0293873872172975,0.2180527003240839,-0.32200499047924497,0.17257078599160533,0.13172046213889474,-0.3245697207425262,-0.001984915811511241,0.1847762029453065,0.1327075141228347,0.045371467316170165,-0.03360731254057117,0.28637365499469963,-0.3468367593800877,0.2864020645864165,-0.32503034635342715,0.19948059974518667,-0.14432107478302048
-0.29871175439337233,-0.262995889584748,-0.1485892450015203,-0.043521871744072016,-0.32010725417427766,-0.10430829753711278,-0.007908445445865038,-0.046230349017461925,0.00937484035919591,0.11030987908237602,0.13953471242089532,-0.2760606026962743,0.16404314856046356,-0.10214245178586838,0.2916010279226605,0.23508316041956295,0.11021332676070132,-0.06742866202902933,0.25646338767863636,-0.3353644053825274,-0.2325914809411846,-0.3389904429248602,0.3088744926158336,0.1212006633119827,-0.29598625962551195,0.22620473078669476,-0.03925264126179845,-0.3148375105684177,0.1637791170864503,0.13097893532359536,0.01311887165639373,0.1738127496929186,-0.14142614354561986,0.28315956375548434,-0.22688955246278417,-0.03225224037653168,0.2788584927496616,0.049793034123984746,-0.01752291279792978,-0.29481159856868183,-0.24122782386355754,-0.05957546428071536,0.30216833257769526,-0.2908773557697746,-0.23187099176548676,-0.05983331052422066,-0.09883687765426802,-0.21742351037655117,0.12089484270288116,0.17528678210555684,0.007534072374671332,-0.08236735721941513,-0.3269673639971738,-0.001799808019771182,-0.07090962995488437,0.16468196017702516,-0.269238233450984,0.2612124608685038,-0.07007360288451792,0.32540597579775005,0.07458583958393936,0.21481397393921395,-0.11602450784209825,0.09132342772348803,-0.09873140679545345,0.11538444923897256,0.10485600864780653,-0.03410839607349873,-0.21177281830435002,-0.3351792865431314,-0.11479215704505316,-0.2344376436861324,-0.2701017759645545,-0.16099997101551353,0.2337028406170931,0.13998053223889573,-0.26242849607337443,0.11424753501638513,0.10256156315161669,0.24058245155183575,0.22725775565937814,0.3174653357044081,0.2504574664000679,-0.050035707762436044,0.13527385696666058,0.1157094166914521,0.2436838983148045,0.2036470181369724,0.01672090548376012,0.19667621734054774,0.09377296385638746,-0.10674884785311733,-0.29288556057279913,-0.1343771693006172,0.029797534175226365,0.10384942641200626,-0.058148422835822215,0.20577530225498472,-0.24366645326478273,0.17914151291084038,0.08893748949903767,0.14252365222957183,-0.09280369411083678,0.2033999696791516,-0.14613727494329598,-0.0790051679070621,-0.23794971322441122,-0.248862542109282,0.054954331089970984,-0.23374322145596688,0.24966369549831627,0.32072805100987706,0.0027929523253333844,-0.08998588368241567,-0.03777905716011836,0.14067257556948728,-0.2169973766428854,-0.28329512285670766,0.307222486569152,0.23227960363813926,-0.3208675333653723,0.20206025530142321,-0.008776348988952147,0.04478629508657441,-0.046184640305389824,0.27844724589038233,-0.3047699293894439,-0.19005149768904925,-0.07346801547969684,-0.05256933649171121,0.20461086467107154,-0.1396725734816867,0.2513596320004541,-0.1274906090520513,-0.27215977335058383,0.1130770895843251,0.180262610388604,-0.13221536222330257,-0.3065254622374326,-0.18303927442661877,0.3053524057873171,0.05711195821935991,-0.32614952793302665,0.30345274294073926,-0.03714402847722521,-0.16810088544256785,-0.24348038331408767,0.260990162248772,-0.24212392348098108,0.23126686529713855,-0.15647711164157715,-0.32638721017262745,-0.05259358956047809,0.3336281838703126,0.2785447962165945,-0.3162187369728084,-0.06051789043038014,-0.07960503385526049,-0.22124767554279423,0.006327398747865143,0.3180722097639224,-0.1341354004584992,0.1798886600915786,-0.09609081226856232,0.2334799839108616,0.028075458769939082,0.05403153013851107,-0.13932208659029738,-0.20981298560979614,0.007185129142671043,0.07182106753881111,-0.06608678424436527,-0.005574513109166582,0.24532811415757078,0.10997090875608699,-0.2650813745865258,-0.32167185560207706,-0.3137150484857021,-0.0024288977436236936,-0.3002624377220518,-0.09470006968237872,0.2576281512738058,-0.08231001237505564,-0.05702199007120057,0.03847587004855404,0.08187739618830461,0.25648794929058344,-0.3316552948650942,-0.3476593827641947,0.1796807647171783,0.09544561978994437,-0.19020653103442445,-0.3122164466445466,-0.07030694175741498,0.07808773326939279,-0.2751474533554966,0.03424442243737078,0.24650574523924784,0.20945656778206062,-0.04013583511244713,0.1474523071485809,-0.2980385352310139,0.33449615970676433,-0.3085073321655489,0.3004546828093522,-0.2258241522607508,-0.16192641736734048,-0.26299131876654236,0.23366330936606253,0.04935114024191343,-0.2632444499425984,0.0676761223307066,0.13203880827458964,-0.10749959242121183,0.039590304585138236,0.17055456037395195,-0.19146030226150867,0.1959210560058279,-0.21167779774951695,-0.2997351849456623,-0.15223155793192053,0.05717665620918568,0.1127549403028135,-0.16005206735143074,0.09524056022259937,-0.23383510116164638,0.022656541954142677,-0.11125487749673707,-0.32190886962109994,0.15462482248502243,0.24470882233977878,0.043571930087337854,-0.35758102170126177,-0.31655548418279467,0.33029208650461733,-0.11340301269954418,0.2739937911311429,-0.04290945156031764,0.1778007402779036,0.2304603635423631,-0.10066740211342157,0.23644804155023655,-0.32490935400709253,0.02198642092985853,0.08314764815159886,-0.2355210826509057,0.13182595108172573,0.27909136973590304,0.24978997084237078,-0.16436540557070067,-0.34418760600080583,-0.19389058509744286,0.278325469833882,-0.3043879576701341,0.12244881879440916,0.2812802539762128,-0.0969206894654359,-0.34599456531268513,-0.14672533674596946,0.29953055385806443,0.04252919642878181,-0.24795583030537435,0.21789250490653253,0.14914947184111446,-0.1485127791459464,-0.11875287743105545,-0.10781853294045676,-0.07792021302472787,0.053847353374035525,0.21131926308814875,-0.10326189923399919,0.22628405849299119,-0.2909375305538037,0.3376182135441475,0.10854804813067236,0.16298029926536464,-0.22743991056827878,-0.049231708613926506,-0.2646982592485793,-0.16456274696728046,0.16299211736733638,-0.05648759600671359,-0.08500987322097839,0.10426897478067998,-0.01810376692459187,0.10583757509118903,0.24586932331398526,-0.24516046561677712,0.07345613703634955,0.0937209863324848,-0.11445694232616554,0.07259637598970252,0.01436142075844936,-0.03425967972965727,0.262274445936404,-0.10849619876125638,-0.07454252113024873,-0.17508898056223846,-0.13613007022616916,0.08295407152744089,-0.18224214625771412,0.16324687479021185,-0.046153843426267216,0.298264654987803,0.18387213575473765,0.18464248563651872,0.11403265310838681,0.17047611038378094,-0.17766241260347523,0.3146894474724488,0.06433094757678269,0.056776589951418585,-0.1250129092697444,-0.24154140447962508,-0.3007409695340031,0.3189676129472102,-0.08445321376912152,0.3252785717427186,0.07991681014519908,-0.25404729410645666,-0.09213485950994843,0.1754919128882069,0.14418745945110217,0.049730181502542894,0.23468936930728637,0.12187940200959482,-0.052577289503967756,0.1503087298288999,0.14547750531570466,0.028161880191497107,0.17426554991705195,0.3353062015710546,0.018417326123701783,0.27923569655922365,0.04449727099343456,-0.07230524761232475,-0.03969467412059913,0.29505428072808004,-0.32352031640315976,-0.1634615352465322,0.3429631219273408,0.2578204318552193,-0.25596401813971575,-0.03622767565032557,-0.26186257995057655,0.1905643229204977,-0.02155257609940071,0.2546511994206818,0.07562016212727002,0.16750888115270657,-0.2653071065283158,-0.2994879800329572,-0.14984444164096394,-0.2266190658528642,-0.28581259597256825,-0.11291318987779318,0.19937401846306418,-0.04553693640774343,-0.11646466842000562,0.20571653323321346,-0.04485834694472078,-0.09604997455174541,-0.20404110206455003,0.07295953447576421,0.03348149725380537,0.2794540425038894,-0.2962917184120912,0.03201819539616398,0.22574671510647745,0.00846023992888461,-0.15402790875039157,-0.20641622896034995,0.07886737566708428,-0.046926535278333195,-0.17088938366150683,0.08691225002119658,-0.18729710104951905,0.017557724640602457,-0.10728507012160371,-0.09263635332295357,0.11765171547948032,-0.21545051981224292,-0.23658469326358797,-0.19453466019965723,0.32327806200508186,0.25974924525004894,0.28438900030647696,-0.1743228952947356,-0.23849535585865925,0.2522769562513036,-0.16048337904062973,0.3352008610390322,-0.19795398636154993,0.12166857282532699,0.09318317554579764,-0.3362908753433308,0.25881032368403484,-0.3179343213779343,0.14381968061298306,0.28585483983690463,-0.020475526717010372,0.02528117982224951,-0.03190590864515963,-0.22877251376970165,-0.2990261779352281,-0.021297213518243145,-0.21926978250678875,-0.26096757390867475,-0.11044547587012367,0.231996793817121,-0.10246201912557065,-0.07973625597474904,0.28821931644632565,-0.004744008292507651,0.1455608525029839,0.044467146386842356,-0.3316943245148579,0.32616157213255503,-0.15746161736007666,0.14041638801255066,0.012732456484802646,0.29351571485548955,-0.290586979659279,0.13115092153928248,0.28227695137327763,0.2237892374966018,0.3139844903062206,-0.03953132787835978,0.007130004752399345,0.15932299425035454,-0.2386893082246232,0.16754966575316607,0.01908261295329756,-0.24141914411842158,0.2048980681733108,-0.07233060406138128,-0.30408822269909863,-0.054027589859752784,-0.14036279474335,-0.048213097162192575,-0.3049353372587196,0.26681065423423084,0.008440582272442319,0.3067277052337609,-0.09374210263015603,-0.05876675697599176,0.17101913505915262,0.2079782434134461,0.2851790630443819,0.11701505599348494,0.08816787395584509,-0.03168093228841153,0.24090752369896987,-0.023581043981250008,-0.3247719898645603,-0.3424350503598851,-0.0792909854335561,0.10353139667980356,0.28197814250411335,0.2980739563238718,-0.3204697475023479,-0.1825206184476518,0.008973035429775848,0.08458920095689502,0.05913917472984124,0.3507329317225188,-0.15514319049274572,0.2578478168494301,0.08114697704966697,0.2209147188775297,-0.03097928319607721,-0.19561101737163064,0.042961761963390036,0.06054483864450777,-0.3341358318390168,-0.15600006022235943,-0.07835415847993649,-0.07591655372753836,-0.31666480444038475,-0.10974873722294977,-0.1446213453980175,-0.04525741057499044,-0.21923399975534213,0.14665556321470072,0.2014216211507103,0.004332425231091397,0.33237895593869393,0.0627840448976645,0.029606110345407444,0.33409390605797296,0.19492923654400074,-0.22293200216624984,-0.12058663223040308,0.13735126908948456,0.18444713236605634,0.3271900307369995,-0.26230311994701844,0.13912586765588655,-0.31297648600127603,-0.07720276546842995
-0.31037250423435864,0.02396422746807749,0.10638532651513388,0.10942046864506783,0.18084556705912974,0.006977092837003562,-0.054403747295393476,-0.32033037578063345,-0.059258856151829825,0.08554936059572671,0.054207727711959384,-0.23037601341159367,-0.3525393528442921,0.1577653502730092,0.3177677709481043,-0.1540423958925654,0.01303413140946353,-0.04398668468426722,-0.21309360813858447,0.02817598137454519,0.2951869405802048,-0.040386899570769685,-0.21703951207203923,-0.2593392534239017,-0.10755276794350532,-0.14484744462265792,0.34612776744205603,0.028914959665199868,-0.17523981531203156,-0.2519716282087407,0.1478621478301326,-0.2803897020374229,-0.17436078439201913,-0.11914518570518097,0.3339769294725298,-0.04443980883990423,0.1667644785876191,0.2981729938386584,-0.1993642033359267,-0.23212615801521613,0.09496100161036188,0.09863066757968028,0.32891470446062165,0.1010073881921611,-0.21909840730140584,0.029745221331117008,0.10088572522506312,0.20134746910355006,-0.060644300692159064,-0.0036346139869424436,0.015181299758350607,-0.013632134541375957,0.27026873826447195,0.13081287750186177,-0.31167870940559306,0.0163676084603705,-0.051138310126440455,-0.12752750535126925,-0.24475851792993902,-0.22754216291239232,0.24548043963469804,0.14024018198234914,-0.22577967903030585,-0.1030753337792565,0.2073781978916874,0.1541621167373255,0.23535949930861383,-0.046952815171497755,-0.06397823742304687,-0.07511175570850925,-0.19874197409416802,-0.3402310148396221,0.032203298976739604,0.12311371719042392,-0.14957651119895504,-0.2958044099991235,-0.052430812708189,-0.15699906510282902,-0.24811879861558822,0.03397917522411878,0.3471079660965621,-0.2846400608123641,0.2300327677233363,-0.18736288937780474,-0.32424087313073824,0.34106928356609184,-0.032700674067711294,0.34366234536114976,-0.24195084418720772,-0.2119825021132018,0.01723139914961765,0.06448550959779527,-0.2927481993779313,0.05001114450019817,-0.13201520040792683,-0.164232814066551,-0.11880203660927173,-0.265936457181948,-0.062303677662213744,-0.13708416758578904,-0.3310115398540139,0.3269504430897125,0.3317830675836881,0.17422742860040716,0.08495430832395127,0.09244940196327218,0.30927212973190393,-0.04553077945030549,-0.11758335405066041,0.09222036388362242,-0.3304692274283828,0.055803332981971994,0.25548049753304153,-0.13788897900406716,0.18175544309439626,0.31538743040462414,0.14194476739148162,-0.06508884061384895,-0.28462872768378095,-0.3436108491848676,-0.11484443925800836,0.2856517019690354,0.036698815574933825,-0.022860350307165895,-0.1254873786572635,-0.06294059632522941,0.2803092403440603,-0.16338032974591013,-0.21059367914770347,-0.3116790172376778,-0.3421773872074602,-0.26171463981282245,0.3638051332242034,0.1743309819519047,0.10387591757081337,-0.16800956170018908,0.058135135762160534,0.2690268555582603,-0.24868743802496138,-0.30292434830653975,0.07788406973868672,0.15987631767326912,-0.02498656808841329,0.25558031186841385,0.07002833823259973,0.23876557418194347,-0.021472805299200478,0.10633668931356888,0.14776482926713344,-0.2226677500141536,0.040397958031398104,-0.21513420093117366,0.2407712381038291,0.11173555908664157,-0.11475067010573045,0.1732008675120548,-0.0783438688347543,-0.14984906510560234,-0.34617375992266325,-0.04920470505332869,0.23335251524031017,-0.18056751413870353,0.27364338727747717,0.25898551344737847,-0.20031402405343263,-0.07535340996755455,-0.28640408650503213,-0.2481345183011892,-0.05656932558154843,0.3155134280866006,0.1581264085816343,-0.10783829568407796,0.14016306118516786,0.20392633355109807,-0.2836801771037031,-0.1166348654206339,0.16520734704613882,0.1848882790212594,0.3557275642406316,-0.04560355013883425,-0.2564806883971259,-0.16685978314425143,-0.25804001282047245,-0.21904438050731984,-0.013110865276061586,-0.18591539577174718,0.23414277160815705,0.15959637172767116,-0.34644706841307,-0.05458401931933227,-0.08653662051427631,0.26943710081612804,-0.004861359457504562,0.2812844930280178,0.28951917863434107,-0.23043186241010352,0.2861790109208072,-0.34805625075268387,-0.352953648029297,0.1654704997043239,0.3372288655737403,0.269422118513249,0.08553722372064829,-0.04996317814406179,-0.17967710251502436,0.31426272108595044,0.31175875606887166,-0.12125313144308303,0.12501797554314056,0.026977564131553656,0.1256619709400487,-0.2182708139773382,-0.3216847966008495,0.18103383633569123,0.2558720949692976,-0.0019004216008821225,0.27882925983943285,-0.1133608825669896,0.1653941825162772,0.02689101122483889,0.18483262328440944,-0.33703776336224384,0.21917610377442256,0.18410258862467327,0.009085269787583172,-0.12115062939383575,0.16299609391313455,0.19851276300053045,0.18667460364242586,-0.06854584475182597,0.20211715293177238,-0.26203643400045235,0.06684944804160765,-0.1581867266731046,0.32002701886148066,-0.030400879015460448,0.0423154808846376,-0.20949604157665921,0.29002790858746974,0.2875025135896056,0.05841735511593264,0.25574861272369676,0.23163631607568314,-0.3528965520579787,0.16753740123387156,-0.1186255532962901,0.3257610312408364,0.1605312020547989,0.20871675329714706,0.09109885010831058,-0.1784484617247556,0.33402165799594086,0.2447315859671744,0.24746556085668986,0.15038139182023105,0.042412789403971224,-0.17567909294493453,0.11415159018360174,0.2930319136393931,-0.13100480581349916,-0.020515400474159715,-0.0683138827766525,0.1334236926197171,-0.3077729534868752,-0.3321517778636538,-0.13248268276391698,-0.0015366442101981991,0.3305528261923863,0.1735915780827759,-0.24814037222805072,0.027150925444688362,0.10581913050498527,-0.051104074073172884,0.06488106374603715,-0.04100661051965527,0.28589946830258983,-0.2782486761732865,0.2500578833995845,0.027741536917073317,0.31947031525560077,-0.16518775268385955,-0.023801072965766595,0.32688231120659184,0.142998248016019,-0.16088277380737842,0.1069118780571706,-0.01926681593333795,0.3122585135873544,-0.19521164861510448,-0.08845285475241993,-0.08811189809514913,-0.1585878032372056,-0.025440160761672503,-0.09246222516622216,-0.30243590963369854,-0.06072729161954343,0.0606316792297118,0.3419287869517643,0.057087797739209856,-0.34234941440078415,-0.05771234648800683,-0.26651272841158924,-0.0915071465317917,0.29359859603995775,0.06617022958251363,-0.12080017258538463,-0.19665013318018038,-0.11783213302674767,0.09945390244140863,0.3379284054151605,-0.2911320830901024,-0.061303252957722355,-1.792973870053126e-05,-0.29368853642021087,-0.1197171331611036,-0.03936450044300531,-0.289729356794552,-0.07346228530746801,-0.08190079489419651,0.1533530262914406,0.07759028243433655,0.027303330703237965,-0.07550121658652155,-0.26396035733711704,-0.10458395422942333,0.08102177508657141,0.04540196021888304,0.1977009897455334,0.1204156076607451,0.3537399422219236,-0.2768341868014487,-0.04946047549795229,-0.3180281173209564,0.1471243941902596,0.18781685826169808,0.2808726981272795,-0.29448439415417643,0.25872952373987934,0.009428731539901869,0.13784762687166605,0.31860811697141667,-0.09482980742068886,-0.2136995997709247,0.27369337542162414,-0.3174110250505722,0.01748806335029492,0.21552049032690743,0.2503222381485199,0.14044696108446747,-0.14134489469629993,0.28075593301938095,0.08624257626392481,0.06665716385542068,-0.2766435982067996,-0.10928548200713134,0.2981135039888243,-0.17164317683190983,0.11889172394680328,0.025416676487072312,-0.08054985131962632,0.19627109425056335,0.20405072705095678,0.3360921365333775,-0.18735791992490836,-0.2656522102953902,-0.19226601132029777,0.04231495751476694,-0.2501785216099169,-0.07881420470068888,0.011861475566998457,-0.03953936450014297,-0.27630641829976554,0.2372203694899178,-0.13195829531470865,-0.22046262945505898,0.19076726255452361,0.044038718252959026,0.2622502685780633,0.3562599869687064,-0.1329734625307474,0.08554654043120648,0.3266898938601064,0.08367090391332897,-0.03451394474157207,-0.24877922919899115,-0.30359121915351783,0.06365039312511596,0.08037816046685785,0.2919933695552682,-0.302991519134179,-0.11389633066615656,-0.2273227026890588,-0.3349198604112337,0.19233759336942566,0.3149778242844798,-0.31249869483179044,0.3053159319299173,-0.1466095754561302,-0.2992385530280731,0.16980325188542492,-0.14559272309341212,0.04279516645117796,-0.3411039606686554,0.32659762816471377,0.06363684408951231,-0.28754042900118465,0.16965491512165096,-0.07043920933564093,0.09550867946676875,-0.2723049940647845,-0.1020945021672898,0.29381962347359464,0.22897570031211792,0.24686915086714917,-0.1971737306515381,0.1859350965294987,-0.057024568032439764,0.36033506240541935,0.1531482578506922,-0.3150557426934681,0.20295911237596526,0.27350414512870447,0.2975654690638389,0.19924213804252455,0.23528306672503285,-0.32796691864746835,0.20827131693689827,0.014301951496520526,0.23253585385056696,-0.2667042803841235,-0.03546940772036222,-0.18304293870509758,-0.14650514640065773,-0.09971178665266664,-0.3349851121237612,-0.24024474676380472,0.30847574051071397,0.20651707978683198,-0.08875262261222798,0.090593547014103,-0.1701261250195025,-0.029227789528466323,0.3319401413662142,0.2876257418045061,-0.35248848958208545,-0.005517970020460114,-0.30426326968877987,0.24420126161549566,0.1102410677904661,-0.26159394449998563,0.08097986919792524,0.31033323316757705,0.24015148105421044,0.13808396403828987,-0.17879966792309732,-0.07755022453524434,-0.01614767883874836,0.22384414117893905,0.19461429686316176,-0.19772247759996195,0.22727363952255913,-0.13380972220703613,0.3407009205724738,0.01278690472783465,0.19456061379718598,-0.15913714853218183,-0.21010370854300184,0.0848083779193792,0.10790226919591217,-0.15640697229807465,-0.02433209764058173,-0.33799089054045006,-0.21869784474013867,-0.1273899090786524,0.2901767152096629,-0.32584934705056096,0.1253718815209895,0.046330649923752104,0.25093970857374476,-0.1448722247753382,-0.18194398798339217,-0.1368515214128126,-0.03429187873081409,0.24436861832927737,0.18257205660604042,-0.12398034362513696,0.2903125263691834,0.02724009941772444,-0.16869599459622453,-0.1850417796366419,-0.21772268051212373,0.2981035095952294,-0.18784918822456442,0.1613377920385949,-0.05042415941114318,0.07850947935991152,-0.01979914419102148,-0.18823237489872907,-0.06836330649675282,-0.24340286847842355
0.1995878007496065,-0.3408196479126104,0.3235451323481705,0.2825519436818477,-0.13455412318771162,-0.1465086951753661,0.2844292409631978,-0.1278941631748007,0.33898222039014525,0.19187069709195623,0.09505891478688082,0.06233673250191568,0.1630667732257564,0.10268772499029014,-0.3389700488289503,0.3397124017722762,0.004839772288220515,-0.11751877535586898,-0.22330412017515378,-0.10237224572715375,0.2238847360780881,0.1457914894211162,0.2245083264086593,-0.25995380763164044,0.30059696094207,-0.3439220378394319,0.1712700712993185,-0.0204470106603403,0.07997553751459885,-0.2671015641660842,0.06173357284370626,-0.14021640014199765,-0.14659565856385973,0.21448519743787603,0.13457543228307955,0.23671756175752895,-0.07709113691640963,0.19140880743724775,-0.014446675955106736,0.19595213385115828,0.3139411963459494,0.31271180885398964,0.16885692496674212,-0.3405950827130524,0.19852626919518404,0.2650390316774453,-0.2006815282736822,0.3332081271344644,0.2887546797901725,0.04086420223206008,-0.0015136867049910761,-0.10292038779510419,-0.16864958806828764,-0.08997610348466557,-0.16747083861247714,-0.04768969943034682,-0.28213781069544003,0.3332893230144784,0.2608855100782105,0.25077617920578654,-0.053315862759966665,0.2744341848240079,0.15955531350762436,0.24447095640308295,-0.18015867311814684,-0.02922775385588211,-0.20001270038700544,0.032935085035026936,0.13090165144398386,-0.05889133880999914,0.08259752673495424,-0.17859881557545387,0.24484343237410888,0.3490712441914162,0.32154757187466737,-0.3177096530200681,0.24490284115809174,0.11198022773064516,-0.017946663794848702,0.000843479861747414,0.021686312511703918,-0.061488266517616616,-0.07197172378716347,0.103814215233072,-0.12250043700505985,0.021259400247330692,-0.09036088088163147,-0.29622879067340085,0.04941632744463885,0.254927394418508,0.058677961119035914,0.32550247107632385,0.1071682245552904,0.3319225162510106,0.2719583563124985,0.18834196259234282,0.32743331602077214,-0.18824359499780743,0.25694135829395637,0.21722861470207225,0.3021029471685304,-0.06242370167148395,0.14644160433715503,-0.29316816682136315,-0.012669168203639392,0.13785659125388663,-0.35032162383127763,0.1676485243619452,0.211092755355152,0.1784998791642108,0.15544900583939414,-0.2785124866041606,-0.12401783698634322,0.10717186204392454,0.3191450527806802,-0.011518575063674635,0.14647236178474562,0.2153861581603715,0.09367808204151414,-0.04355828871682171,-0.2549839152337757,0.08875359059875479,-0.08670887366681151,0.1395885807303253,-0.22986794815768388,0.1828484075142421,0.15869875754755905,-0.3135548487564197,-0.14967235409570398,-0.03314487463828979,-0.30159078522654303,-0.08839190080461223,0.1910942654785653,0.14909821764831493,0.33957315155656365,0.2452376637091731,0.2050508796327902,-0.10517597085327085,-0.33161689652920867,-0.1751451567968097,0.21490217727567018,0.1174659673489699,-0.01606353737986382,0.277951173226121,-0.19640480864932094,-0.1502136072733687,-0.26332107396931326,0.05943156944892017,-0.07879370242580697,-0.3136148659499105,0.0212648663755984,0.2857315236609468,0.25567395538945675,-0.20293478381903396,-0.24100888737290915,0.10517751793667993,0.24196969164779297,0.10654201544214052,0.01142861137975829,-0.13303736277166392,0.06699937508490184,-0.2190848446310804,0.2476731235582847,0.29370028615705873,-0.3319632342360683,0.17558886653492953,0.1688501951730418,-0.12261722426086294,-0.20570128909284296,0.19232158317596224,-0.28443952156564295,0.3193447650438991,0.2978137925829088,0.037486703578821244,0.01249185683680646,0.1464647349890233,0.2985450939728332,-0.19875106718407431,-0.1512198726712318,-0.18051457465121645,0.15182624353072738,0.020476211361657535,0.017110434617295132,-0.29787039007721783,0.09367201865002883,-0.3402878512560709,0.04884138744681957,-0.03332215946368723,-0.10798932662788518,-0.14521671003451506,-0.26921923434054873,-0.155759847117096,0.2946745779761313,0.21172935038532004,-0.2785971683908561,-0.11634162983265836,0.09303973128987666,-0.28373762556212595,-0.0789557341784756,-0.2551677040863719,0.1128792592814822,-0.31158633520481005,-0.12425080681288143,-0.07310583976022807,0.24155421680220726,-0.2717447991804826,0.16048435291656798,0.23649989531669727,-0.24090049630902452,-0.14946829741089174,-0.16460852181673316,0.1316212959505296,0.3129697208533926,-0.11036584229213539,-0.13763378117043004,0.13812034260914327,-0.2324703457837274,0.11372218318912636,-0.2645066881389424,-0.03594829143835254,-0.059054668597431616,0.04306378630148086,-0.1966313811072507,0.25514826157068843,0.05914006815422385,-0.22836478022526485,-0.3429581016576757,0.001279508435993839,-0.33542980910938863,0.25124253295838045,0.13605667807791602,-0.3059136559360985,-0.20386185678162003,-0.07279306769865879,-0.21305324685467664,-0.2787181097711453,0.22597830078831074,-0.1593580476186621,-0.3527001839969253,-0.18723149089255833,-0.19452616279898458,0.14550038039917076,-0.3000501214722548,0.2296370004952265,-0.23274923099818748,0.245284608691157,-0.14611169697072787,-0.07742426648115762,-0.12015690680469497,0.22602608008992772,-0.20654579004459922,0.14562214823454211,-0.005186546087484686,0.201013115257843,0.0551082850542199,0.010466271418335433,0.07431213877937302,-0.28071861801474396,-0.25641713215873996,-0.08394567696918648,0.2936195251038396,0.2393845273085873,-0.3374176506379458,-0.10518262185916043,0.040793167232703376,0.18007001102962483,0.16839521650741934,-0.2702569414845669,0.11727928990199951,-0.28501266948684084,-0.02336884227199719,0.09815787399571285,0.08516131656605151,0.2218635138135071,-0.3332495484901036,0.22401202127367872,-0.08947150206288479,0.03848478000650112,0.3023002644352403,0.17676044458520468,0.25528654298984105,0.19613481389531476,0.025804484767565354,-0.19617394950790681,-0.1396515020630884,-0.0736317130506782,-0.015776522994462,-0.21061404459182403,0.2370994696855449,0.2529056919196589,-0.2839891169583019,0.07707219986146543,-0.11644169945855098,0.2924041273538206,-0.11153095033053699,-0.15977943759059887,0.1452075301887743,0.3064258136848362,0.09233835649488698,0.07976001025187147,0.32148686026339784,-0.10985648019670319,0.1620947343631896,0.237795494678354,-0.34397210382710114,-0.24368185144567064,0.19778176076346068,0.17393766399887986,-0.046573900796399725,0.010012960959048231,-0.06810989639796608,-0.2970271963745311,0.31117747022812636,-0.33700165700150386,0.06219622474106401,0.014153007526849393,-0.2743390540435623,0.31448923840437976,0.1775908450644805,-0.17876468453635666,-0.17912845661317883,0.0255313721974791,-0.3034085247674542,-0.045254629004969626,0.16291057573148637,-0.22605615910645754,-0.15198230230671633,-0.029450000537984695,-0.15948762317011678,0.11566379383070755,-0.35263997881439024,0.06124314644165099,-0.1884492217994198,0.3308900181867143,0.309663598930737,0.3224785761683212,-0.18586132600138083,0.02689459885674441,-0.3533939569143453,-0.2538483814297674,-0.04360606078527092,0.017073275741846385,-0.19303926888022405,-0.07443190090517152,-0.25578394656726283,-0.17533481298992587,0.12454437149090379,-0.1939589267218827,0.11498581619023623,0.02937536839419237,0.27730934281860486,-0.22718897101049143,0.04576561097299606,-0.05699357830875419,-0.3243899130460287,0.19510250883006022,0.26802427616540886,-0.24397452460786695,0.28473200782436103,0.020700215280054807,-0.2029002584202266,0.3398126448568967,0.25585358851437867,0.23997556490533387,0.34794539944647196,-0.10924745270324403,-0.1389609896689621,0.05929997304839502,0.22234106802659767,-0.16683776719785115,-0.13845137020423787,-0.07694977362705058,0.09067462477665428,-0.1843785862802409,0.19772620665213064,-0.1302193176109818,0.2531150001459963,0.2316928163555491,0.1813138928775178,0.14907764134952078,0.284088282829963,0.33082883527450396,0.24567518980354194,0.3373328861074783,0.044308998907137194,-0.11449106315155874,-0.23763884725369933,-0.044512504842876055,-0.15460931766490948,-0.25597323414658674,-0.0778249795162175,0.2583748014332862,0.20535412095396027,-0.03196257271409466,0.2962261786732044,-0.023452457174623364,-0.3103659569727045,-0.08324404543342512,-0.04736560981087316,0.11857614234219276,-0.12281434813547396,0.3330638905832959,-0.21164898419938966,-0.34595432488400674,0.1221935143546032,-0.34915659535370497,-0.27341561560918953,-0.24196337328115328,0.04094199385064401,-0.27278118857543965,0.126854094143718,0.18516939931123189,0.3434111833914889,-0.12444212689456327,-0.3266447441393767,0.24457021836690124,0.14121052206856133,0.13162581775808926,-0.17098192301977347,-0.2818251517418165,-0.2986219861116043,-0.03208061020392889,-0.2668806920816982,0.3315496679479893,0.16632448380547366,-0.2610222513583157,0.08982236566595106,-0.34206854817082544,-0.06969311475042615,-0.16912405491598628,-0.040732458643110314,-0.15840248556399317,0.15684655442584974,0.009811852624552206,0.2814749108684172,0.18901246188283044,-0.0918905338295549,-0.08830220695792382,-0.04023740501298204,-0.27010901770091117,-0.29052242524836347,-0.11341720242083321,0.07920340045247862,0.11210646418899392,-0.1873376799768402,-0.07854523328859311,0.03409072677027886,0.1128081688885316,0.058085540312092815,0.06372113020181124,0.13261229107044684,-0.029989233445952834,0.26118442390251745,-0.20873093236429943,0.159680928012205,0.24213061541938902,-0.15996336375513898,-0.32123033411377716,0.2314722481312024,0.32501354169823743,-0.2468036691167559,-0.2020514365117082,-0.2361578278386441,-0.35174826124154673,-0.06429686558765567,-0.0453753991570564,0.11703973575764387,0.2316052754174413,-0.2574566759052623,0.22029746706733777,-0.06498827314531073,0.25544872713361455,-0.2095380013830181,0.3449766780450985,0.17711404944249423,-0.26497670270706597,-0.06700199096320664,0.15806542251305994,0.060482856510428125,0.3451778252220352,-0.3426004719550799,0.2669923939283422,0.005610427230270498,0.09675086736223347,0.22900023587570267,0.34469651306825033,-0.0759654782531609,0.3112177606418811,-0.11981686899777552,0.3186891514307281,-0.0628231141017578,-0.006627289176412146,0.3187421269906582,-0.28231789690085185,-0.2584215591675035,-0.030832074355847908,0.1359963090379224,-0.05124588404297829,0.3401008767236396,-0.04096558292498167
-0.035638597751186225,-0.2197732726517549,0.13364656080808207,-0.16641783367596089,0.333700590717863,0.14035636706312582,0.26997744804027457,0.025359709713812274,0.1272063213748086,-0.2740796044043398,0.04576467644398391,0.09826934709182575,0.2583448772412427,0.13769036537191778,0.21403503555063916,-0.10530731494551625,0.11943315904225746,0.3057695501165587,-0.11607238228225665,-0.23033412242018786,0.2613129943228433,-0.11763289329671275,-0.060933764607411116,-0.027012134804474622,0.14060530467765017,0.16390689237492648,0.18223604226640447,0.19218311463348947,-0.15058633426667806,0.1619897714652308,-0.09359708742382979,-0.27793960670689627,-0.22626567843526632,-0.08013272370869004,-0.1582481157360776,0.14923890887268149,-0.3610576885079947,0.00839208581761907,0.32724859977089377,0.26353989419235535,0.2284455880493037,-0.12606733078741955,-0.3169827671170664,0.18309854991635643,-0.14756739074457612,0.03734955271367666,-0.20779229894821993,-0.28406326792381853,-0.332324046646721,0.32784848941062605,-0.21724608212024568,-0.10478818968388436,0.13513432450953464,-0.022253417927302847,0.27706864890838045,-0.04983402185548771,0.2234480847468067,0.2398855506679433,0.08990820943870617,-0.2184362933285642,-0.20761013665344516,-0.1849334533009355,-0.07245400117795191,0.08208411039353149,0.10451946387789296,-0.29904655978708916,0.1966949146534426,0.10945251251160186,-0.12226895224376055,-0.22361650288090254,0.21921318924663663,-0.0047665847771345415,-0.01880326022748608,0.15696174204291838,0.17254413324796,-0.033226486618496254,-0.10077471582947073,0.3059169919985725,0.0034056039257834058,-0.33854007073793857,0.24635697171348162,0.17070265606746057,-0.09881081496485947,0.2641107103682904,0.17996964939030044,-0.27481501418930027,0.3744072196203804,-0.0945027214616681,0.14142412399461954,-0.3313446971173813,-0.033646095314402547,0.03734352056320959,-0.0010020036959574874,-0.009542579711992231,0.3150529901415965,0.2810369322043678,-0.16213881402029456,0.00035612788614225563,0.1578376242945092,-0.0749168870501049,-0.10055067817520222,0.1690552917273769,-0.13026807527885859,0.21588802176030472,0.11704508189216963,0.11757608861857885,0.038393010236579206,0.2850565475133601,0.09778678371689399,0.3476299472721987,0.2975076284165116,0.12714305365598383,-0.31726369002443405,-0.26104448205334196,-0.12759142753741595,0.1478736722364863,-0.1209612049628895,-0.14788931437642094,0.06464376912887243,-0.03157094552834166,-0.12768983850466267,0.23311913576005755,0.05381190135312484,0.007165049210236059,-0.20291256892857573,-0.35337300231052365,-0.2956297137476901,-0.02109968486794095,-0.11764801338796926,0.2681489188015768,0.23036404417564582,0.06191564815600299,-0.33546181580771656,0.01346147442641312,0.20152678946158237,-0.23416818470502013,0.3481866069953874,-0.22665862166884987,0.17460700020462688,0.34957278472370695,0.07674591608401725,0.20580913213037016,0.2342168829769595,-0.13903636456357563,0.08869797099441536,0.020620618661224988,0.14183174289798692,0.03034877887120523,0.1267367658366766,-0.1890933806802855,0.3160164365867499,-0.25732642377593146,0.20130932379840802,-0.0805859046333655,0.05521781596889243,0.05994643498241621,-0.1026098681806416,0.06341039497978948,0.34181265311711356,-0.2531176000261139,0.22961928641035614,0.22480747658785472,-0.24406761656173928,0.16417497793643582,0.008096121655903937,-0.19266772023790496,0.31859251652121456,-0.2853691533394794,-0.04939552613212554,0.13147308528345583,0.06836772233396604,-0.28207339218661737,0.006282298864159736,0.17941791538262292,0.2813555206255294,0.28021560288070874,-0.33634950765194255,-0.2481697887054177,0.005707309145887746,0.19116068577197418,-0.04694270228581872,-0.037383546548740126,0.04787334272923547,0.14378742204573375,-0.011537388964811065,0.300661343736315,0.11615143111322823,-0.1833733645825229,0.26565593225058565,0.35871792834596455,-0.08550640079134011,-0.011023075838127618,0.13721335043619615,0.24713028637374324,0.0026970449201463224,-0.0054125065144129975,0.30954791951936605,-0.3453592015002846,0.25794355552011555,0.30434847679655624,0.11484084044779173,-0.34916396214173845,-0.27413322869644097,0.10372773785908605,0.002828702748487964,0.29872816143279085,0.29910330278809383,0.32530909100345856,0.3509298435804578,-0.32556222648063377,-0.017702117904972878,-0.07959640069341402,-0.22151200643456223,0.08606080239047284,-0.2957550518712589,0.14244399057062274,-0.28908412164708236,-0.3193671384318688,0.21975642542162646,-0.34261729072014324,0.27680075912183094,-0.09629526444530584,-0.02655730057633178,-0.27168882341198064,0.11104054770194689,0.2828219098888229,0.34099249633081985,0.27360647187939446,0.0436534314719783,-0.327269237669686,-0.06653625167119495,-0.029169587796634387,0.07179187010427372,-0.09436074945359457,-0.1866831556299392,-0.016588695141664136,0.24946449353509637,-0.08686685782879909,0.07834389916795846,0.16063938139860956,0.13312964028039237,0.022683752670070622,-0.3570210944011163,-0.08659243512755269,0.21154261101177166,0.3138845077285977,-0.18020975594189462,0.1964189825011843,0.05709066632974793,0.07055113388105672,-0.23460094967016573,0.129995421314689,0.3139988122725225,-0.3108430502410887,-0.09409183054697556,-0.12182947245251366,-0.09746784194283258,-0.22624706912686715,-0.2696641514782088,-0.2880568053842049,0.23052755898587055,-0.06658215810091263,0.24453219594276637,-0.3064563237194101,0.24144290349660175,0.002588646962906038,0.28290627570066496,0.2859226968155316,-0.15404621801993662,0.302572973634955,0.33092833548023337,-0.3073998630235327,-0.2576219520365157,-0.30688683623770546,0.2672434962495805,-0.19068728194062196,-0.12513943776332517,0.26223058395163773,0.003819863337572015,-0.018590080132048756,0.0855344131190778,-0.27542064549281325,0.05832419547059924,0.18296663311350012,0.27484335365627266,-0.19376664767285945,-0.05966115048703507,-0.19128336222784917,-0.20511880115474324,-0.21305106656748193,-0.2016768928303926,0.11137114323800207,-0.13202509158482914,0.17614991092994378,0.12027280703869758,-0.004657994389186848,-0.137619916727854,0.24244400480786776,0.04231164362285006,0.30613545344265913,-0.26051036994626403,0.23352742813487426,-0.09789521613692226,-0.06455450174471278,0.20226564504261954,-0.07808826611130144,-0.21602956188931252,0.09317254116453129,-0.3580069720525266,0.23944824459614208,-0.1960605755194778,0.3267786623593605,-0.25046888947066775,0.0976511666357352,-0.1093802905407655,-0.22834950247636268,0.19771566512875366,-0.35643740862239703,0.1269628952919028,0.11633057383223694,-0.17901921994847617,-0.047019177928401844,0.24516249483254607,-0.030841723800162334,-0.15261474159153826,0.3011553185755631,0.18195012679588202,0.19384598328715677,-0.11125246108184834,-0.3427618497289553,-0.009360124482471215,0.2581398589828156,0.19704111744063296,0.22935510491654687,0.18387542164147386,0.1469261724011391,0.33425069104388044,-0.03589729408606521,-0.2175638608895549,-0.042426348587452534,0.015419097687982617,-0.34100189018592675,-0.3547620744791882,-0.039369306881769935,0.3050754769267503,0.017112799570806542,-0.22861279065410883,-0.07844537106191103,0.3461075258040486,-0.011710605776546203,0.006899390473539111,-0.30011902567708637,-0.15757146481097073,0.3221132295049346,-0.21259603030144839,-0.3044320078644544,-0.34888560691949566,-0.054549082488982284,-0.007070302138539322,0.06356415034528293,0.01783431919628666,-0.21625171153254877,0.143959830513858,-0.2676936236543549,0.3102788803394657,-0.055180314315525926,-0.2834711291883311,-0.30448760306455797,-0.24714320592847325,0.09012476542789333,0.09191154795168739,0.045306617536113536,-0.14398961362309529,-0.21425621068434367,-0.31320872224562696,-0.015574737554900525,0.27188246636606,0.1952290128021384,-0.17246033413887307,0.18119817658022278,0.29297319277844547,-0.026905160902335804,0.36752353168053364,0.07334092988851024,0.12376190446207827,0.11356771032609896,-0.3646195060519838,-0.022751236495113843,-0.2804714400917064,0.15445923736546407,-0.10453183725814023,0.31135239621810545,0.27898485745947865,0.34135946335580764,-0.3411766024675692,0.06062528506909449,-0.2892860641092513,0.17230836702362068,-0.30420928002956293,0.11541934929221517,0.2112756308731583,0.027470451929057397,0.23237109590152544,0.1942805817897823,0.2996332724473743,0.3599170278424101,0.06825777247810216,0.19100492418456683,0.18821183687022308,0.0549524307196654,0.08981416149110154,0.15090357798610501,-0.34661088455048356,0.17008737338109298,0.25795935881442017,0.16786046936176965,-0.0034108359523706585,0.03259272352678752,0.0913735572157952,0.17714290807508962,-0.3251924167278395,-0.350146074273683,0.06530705680323484,0.11160209501518067,0.02724527969478903,0.15437017964938654,-0.1267574843383505,-0.20333210857437195,-0.3415859658496057,-0.13533458873064108,0.2167855323159848,-0.10997953175097397,-0.0837322203803061,-0.06493356789903725,0.2724541442928937,0.06594321505924312,0.07126387632482702,-0.10141579395454164,0.3447233616564598,-0.2782326302481928,-0.3066448398412172,0.24332726469405147,0.28608569551142427,0.3669613028842853,-0.3401323203682743,-0.019589967479163167,-0.21455413572950227,-0.08853824729231546,0.19330827078172783,0.26576801479086204,0.011677296405090628,-0.11078311303505284,0.07609732132501192,-0.19817534949316204,0.3527908962140361,0.19596745983582037,0.31392179088030897,-0.2753910307904881,0.21332446288380547,0.27730450997686495,-0.09671250503538548,-0.2888642957925652,0.11639781615876295,-0.10324293401772087,0.2579011538217876,0.06559799471505365,0.04847363792958842,-0.38498063449687,0.29526443650749007,0.1425485338796771,0.24446033695829772,-0.008532923548953535,-0.17986512789567272,0.030188480013686195,-0.008946281445158126,0.143673789294321,-0.3159591904633866,0.12266909436611995,-0.2358046872778123,-0.2259938417825932,-0.10955716252945277,-0.17919476288305286,-0.3495172976356167,-0.06738517580594933,0.3139303008911969,-0.16048313792915742,-0.25033666081841016,-0.33355322259671366,0.1887399517192811,-0.1340804357465503,0.035635874868243274,-0.26075729286454585,0.25404321432747373,-0.1547858370532062,0.16050860292021554,-0.017670244373781806,0.12821233034487642,-0.2866985266384268,-0.03866571329674262,0.35798792748533687
