layer 0:
-0.49058946927037383,-0.2079877510369929,0.30241712442005164,-0.408730628065363,0.29559377949883314,-0.486543435480857,-0.041230814365672816,-0.14617445036455345,0.01011325722884363,0.30511311907591737,-0.39021025700169876,-0.1998526371027037,0.1939482384116276,-0.09653287393125083,0.15797112577319783,-0.3960813360397362,0.1293530357817354,-0.3023002317970028,-0.09400401160497629,-0.267798116638861,0.4102613336287032,-0.35319575846820334,-0.3728378229128102,0.1062110072363314,-0.03441726920622283,-0.42194076109854695,0.14158807652868566,0.45218282758729966,0.15685669851476658,0.03145243026487184,-0.2690624762212394,0.32019946071781824,0.38497079223848907,0.3747843502381637,-0.35112487122636926,-0.17860208145805445,0.2696450416000248,-0.32895148940651614,-0.31360990922494714,0.38169734393197363,-0.12052958137401149,0.4755935709177307,0.3697065340336597,0.38053070568958625,-0.020473013977118794,0.21116120264508742,0.06033475449000802,-0.2574467117919228,0.1634372158155596,0.02070056221041283,-0.09092724719252097,0.17500421952587675,0.42231083078572357,0.1953601530179212,0.34755557103857265,-0.17120954983242528,-0.22669600649961372,-0.08450438501401639,0.18587956368923197,-0.24825656502454724,0.36136624142262846,0.18549908971690995,-0.30180400449142286,-0.31160226258126356,0.1985221339620148,0.4066350007084294,-0.1343188240265835,0.22971525228029488,-0.45132695944167633,0.406950504043728,-0.16374443166385,0.4971232697264225,0.3727231959845664,-0.3216491903665186,0.019095219489123294,-0.38502887452651663,-0.47211779414275135,-0.342889493705403,-0.1721553575915419,-0.08341015294258458,0.42438687016405663,0.1310938543204766,-0.18650342680947654,-0.37474361887690916,0.43217068123230984,-0.14300968539562542,-0.3720857251851694,-0.09881447097035306,0.4935507698101703,-0.4410374688937192,-0.27431730547924316,-0.3865085946590394,-0.47627144950373457,0.27971395604897775,0.3488143212458903,-0.02976616926580417,-0.40720132500931105,-0.3608221916985713,-0.28878538664803266,0.38436750778267403
layer 1:
0.028144759267825965,0.1324634415853885,-0.13808819587707133
