-0.4905894692703737,-0.2079877510369929,0.30241712442005164,-0.408730628065363,0.29559377949883325,-0.486543435480857,-0.04123081436567279,-0.14617445036455345,0.010113257228843582,0.3051131190759173,-0.39021025700169876,-0.19985263710270387,0.19394823841162756,-0.09653287393125083,0.15797112577319783,-0.3960813360397362,0.1293530357817354,-0.3023002317970028,-0.09400401160497629,-0.267798116638861,0.4102613336287032,-0.3531957584682034,-0.37283782291281026,0.10621100723633131,-0.03441726920622282,-0.42194076109854706,0.14158807652868566,0.45218282758729966,0.15685669851476658,0.031452430264871836,-0.2690624762212395,0.32019946071781824,0.3849707922384892,0.3747843502381637,-0.35112487122636926,-0.17860208145805445,0.2696450416000245,-0.32895148940651603,-0.31360990922494714,0.38169734393197363,-0.12052958137401149,0.4755935709177306,0.3697065340336597,0.38053070568958625,-0.020473013977118825,0.21116120264508742,0.06033475449000807,-0.2574467117919228,0.1634372158155596,0.02070056221041283,-0.09092724719252096,0.17500421952587672,0.4223108307857236,0.1953601530179212,0.3475555710385726,-0.17120954983242523,-0.22669600649961383,-0.08450438501401639,0.18587956368923197,-0.24825656502454724,0.36136624142262846,0.1854990897169099,-0.30180400449142286,-0.31160226258126356,0.19852213396201476,0.4066350007084294,-0.13431882402658346,0.22971525228029488,-0.45132695944167633,0.40695050404372785,-0.16374443166385008,0.4971232697264225,0.3727231959845664,-0.3216491903665186,0.019095219489123294,-0.3850288745265169,-0.47211779414275135,-0.342889493705403,-0.17215535759154174,-0.08341015294258458,0.42438687016405663,0.1310938543204766,-0.18650342680947646,-0.37474361887690905,0.4321706812323097,-0.14300968539562542,-0.3720857251851694,-0.09881447097035312,0.4935507698101702,-0.4410374688937192,-0.27431730547924316,-0.3865085946590394,-0.4762714495037346,0.2797139560489778,0.3488143212458901,-0.0297661692658042,-0.40720132500931105,-0.3608221916985713,-0.2887853866480326,0.38436750778267403
