0.01098543559884357,-0.10037737999606602,0.0025268757265463223
-0.040442694764885906,-0.036568676835477036,0.09755403728488819
-0.17620968517402014,0.006716669849883655,0.15251266125908017
-0.0964572013210665,0.015744744416749796,-0.0253350798045661
-0.020525701621143838,0.06472692367584337,-0.029875519358926912
0.1928260039467104,0.009451707813828846,-0.056577553908260476
0.028246910150575063,-0.02976306767154873,-0.19873820609480927
0.02613732461998025,0.017820746333271437,0.09247841529630477
-0.2978983253459695,-0.05528734180887489,0.4039690017332393
-0.005655049865964965,0.012816121451425591,0.12977550024974846
0.021211556650242283,-0.01863055312061282,0.05589890264502759
0.05070013857382207,-0.24660831603575495,0.1707958437956155
-0.027357809294824866,0.016325277764300584,0.039167977835674536
-0.0352092713872444,-0.08761118171003625,-0.046983151969779764
0.02804538155668962,-0.0008721181542536982,-0.084748546082111
-0.079230294302403,-0.020849344041138064,-0.04347190943060735
-0.09369449523503424,-0.08500636333404937,-0.09098162225355061
-0.042070976021756606,-0.059457899193680656,-0.08002087032765702
0.05237617389574151,-0.069300465627153,0.020053812748993788
0.04627533984130766,-0.08666766828468707,0.03412885927574355
-0.019321866296817578,-0.05629830806135397,0.051528217510198426
-0.24408559639235702,0.05145386145275896,0.10584617008944136
-0.046305846453303316,0.034237748493865724,-0.07304208723637466
-0.31836873515800473,-0.05810492643223704,0.28083832090943966
-0.10078271632872166,-0.02071936426751214,0.1471477376612605
-0.023784169231974926,0.0529158770308358,0.058041132003813764
0.013315839052667783,-0.08149903920783284,0.06031701051346425
-0.04951605049507606,0.09384587328009575,0.05770301021424021
-0.03778198352325941,0.03759359948024468,-0.014541316777221105
0.07023201250813058,0.01902930805650945,-0.21481570753751641
0.0556125048759586,0.1261305047414605,-0.08242671374757407
-0.016161850840104727,-0.0092827795278118,-0.09029165967923265
-0.06479182711903372,-0.2878054496357636,0.17480897609163476
0.003129390902893988,0.04558829553710451,-0.07603475197164504
0.07780910385468867,-0.051184044069653246,-0.011253855718474398
0.08696699273597777,-0.049070225361800085,-0.04193324973362755
0.2158742514046451,-0.10423109177382306,-0.09335318315880886
0.1402766532352799,0.013777907900985075,0.06221719581534882
0.08914501750081745,-0.06860854767508703,-0.07875518654615027
-0.07191618965902731,0.006453956597150354,0.002330412392534578
0.010372246497821244,-0.04951447891247218,0.054073593246094925
0.15468769751066724,0.14087870629119648,-0.3133749370248405
0.05116275907350057,-0.04057051260401128,0.024778117466996277
0.06254465925033306,-0.006122659291707855,-0.0963849524323204
-0.10542930625464522,0.0820269720665856,-0.004801629659613304
-0.00023848408158140544,-0.027809041495596376,-0.0928223451258595
0.34518055605526304,0.14661710715437523,-0.5143618294146549
0.07030988457680662,0.07273526809402633,0.09295827351773711
-0.0649995041509644,-0.03458116355992795,0.05641814827907515
-0.0345525969182152,-0.027131555150112077,0.013503376104587322
0.20810081392391674,-0.042213906839327665,-0.2205635580942041
-0.37776388489144835,0.0010177099071994535,0.29067057655280565
-0.004674424492025717,0.04929385520756908,-0.0028690040461663894
0.03604959324802898,-0.0857176283026091,0.026651437255244992
-0.03490625543224025,0.016277396876278494,0.20119871472075082
-0.16755848034019422,-0.08518879590865763,0.2047653418214209
0.28239460406949485,0.02806416370860753,-0.35374618521788165
0.17072283175484265,-0.013381448654656266,-0.29271406497949576
-0.08938925515427697,-0.0742982486598859,0.08694086804492485
0.1666935628792923,-0.09107499674076679,0.05885050985823945
0.001953299190939197,-0.012166463571993934,0.07381085543131792
-0.2294046424225946,0.06229263878728119,0.1788911620543756
0.02992161323204401,-0.04036898675701759,-0.0121416666106621
0.09226604348958889,0.008133101110702035,-0.014095974368646102
0.31423905134865915,-0.06624489798980575,0.009493259875533537
-0.028928462007994635,0.09066225256906346,0.033763940649484486
-0.0373022472911366,-0.06773923939454574,-0.05550169633371711
0.0422195260190876,-0.003205786744209599,-0.052539769104889424
-0.08528362593454841,0.015089957909488952,0.056829943025336706
-0.04255693404232659,0.17224611234370588,-0.11546767741483817
-0.41882190327427443,-0.10479032505358958,0.35331398278446535
-0.0729470174205815,0.009736367302944499,-0.05167078751735979
0.0885218536313051,-0.05240925519649473,0.08348783819135236
0.055214603180445465,-0.09531837349544925,0.022259001251574234
0.03527687864760637,0.02692194456242275,0.027905752903843256
0.3765282232663846,0.05528684604518156,-0.29220560355927516
-0.06836218265064582,-0.07160938649956916,0.00531173633368838
0.017364665463542317,0.0768607588588833,-0.08939993174330625
0.18626890154574066,0.12150459825847404,-0.3116948727520416
0.04721569032981368,-0.08727834930334924,-0.029641669082644026
0.3243524523195826,0.02573582448255204,-0.3527576805347632
-0.02116016377742043,0.0682630909581142,0.004813583703071764
0.1532168092305932,0.0913447588138116,-0.16172388819626207
0.07815011733370172,-0.09122292462377181,-0.15119710557643887
-0.19571488046864935,0.08473305259601159,0.09990787839147641
0.01895940952725965,-0.09371291062568521,-0.06290865079156378
0.03309919844537071,0.07740080554172805,-0.0007600391890200457
-0.13014572697717974,0.024768698769325498,0.18916824151715306
0.4872323921073941,0.11638876895293453,-0.5289793772014454
0.0301537793850562,-0.06961898320051961,0.025888753826493416
-0.12281063953126883,0.0339536570340008,-0.02663153204777541
-0.010993525596632622,0.07391096727267449,0.09636964774271406
0.009951614970388505,-0.0013621989276197948,-0.009729917118523465
0.3947772597268809,0.123255439866464,-0.5824844855890072
0.0709931240681296,0.10551732156682299,-0.2711009503246824
0.04637600560064474,0.140337929596069,-0.11252376676993227
-0.08151432268235509,0.06919315269551593,0.0020314322841276933
0.08617462035403028,-0.07302637495779346,-0.014127201436786474
-0.023510558002998797,0.010244014117715743,-0.11039877543249094
-0.01669585004749538,-0.07317781482832669,0.09344480170059016
