-0.028914383662299023,-0.05141298483192186,0.14323889370225973,0.2213331714268591,0.13177695327804717,0.15352929620822062,0.3254614697922312,-0.4892015301300824,-0.0459870938615257,-0.1989776552154245,-0.08694795071394024,-0.041251984765901174,-0.32251135184351615,0.2442418199326888,-0.3732834528575628,-0.44320737659596515,-0.4895302129723028,-0.3921753066853031,-0.43760977715180593,-0.46445401294023436,0.03917324185978566,0.26686093705404956,0.3983681431019414,0.14216098194524449,0.31565635871574765,0.2239220256687307,-0.3385465776376634,-0.22125364701714112,-0.12594248978571398,0.2517322590603664,0.4289413839156038,-0.0751627699079137,-0.22618148331283602,-0.4639382397809488,0.02999363206932415,0.10078514277952877,0.38522018688275683,0.02852161110880295,-0.21983523518349588,-0.19921714515181121,-0.2779961105234795,0.5051870481821527,-0.3768058128769135,-0.40622967023920387,0.34451915029880836,-0.22568878415629223,0.5570764895735992,-0.2668927169090124,-0.4356157197845206,-0.2507017396884622,0.35078972671247294,-0.22557528827742568,-0.19476065867183945,-0.13251480002871951,-0.22523494301050573,-0.12636969111967564,0.4258311271442512,0.4088824879578878,-0.017875966329792745,-0.04733128905540997,0.3174002350958717,0.3354243902809939,-0.41624156752501196,0.03824376305639745,0.33574740241838485,-0.1295203710537749,0.07673522034605874,-0.4623114588287929,-0.09732647083269313,0.1605813653190409,-0.1568661327877472,0.015470015312532559,-0.4701710377475884,-0.4260372059837352,-0.2035603913525219,0.38156990483414743,-0.3795651063848342,-0.443878045870736,0.3871932622411598,-0.37290683587189244,0.35970597003935206,-0.44085487535766243,0.1961410801334134,-0.052850801013815195,0.39728449028678586,-0.3974299610436097,0.24004932365251114,-0.10555269796683325,0.33280149375176193,-0.38455659740752623,0.42367067520471363,0.2864315817765406,0.42657089000640797,0.46614207317839984,0.47871687974928223,0.20284532368864847,-0.4862222172453984,-0.015332281422117178,0.15125623274459057,-0.3281836231140357
0.43864925817490946,0.23033368931231718,-0.17545887285311906,-0.06665558997504525,0.0496398133999231,0.39585645029939115,-0.15047039569928447,-0.3650348718042785,-0.11978049847273442,0.015711086125301615,-0.1725455171437118,-0.30212461505314514,0.3113148836921165,0.04668851167854178,-0.40226550967640695,0.23253208214339302,0.4716009937683372,0.25149496104474134,0.08787041898243964,-0.40564697707983965,-0.33391557942395766,-0.40224616532011365,0.3761072118326962,-0.4273567985078314,0.2188219021757053,0.1952360388706855,-0.2540690619160254,0.22794184158681863,-0.4586467726195026,0.12788088332142053,-0.14446112337290656,-0.22705782315948975,-0.4170437112059593,-0.10697102053584771,-0.3599133489845209,0.0773080794615506,-0.21718148814557506,0.5016742323883028,-0.07059465027679616,-0.3364888315250355,-0.1633419238978946,-0.28981203780802506,0.06278549496576469,-0.19991905749240413,-0.15351232921584007,-0.02837921933567178,0.237833860851645,-0.4986400822081398,-0.35304453975195427,-0.02527088628420604,0.1319061526002706,-0.015004685746233447,0.3599715148716656,-0.22657215244016027,0.19981194415335765,0.3479247911902594,0.5725296133990012,0.14808769875821523,0.12073927648844628,0.29766317126267045,-0.41990172457642055,-0.18797512049646165,0.31398328066539005,0.17173875557051713,-0.019921017779972294,-0.34026726137417207,0.38085665699350696,0.23145396742064173,0.3018958893077137,-0.1998462140081453,-0.046797232240530985,-0.30845125390429484,-0.129134847005688,-0.48489249045358207,-0.37937814598512365,0.4235089486001347,0.32385290892550056,0.09083420843375078,0.2376743896686526,-0.49346895862485063,0.06106969564736968,0.24889717700848446,0.48165948096433764,0.5152278416987662,-0.16657248043275713,0.013368899604732865,-0.13180412793533097,0.06034212511110164,0.49139201672432126,-0.1444376000861014,-0.4109756949613137,-0.33577756529729363,0.18315098795625684,0.423961058364107,-0.09162719173492831,0.018522926733427873,-0.22679287556704564,0.14066258999089443,0.11723076795988525,0.2061321614412206
0.2818780395752627,0.19916386741018294,0.13545036942718292,-0.3555130685514427,0.14192305550377915,-0.15245908325897764,-0.15799516047230008,0.39805100524610315,0.48025537247094013,0.32017102457881186,-0.12350402370247193,0.2631704888100273,0.24315618865697639,-0.18603870324098926,-0.47444658850386934,0.44161482862207213,-0.27068424274264324,-0.41263694628535263,-0.03182781571529136,-0.4503861776092357,-0.1494085638794408,0.2936015731202312,0.31125022212464565,0.3087061315548585,0.44681238389054784,-0.18407579869284033,0.022169181617643918,-0.4243162540775208,-0.20129326878473763,-0.1759523633725869,-0.05991094776649498,0.14162290582824055,0.5367061037478591,0.41480625304866225,-0.14408539465302772,-0.4782179052275237,-0.5453458578325748,-0.08756951223750406,0.3568226382835553,-0.40794498950390257,-0.48129196848811384,-0.3969569692427684,0.09852865451341619,0.3341775417640426,-0.011331902373344348,-0.2654071439841692,-0.5752779186077913,-0.238965865170659,-0.05159250161649864,0.015032903237120476,-0.37625445936842494,0.6110677930060645,0.41198381352412394,-0.3031393850770593,0.34661307692582455,0.42967263781322934,-0.2200588286462809,-0.5165428992395196,-0.3156947072225433,0.002232218544394908,-0.38365213708177104,0.4696906658184305,0.01848107923966691,0.07734381811846118,-0.45946154166362346,-0.125073774561702,0.03083158532667999,-0.1705470683839294,-0.13468197265614396,0.08495338519084988,0.643937913111131,-0.4615531217257385,-0.20753952276929333,-0.3256990406388469,0.2597457422328735,-0.5746149566705153,0.010003608587835222,0.1466143827460369,-0.2980580364806997,-0.3508678503966225,-0.27507871129839967,0.2866695086128638,0.04190078917325019,-0.07173974357655404,0.40000290550301515,-0.37081173911170096,-0.3087503349137985,0.25247297296764776,-0.49487716337446397,0.1749792356728156,-0.03359056937017846,-0.3260598189098578,0.21007463939498358,-0.6386339577492068,-0.08083176423080081,0.051109834338967555,-0.45085811707746704,-0.2709098459732653,0.009343281304842696,-0.06658053706378098
-0.39466220059990953,0.3905351886757483,0.49400983694402545,-0.15885930843994567,-0.29373512292595255,-0.03679402051219042,-0.13268853093342833,-0.20512151193964856,0.5850749492278968,-0.1740753229218363,-0.3887177017288066,0.20814877094564416,-0.47548624689924673,0.33042017475486113,-0.16916087298668958,-0.017074047086014926,0.10744220898392476,-0.24369757955384996,0.10459146550261511,0.23860033779345347,0.2344633985971616,-0.09236995552079132,-0.09182746286851143,0.4729485742664766,0.39823156741804966,0.43637194832277665,0.18120653212033044,-0.47453520729740917,0.1014435961908069,-0.16650806482338623,-0.32159121843349237,-0.3096229044450427,0.013661133705717199,0.17583762461429475,0.29986802427150694,-0.4953600332438203,0.30501345170191685,0.4780508031887128,-0.0678786104651463,0.4898607022641782,-0.41895596308958916,-0.1742471401469582,0.4378768491555669,0.286862260693605,0.42087080664259335,0.09450325169464036,-0.44005318650803205,0.3059070056560317,0.07733389062708396,0.37816105998615723,0.06108164578268553,0.42533235697409205,-0.20502104479536265,-0.2582294852908107,0.09994165066416442,0.17734375633803026,-0.11443129626922179,0.015975108888889346,-0.44411785029797773,-0.2726660794043272,-0.39707384435791826,-0.028844788956723964,-0.4535422868796626,-0.3141424283368545,-0.19999330215535666,0.4701459757019055,0.2688124775294568,-0.45173070185523734,0.0677311340424675,-0.46596792620827326,0.4975733573758018,-0.400153870761789,-0.4771934665815626,0.37599788265708656,-0.3970391058157766,0.06214926473444762,0.09196632077875377,0.2677944204860946,-0.2711734638341803,0.03672968667892651,-0.5477153097968683,-0.3061306687654365,-0.27931739565199876,-0.05469436064145365,0.07052002474257126,0.3142428591321902,0.0873682538661328,0.23544730078236684,-0.53754039997243,0.4493935506965029,-0.024306157766097656,0.0704634276650955,0.17691453796639917,-0.32807740759225357,-0.38885166518199965,-0.4824053992332492,-0.4890844876239302,-0.19559968136669137,-0.07720512611678221,0.33403988720176925
