layer 0:
-0.013292636374753806,0.02689680565390152,-0.02450159141667557,0.03292763301068277,-0.015224352434256083,0.016638390778264015,-0.010866733290464668,-0.015858265826982486,-0.023875702776891872,0.0031810919105532236,0.0017440843812344805,-0.022187750999050546,-0.030227090555102306,0.0019276440837312913,-0.018087981940127083,-0.0274024719727899,0.021562859748091304,0.01635475696929661,0.03106699594748286,-0.025082699225495515,-0.014598418446609557,-0.025331828633168244,-0.025418904259348795,0.02318810312307659,-0.02284360355975451,-0.01653197361330959,0.00788662683376958,0.004092227823214491,0.014650042772095669,-0.0047014764019552135,-0.03302283201610145,0.02247071536023886,0.035063079728868234,0.009429399074395162,-0.02144167977511271,-0.035206273294039706,-0.032871571017560615,-0.014286187017961288,0.029806782941916594,0.007393540470702968,-0.028085047166083073,-0.03200044078088218,-0.033125898236308036,-0.014234677504004832,0.028274041815846456,-0.03182174374578175,0.01994343269936034,-0.004302343241242248,-0.033496617228636304,0.0356429433256069,-0.01600543764827659,0.0221556872641391,0.017772806534552658,0.033386882930823876,0.023436719964608544,-0.00846618601382955,0.008840663902512872,-0.031206222385370363,-0.013436137139392497,0.015100311890023468,0.03323183900035912,-0.02913200239354237,0.008067094668455283,-0.032869430814839666,0.018369779773608687,-0.005892469003147277,0.012138091125849624,0.015886563393093658,-0.02148197460600513,0.03342561131651671,0.018696304024044853,-0.0002984545873144099,0.01487218885933455,0.006454148421270863,-0.002364369179380824,0.010225356901345465,-0.03303105926699304,-0.02209137399637516,0.02940055516914323,-0.002903143209526291,0.004670022490963856,0.03189925985624487,-0.009478575802925625,0.03447884454857595,0.010017665148193857,-0.014353566054181303,-0.03403967304337557,-0.0167493787698917,-0.032758413116621386,0.025934240978985182,0.009621034125811796,-0.011747931866273705,-0.012747377252313953,0.015168501953931815,-0.00023033270984538639,0.02133137882368679,-0.007293341147739585,-0.0003627735945799039,0.019987574027614526,0.024674114249083043
layer 1:
0.5986657893770373,0.6195554546282592,0.6282318426801262,0.5749791515385277,0.5470338433836137,0.0027684241523013246,0.6141963899720143,0.5269688578902048,0.6111589716339018,0.6404619566472276
