0.020919821268710552,0.033503231780375294,-0.05263936518129368,0.0302969811477997,0.0344668249261547,-0.007380414952566859,0.06502431659442669,-0.0021393318501703113,-0.027816556435804662,0.10662636989905716,0.11549405805899557,-0.03787483119500554,0.06126942523792502,-0.008397913304690884,0.010927942098397687,0.008176013290511918,0.012689735715307087,-0.043740069785272465,0.06321933118012985,-0.01884054208673245,-0.002536142647965078,0.04684190200093051,0.08902519275067561,0.012496398984782617,0.0528151501902597,0.0307301653356873,-0.004947954184449484,0.006306190496593486,0.04462355295060405,0.061662927520539514,-0.030808969244796976,0.032345920558706866,0.04421073851424413,-0.022671626299383178,0.09718202715801393,-0.004954472491324576,0.1102815817903421,0.09872562624329256,0.03265480243119083,0.04489324876864682,0.03609882914316202,-0.061834826234293774,-0.005932394866337237,-0.0034905387297378423,0.036664651189222935,0.021817378707493677,0.037326453506411755,0.014275593105434333,-0.010487065912235513,0.006866974079293317,-0.021342494134480052,0.007415004975945486,0.06066783473041215,0.014777326441122311,0.029549951619531268,-0.02891711519875117,0.016159080144892854,-0.02233231166935244,0.04064747215572161,-0.010408229407189905,-0.04740401628291208,-0.004897632940345849,0.037777255816556596,0.05471071458055859,0.0228394948491605,0.006260848084425702,-0.0013387678037490337,0.09586115047600899,0.03210255463802495,0.008161139382511848,-0.056492479844047615,0.009732833117082895,0.007740216744121483,0.026448148979876466,0.012015174074718209,0.028035750173063353,-0.0037933774529301284,-0.02691229826176148,0.12118501563372394,0.023074769692630604,0.06626487870056726,0.014418858909744429,-0.011889835131883804,0.025720716843928418,0.015498558518875181,0.04313810829440841,-0.01662403902301992,0.06622577769490445,-0.004759673003192554,0.08955378335718174,-0.007334483900089161,0.009917778393797658,0.03288245582769069,0.018411619893660282,0.012853144204303968,0.010229723250468498,-0.04939978713049571,0.04516500997559398,-0.040216152736267205,-0.009090581429431787
