-0.22835917001102643,0.05013910559720997,0.08259416277037616,0.12678575548004647,-0.3072404356064973,-0.0034616454371976684,0.024860644728482338,0.18364271763984055,0.24892608112991665,-0.09909049068484112
-0.27961908275833053,0.4959923056243447,0.29301372120468744,0.08467139637958558,-0.34630189293947466,-0.18944978901545753,-0.1367318492673579,0.026192189061261563,0.08940075041650368,-0.36190106989445237
0.05551995729363303,0.16216625931495984,0.18199947971261823,0.1510574409790836,-0.29085331728648994,-0.24121840585496485,0.036482255683171844,-0.024134612974283477,0.18790407888515862,0.024100920910853228
-0.04315801097279929,-0.04631796267099034,-0.11689076925187085,-0.10020368342124583,0.11980358136746071,-0.11644600507824514,-0.19670627627497278,0.2865095702122366,0.1408790884117733,0.17123897535179955
0.04055661206543169,0.09906349773044835,-0.10749757054014449,-0.07094686792131191,0.024669029076953074,0.13861549438287796,0.068819504205147,-0.03117344811476503,-0.09258196540522357,-0.1017195042070844
0.018163857226136896,0.09779634067868725,-0.029586563092084392,0.07074763811240666,0.06133808388944139,0.041668810699881376,-0.008075143584909551,-0.07921519863392086,0.058963656717749315,0.05233607147141893
-0.0688384892920585,0.23577259576536208,0.20237084242616232,-0.11880921699357774,0.04055179762337684,0.14620341449892135,0.042390283443924905,0.0758502780809854,-0.21950811596018016,-0.03922047517021663
-0.044395991413785495,0.06326262428774661,0.04310596406482582,0.007891022529933497,-0.03942286372534283,-0.07172827207703074,0.06912112656087543,0.012816539853378422,-0.03375120677582776,-0.06151639997593091
-0.08021355502896173,0.009868997069238418,0.046328284513245804,-0.0002496649868521929,-0.019516562336333525,-0.040234585625602164,0.14505036582879083,0.07974723869338207,0.0001167317878551666,-0.0004322080155978851
-0.15837948686640377,0.10789796953933825,0.060892593606225134,0.2900290432050396,-0.16844136947362548,0.1005934331871804,-0.04335329888483021,0.21481814242396235,-0.24257236669448928,-0.10967084187104437
0.06388804904237018,0.16759989026493347,0.1314376218643541,0.2518035669246987,0.1370996579161388,-0.0418540319228799,-0.3036721848672895,0.26393653432439507,-0.24126727827436195,-0.08171583806254194
-0.11070925677076074,0.005233367477420472,-0.10115507719601781,-0.12079797136516413,0.15541706124266,0.14799976994363492,-0.06619294728531445,-0.2931574182419204,0.22375668734317122,0.1619243127793138
-0.08721464294796077,-0.05683376916538998,-0.14683149975245588,0.19927279609434723,-0.011582939961916667,0.10614987724283433,0.0395785139501344,0.05157184202068315,-0.22212210972822832,0.1048290509789571
0.23680873996647672,-0.18814744769460268,0.0809231524033635,-0.1533838145729481,0.08002907929028684,0.0972288319807852,0.12497602163421359,-0.0430333219132464,0.17618214256360212,-0.14897929782257915
0.03438219641225744,0.14435201164819897,0.007510076700594266,0.05327961455649724,-0.08278518521494374,0.1363907346587677,-0.07238623282647368,-0.07512129987417951,-0.07754008455979253,-0.020478211320955172
0.04043662581192755,-0.0696174230648261,0.07001468499956807,0.04604641794569035,0.014978736786473358,0.029414701440461117,0.0485667250802223,0.09715686385758777,0.0957124670324423,0.04377111141193903
0.056611356677173506,-0.20782186406937922,-0.029723590040865944,-0.07031340997712414,-0.16366799195900533,0.08685451491352984,-0.23978643615291553,0.09292356052466166,0.061167743055431836,0.2031279286962943
-0.15126782569825692,-0.0035173743864696516,0.18031918086247423,-0.20514840417407665,0.03154924522450449,-0.16552358184478982,-0.028915165483255942,-0.025793536177142844,0.20582385255731278,-0.09444494122149157
-0.08177624815556861,0.297867245623289,0.1418219528528064,0.2811562393730394,-0.007561672884513748,0.008172639985223131,-0.06187727720791714,0.0468992291294134,0.02767164961589625,-0.08219353705932722
0.09311886157789079,0.058848532758473994,0.1333050335817688,0.07364886480682407,0.22384093096122026,-0.15325383591692088,-0.015112063882963522,-0.2593230859944649,-0.08470230335636376,0.21177516975041297
0.253462584353912,-0.25476117908300905,-0.12584377426539586,0.016375376258104264,0.005776048678518332,-0.060679290102628666,-0.192690521910171,-0.12070448419458761,0.03270971179737823,0.0719893385964277
-0.10011717281402946,-0.20584747485377752,-0.014954812359506272,-0.07971215094178971,0.15036370308659341,-0.21400005350361898,0.17186435460406407,0.18989577513884448,-0.039179409121791034,0.11132505668893386
-0.140179216717626,0.24861743316903398,0.21847306362354563,0.05980793692190919,-0.24050996956495133,-0.14866307044620922,-0.11479996898267048,0.1273698210391763,-0.200208686835643,0.11265829677377329
-0.1502388270217907,0.09513455548993033,0.11764510934398216,0.2507379461922186,0.03142984094798555,0.18787990960383386,-0.19770011494834752,-0.1757857563016107,0.08788960992643705,-0.1963248987456616
-0.03601343254301938,-0.12013741523313984,-0.1283924797360945,-0.0715047797286309,-0.06157448767349917,-0.19096621088008395,0.0334667621294601,0.2576615865389133,-0.1561417443534521,0.02524902791632189
0.09016193561489567,-0.22406212733270345,0.10289075070531627,-0.17351141470697068,0.29666442853794706,-0.23062965270666694,0.23312411794210652,-0.07378710153297965,-0.13767316287982267,0.1791200208227234
0.17846331036754576,0.019323110934640283,0.16433687646071374,-0.22998471066699058,-0.02883215893231326,-0.062207073424317506,0.2745387848638554,0.009410350213229004,0.08619829377208173,-0.14291186638420036
0.09427845586227258,-0.1915761728847587,-0.28583909577254524,-0.0833871880500837,0.12884255993823998,0.033841209556029955,0.0426736737906917,0.11565217655662897,0.009109389256704126,-0.10672403435257118
-0.11783758799789495,-0.15658268184245433,-0.2532203134292283,-0.046772955172819486,0.07317260579374155,0.11359964519921266,-0.08795735088532075,0.16613915161467097,0.007255924216870287,0.18600593150306982
0.020420945102419066,0.2396037537059655,-0.24908789195855557,-0.25906925484259263,0.0974412419067347,0.2927071603794705,-0.13069375386471824,0.19402670447910905,0.15874245048591945,-0.04615719382659275
0.06440554952925845,0.0967170359216257,-0.10052959695881743,-0.0244142087679013,0.00974157888681751,-0.005464941829689306,-0.02872971259645435,0.008226722052984635,0.11968677068623412,-0.11994979273136346
-0.008795918936276155,-0.26328279389811543,0.26441714425238094,-0.24593421271811436,0.1427204398139252,0.15172634971311025,0.3456140264695725,-0.27695709062069485,0.09495685655116333,-0.16095425780466957
-0.13624827913023085,-0.17172946754066848,-0.2613989471168206,-0.17795944884259293,0.35269889218037614,0.020801339669601314,0.21350089569725597,-0.19184758268470314,0.06389439206990753,0.025705907182493406
-0.1301881802204114,-0.0651829780912358,0.10996645956864567,-0.111164277154617,-0.0032028297425452917,-0.06642191144562538,0.131694837502913,-0.10802667772749824,0.18960227497913265,0.06215446716352759
-0.0772400308426947,0.11472805853819401,-0.002267350073946117,-0.13487233015045277,0.16252478860896546,0.14599555808513398,0.3479224651714833,-0.12856507203843834,-0.1578225909012387,-0.22176987675652138
0.07139003137430704,-0.15065961875964956,0.10059559621825659,0.151120887563696,-0.17004798956977119,-0.025905755866583682,0.021455685653219526,0.1085531908956808,0.11616011790120424,-0.047883658758722074
-0.06108386629672052,0.11502382669316245,0.04482185576264631,-0.14611489038180794,0.07986772142860848,0.22620463778884733,0.12634131888172448,0.008119750823017675,-0.09507619286654995,-0.1546751438569448
-0.2724908373584234,0.27831731164508444,-0.19389179404237808,-0.2608322886113237,0.3120898664210203,0.0420845715390072,0.299337795267029,-0.2540519944842304,0.054208580696666786,-0.0813576698989858
-0.06584253351104355,0.03972907760350088,0.21606707477473377,-0.05719901691157498,-0.23095927544051964,0.1008806293964259,0.2521162290351899,0.095266761270434,-0.12342102975635526,-0.11954138364061209
0.03000845155615698,-0.013902063157995618,0.10923970666659412,-0.013149317478695818,-0.04140009915428655,0.14462487972534335,0.10553599229783014,0.014464704353615474,-0.09696911615759386,-0.12162821541849543
-0.2510725500351342,-0.2314836459967304,-0.034732338076638544,0.14696814920484966,0.19320228164365238,-0.041639201958228934,-0.3167760850179685,0.3198225056136921,0.13485354895978738,0.2010520990775418
-0.28138305666833285,-0.09789220315614525,0.051658689248855735,0.2358255542879067,0.3349783536611287,-0.17770338458827067,-0.23188929450381845,-0.1595931539692452,0.08972500991119521,0.27905764481037126
0.20810764779831553,0.08120626649620623,0.17110583954560823,0.08313901473821414,0.11039742592479675,-0.24203114427154188,-0.12356374379740274,0.10427635046479466,-0.13201210505049385,-0.02989285721425272
0.012950182213334575,0.08075360753574652,0.021598024081136757,0.12561795327422579,-0.048059442881009176,-0.11357135921458936,0.02723129260407852,0.0037252315733240188,0.0656563628138288,-0.06696461590872317
-0.12336377810004448,0.29043414812848434,-0.18312046300600646,-0.02746719237205572,0.07933159934660997,-0.2621036407882608,-0.05695745316857753,0.0558820280763413,-0.03008692120389008,0.1645854654862193
-0.05482526155345489,-0.0711633844553516,0.16228680836999634,-0.06916194130918783,0.06679187893760595,0.07794033870850899,0.11195482305693885,-0.0788738094356883,-0.0240536271413299,-0.05793363147729892
0.02352137184854524,-0.34915251521992635,-0.30939464792766086,-0.04651116098352481,-0.1942916770009756,0.24573141197055368,-0.4243663996895835,0.486974752983158,0.07323219179061492,0.32155700610459925
-0.09220973513112064,-0.06372979585922196,0.1706565817674059,0.16828080751058155,-0.16381821986382747,0.0019908952785533626,-0.0024430517519452807,-0.109817067412346,0.039198787398997306,-0.17913893339867074
0.03035676193190034,-0.09760223614174662,0.0732233307654957,-0.03531136077929035,0.0020740591593847364,-0.08761236717054621,0.025113095017655657,-0.0966237896816212,0.06978726928507258,0.06036536747835476
-0.11081522911739683,0.03125614119795146,0.20175387976060216,0.09653885940655733,-0.22279878527790556,-0.10863621073265647,0.1580683652855387,0.028214060113027892,-0.05122434326206976,0.05255224401335941
0.13264970833112602,-0.27884479288250474,-0.2162032793518185,0.10564040659211152,0.1208976670474596,0.3027580834054718,-0.2798301977818292,-0.2917682819075909,0.16451753566651936,0.1634563642644927
0.04243828299838744,-0.039812137126460104,-0.061890156949544764,0.059041353395180844,0.028832768974871303,-0.012865231568494501,0.1006326374471822,-0.09703290466365311,0.054372950334533016,-0.10207264936236629
-0.3609028246805381,0.47901900929016433,0.1550589741529707,-0.16074929765491275,-0.16670084223597056,-0.0346376411040327,-0.05189126730437996,-0.023347313697407147,0.2761468630190848,0.015190592548282186
-0.246189109408128,0.03825573600007924,0.21079681747404808,0.287388264685596,-0.17715528402827885,0.06647652794570166,-0.3027516245749356,-0.12086399403157401,0.11732159220063074,-0.025465243666453703
-0.049582928951554535,-0.06212135230901817,-0.013464972742926767,-0.031132163097466907,0.10932383751094968,-0.02963210674472861,0.007699544948241596,0.041022361238272596,-0.23721091731364838,0.25538063660669696
-0.019804157392348396,-0.046149939999226355,0.057721284750735936,-0.04788554245282221,-0.08424070019738088,-0.012384562347880651,-0.02811588076908314,0.015096264113728601,-0.04965644877392,-0.04517815665914742
0.12522213840715488,-0.16779627266257266,-0.09746134289484709,0.014641818928915487,-0.09262344106036996,0.0933651143406186,0.3450473261712615,-0.1961694270553411,-0.12729547261967558,-0.07003073482988144
-0.008430864218425442,-0.03858364519304002,-0.01964685548330001,0.0338853865996544,0.07200367326389726,-0.05244467515020229,0.017880255782660913,-0.0063853726798708986,-0.011121622238602585,0.03200534244162953
0.342376956602728,-0.03584578179879104,0.2194369575280382,-0.11567826810726019,-0.2638089546507624,0.12780198233717274,-0.11896455509519974,-0.12952516531881134,-0.04482590921857256,-0.13174412576888722
-0.16875372811242695,-0.004693959147205195,0.21373897797578043,0.21162003996815004,-0.07159762513014065,0.16171142894896265,-0.02875010053060731,-0.13287874530123073,0.060527225996364106,-0.25854607834812887
0.10362422848223501,-0.12082480565393551,-0.06922285685035884,-0.19890015733771174,0.13646673447885072,0.07251002507033294,-0.16537672030047412,-0.0981325340075149,0.22870681956517294,0.025412125013192864
0.11608430889384126,0.1690189664130736,-0.2745577655032684,0.043715585625874166,-0.04836970043285103,0.2876223340435232,0.057234262434364885,-0.304722952869372,0.23984456782514832,0.0906825254976156
-0.11170814722243418,-0.21963759878580194,0.2647003502000592,0.04887771161054482,0.25389577407341657,0.001847863962195988,0.0580068547690915,0.12969586364556163,-0.11688319214870936,-0.10036305916483432
-0.08087037390397178,0.12846870552271603,-0.19397199607622384,-0.005962596030558639,0.24793043004339907,0.25995176301841433,0.11776360986288426,-0.30506941997740555,0.15777763127907374,-0.0103953053346914
-0.12106574472693475,0.13305654887789678,-0.11686476535730626,0.07117122143443096,-0.05302005220121,0.19618142133186592,0.10087068356841523,-0.04857704696449288,0.09244505077178118,-0.05518225528517227
0.04305137953875189,0.07458110053181802,-0.08401893869107967,-0.02422183189208632,0.06630279339466456,-0.08893635421945272,-0.09224924314280088,0.028092800427962267,0.06910500436657493,-0.006230824006646037
0.28737730276037027,-0.007197630719247208,0.3199711637389861,0.020082174390174345,-0.106127280243139,-0.19274992346440273,-0.16190675956772266,-0.11909571530575518,-0.11216840007644056,0.10819254013647622
-0.054669026157583914,-0.23405437068189405,-0.05510997502174663,0.10817699679529534,0.28958098148656286,-0.17804202656764181,-0.2419737148785602,0.37278433647935766,-0.19072721223481753,-0.02430213528877248
0.006225849522230993,0.1650239901303928,-0.10070093970955207,-0.027674952808707617,0.07523463494004573,-0.04814504856457663,0.1707006555082641,-0.16594926002329083,0.1544889046910876,-0.27438409132400843
0.1045998404426035,0.02462588261277899,0.09524191181097502,-0.0069544978188789295,0.13138813515055456,0.1803858361747921,-0.08958810831940578,-0.017178185702817723,0.012374769973451381,-0.09642397188173138
-0.1534041034229011,0.31080776743574495,-0.12603620298697646,0.10000731692323596,-0.09200724294070663,-0.3321417874789879,0.17357489695770725,-0.05061952195386269,0.178260013230021,0.3124511077624793
0.20661737524939017,-0.17347544505570908,-0.050823445708611525,-0.056442903742970285,-0.3256899795096373,0.09296219606911632,-0.15851607890562697,0.41536440342929043,-0.05271549904008268,0.31869280788061605
-0.08812973938076499,-0.1579311635340033,-0.04624126730016643,-0.04136580512826792,0.2608157346742495,-0.2123719887888252,0.23789670882098254,0.05332770410721362,-0.09651560114214673,0.14922113965686196
0.15987540918730064,-0.2514371871692171,0.24411787259354903,0.2563796736760218,-0.155989755233056,0.20008396900642877,-0.034473514432451224,-0.2673406964369349,0.027902233523808197,-0.244855328022219
0.014575845371770937,-0.032625746173392076,0.17357731104323396,0.24614072639437998,0.1772712379036069,-0.27868741084987086,0.02387873629769375,0.20562514992572414,-0.23032041543118764,0.07928022899337685
0.3946245110835704,-0.2910960867938359,-0.13646351086567238,0.4228582409084156,-0.3613726600513055,0.041391722422438396,0.03081608650166587,0.1132285756917042,-0.14078803413334734,-0.23509220186374843
0.18080534681855914,-0.040332240611418615,0.17753375194664978,-0.04216323819994744,0.003448242992268086,-0.16322685751996796,0.04398807806950968,0.007719702791825602,0.04593933301326868,-0.002750125898883975
0.11470921817145932,-0.014248402670359097,-0.11421983409316659,-0.11439125757446761,0.14670265056503606,-0.10928293361225672,-0.1583435227709609,0.14560629937016964,0.16895186770527465,-0.07339295971388686
-0.18288202228055916,-0.0894002957494523,-0.13259008224516008,-0.1850507129038166,0.1756194049934385,0.16654898598747225,0.20952769803899798,0.17410863423443892,-0.29258923251944835,0.19298242437635652
-0.05653872635689732,-0.0054018636774064615,-0.007109225885881691,-0.0051135379397356856,0.07255846826639907,0.11079997416292661,0.046021971464545855,-0.09279359142476958,0.07241630519024612,0.09456648538975919
-0.01702433976940406,0.21698445853028142,-0.17331468471012065,-0.20697719379767457,-0.03598098103418065,0.20541354351820026,-0.18567680294862163,0.13152787804639907,-0.024824994872416715,0.07075866349801146
-0.08999856278142841,-0.14892221474670866,-0.28091261074095436,0.30243012337902253,0.027487827307737918,0.2541334204397522,0.07579250724414617,-0.37206044815509093,0.12858871642286335,-0.19430164866783806
0.09645876568195762,-0.09517746230674723,0.01619626539831051,-0.09533575176759407,-0.08634475937905238,-0.07883222760664498,0.055927403488643376,-0.0623199879493353,-0.010521150975375254,-0.01701855790418539
0.05402219260889148,0.06922873468238207,0.18445278667291548,0.11746065546480361,0.14541129794512633,-0.2099216043867664,-0.17804404816816527,0.00718427149835089,-0.041399360375170814,-0.15150626759942243
0.15004643807559856,-0.21111044655520328,0.14188005972045406,-0.09624585295246624,-0.03099661106547308,0.2403164024392919,0.30271564446269505,-0.32343733274142583,0.17818592472093314,-0.1094337309036273
0.07647275616401494,-0.04401335683513719,-0.02499269315317641,-0.044209362588120756,0.07790036103818374,0.08095712859198818,0.19285343716189937,0.01484258087572947,0.024828285765875723,0.09167561622867094
0.10611061349591616,-0.18438704722346758,0.1792382982865679,0.21292570049122533,-0.2985055853508331,-0.04756183007528747,0.260386667976225,-0.082683636508277,-0.02365553094497828,-0.23719058385919878
-0.11704767768266806,0.040957088719066434,-0.17451516786368415,0.09123856344692947,-0.22989705302025853,0.03050903626340934,-0.220398238394943,0.38271203236991574,0.028802382983504907,0.20650180491436376
-0.1634815439879793,-0.06144595785804931,0.22712200096473653,-0.10200284207592425,0.16886568566497884,-0.12546050919310833,-0.06885324869977102,-0.17070549507879185,-0.2133440103305627,0.1102456070198398
0.0046577558592400285,0.33559238434154715,-0.1962352198353542,0.12105541348568502,-0.0817738273275523,0.06877332687624621,-0.028441983442933038,0.10228687570323525,-0.13696963452928632,0.05755231959588827
-0.072731495403999,0.015105456086800613,0.1278343975856736,0.2665578898670471,-0.05230601258578714,0.01601622975811573,-0.32431415120313883,-0.00024872739865589656,0.08991459804163526,0.1578387591400906
0.03994275440366571,0.00304322582664805,0.21859794591155224,-0.1688289851610827,-0.05979285944938338,-0.1686609207552253,0.2456012888953533,-0.23539962060425562,0.04979758920112267,0.1300698206563179
-0.034974789180537966,-0.05108593863704544,0.01779992253241875,0.19169946575581487,-0.19643550771752274,0.29765955342072975,-0.014589384774063123,-0.04573576307707116,-0.06908233597722405,0.11464925221364439
-0.24621346246394765,-0.10756270551809348,-0.0050764065542837425,-0.12828223055888738,0.4166113470896736,-0.051207479302052356,0.20736589914277645,-0.09978710575746161,-0.01649791748951932,0.2852123545405585
0.4435168884190077,-0.2143909363482845,0.1249692432128359,-0.142018036856137,-0.21912083240785823,-0.07442482467877597,-0.09345706146235465,-0.1203180107503093,-0.049735411668272826,0.08379384710405308
-0.11948116785956456,0.07753753670956398,0.1368526679580925,0.058156774951710476,-0.1740612663804837,0.00578830533206628,-0.08660303227874504,-0.1863701086459783,0.026134796600033802,0.24411962365975007
-0.2176122812010824,-0.23631664864531501,0.25657682757234757,-0.23896988792622964,-0.004815348207834309,-0.18864626686276803,0.1423035971126667,0.2366113096143822,0.21761222868906469,0.061316986266688175
0.4830893096220779,-0.11584741696509147,-0.1277892576354487,-0.1621491908162492,-0.16119812797914596,0.2903504613536225,0.1520722290733678,-0.02574723218504225,-0.254895759804601,-0.17539996219152407
-0.01729195750266326,-0.09493374710840699,-0.07578379137882646,-0.02517446958966604,0.04103791078741951,0.051717963028883186,-0.09390949131926059,-0.0814870032026987,-0.002943106165360675,0.07406069635709463
0.4065652102441525,-0.2639277469213549,0.08238257533485048,-0.2648691151835082,-0.061089548727462716,0.11096795070710404,-0.09791167317744637,-0.1646633295524881,0.20145955846214278,-0.16022979652896688
