0.007836613028265126,-0.023268744346838992,0.014339960595471726,0.010947725264099838,0.0016244304958679678,-0.018119748189750744,0.012514278667012331,-0.02527974549862263,-0.01920793735425135,-0.0022415837189978943,-0.02350276426152443,-0.027350111281721927,-0.03169766262906869,-0.02578224097776667,-0.017410134834352265,0.03158100729315623,-0.003200358092409185,0.01189350574614749,0.025790317539598394,-0.019310110088575066,0.0004293157586856902,-0.015464665585661588,0.005463088369988538,0.02809121967806197,0.014101989902179202,0.01913455176727971,0.004238904340311336,0.025464495609377788,0.0029410015480424365,0.007645933093734243,-0.004814967585484078,0.029139749729935577,-0.02694187721547211,0.01114601532657486,0.001137057499904101,0.032093067943486236,0.019227242003621497,0.009965845533971347,-0.033956301981813874,0.0242475819517618,-0.015301709698505098,0.029100066486650963,0.01515308775412471,0.024263266188506445,-0.02941494118793046,-0.017053244998263866,0.009396184160508136,-0.029823828321483992,0.0006448900078830574,0.0018477253714806255,0.029234296956264977,-0.019549315528041938,-0.03520222136053959,-0.0002535022665221334,-0.004513999086412621,0.016608251818657355,-0.009213790459343459,0.027365176554410647,-0.012583718497417764,0.029961076940268283,0.02441732955540092,-0.020550654400795523,-0.03202532778120877,0.008340983040059473,0.02753928919683339,-0.014806924407130273,0.03094971356939237,0.010795912507355537,-0.005805086245908933,-0.029942223809680788,-0.03324905517208205,-0.030823719610271725,-0.008167963758978103,0.011806199531513129,-0.034988197257863854,0.02728546215280693,-0.02976968124239424,0.02482183918402115,-0.031132887620181935,-0.010265787532542574,0.008588396801855747,-0.02977141477800438,0.014530383192323054,0.014701500342671342,0.006930240207834268,0.0006826901156385887,-0.026654270606021664,0.026346010293048353,0.012235108137089265,-0.020240628125725593,-0.017960233494209568,0.023500516876746258,-0.0221199921787973,-0.02497496206031126,0.008416838761150014,0.006796925462266859,-0.021275821551328344,0.01813204524229514,-0.011382260792585561,-0.019377166287329786
0.020810006448308403,0.033174590038380386,-0.03460291616539142,-0.0317372301011294,0.0035074766279750216,-0.02511898876982284,0.03294714456460786,0.01228610924115385,-0.02382933442916823,0.010689521527284668,-0.0013975238803099824,0.006793411020316345,-0.010792806030169959,-0.013507345975419065,-0.034674641513309394,0.003955563226021537,0.015356897992959133,0.03461821321361426,0.030749603302045556,-0.017895244193911482,0.02600950143954551,-0.023229680147464942,0.0019139240197277654,-0.019320528348842077,-0.005079237088852859,-0.030185515600125855,0.014604675801670394,0.0006344060688001779,0.009676098807811603,0.035647288968162744,-0.01821852213136375,-0.03538302010735154,0.03453549467740406,0.035574196721445434,-0.01949325336183814,-0.002774355563514755,0.005990746430073614,-0.023211801608139713,0.0030700365240268757,-0.005277438473030027,-0.005230911554543367,0.0028651951988102817,0.028262833431732845,0.0012102663162198782,-0.002797706437768943,-0.01091343299582052,0.024106057569030004,0.03475421284380853,-0.00838359494981963,0.007344017395616749,-0.01176115572887182,-0.03233478284746761,-0.018752069602602395,-0.01155821335978148,-0.028012827235371095,0.029685066668638183,0.026602827369745556,0.02400219245070488,-0.03201508176766355,-0.0066949496085538,0.01811211900721238,0.025878540808178987,-0.008023331019810447,0.012080474194071239,-0.014150812005455416,0.03362898090493498,0.026243796920356298,0.002558929725359753,0.031139733904103795,-0.004340772826757079,-0.021674701312924108,0.020347189823878696,-0.014110487844757776,0.002193284385965333,-0.033129089959657576,0.002970188141288785,-0.034984235504087684,-0.023663067100777185,0.0325490348277771,0.0078861157976075,0.01497660224747032,-0.03223105532265516,-0.0028020076694649718,-0.03271854059801695,-0.003412750749780931,-0.01112642169142795,-0.02397947110933287,0.020486736409436657,-0.0028931523066096226,0.016466491866519772,0.004142180942006565,0.012594771942058457,0.034184045259621626,0.031049566583598323,-0.031165572644597832,-0.00395387485489445,0.02024808931916175,-0.030852099518645686,0.006053165543187536,-0.014221512548847935
-0.027395658258007133,-0.002659982337719892,-0.028138876542512948,0.0255278890931847,-0.018874416687023412,-0.020088686231909545,-0.026513446489750472,-0.01860046847073782,0.018377077976966028,0.02793077037078387,-0.001381473043790847,-0.026870067281265314,0.028555062599017578,0.013702698219910658,0.015000675316933401,0.033352346717278505,0.02319393475423552,-0.028188761984355815,-0.015236560932327843,-0.00033090627652763993,0.009881528655649861,0.0170699572492386,-0.03310095070938283,0.028548491515972982,0.01755420266678788,0.025288994163707994,-0.034368905450958574,0.017624908373593436,-0.02857910523561042,-0.019265189628625914,-0.022532134686846037,-0.0029820709761140263,-0.002566892961265506,-0.017732675180706266,-0.012361624988076286,-0.0018297221460684548,0.02083069551315788,-0.025242165393591823,0.010740528617913796,-0.025286707011942727,-0.013084652436333038,-0.008874276154449412,-0.007081516254067,-0.026241273042400107,-0.014699111639492897,-0.0026889277172290477,0.028650354464371794,-0.003373282264953606,-0.01864029085611714,0.019584309219642687,-0.0326412311646668,-0.027103706115104792,0.030098678089526182,-0.01719666066711714,0.03342764383590317,-0.02043545838363031,0.03159096466350679,-0.018998772083459212,-0.028438686831215674,-0.01537714217970879,0.008284163372263224,-0.014555774279364653,0.024534787961609072,0.0019697548203698872,0.01367539197025519,-0.01656258520848808,-0.01781401170732114,0.015307121778362708,-0.021735152442422405,-0.023893542107939772,-0.023325445457783738,0.026544177002421218,0.00139559307520902,-0.020980438176097294,0.011435762661229129,0.018098575078695382,0.029577348997624514,-0.012607962225566274,-0.02675411014217454,-0.014535783617277667,-0.028951552144652937,-0.020454939409290582,-0.02321557447502849,-0.014957816699826168,0.018335348934074625,-0.007380281314672332,0.027772626167918382,-0.010361765447781914,-0.017887351215493095,-0.02600286527590418,-0.004329334581644362,-0.0304964579830062,0.03459751877855197,-0.008508538328736041,0.025044092045012283,-0.0037215178645702424,-0.012109066804145759,0.008650530394669717,-0.03339567905172746,-0.024813600258533373
0.006278528654608019,-0.02606135764424003,0.027674829615865232,0.022593658378931306,0.03475620163829299,-0.023370495937438077,-0.004992007123906388,0.032891406945477444,0.03355731472580947,-0.02536866208495342,0.031558681998040614,-0.0010007236835212208,-0.015247043947062403,-0.02496687853322626,0.005806909851910347,0.012436626496159522,-0.0025474932819932114,0.030806819958546852,0.012268407514700812,-0.03311721550516913,-0.004873730553104076,0.03284598006352461,0.011514378506833359,-0.023588519752954465,0.03540386964238068,-0.03176794531102073,0.03302095674311334,0.008012295333785932,0.03455423472731316,0.03327432299185011,-0.002630215185208791,-0.03321180697120361,-0.013569362910316407,0.022103772707030338,0.020926461968303875,0.034581967626752946,0.035114137215417646,-0.00799427274902818,0.015744375996623025,-0.029584438456603086,-0.007633541938165591,0.023101368247844534,0.029194493664629784,0.009853944164331559,-0.0007013353488033239,0.02336812142794671,0.01639365085234029,-0.028441431793235605,-0.02765085657833779,-0.01455220943066007,-0.016522114070645917,-0.0037553643945285667,-0.018290152903737842,0.010372349194620649,-0.02549400116716715,0.018125446460836775,-0.029458589476911577,-0.004866877456814585,0.01895551650125797,-0.02916497635649242,-0.025427904874680045,0.0005719031856162432,0.03563555328931074,0.005339068485963376,-0.004030990612538463,-0.011029769792184799,-0.004812066117126534,-0.004480801647374688,-0.03374550676973103,-0.013434375729011745,-0.026640106999812736,-0.031021595692753312,-0.017813320718013646,-0.017683203733304127,-0.033189138920031745,0.02848287267740554,-0.023218787767617675,0.005530698078053613,-0.016608663381177138,-0.021624165271896388,0.01039867940269966,-0.020854820262566368,-0.012429123451207749,-0.012026719786572073,-0.0017490147771245385,0.016968523332775258,0.02230079244590949,0.00530724309944923,0.032305018372424485,-0.019528199655704237,0.022178955141709394,-0.0223891096752992,-0.01929801452874112,-0.0006154062272603622,-0.004007604841537081,-0.02729460290934415,0.018087844648198,-0.024895683171410048,0.015813191496795234,-0.030538232098286766
0.033268432902932785,-0.026791546477836242,0.0056260252622654175,-0.02612860432593232,0.02549343828993829,0.0072932290446622375,0.011891483514485893,-0.02666559718657661,0.021447992178504398,-0.03420121511644444,0.014708481823018975,0.008061530511998517,-0.016419890696157315,0.025952794242144625,0.019933055429042876,0.010814738446509917,0.034551719717748314,0.028692781972863735,0.027208344044612184,0.016311639112834092,-0.003987831182121447,-0.00551899339625082,-0.01713775205062076,0.0037100636695721403,-0.01756321550242026,0.02098928505741926,-0.015059346212540767,0.026676690342793984,-0.006725589999805284,-0.03152014212528732,0.014915428093382983,0.0028880555288026202,-0.02981311153974656,-0.01899838152056338,-0.031592153591159085,0.011314826079799584,-0.00019394606180124507,0.009005826586919292,0.02202226605858372,0.023347033489652808,0.010748354422860859,-0.023418395599963525,-0.02610373969816223,-0.028823079078198657,-0.01986900014814089,0.025430472577506087,-0.000792847242066165,0.028517502819964735,-0.024101993022564057,-0.01846707886828669,0.0324077968721445,0.033965874886253716,-0.01687790749049662,-0.0021489393520460615,0.016700424182350758,-0.019473107092594397,-0.02087332105781223,-0.03468298590831825,-0.0029155617706598455,6.0147207414151804e-05,0.00440019774422129,-0.01257748834086321,0.029427575208280474,0.005557412492634958,-0.018629932040936437,-0.01277874444918304,-0.03220474132049658,-0.018883545851418482,0.02188172582754718,0.008364003927860075,-0.006188270310906876,0.027652735561424238,0.014126334539714985,0.0076452533325454194,-0.001707879672110106,-0.0005909184629741548,-0.03035103915931798,0.023372823488168173,-0.01646105584199341,-0.014926182406239972,-0.020539901249478652,0.0012446430090896216,-0.03360512498645797,-0.02012309353651421,-0.010657570195577979,0.0005384504921844904,0.02929782665807043,0.023088892219040674,0.03477963246407037,-0.009709917158429941,-0.0262244027202089,-0.007797447672326967,-0.02896384497777301,-0.02477113537559108,0.031567426434107204,-0.024855637520154246,0.0005183996594349885,-0.03484726385285215,-0.026274350307709193,0.014424013268582718
-0.006482136208208502,-0.023709141493026147,-0.029799101875054943,-0.030589988709202612,0.024013116683349087,-0.009867303358732513,0.0017718976404723086,-0.0039403266473087215,-0.012978926228738696,-0.03537632633116206,0.02063547914653307,0.012208290965558706,-0.02906015995356144,0.031582483612237866,0.021183137652799736,-0.023438294692553395,0.0064598006057198995,-0.030915394745694522,0.027830347542510264,-0.029971580274541172,0.020012833046981954,0.005962787302432125,0.032411867800804836,0.030928636488233713,0.026440596033393986,-0.005656943706421606,0.03472839022357403,0.013516265162298764,0.005806366798758879,0.03036196531326532,0.02754355333209141,0.011665433338476652,0.02355870860423201,0.010738725757561747,-0.0030486605119494498,0.0027332565708620346,0.022519313836186793,-0.032672427796024285,0.02658138406137861,0.025866054412661738,0.002458726768329929,-0.0012194375158337892,-0.029823157980329043,0.012008271025652578,0.015217593386040909,-0.023660611780863927,-0.0007841574854954986,-0.0011502756494357752,0.01911334763930002,-0.013638873101596814,-0.02587659621889423,-0.013803160575105364,-0.031195198888991017,-0.014687246196466892,0.002539404409980288,-0.009506624327277256,0.020090716828494386,-0.009259836594531373,-0.01753727097676398,0.011872625515754437,-0.028695920697235033,0.03252874205392778,0.026829803431060284,0.0029201901293435598,0.02940851552688875,-0.018872712011456745,0.025328040497680726,-0.0039837219713844615,-0.0066686340792311526,0.029898793816081667,0.0319324328865804,0.03498171845581788,-0.0033238792092867217,0.030497743259526783,-0.011094084786812255,-0.0037685715116578117,-0.013119613146775597,-0.03016868431446976,0.0200195416337901,0.01399895164292203,0.02538911617626745,0.03275752702121351,-0.0017628700592481408,0.0005596791598698886,-0.032749298692906915,-0.00048101289060801383,0.03549152738470179,0.02783078486400825,0.006968541352639544,0.006372055709823986,-0.005979289506488929,0.0047667160278739434,0.013377129897809967,-0.028557625635602712,-0.013163302617937522,0.028569638854442886,0.028061568105439055,-0.016407149323476547,3.2433626747582767e-06,0.03308424306763566
-0.0013278925542138803,1.010595934882591e-05,0.019754980989543758,-0.007526675446143334,-0.022434998037195626,0.0022429525305539683,-0.026572563505941185,-0.025233000590732316,-0.03367179002926594,0.017609435300139552,-0.014890059451068336,0.007316040428274044,-0.021018573084308767,0.010600411910684393,0.006110854990966252,0.034428635542108316,-0.028175003428057142,-0.015582342785711498,0.0028673580053571596,-0.012738045544989782,0.030797904669317977,0.006330423903786804,0.021403216479568374,0.003607262836115961,-0.01705560894156669,0.029288746058255474,-0.02769199902957315,-0.03456549193321082,-0.0264784180082622,-0.021666756384370853,-0.01161293868517142,0.0023440647660743635,-0.03332176594567115,-0.011007195086850892,-0.012088804315303459,-0.015460721591858524,-0.005743218838355317,-0.013593132397370564,-0.0002445105607078238,0.0074290951355084345,0.028950566356559612,0.010735777466083958,-0.029627639052884035,0.009048728719732176,-0.016466137926934066,0.019920089940545498,-0.002304724101116193,-0.012725438669332338,0.013270996827179325,-0.03551694135824538,-0.024660720040901606,-0.03282337117472908,-0.017931312507924083,0.012195639230503881,-0.0019172430616491778,0.0019356261949034503,0.018284007174832112,0.005428574986832066,-0.0006481877686804124,0.014237194724386108,0.017155435082840953,0.025286539895633113,0.0032584542120758578,-0.012113132599836145,-0.010832897551181813,0.017750376816899713,0.02742169348988492,-0.03508116206288713,-0.028616283764998283,0.01180606528672569,-0.015390295297607118,0.02307356681152007,-0.022948726398227513,-0.02061167686571714,-0.019995711780304466,-0.01848582243030104,0.03200733052054351,0.0017687816719044805,-0.018400762151607224,-0.03378409342254135,-0.006150787106885682,-0.003235863093472187,0.026812670596046875,0.011233397898829149,0.03385456399201761,0.0225666115078276,0.0037019630096665687,0.02337743827943431,-0.018005441689372324,-0.021562516904327145,-0.0010787066324891015,0.006272991600779605,-0.019417000868537464,0.0010508102397815203,-0.026181285404931982,-0.027878559372113497,0.031337213394957764,-0.03057815204682832,0.034831188315220946,-0.017296905292139952
0.008340143445061822,0.007397420848949517,0.004879732922900261,0.032782450180345896,0.0007416977888183782,0.008419292400725524,-0.035712097140608016,0.025736709891580598,-0.0130595711770328,-0.029544799235631643,0.0009863079860114726,0.01981481076942007,0.0025575926576605554,-0.029045503096549945,0.013252895134345244,0.022167253624345393,-0.03329405645055106,0.017895511477834677,0.00011353812853536621,0.018134119680336673,-0.006978276775492929,0.01981745481133372,0.007466403220463318,-0.0047031746740492375,0.005301488244746147,0.009165255917941081,-0.0007663631348406169,-0.005955539282096314,-0.024358436150154608,-0.024746501659731204,0.008740078689705173,-0.026251593706014174,-0.012589754288612181,0.01658723277717454,-0.025982379492332577,-0.01494608681579199,-0.035505100665799934,0.015001611529080465,-0.011108646916699952,0.0014003623715105745,-0.0035815863565063707,0.010537725311618958,-0.011734736154746437,-0.01991846460006308,0.03410424181587293,0.03561148700960279,0.02479173783062421,0.009705106718645766,0.024705407801948784,-0.026066306895211555,0.021690872074478347,-0.018556287554062276,0.025817026245542045,-0.0044964074902137455,0.016720679412220628,-0.0011392697513343056,-0.019692698119650052,-0.006793905466792885,-0.013473117787131655,0.02168663983626929,-0.028153904232522158,-0.008651198967994884,-0.005310046634118611,-0.0010607086836660964,-0.00040450044609815355,-0.0041749299146891725,-0.020805286983164153,0.015997750203723064,0.03480931129559792,0.02550950396062167,0.035669493356949314,-0.007190067737673372,0.011855990113374737,0.001331031520520283,-0.013735468686011752,-0.00855709461629459,-0.009355438685101816,0.007351382147296047,0.026118314376300987,-0.025405569969956514,-0.0003607805285982951,0.0002476658980004459,-0.003620278071418584,0.017351327425852894,0.019268976937954645,0.01808456097615213,-0.022671119927078907,0.00470266831460963,0.02636059522980807,0.025773242477862474,0.024578776678395545,-0.0011254413958496773,0.007198343981629975,-0.003764835107979682,-0.03492375276339164,-0.012757520074130151,0.03540316731136439,-0.02470018878790721,0.0043785658954710455,0.020338901428216413
-0.02724675010298723,0.034824579724997085,0.03180405365679545,-0.01767759878198405,-0.0035496840167902888,0.011304956408668472,-0.02880995370193408,-0.028139818467550266,0.006566986722475535,0.010399417832289752,-0.022100650052614808,-0.01156448546047184,0.035074367033932824,0.034940470527031586,0.016413254489684177,0.0063810048468423974,0.010580600637220258,-0.010674355567707048,0.013104278841458698,-0.027766279495017206,0.035615561484107355,0.02726230444716532,-0.007941083613118453,-0.0237045941759862,0.03489891640721986,0.032238699255394146,0.01661064274317032,0.010906634376370038,-0.024328936960094923,-0.024158926220784947,0.015518602567866205,-0.020363052738115932,-0.013379637237989461,-0.0201270926874988,-0.029367854196346875,-0.029492545343126182,0.01120011728609107,-0.011362279868598096,-0.03140780095059748,0.021646710890124703,0.014009257984759313,-0.019612887035865292,0.010828807279188328,-0.004576779078016742,0.033244196820573,-0.026658610694399558,0.032451053676880504,-0.021832005426853745,0.010356371028881504,0.0336514311658303,-0.01708937627363867,-0.017034482918917484,0.015843915213020393,0.024148901453917675,-0.02233045039720439,-0.013444534088921743,-0.020040919052679438,0.0326575632171367,0.021159301129507244,-0.003820177831661574,0.011821741296137792,0.0317971726695455,0.0179901174885981,0.018516106872150523,0.03332270595445014,0.017057072097426566,-0.013097546980849875,0.026392711201105937,0.016530933023213,-0.006857273681606539,-0.03219024374775142,-0.02303547228943347,0.02113550159471135,0.03021287428821519,0.013355979226541734,-0.005113695516839593,-0.022418997581354825,-1.1117544231775689e-05,0.020973068147307858,-0.023571828412262408,0.01158161256362547,-0.0031057677739839903,-0.03479510877146243,-0.03395927274637437,-0.026333290452659384,0.019948467328777968,-0.012089855876864224,-0.03141126144341691,0.03130794012837966,-0.02900127782438685,0.025382464004027647,-0.028221983696875428,-0.015800975232765316,-0.003289035195003953,-0.009663822592171016,0.02309855227509333,0.01822757638432028,0.01668726266578876,-0.0043631183193583375,0.025275705620563138
-0.0010251505587467666,-0.03200187964177598,0.0016205568002683676,0.0003121490372467242,-0.03388809819222895,0.030655671247966365,-0.007935728608773045,0.015796556348116837,-0.007513365869483868,-0.021478339677072467,0.012006459694900828,0.027024343356588473,-0.0064481283155522415,0.018175385089151452,-0.0087151422529574,0.0093422149621313,-0.0070652310846331876,0.005891201038548198,0.032069066159605614,-0.034398337163956204,0.007867207608630418,0.017814590593199037,0.0128446035340785,0.019694922192282603,-0.014295278044848456,0.019804706951385705,-0.01770768326418004,-0.031000082806870267,0.007626865229613984,-0.02566536901842121,-0.02818178531341174,-0.00048337362670475975,-0.01282738485934827,0.034615021405429575,-0.02762055455338358,0.032432917632571265,-0.025872112030052935,-0.011431418618513503,0.025965831862818464,0.019679470656881963,0.006371915046134123,-0.03215140262958663,0.008074253427777109,-0.022282992455638567,-0.005912752616639143,-0.012596625481104351,-0.005417874555773243,-0.005094360139387903,-0.021573731656501536,0.009424593167482197,0.023456534184020668,0.022048758151272448,0.027874770578130995,-0.026930741045833893,-6.511802718221771e-05,-0.02295702135114009,0.018904555258208784,-0.03039801409297179,0.023642552939285535,-0.013361153618981499,-0.012012567916058297,0.016677667053488804,0.015088064859318857,0.02693815630371718,-0.004239451792653427,-0.03525505796841993,0.03277298363135306,0.027125448500098764,-0.008879185587899525,0.017396557360587525,-0.02257752973437475,-0.011879632605532,0.027085080578261686,-0.0005988352760038576,-0.019701468404980493,0.023692408421180804,-0.02115496326262163,0.024086468534579235,0.009673433941001619,-0.00985454561540277,0.017465449644981805,0.0005443635480789771,-0.015091790259776621,0.01406947445865199,0.030892297600467133,-0.034437736746593846,0.020572541514564995,-0.02111043393235664,0.008316405114080064,0.030080553297049895,-0.03397947325693205,-0.006131755348473249,0.032724896574203466,-0.017202212697076558,0.022203004138547748,-0.017756284993268246,-0.017881531501727235,-0.0006411994687983494,0.019164191083887797,0.015333220454284327
-0.014072061067967434,0.025320934634281617,0.03494325336563678,0.00919569653807014,-0.034580532884755204,0.024752668845575053,0.0013538296327968921,-0.013305171843721621,-0.021075155295987476,-0.014408390060044865,-0.007714297536919171,-0.02672049528770724,0.030656289425721447,0.03212286585560306,0.015867540919874884,0.016570593343660532,-0.01087957767570396,0.030388063362536244,-0.01848966572950146,-0.021521884416716923,-0.019281174098148193,0.0013736389021273693,0.016946897207922813,-0.03279490546097787,-0.0025244854005163006,-0.017213270163367156,-0.009254169705745219,0.026211979985784062,-0.01411057009810034,-0.00682242465388589,0.01322665115954419,0.03569706922988773,-0.015551826687144023,-0.008139425599811415,0.000800706089393935,0.00643137569319948,-0.00907886131085639,-0.00960417631528791,-0.01984329473369796,-0.018227734136368592,0.014008043074565449,0.0001301045153145955,-0.02088293657538152,0.021976138501917833,0.010107140484463942,0.013684820798163105,0.023508619255929328,-0.006911261383262986,0.017620782051693193,-0.007075804650977617,0.007127900181376677,0.006238096760191637,0.025593852202000417,-0.005415952611290742,-0.015840009287190124,-0.03533769454294946,-0.03119993283828657,0.025786970611553536,-0.004905961860168031,-0.018551236714206044,0.019395336940781494,-0.004742181419437656,0.0352209998107309,0.01084795797976442,-0.004805268566010861,-0.025725469203773464,-0.013148300223884784,-0.006213714875404643,-0.009808159677902297,-0.033479461176183195,-0.027408623711942498,0.02845345838775762,0.025096770312120223,0.03094858833648087,-0.011080367628247823,-0.03134320065941081,0.028492817499005618,-0.016885445955011704,-0.003994954791455403,0.0345841890033806,0.017671233451958673,-0.007540168092409649,0.028849411244103104,0.020267315046512822,0.018885933978077307,0.0285898024987572,-0.027110168242862574,0.028489556013941875,-0.02644735630152372,-0.031079192234566025,-0.002059181659460181,0.009349587105361164,-0.014494642721170584,0.017206469905577303,0.008560452190053858,-0.02876883679579407,0.015687613741560802,0.009173475589566958,-0.032458998885164514,-0.02784273660517702
0.03263044313710231,-0.000500944993933064,-0.0044962752336113465,0.030133868207858225,0.02696694245796874,-0.027019894405320793,-0.0019281664061769899,0.02712589736358742,-0.004670916835028443,0.013655047410149307,0.012235433519568156,-0.0005588033286561475,0.030771651779477466,0.008986052071699106,0.005797030857244513,0.0016322362967976997,-0.032443828962768706,-0.0033521177577371247,0.01094568568513897,0.02044246019752661,-0.03066930070164671,-0.02938052630926192,0.004552423199219217,-0.02867696271290641,0.01811119032568561,-0.02494181596238388,-0.0064606028267418375,0.0251048394079103,0.021218917008040697,-0.003410478323612985,-0.03008742577683775,-0.007279919379967779,0.022097613228264867,-0.003206830506960197,0.019384031575464776,0.02845526533167296,-0.03326326953197246,0.0066836613674227455,-0.006641385769109602,-0.006621890927051725,0.0021367304526567,-0.02273255537658688,-0.03414931094488534,0.009355091440778313,-0.01868275999136351,-0.0027554915389990525,0.017786976629593804,0.031711835439767744,-0.0172994143003132,-0.005278106892988847,-0.0016154361130427744,0.01284922680310948,0.004355766920135298,-0.025020453819651622,-0.02086436147271845,-0.013028754356668407,0.025823476752955085,0.0031555858182481383,0.0222576801850154,-0.012171890593114083,-0.02121639136057308,0.007891550135928294,0.012252054287474543,0.03303303312983463,0.01815584827839966,-0.021941978055214376,-0.002076100760460789,-0.03145967120426843,0.019744609887423978,-0.03537074792666448,-0.031216763536041168,0.0007861949921062414,-0.011153041198179607,0.02437472803676606,-0.026768957932748843,-0.02417445660350321,-0.01863945670910834,0.010635703558538094,-0.018409940566644585,-0.029985896245151956,-0.014901149495621917,-0.0035607470205221148,-0.0004389596714848426,-0.024314906450525246,0.024338907202991505,-0.014972946146794428,-0.00933662616630224,0.03504247048068454,-0.013572990019722904,0.017485085575810987,0.014910270313003487,-0.01861773973536246,-0.016932516402364848,-0.017076601822011792,0.006667403672615167,0.006653893605007684,0.02505911119139785,0.027081037193547916,0.030737323346606157,-0.010978552366188603
0.00021401989631465807,-0.030426101667915068,0.02110314274897204,0.001087840460260202,0.035012882833314274,-0.032294694156775064,-0.0004444965582796849,-0.032720125429264474,-0.012957570432626587,-0.03465456371354328,-0.014780925950518027,0.001991902530220221,-0.013656351386542729,-0.002123207724030165,0.019872832836022508,0.009499279915386037,-0.008687889769072742,0.025679231461266484,-0.002773453578885179,0.007014017156968765,-0.034779250042270435,0.01981170512849122,0.029599203702569632,0.0326221921413327,-0.0011889332263952162,0.005901111941255359,0.020330520666717943,-0.013361319837163767,0.018120104543307695,-0.020380526652440667,0.012823259529080991,0.012703400661103254,0.028976332171532247,-0.005392831549068267,-0.0214849401809053,0.002063143317626255,-0.024985690222926005,-0.0003432372204375947,-0.01465504670824679,-0.025970512188498843,0.012961079778345885,0.022949962635241294,-0.006060470467775979,0.026048806236767127,0.015948724283819868,0.023101818404931317,0.004187988303985218,-0.021739760023947778,0.0336619584613181,0.019226070904578684,-0.008939427357460568,0.00645578264376545,-0.034853375916687274,-0.0048270689722260595,0.026175508981644436,0.02924250459434828,-0.02774494299955771,-0.00422399021288155,0.03015753098828875,-0.021021110012304948,0.02273740044785758,0.028496674142578185,-0.02607124023443354,-0.03100688531454995,0.006907126780054153,0.018154116660327055,-0.005337288788045755,0.026523986537005943,0.016267198573875995,0.002226733887771388,-0.0020200379675396683,-0.02963230730882927,0.007900235065924743,-0.004254920542519813,0.03144875946221885,0.009495172362661343,-0.028837029303292117,-0.032550772615365285,0.00033872007612186097,0.013207939503599796,0.01381305326856442,0.004137620739046513,-0.02847483567601265,0.018412652585512824,-0.00816399374661155,0.012180042793079479,0.02828056688090359,0.01912195169526649,-0.028893573683818917,0.03351791651132889,0.03525513143250524,0.02627393322985522,0.02505425493519014,0.0013698760179944708,0.020397184799722284,0.0068042814071401425,-0.024241644341940167,-0.026402058409164913,-0.009713256551582741,-0.019667934921932057
-0.020037498075112865,-0.013309572714514736,0.03474741756641913,-0.0077750607969922815,-0.012370425228553021,0.0348560506998668,0.03294632478000567,-0.011271423430153589,-0.004705789391645113,-0.025658541898168075,0.022390891092851015,0.01636029051628698,0.01422995137268239,0.004875406674033461,0.006947767283944459,-0.0036271872938633334,0.03148781138951106,0.025584212362049517,-0.03416936318183528,-0.0204201919963816,-0.01605302756428846,0.023821219004835956,0.022773160613102063,-0.002194435035818713,-0.007249114408225508,0.02314082715468107,-0.01484860004789383,-0.03169487476582626,0.022332927683275057,0.00394261611215261,-0.032274061925144544,-0.01339735261391,0.034555920948952296,-0.017466636840708153,-0.02765487819442131,-0.00033255999424596183,-0.01758501066757167,-0.02656253512599019,-0.03357842099235068,-0.03010988905227972,-0.029905726269671976,-0.010186032797760189,0.018970967315642382,0.0002371336723560609,0.022591532384727046,0.03266605824199025,0.0018128548043412351,-0.023032603809841637,-0.014386141104351425,0.027247304116868615,-0.0350998818819535,0.008724166988802351,0.013891453469940675,-0.0029873540957156973,0.0255802582880424,-0.010452601026617166,0.013011456369934778,-0.020445481036419487,-0.018134427799577905,-0.006074087429621075,0.006481144862181459,-0.026843515684502356,0.015103751774369902,-0.01884374699520451,-0.02386291918153599,0.018701160401091835,-0.0026355947667169714,0.0024816416308544548,0.009003967302780209,0.01225635436110688,0.006229944215279096,0.006051877742643971,0.015000972719345125,-0.01313519268787493,-0.02222431395447704,-0.006133469053032771,-0.024046325470644354,-0.018331223279811674,0.026288238812886066,-0.02180897949898524,-0.013817648660657496,-0.02422982236078696,0.022545413174646138,-0.001241556801721365,0.031785806342781664,-0.003870888238376771,0.004275166983197517,-0.011024701241030357,0.01628548670634908,-0.002260764502707145,0.02699319318937952,-0.0327503761696508,0.017272250694859707,0.019084565330852735,0.023816716147478843,0.03249963624461006,0.033414341832260185,0.027396568174135383,0.022995258845350385,0.013084527701123928
0.001048082497057372,-0.03556290438954938,0.031834357523412786,0.010249262675815246,0.025128317348623738,0.0001772931583734691,0.022698488878867298,-0.0178100874656321,0.02159156956036451,-0.0004952860677786136,-0.019192278434064427,-0.00740989217578497,0.025625438356292267,0.014992775385180707,0.028040755806872028,-0.01946874997341426,0.0026125302370124054,-0.015549026649130675,0.032395201003471596,0.015464101317867974,0.01878262853184543,0.01756352557522651,-0.025315684352812236,-0.014364452657800704,-0.014682878248450127,0.009007171577076275,0.027902182255248053,0.0226815830047408,0.031032106374135074,-0.007829397979697703,-0.029947324081326932,0.035141569166342417,0.014583488134877708,0.014104946618139139,-0.026290720233756913,-0.023179096987630352,-0.01626238864934607,-0.00262473879657914,-0.018944420809907977,0.026496911944974676,-0.03369413443822566,0.0120598853554051,-0.019850920036401282,0.031776495933574934,0.004786261678025817,0.020101108279102702,-0.027666701812288783,-0.013196977121136233,0.02391540305640221,-0.02237921641623417,0.0019481938120698011,-0.005368250881032936,-0.01747355538322479,-0.008398861249434474,0.026768668407121412,-0.02634697017046539,0.0016138124654025596,0.0050229141959066,-0.015020548267494462,0.01573168471966959,-0.012711956523010857,-0.0007646089756470631,0.016423652270082762,-0.03515239314987061,0.03223750852169602,0.02343417636573348,-0.014310766898858405,0.011617165870046024,-0.008548932406462036,-0.032023902297310405,0.02038164685642054,-0.015527365609977282,0.002687481268607758,0.0038798818565805564,-0.030041346200607128,-0.00566646433610951,0.026389685607982768,0.011831802356272968,-0.005281028345676156,0.01426842339618703,0.010586740528750742,-0.032999041429595546,0.015566846613340013,0.018893299489299808,0.0333176581081501,-0.010858839842189936,-0.011568880371780936,-0.007104675871723292,-0.008790253709635957,0.0031732671514480143,0.008075433805147397,0.007071449352700505,-0.02728895421707779,-0.008050190687763715,0.021445856799419155,0.0007274645020382551,0.02127801737591219,0.023690574999627928,-0.02294792288629873,-0.014038065058666102
-0.004745951369872403,0.027642764763473528,0.029163194270201125,0.005275015585095283,0.011042488424550495,0.0031516197119045852,0.00472584632657141,-0.014431281921216232,-0.02895240217130044,-0.034694034346284555,0.0001042800365371211,-0.0033764929046358133,-0.003527560648304985,-0.027021140137313184,0.02341509155714204,-0.026049289375659437,-0.015520544662575247,0.009905747207955935,0.027749120820931332,-0.012216033457629755,0.025330301345839402,-0.0209425019780098,0.01093836748369481,-0.003295733824442348,-0.027832314702530832,0.018988957119879753,0.0069535222686468905,0.014386735268685018,0.035266598409302345,-0.031247621250588043,0.0023421424938560517,-0.02242480219151339,-0.01216700596726957,0.03393231171620722,0.0032433966415129365,0.021551678550786272,0.022576957282106173,0.009008895922161737,-0.03379094154268529,-0.0010998640556362247,-0.006544287449882916,0.028368602053546896,0.026859661494517,-0.009923957507138923,-0.020498174114065463,0.035402346145661234,-0.034686733281026866,0.015981946668584348,-0.02390365934845607,0.00020244790508313213,-0.03341559910293857,-0.013748605505213325,0.00678816088314789,0.012882925529708262,0.010895860394330716,-0.012262351173752746,0.027841970704222535,-0.025807918662727018,-0.029408813388781815,0.022708733391290946,-0.0030949761330974395,-0.019410773135420237,0.02917173684334915,-0.016435007226414035,-0.010028145144931326,0.000743929778110497,0.009253320759045124,0.023100006723725443,0.013166420793395668,0.008775567879908297,0.001088943124930184,-0.018670464028273968,0.008879538711277045,0.021512350275702325,0.00016010029975472526,0.011617191360718137,0.008319722686836475,-0.0025987743343820788,0.006430208152322526,0.018146059505625922,-0.0008155404850249612,0.018782556990467332,0.027188297423211966,-0.024166036822586265,-0.026797913851471133,0.03028546481736445,0.004766260257564145,-0.01617796871349065,-0.02148948718873055,-0.03068643960975635,0.033525953477619615,-0.02208241699918514,-0.013130994191255511,-0.030982319936904153,-0.0006913438241837551,-0.027132903367138788,-0.01113073749548265,-0.03331312628475093,-0.030493465663486055,-0.016683384232141128
0.0026395520047378038,-0.010158058449005563,-0.01972642160357324,0.013751034551188333,-0.013983032435109264,-0.007832118677071113,-0.01943778979342461,0.004912642257560475,-0.025366062615690337,0.029042665449490773,0.013240630814341736,0.00798313797457658,0.02024604035132361,0.011235473507122118,-0.019200957231521463,0.014673877983117221,0.00981127166924655,0.0016980902557402894,0.027595615315882394,-0.000396354882700449,-0.005294317583790422,0.029303142893467263,0.0026448135121949212,0.014567694899281398,-0.011898804230655868,-0.016506203873029986,-0.004470161128179519,-0.02638141187253294,-0.013683268606931039,0.02183472255601014,-0.010837452796424452,0.029606177917131965,-0.01016424771304364,0.014723984599286914,-0.024297384521820807,-0.01324472270574422,-0.0248148859701754,-0.026576575326938412,-0.006790747874658703,-0.017713903339672446,0.033030541571207925,0.02600288030706821,-0.029243760858371427,0.014325555600425227,0.025923311209932368,-0.0002548944184791527,-0.020436395589566413,-0.006535344899025915,0.03135950287081041,-0.027223486173803435,-0.01411531074204253,0.0022324693923646416,0.014466154184185835,-0.0017122578442376885,-0.00513173145292857,0.0012577420477186615,0.025835918971464554,-0.0016566012023289667,-0.023519047303880363,-0.006571853844279132,-0.0037564338147233617,-0.023750100786004924,0.004314225417890241,0.026354320576836746,-0.032927823806253954,-0.011903213688659351,0.031436334803127755,0.007283362493766286,0.008990000669233528,-0.018764751342386872,0.026383428850137162,0.030317771144969474,0.02347940159009304,-0.026784182406736728,0.014862491191865397,0.01698893659117974,-0.02842813510401556,0.006876325899409903,0.033400094415393405,0.0216373026767729,-0.0016220415000449268,0.011549362010105028,0.028856240260347082,-0.02485078427012384,0.003818017922211557,-0.01978374365482564,-0.007335408868386906,-0.02106250827220702,-0.010059628589592078,0.013611634326789343,0.02687339089336173,-0.022826846645333607,0.002479159918099605,0.0348433338558284,-0.01202085409765196,0.025057389463304873,0.020514118548162832,-0.026279049035358486,-0.01361321292865179,0.032627645838153974
0.0015882059143557878,-0.034246734536522716,0.0011417294750836263,-0.024225650758057358,0.012235639897272575,0.012847294744471653,0.014037381960055481,-0.010135490525165054,-0.0020850671070648044,0.021892993416094804,0.0016058883626470302,0.03550569983010443,-0.026151341586918224,-0.01776258241557188,-0.030386031730063656,0.032048796980975694,-0.005017031345288889,-0.004904521921033807,0.017052335516258454,-0.02676196362182414,-0.032358698575477914,-0.01413940761852478,-0.013915502635259844,-0.006205458332889737,-0.03204933512361182,-0.0017249355809009215,-0.005070108277638881,-0.03319424823957503,0.027025385755899495,0.018070048611612377,0.019108869733456928,0.03182493978761983,-0.003226606445236334,0.015838627539944652,0.00025450075653397214,0.009857135370352405,0.029092827101369262,-0.011904263591226903,0.0006012862890711138,0.0013519447713213478,0.008893632544154553,0.029476821724628385,-0.034244094185313316,-0.01564264926952268,0.012058450185321354,-0.007467767129692073,0.027575079999564836,0.00868573774655914,0.03173895857446493,0.013923576769958333,0.03228790787933182,-0.03230717969799097,0.0216276839440446,0.03169050057089928,0.01729019499692082,0.01581632792431338,-0.024703577621034072,-0.006815531846641878,0.00575996684214302,-0.023581970037972542,0.013685742686057795,-0.029867225863370133,-0.03176461356633982,0.020247774373677946,0.0025881549744322177,-0.008330867201493182,0.022541191268443804,0.02151782095514495,-0.00802582450897582,0.007330294633285016,-0.017714590797139884,-0.03151067272328713,-0.009150362590424226,-0.005849578876044852,-0.02442179953061885,0.02116029205267688,0.004214307548999992,0.012537035518927861,0.02717705177349687,0.027739259344601447,-0.006732978649848856,0.01433857283972699,0.017399484548194802,-0.0022843999258559747,-0.010791420133833163,-0.01996140894763142,0.035645148031319074,-0.0261100004097813,-0.027071517477944722,0.002744726604596112,0.011443570917305496,0.028876600787743997,-0.015213377437446454,0.03280001529419532,-0.016519416369805442,-0.03351590932078292,0.01956736719896697,-0.015575614542352376,-0.03436971584097166,0.006586595178150849
-0.015339862781628147,-0.007936183407896542,-0.008952760834591005,0.033508085387927156,0.026545457499055083,-0.00420127784006448,0.008031562118960146,0.006834978176206728,0.01087773368745451,-0.020314035209773533,-0.01184188627030405,-0.030787686519690556,0.005268370731941412,0.01624215007238649,0.029855501377596655,-0.01457738742065803,0.021342136018106424,-0.014718073299200187,-0.03308309933592363,-0.012397525400505753,0.00014553044289521144,0.014031532912931043,0.0005858070213348304,0.0060418821333953834,-0.025068685036976117,-0.034537274523085894,0.0331926809829009,-0.020893731812491725,-0.030056117018499123,-0.02278689330612583,0.018765280448493293,-0.03496305190016635,-0.0174011122105026,0.013965210138078409,0.019626866504031282,-0.003116762159279772,-0.02342511693549742,-0.02966504417408686,-0.017796539719278612,0.023410788261849398,-0.030347155222580413,-0.008817389622610035,-0.02142996775314806,-0.026466929705300773,-0.01066730791952513,0.012460175399115828,-0.026838073250322794,-0.017432134514031083,-0.022059150060634285,-0.01261544689537784,-0.0027914054101386074,-0.008057414678053994,-0.01347399182908516,0.014782443591134148,0.018077120905042036,0.0024429213594422475,-0.0343021780912728,-0.018669729700077946,0.020285426817558946,-0.028382985654990246,0.013556639494693004,-0.0010687447035946027,-0.03024149809380524,0.0071690478752596265,0.02712570603512718,-0.03091170547273935,-0.00800672917668889,-0.029543933431566374,-0.034581990749948194,-0.016958185862766102,0.029605884288138554,-0.01245043804864519,0.014944588760270154,-0.03472594961935641,-0.004575980061190286,0.015454433145998696,0.03563428778734179,-0.006402765233032841,0.008999803722515513,-0.03246399322499655,-0.003495465158430376,0.0038102250941663487,0.026889323814355603,-0.01694510868718294,0.021919636108233602,-0.00345995667676912,-0.018771297971668075,0.03382904574746691,-0.026307806856597497,0.002458751281316271,-0.0059346904367639924,0.008456342923776713,0.006742245243667004,-0.030251763594920565,0.01616920785678276,0.005783307659893301,0.00017171162062331463,0.02136884244453685,0.027762299064051324,-0.0075867392728626686
0.00043486069505601493,-0.021897619918148974,0.0353531646783764,-0.021248464373641196,0.03173208220199224,0.03407992578625808,-0.020038838642493575,-0.017638807453157854,0.03500210275064959,0.023041245570041412,0.004892784940027796,0.024296247976617745,0.010306242509208266,0.029609703410859528,0.006002110688537121,0.027011296905474783,-0.016768194412799062,-0.034191045684332406,-0.02832658131491552,-0.030928886509235014,0.03320551779036501,-0.013441336542653805,-0.009112768620148464,0.026631428056368436,-0.025219160313902183,0.0193517199487602,0.028873409434549704,0.01316118997517985,0.003984940810329053,-0.012197545343587746,-0.008957319663748266,-0.010148577979608806,-0.027802318439056173,0.0028429834662405604,0.02622659784419286,-0.018046351584305398,-0.011218962468090565,-0.01585283409353237,-0.0005703332647893494,-0.017691794673960957,-0.010357120793679422,0.02444795840632453,0.019613816793257154,-0.015061189429465827,0.017648612757459353,0.031331937934262075,0.0275237835647128,0.026175806501993602,0.02458680574170314,-0.020450125596023588,-0.007745515642629968,0.02807152713189942,0.0087135576817889,-0.026359640006520784,-0.020861301866713564,-0.02203664986359013,-0.026389216247275898,0.007472695609548233,0.0037460371694449726,0.01210095673895395,-0.006718854174712279,0.02503962390997229,-0.01482159583428589,-0.009541930423900113,0.031911219609636124,-0.033653815593543475,0.03471256204586366,0.028295220059236056,-0.010537737122854971,0.03427458579501154,-0.01408952371447102,-0.02414084805637661,0.020151085080167663,0.00943565796516499,-0.013154790229921103,-0.01544227459487722,0.019627727711326502,0.012012002652630811,0.002360027980010504,-0.026000979354590448,0.033420005279255385,-0.03430147864660154,0.031106784431580922,0.007759165396029041,0.01169690190892296,0.0268836087348283,-0.029408418890834516,-0.01882858845970273,-0.012010644984352059,-0.03247989790931018,0.0027149351598023605,-0.008295095649745659,-0.0030776392869294802,-0.005623059484924222,-0.004286649845369236,-0.0021653523815747255,-0.03299126268913177,0.035274013029434004,-0.010665764085757382,0.023152341638791873
-0.029915516471014574,0.029924206492612293,0.013627640446921968,0.03354042194428225,0.005631604893266154,-0.0354324373059746,-0.017549130436802816,0.00832941670906135,0.02422739748879807,-0.00015469820217473007,-0.005152940327309348,-0.029717942368113415,0.03456347023033654,0.03240566515387999,0.025557496167416885,0.026483796096329663,-0.009215337867016664,-0.004257578075126819,-0.02392768392524671,0.02681457971848275,0.007686568432520621,-0.02029575766588721,-0.006343216731670796,0.02019114897917291,0.03457790892120145,0.023828895361044593,-0.026421950886998287,-0.0352960203267867,-0.004647134224371876,-0.008239011691601437,0.020321806318289823,0.007394777548814603,-0.021262370511358868,-0.01535877520661294,0.02819915224456991,-0.00248584305842698,-0.013382990715485606,-0.015301313325888386,-0.01190522731071739,0.005103169203823296,-0.02132778270723911,-0.016596263720222593,-0.017253257475939657,0.015109942840838213,-0.014477074814061106,0.02892672793957239,-0.0017741793614433968,0.00043573696988972316,-0.03187621320671693,0.02292980670533501,-0.03559772890445295,0.029931379894708426,-0.025689388513033116,-0.015023866413715312,0.029610452041737678,0.03362246713912784,-0.019803950508952377,0.031828115467274695,-0.016460859542470205,0.016873940740132203,0.012739944915432198,0.008704174972823754,-0.020511290719366866,-0.019689733731389554,-0.000797859945895367,0.035328844580540614,0.02409013567995258,0.02073154589198338,0.0013051005935382151,0.003046812787380851,-0.0105374182480555,-0.0049700522524924115,-0.030431127736222186,0.0013490576699878715,0.032045836069025224,-0.004693366778013765,0.03444043202856707,-0.020449779161086652,0.027038611979331148,-0.00015608339461033877,0.016964075958147994,0.024045026747307366,-0.004893873182832076,-0.026826953678936043,0.01566125703913364,-0.00040843230435228667,-0.031968479080284246,-0.026434290070121595,0.025327877128616526,-0.020102298064746962,-0.026384245622351588,-0.03191703208534155,0.006700272468337529,-0.03140480501326306,0.027231218472955884,0.022201736971073013,0.024985522308368653,0.008972088224520829,-0.03260300779342891,0.00639619152141193
-0.027895334302535622,0.02145290957383572,-0.0147491122490814,-0.028799935757638284,-0.03218543985277791,0.02188265477972485,-0.021395443613980998,-0.01796412469138352,-0.01536599147162945,-0.018621978863526747,-0.012807254975606,-0.020819968596498904,-0.024268604076157923,0.006108289071358665,-0.016949444265524163,-0.010874922742165463,0.03180821715670627,0.008746592171671334,0.02370441906142104,0.03218413652629053,-0.0007600109659694834,0.027125522032772867,-0.0348122634114637,0.016796227513280214,0.03140864945854081,0.03169263275682936,0.0007482169036810982,0.027306701336433703,-0.008716903608107403,0.0341634247559407,-0.025254114055698256,-0.02229267873746056,-0.019486003537001313,0.01513155855417471,-0.008630970405062784,0.023606530441250134,-0.004804515281271522,-0.01588975301825829,-0.00636026896145115,-0.034256126704812054,-0.00127688606292322,-0.012002713736451898,0.027455543458342557,-0.015683136933089606,0.021726579106272022,-0.0015930812140411837,0.013772146459736595,-0.005693184519228671,-0.026635594718408283,-0.008186604480890956,-0.023427350838864595,-0.002887348794260662,0.03197516634870343,0.004368420259570856,0.01282548888785489,0.018164971587349095,0.013942343727756552,-0.011970253773281394,-0.02263330317228421,-0.011193897707685498,0.03408840704789419,-0.03357003794893183,0.020231753632631154,0.020548224062759718,-0.007826701210430276,-0.01464429131007345,-0.0234916919021372,0.0037577863063941175,-0.029809908042530163,-0.014517285166093692,-0.02696932535031627,-0.011263853963274752,0.015110326521292156,0.01745974729709765,-0.02351661135507118,0.0006079771746327761,0.019580541181787363,-0.010743062946327469,0.0013920417337547827,0.0011778871791945367,0.02419885653468625,0.021150084006522137,-0.02108400456440325,0.028833021346025972,-0.033680833316583274,0.022137248080335854,0.009943525376333466,0.014453187067861042,-0.010783335616881662,-0.003757967225346423,0.017517936607929822,-0.005172103526108203,-0.03075178524323995,-0.03158294652876159,0.024098845387798114,0.008112144815404891,-0.015678467710683843,0.010063572989828913,-0.0228733948873071,-0.0009231379145641233
0.012471781053166146,0.025042641561683218,0.012456719144740488,-0.003343516796624757,-0.006816891762792186,-0.0029741143716152316,0.005604927307338317,0.026790374042439516,0.009041360095711541,-0.027426755904564996,0.025955350776283595,-0.017154946923937955,-0.022054428767431376,0.013103905320418385,0.024889578563334687,-0.0294503370682739,0.02379639787321912,-0.02785751255956144,0.028541367079309723,-0.01630116969746665,0.03034179658164189,-0.006173587685519691,0.016725294135413404,0.024596548972431062,-0.013011316927097973,-0.014107333946605863,-0.006418373435449057,-0.023618869365342653,0.031220526630472353,-0.030405049350572873,-0.031093798600220806,0.03006540962248648,-0.02865984828239929,-0.030712861120533244,-0.0033309909825412973,0.005470841899703968,0.03253595718176258,0.0054483066465760635,-0.013170071897283,-0.012820530689890641,-0.01012400140293828,0.020584381417427133,0.003866121333096266,-0.016472704891066295,0.0015715691007766666,-0.007317692891559622,-0.03556716073341457,-0.02948360493693129,-0.022821837464812793,0.033546821047410386,-0.014079787473912631,-0.01875684101755931,-0.0032319374999039904,0.0012993109007814266,-0.014935647521885989,0.030547027171194757,0.015013641752251193,-0.031091499089514217,0.023420418085053324,0.0011856240434768711,-0.013324009701605948,0.03150699512859112,-0.032189820527663594,0.024774355964649657,0.021452632369308153,-0.009903696999922194,0.020011408688432472,-0.00031981779777135594,0.008555489847648465,-0.0015989078470043036,0.0075081818684272425,0.033624942008803727,0.0024617925226189316,0.008231078195889294,-0.030714884713917652,0.03317252721813052,0.03028247688190129,-0.021980706464343018,0.02771336498621252,-0.0037163255974093576,0.016066841380676315,0.026753744535607235,-0.020596005589799037,-0.023654282529821474,-0.024222174718945444,-0.0036550048476389554,0.028399767366642,0.022558564180235968,0.02158191577484482,0.009696797046209259,0.0006881362982512559,-0.0016417382787626694,0.013810393961295825,-0.003952477624951711,0.03252161528809992,-0.03382838910401076,-0.007776245116987594,-0.008727024325819725,0.03448712983933509,-0.014069607954043946
-0.024089357896157806,0.004509299940671056,0.007256538013783113,0.020259151111113025,-0.011133962297225432,0.03187765585488532,-0.015433330957824985,-0.006767278617806929,0.010143755799223338,-0.03474754255577462,-0.006518605241671773,0.028516542660798866,0.014449588858179173,0.017003171381478076,0.010666204553917688,-0.0033605778974865608,0.030223637229572275,-0.01616543544327631,-0.014311939823838382,-0.0001021676210042552,-0.003852766394224841,-0.031088363269303886,-0.002196554922153246,0.01491522379217651,0.0016435714574431978,-0.03429665487174801,-0.029094921193036128,0.019859136912312184,-0.010682113692750825,-0.029959113657305903,0.0253657826434854,-0.01880209572280389,-0.002700296510664099,0.00655488037581433,0.022862700744655337,-0.01631901506068825,0.02121773845459729,0.029925513843178528,-0.022409227843992,-0.020108356693150267,-0.003504886760759128,-0.011909840012309807,0.003933947180877688,0.006597039739848425,-0.03399613769531195,-0.008422558379850033,0.03202969059339737,0.004909130588886,-0.004416971931476728,0.030086712517881628,-0.021545776738932525,-0.0008884862864715418,-0.01935180817329182,-0.034203030456828466,0.00925635621284765,0.028420787852223517,0.018828834703339202,0.033523539023713106,-0.02258023897763102,0.0035224122785868506,0.00647997915056122,0.004876896222010096,0.02706039956305807,-0.0277217407260752,-0.011417598108268825,0.01774974048123381,0.005185380825714785,0.016271016399668367,-0.02976827010362021,-0.01691931873767785,-0.004285842511235614,0.030180809531446307,-0.01707822654399256,-0.03407085066640486,0.029359612702170662,-0.008751010907931924,0.033523708665513574,0.03237246326788379,-0.023674289142068015,0.011492681638466243,-0.0001432845204063296,0.013575772202204073,-0.03545351005524239,-0.027416295396652163,-0.007605918453801302,-0.02989645497105989,-0.014758122340499159,-0.018192138070088282,-0.01848452553948167,-0.03274733804987467,-0.034462764016948436,0.022369934890682175,-0.011349593911872298,-0.02433559417753287,-0.002530991900070105,0.009880973002197563,-0.03421821409557988,0.01000934034394485,0.029070184573163876,-0.012441870448880048
-0.0029063086003622354,-0.0107967196306284,-0.0202023156545948,0.003596082270482401,0.020490276048652827,0.015044269222858592,0.009881029966858162,-0.001169698480575354,-0.003576377234414563,-0.013983357816877973,0.0013717715119604332,0.020259028782341745,-0.012833303744916962,-0.0268089693086579,-0.02799643396006836,-0.013639343333776744,0.009030958854524665,0.013227804837577892,0.00907121850597177,0.030235831651062584,0.008764508168654539,0.023600322692496234,-0.0025637140981022016,-0.023926566897726667,-0.026458183890698588,0.011561559865329335,-0.03419315019870414,0.030437863626196646,0.010014888274632858,0.013374300464806449,-0.030013385282898968,0.001082599281150412,0.0015822756278067937,-0.016849314573867933,0.01865993971428359,-0.017386331616544848,-0.003051144444638186,-0.006596202153978777,0.008397169350564983,0.013301959857842015,-0.017424616862444453,-0.03167901295254565,-0.030870835455796306,-0.032724539134931466,0.013989371226822873,-0.008501882841065289,-0.0227976920839078,0.0073710183816549785,0.029036265282983142,-0.02145059425432156,-0.008429434861787155,0.012352226811921704,-0.03287583016658652,0.010017546798215635,0.018606946788756178,0.001977853856369713,0.009301719615356939,-0.03261543774139005,-0.00041905589120529857,-0.02966594239244379,0.029813411850111868,-0.034063454363312644,0.02982934831084387,0.022229898306870402,0.0006251332056300615,-0.020443437232877497,0.03526573210527095,-0.006794511945511044,0.031071596123314588,-0.006889707167413321,-0.022562507804048462,0.007231079047213096,-0.030399997172095405,0.028234074653276015,0.025133710646646504,-0.029073510961801472,-0.00750233815772958,0.03395264891472363,0.02636768506583547,0.018388193583553585,0.005993556575933805,0.0017900503707066612,-0.01780892005645966,-0.028140500115504452,0.008931617253066841,-0.003941228570282007,-0.020896779357363164,-0.033503879691189946,-0.017567837914234132,-0.020678331391424973,-0.013868466280051107,-0.017314766010538676,0.013158361858608407,0.009739875964074794,0.02656751620976819,-0.015973076517798637,0.024703372557635238,0.022711517414559776,0.016343737535504457,0.023422817482308754
-0.016387181061858814,-0.0005518284611438079,-0.0215164162843259,0.026351357389448535,-0.026268660666476117,-0.002566063998267601,-0.030966376228741804,-0.02210555533893318,0.02686881313004494,0.026923300789110108,-0.02641019063527092,-0.0018729670530094542,0.01609614228257837,-0.02145606941123429,0.01273127963599116,0.035285384684015236,-0.010506176719288003,0.01240770489748412,-0.029036415513987102,-0.03141207444428189,0.006405768447084556,-0.010490285153907524,0.019376457616489866,-0.030299974580044558,-0.016622749948117122,-0.0017369164131315756,-0.026384060048522416,-0.019296198359120536,-0.027919327989691337,0.016596014270025945,-0.02414327862269831,-0.022801621407568473,0.029089965259093506,-0.025986480246343063,-0.010495829651889395,0.02351290275290898,-0.010617458014368086,-0.025504510852554195,0.02482209982841104,0.025967305332543114,0.0027502601266400292,0.03568544966478773,0.005186577811722062,-0.00342042728708819,0.011410255136537865,-0.02805216245886983,0.013410487748001035,-0.016557375178657557,0.028659204794117002,0.029819845526329644,-0.008776594337905761,0.009213995268280865,0.0011026523386629059,0.005401099200056922,0.008536895511580225,0.011611293963977642,0.002886204301792414,0.009716461301210386,-0.016709603600382737,0.027993758230932128,-0.004587288526309494,0.03184857110141222,0.008011904495199847,0.007956959721408995,0.02422969384655746,0.021771523685254382,-0.033284859461856026,-0.03469990068918787,-0.001968412282297667,-0.005814622215195353,0.004075216980380124,0.014102729319787906,-0.03126701129963971,-0.015468389184467,0.023761864985445517,-0.023418139599801317,0.004116970842194853,-0.027412097674053622,-0.01752276282376505,-0.014411917084237096,0.021342886276933384,0.004644079575584992,0.012378724669189885,0.02400275110151196,-0.025357488161352193,0.01529008478923962,-0.020852078439833957,0.008885365136585673,-0.011903598292934161,0.012339381711409934,0.02324202859011855,-0.0071305184932611045,-0.021806640629522103,0.006027686350124364,0.024599366308826184,-0.0015784237187802114,0.035217107518923596,0.014549267594425937,0.021593572346660123,0.026086680561302332
-0.014366089357778,0.01714900143532358,-0.0007936918838568688,-0.010444173810245792,-0.007728308366093999,0.027416486827529424,-0.012687153982919228,-0.0009715020474775002,-0.03162871681702116,0.01746016167657674,0.028026500522725595,0.032539600976915425,0.0009688521620559512,0.010961578673644709,0.006558288275792891,-0.01995983670982216,0.015495240251024119,0.020499425812724265,0.03284548513832426,-0.002664881309553606,0.03392442019218363,0.01586641400822711,-0.018526140332438323,0.01903870782279079,0.0006792793900974176,0.009127567869601123,-0.009958213443175514,-0.03169747370515509,-0.03547312459292723,0.031116262369523237,-0.010833610573932784,-0.029231310452478208,0.02790119658082718,-0.01592090046439747,-0.035621227148418935,-0.02945226131368781,0.034736906898034506,0.009278716926035921,0.00873676312878676,0.0318169746710078,-0.007237510684067607,-0.021127804534037873,-0.002736696794052508,0.02999519019025708,-0.007798268678505589,0.001416875565997476,-0.029292215591510785,0.033964127983785966,-0.0054993095266388445,0.03189561322847061,-0.011103278564360997,0.02149876228805904,-0.007076689889394201,0.017301958239044686,0.02190120705864084,-0.02737137717920464,0.020620213331732085,0.0025518344238909182,0.0026565092045464783,0.02524018444115962,0.020051382600418305,-0.015931536200544803,-0.0006695266709331668,-0.03399122503977,-0.025176097891367002,-0.02418158425740652,-0.021302439736428327,0.011093840132647484,0.02266753178573256,-0.029460169200653964,-0.011986624241532334,-0.00787905038950288,0.026016554281461365,0.007641434693906823,-0.020676457163190734,-0.034397143079165714,-0.002902915677549543,-0.011942170845297456,0.022504824644769605,-0.03209552296069662,-0.032637391604981775,-0.01717749667308779,0.02506311176618082,-0.013473153132344134,0.004828095339229906,0.02701520692353182,0.015414336924520641,-0.024060661885958838,-0.009343834986516902,-0.0011780744390524345,-0.0028000635387253406,0.003424305047999232,-0.0034302146317278653,0.02317785598183507,0.0011337880468854575,0.0022096592508508775,0.01593834856616256,-0.002472667909196799,-0.01763741034082986,0.013844116966254559
-0.020678284997219465,0.021627975307637853,0.010984614313254398,-0.029884648298671768,0.006713484994680732,-0.0016802299211091318,-0.028750178510180968,0.010130592989007342,0.025538227475515728,-0.016132258508459854,0.022962888154946695,-0.02667705824483787,0.007170838383369689,-0.0006342782617293138,-0.009326222503158177,0.01047507996065318,0.01898171681430766,-0.03150067352563629,-0.03149182241930742,0.001940443791074338,-0.004802995084332365,0.025140647599595015,-0.0036269372858467527,0.0040883926397504225,-0.0002538284305213176,0.026858787987289662,-0.02712672255229262,-0.02516469366730957,-0.028834869427636307,-0.0025504167930249233,-0.005471143619754797,0.008897227722820734,0.014182557119619014,0.024571634323791898,-0.004159771571921968,-0.0164048013386667,0.015920617863429624,-0.0030128657521287447,-0.0012057065481446,-0.017514646798632277,0.014852918169076954,0.018794513083558187,-0.03201233036968967,-0.029690382137579286,-0.007966408728894085,-0.005700189886353575,-0.02922332667432616,-0.005870482179762517,-0.029839624911379304,0.027086788471286455,0.01124503649351511,0.0065520116471455975,0.02551668519089162,0.004389048160944216,0.010797332551342805,-0.013131733395564449,0.029589731463622482,-0.02539555901000013,-0.00786401148875802,0.0040446734165854314,-0.024602015548741467,0.0013669481428449717,-0.03153591424547479,0.001149360604495095,0.00023949205306011967,-0.022459601096263698,0.029987837692149216,0.01624245659144386,0.014629438974022961,-0.035149773390059515,0.019050994842548005,0.009358001196271455,-0.0037387416895175024,-0.024349155553919238,0.0016387617378097602,0.03386272856566187,-0.005731932426124749,0.03460859214050874,0.018841842382730838,-0.02323384356984009,0.028523162343760025,-0.006372812444747227,0.003227307399334134,0.02623886433708513,-0.0077816195491847845,-0.02737437576609427,-0.0016293637969300792,0.03255432429354285,-0.031712475325367494,-0.014499261386853202,-0.03461090854111529,-0.0071605463973767255,0.019067985345060046,-0.025774104405505226,-0.017864819544739268,-0.004227124007745241,-0.0343842725659418,0.02841603197055552,-0.03147194041373271,-0.010333010132455998
0.003983654868164578,0.034421749616688646,-0.008932782901467467,-0.03569374097404139,0.030704172699814875,3.591854308536424e-05,0.026657593811035878,-0.01606812505465247,0.027179988947031386,-0.006267098510682752,0.022113146364349898,-0.00538963881762931,-0.027301954790725953,-0.007815402217828338,0.00023342100734023707,0.018895626354279146,0.031302139991478184,0.02998498930328722,-0.03253823964208683,0.01934984403386003,-0.03167963509740218,0.02460771122125098,0.024707977029835113,-0.013936105223621445,0.008579436002966158,0.029815094569375533,-0.019215339051244704,0.032369810948533945,-0.023424529067932964,0.0049028006028581025,-0.00823904557450899,-0.03386644788003181,0.018798935070431108,-0.00042099205001260714,-0.014960525587391582,-0.0006002830069820123,-0.004483791692821006,0.006366436540984191,0.004116223144749569,0.005858163993386824,-0.0022587781508991087,-0.012322794543855778,-0.02949394533117859,0.034506227059614605,0.003427738182498731,-0.00949139189231725,-0.011373638665870392,0.013307877790385406,-0.03371689880647013,0.01762446822759199,0.009174250422119112,0.0005848453001089035,0.02831438781707747,-0.00012286178887749993,0.009149298342445142,0.034265503903782635,-0.017590547515140678,-0.0048297684163858025,-0.020787893363896692,-0.007807128173387148,0.005370587773999562,-0.021630804755168136,0.024562334507906056,0.029703519506470086,-0.0019281689644673403,-0.00888942355988934,-0.024380220277443458,-0.021160774058968473,0.028478238400819325,-0.010428032517301938,0.017479345926744654,0.014639264509075926,0.017862541345334847,0.0011616471138892956,-0.023080852296466017,-0.03234572838566037,-0.009652365933455365,-0.014649652484521259,-0.008250086296030603,-0.035591556805208674,-0.026648956549126745,-0.0327292280691387,-0.0025592802151420124,-0.03065860882558046,-0.024209851221835617,-0.027584767041403113,0.02625330944511372,-0.031908695695518234,-0.005131027892763065,-0.014308540469854563,-0.0010681138140572824,-0.026864747799843,0.011794325513346124,0.025516750952256362,-0.018299363084574645,-0.019557364134038944,0.01469889747187618,0.0274855965601562,0.010240528909450118,-0.021352535056162657
0.005735297827709339,-0.0063007299636918465,-0.0009488615073974874,0.021641784927404303,-0.02827158115675474,0.032697485320201974,-0.022082015103835798,-0.0032655488432770594,0.006155839783894709,0.0196205044498777,-0.016911727356831798,0.0160735741543099,0.03110858144919311,0.023785901483567136,0.034490500893964646,0.024103565377627284,-0.005143047641958665,-0.007114386574920608,0.0018096039410033654,-0.03358505559767336,0.006084352260392507,0.027325564504480926,0.015537027851678237,0.00015707769598680837,-0.01919309685130687,-0.030851699092053445,0.016301282875258602,0.0026022979181669487,-0.011741891308213903,-0.0011815825954329326,-0.02631450134351271,-0.03486012877956529,-0.03342486593961391,-0.025750284702302638,-0.03179917779429099,-0.020249335687266976,0.02456465783720841,-0.021186657522999135,-0.00027734562351657693,-0.013050146395206588,-0.032372748839270764,-0.02915369201420015,-0.026684012701556598,0.03346906535250105,-0.020426023123030566,0.006280789670296619,0.022029483499252142,0.022080820542373668,-0.005968722385865082,-0.03339463819304324,0.029297324987894904,-0.01655102298220149,0.021397735781586616,-0.032322628557885494,0.0014480958575283503,0.023439962452559825,0.020976580609374976,0.017693594975262864,0.01840669367009507,-0.012116372630103678,-0.027466011894707286,-0.020921722564438153,-0.022360184294063515,0.013398549587457446,0.019794963924288242,0.017447201291464272,0.030458683358303484,0.030287132727987845,-0.029391700271920188,-0.021341816456480794,-0.00872514005956082,-0.03257745247070462,0.022737551477826246,0.016966645384822725,-0.01799318504002183,-0.027888739928867493,-0.006771400241953798,0.005943253373101864,-0.0019291339696110368,0.008458389026896544,-0.020825798751240847,0.027602821736657998,0.018598947445855073,0.014568244900318938,0.01829952189274235,-0.017678151645020488,0.0006989122263914571,-0.02830467773791021,0.022725709528796156,0.009503759097934682,-0.014977823089148117,0.017129580079208402,-0.0213481873720481,0.010133212321324324,-0.007570001692758628,-0.015596655468392829,-0.009907179029228639,0.022522439202078047,-0.009093082101812065,-0.03349959429274927
-0.025161512416228493,-0.0013057134345939372,0.03341000789637044,0.02866436367666768,-0.0182801710527027,-0.01174045421458551,-0.023204510653785447,-0.012478418623128332,0.0204036797546688,-0.018918578965607842,0.015681074564909768,0.03563107290378495,-0.007397891954883842,0.015506993676255826,-0.03452147169258041,-0.00863798071081779,0.011061002738065089,0.03240652944672448,-0.032645267068070576,-0.027584109738667553,0.023148544373740816,-0.023747045743510387,-0.018448734748999353,-0.0032486489107511757,0.01622870954455368,0.016754023552699775,0.007730066621760956,-0.014740207764790687,-0.014950742078961788,-0.03363732087060331,-0.03433748518195741,-0.01957622113590077,0.015431991574893243,0.031970496527848516,-0.019817222096468492,-0.028708199367782,0.007024392940926147,0.027724076808420234,-0.01930776494519668,0.02541546263511811,0.0332473437269377,0.009884281826286298,-0.006533487627220683,0.011956947605949134,-0.027003262163848206,-0.025763731155005132,0.013509323686936019,-0.0092288709544097,-0.007546095547331669,-0.02373860024856047,0.018348727872562857,0.03383238834921215,0.019385783660208808,0.008266179066154636,-0.017353212318744933,0.002936118034042319,0.020307234981060157,-0.011999585490891966,-0.010426304257503072,-0.017208582789793432,-0.014528779642431662,0.006067114209337254,0.02055322331554093,0.018997013472601694,0.030907115941055607,0.007055283275789935,0.01931130783150249,0.004375357802740967,-0.023512916137949834,0.016337879080987487,-0.02322822248057279,-0.0016882815122322703,0.004670571873470267,0.035456202941302084,-0.008587251809070287,-0.010713195699878053,0.026898378734039607,-0.020785032280732765,-0.011202924414714877,-0.011643393761237669,-0.0005168493176817071,0.018373638907734476,-0.031478336465014425,0.03116452290496033,-0.018148335385997052,-0.03293070921340683,-0.00411097515121097,0.030773652771220045,-0.019918843452476645,-0.028959377317946056,-0.027336698592092444,0.02082446536953135,-0.012945943335965056,0.017313933233304157,-0.03121123251939114,-0.03384564012404343,-0.027983160181153797,0.035406700851288594,-0.02848449203141773,-0.029871067313613917
0.005118162439841159,0.010380359638791518,0.0017482489060835632,0.013088880935108266,0.002543403103176446,0.009453021520422905,-0.02131331509024021,0.0022887621536496552,0.03510130412004911,0.0010571394596180159,0.02945268132541011,-0.010756081321296296,0.03345738950217053,0.024241470838282486,-0.02152158379596835,0.003459979525159765,0.004941279790957272,0.023839731114797563,0.023857073862406347,-0.01615122357491767,0.011640683684394325,-0.030189393680077867,0.009412313973815853,-0.022964905523596146,-0.011626737264625524,-0.02011221644278656,0.011903330783143713,-0.010879181220204384,-0.01645479319374904,-0.02714602491255702,0.029907190226694386,-0.013146598480957165,-0.01722074431532511,-0.015396548896733402,0.031692827689840275,-0.02235801115076139,0.0043189022329968366,-0.026402593861740868,0.0076408706737882,0.004780439993046823,-0.001505872346277734,-0.00812619930273624,0.03399307351928592,0.026256333104701955,-2.3881946404347154e-06,-0.019554625565181973,-0.026931062012676248,-0.028569986209114422,0.02314846061993861,-0.011548596614749058,0.01578209122177396,-0.0012343362716915399,-0.03529736837736002,0.03392563317238971,0.0029407205819835316,-0.015028797020455942,-0.03315060094547368,-0.007302365144363925,0.008255309285318917,-0.005310241264129236,-0.015862636836858908,-0.019797497615469957,-0.002022934457083285,-0.006710818408325554,-0.023064955895057297,0.007048801068022935,-0.011997677234628887,0.015122319685182795,-0.02493523785004642,-0.017774470868263937,0.008527368883244117,-0.007759188116562121,0.020348271286729634,0.004441584138150108,-0.025239806597383212,-0.030365153835567236,0.02468801127896688,0.006987809926257034,0.012975664257647034,-0.0003281486677531448,-0.027701099738407536,-0.010706007979663971,-0.007500012239297447,-0.02980915982083006,0.002144019314231041,0.029723322978682964,0.0032230843559012193,-0.03165793559058207,-0.015937051085619252,-0.02527428006034375,0.028056285048306,0.024619544082922912,-0.021902607754203787,0.03290801176601582,0.001229500561046773,0.011680628218053234,-0.02049751016724875,-0.0281671532726914,0.020305467655999665,-0.02044109739721412
-0.0025966301354683474,0.019176910597781226,-0.03180647527258955,0.025861274307802246,0.03245082245533132,0.02691710971702116,0.014762252812273453,-0.007800627256772934,-0.0066442439071469316,0.023262932668823615,-0.03215531185944046,-0.01587429263008586,-0.014885237588417224,-0.006432899348744834,0.006154491917083123,0.019262527333601412,-0.004578107528186208,-0.002134282277307352,-0.013682829253463813,0.03351671289643221,-0.004252303736634926,-0.004742875263257364,0.03271601224513179,-0.03009766654260504,0.0029606757976955514,-0.031920074571914085,0.020363260022484453,0.031238944754075806,0.03544780864956497,-0.017880874501871234,-0.025274872611931475,-0.011708210657278513,0.003398091746618273,0.007674609872441486,0.009166336719129163,0.015613392019716232,-0.020169740965768977,0.017635070002675737,-0.010448185949112978,0.014202836752452493,-0.023458364481349872,-0.026681839844499938,-0.007017792134004178,-0.011276945596471528,0.0006932986068327457,-0.0038092275202836964,-0.0047038661327440945,-0.01363262126862376,0.01742360853956501,-0.018126373226893366,0.0059879260736043355,-0.017341533032093102,-0.006398208668711807,-0.005411447113946304,0.023121627815737344,-0.03479036164847819,-0.0024886394273696683,0.015107893896560656,0.016944656247167192,0.01547342486749264,-0.01753759450639937,0.021830406601367543,0.03172890395305179,-0.0065959782765978164,0.02281759110237966,0.03412839747450838,-0.00024350153811606573,-0.003499214358094478,0.031784498068664055,-0.020743262640471653,0.011269441480711864,0.013011213902208218,-0.01717487451507095,-0.02510985798761478,-0.012696994456085964,0.014453975604452711,-0.032413937795131735,0.0017534792148727121,0.03080169834534882,0.025820344344240458,0.03274840524035401,-0.02230879605119882,0.03003235677800138,-0.022730688380960387,0.03249581903458286,-0.035558458462346836,-0.0041567052550111686,-0.00893813759462261,-0.016147127170383944,-0.027486633884799494,0.022282600747692623,0.011008490618013705,-0.0007178021501248119,-0.021910224964115647,0.007531630262319476,0.03510442199681507,0.01090684801967081,-0.01023101616409958,0.006794849585127154,0.0267145466488459
-0.013883117500288264,-0.008731913746632798,-0.010749764329571077,-0.02195945166353085,0.03327624591978748,-0.008687249176651264,-0.02907778314101492,0.03551323773975329,0.027665232918770103,0.00974690852457069,-0.012319618409918258,-0.01350375592383938,-0.004292783839320765,0.002338461762200684,0.02806097381037248,0.011587029305546635,0.035672048151979656,-0.006812608792290173,-0.010456193342161475,0.00927654221055977,0.013316072750946983,0.010127643666885771,0.009667184863153678,0.00031317991936966744,0.006029417896385028,-0.03226353295687639,0.008071098856524588,0.019445041429548938,-0.027664260627545508,0.009571794676514638,0.022495899580907187,-0.030508989677271083,-0.01357319749308422,0.00936657443711785,-0.014281980729564527,-0.012082220501002239,0.007511346396867993,-0.019140388038927817,-0.019559179520259984,-0.032093283863049576,0.013959791165654075,0.028025142743223982,0.008407814042532089,-0.023407452584719785,0.029506933375124958,-0.003039223335200902,0.004191561466299379,0.027969697822051064,-0.017615649407141512,-0.028352506815257052,0.027024374791696268,-0.031771405822130214,-0.0024884767785782747,0.0036863617899536155,-0.01986752187684101,0.002518140603809213,-0.021680149275797794,-0.03498119245276646,-0.011502505218480329,-0.0006909314364119436,0.019933433934291728,-0.011092760358128537,-0.009152778198820015,0.0036300397783315267,-0.003745097099497899,0.026267330860249176,0.03001913243547865,0.002511964581235302,0.01951976044683526,0.009847335442585585,0.021398067459213316,0.031429161358943414,-0.031685680558116484,0.02673159608022461,-0.019469195217370894,-0.03499481340020332,0.022379569045144602,-0.017245602511353934,0.030605793635877464,0.015889167439826296,-0.01325812654424103,0.028776434764401004,0.006123364315405222,-0.0007668957934617641,-0.014289674117683665,0.030153094781685975,-0.007875869074308085,-0.0027421638100777095,0.015653027361103126,-0.005916792064304979,-4.4889692092722755e-06,0.015062436726239805,0.004300495702671325,0.003687810801127657,0.033962959833247625,0.018852290013456945,0.019587957764514004,-0.02519713353781376,-0.032896971145075275,-0.010886968480734173
-0.006040359056570411,-0.0019660425090683095,-0.026328369792781,0.0009554402916003368,-0.0019217768062575267,0.006778945875073432,0.01908102389762752,0.010646775639173954,-0.011990860226731896,-0.02736782641483259,0.004964058170254085,-0.014389265056355188,-0.022426561569858186,-0.009906278793956733,-0.010603538368044625,0.009433072444110298,0.02934363584878158,0.01362527253224355,-0.0019750768886862766,0.02377781773259464,0.026834852665317897,0.03485513193856896,-0.02205014491790931,-0.015067248811741745,0.0014895677999332648,-0.03116402832394391,0.016019532675811143,0.014080184579124218,0.018724148599333388,0.024839993397426346,-0.001004173714617381,0.03337891599492011,0.03162679939369674,0.01624940205252304,0.022926945847493798,-0.027947124921474435,-0.006997583682393945,-0.015229056645817925,0.011192886315272313,0.021169641409343645,-0.02897217594066254,-0.028832503899211187,0.02332282854625294,0.027572197594219226,0.0020460055928617294,0.012234825580707789,0.0060496159051645695,0.010164562602591467,0.02670218213480509,0.01261891506081343,0.03392178529636997,-0.022981967911006887,-0.006131195961102776,-0.029677300248466074,-0.0011565234844476344,-0.007786463148104581,0.013794098741324954,0.019930681041840204,0.013635525624824986,-0.030239755878428778,0.012411531799285079,-0.017837347688587215,0.01290703700344739,-0.007203683504359249,0.016137573330740583,-0.03014139351906442,-0.035185370724025784,0.022689434647336935,-0.021295171995646595,-0.02903950153847885,-0.023672405473237262,-0.004870546155740156,-0.008867202934093925,0.014935914719275665,-0.0012739909120946923,-0.0025775194674288646,-0.021405134076834694,-0.008331409368845372,0.021489927995207717,0.029075668254593942,-0.02771672663931654,-0.007603079421947227,0.02001640988916001,0.01069172191406291,-0.024317342798850117,-0.02082792705767907,-0.008962388935548632,0.03161211750575005,0.029330008385176565,-0.007725735539380923,0.02874234772819593,-0.02499814122705116,-0.027991543674373523,-0.022860368269442568,-0.017445647263594922,-0.031092208257915525,-0.016850661323531024,0.007360204204452072,-0.003327111119078803,0.025842633399664635
-0.032369164494613065,-0.02202850064156593,-0.00828843482102963,-0.022741530118823825,0.027127533540163028,-0.017045829433056547,0.03170500308807004,0.006296988526962063,-0.03100215519634229,-0.032028422570761245,-0.021876264829549477,0.033899529109057455,0.01391769598449696,-0.034410108634472886,0.001606831466235456,-0.0005794184696433016,-0.02088177786901625,-0.033940464400537634,0.02343415183899358,-0.032899440055875154,0.026274201506796917,-0.02748998183287138,-0.0032453438686220826,-0.013029160483023135,0.014645825015416069,0.03564153228633593,-0.02420317242987321,-0.0004015146055955339,0.00788503482144463,-0.015749267385948375,0.02948961730440276,0.015326563372428935,0.021450115204207733,-0.006988221234773653,-0.03101796210768167,-0.026202252486350337,-0.0016301138275461543,0.0038446545581406607,-0.02918244413751619,0.013537057419598299,-0.033384210278968644,0.029194704778036533,-0.014541258551320633,0.026634578945386747,0.00590006902978504,-0.03130103531098055,0.027511437883340893,-0.0064598196854576025,-0.017259944263618685,0.033640465289693645,0.025391982926616617,-0.013530063011108151,-0.0016477744564723886,0.023687093978178867,0.02407862506663485,0.009942415012281644,0.025449041935463018,0.006997888352285987,-0.035193073265746416,0.02663872368515651,0.008146544087119588,-0.03057379813127735,-0.026101571648838726,-0.01622316465344698,-0.007521170236534211,0.017073047773249264,0.021608533356010845,-0.004462258957155421,-0.019883552454139523,0.0036190559841883544,0.007635309611842669,0.020045938636012985,0.03196449577851476,0.03060242007101888,0.009334225702337186,-0.0071718012350903155,0.007506136279559887,0.009261811157541827,0.023701542317574622,-0.00023152072189307898,-0.03427107341067776,-0.028385084499387817,-0.010628751878027889,0.023502934911995198,0.03575403973037277,-0.003830496285097263,-0.007714666098640817,0.02954934993944676,0.010765324594173705,0.011266801456475054,0.030932330467203548,0.019649710877008824,0.0073458315974419845,0.022377745834500584,0.029243638905229435,9.222125037471827e-05,0.00878219415802572,0.031736429588419574,-0.024455041692243724,-0.0042052369348439195
0.02000261105473472,0.006480172788476338,-0.004997800507725168,-0.02167081164965597,-0.00484698764874395,-0.021267765154723943,-0.010775857414521157,-0.007164317916067132,-0.0011142530845029603,0.03394434750887901,0.010166509661619336,0.0012123973648480767,-0.03082164529536324,0.03529521078254974,0.003979195763687375,0.03537502184645602,0.015121831278346709,-0.03306616370340471,-0.027840855312361606,0.024897497481980963,-0.02171727558029237,-0.015683927550503206,0.0004738322848453273,-0.018094294781423798,0.03134068104006504,0.028031407216147185,0.006173980328295494,0.01519773786887466,0.007138130766120343,0.016734401320364252,0.0320450316289987,-0.026068668471420454,-0.020395476993072238,0.018582469082263933,0.003326114256635008,-0.02196858889571662,0.007939958556908088,-0.0014885548528224678,0.007898343976942534,0.02641910044016051,-0.01757812013955234,-0.017324775637049466,-0.030775112443992052,0.01065947651462983,-0.035216841805882505,0.0013602763012086469,0.02303916975641486,-0.031079231784606864,-0.003673229982035696,0.021304781598942633,0.032394440820199814,-0.015979767123545388,0.031132658264341462,0.0216832633739521,0.033848053559681554,-0.03064235742557031,-0.03155872260200689,-0.03107322302461372,0.009050964502941945,0.030066512227034412,0.014567837593254824,0.004233642988244998,0.02203444764749783,-0.02918355472135919,0.006034975837088205,0.0035450012439175033,-0.0010038270951331914,-0.008243422888298952,-0.025968776030687472,-0.033672901366573,0.019187631466129947,-0.00884903119030588,-0.029721178788603753,-0.024920154542101464,-0.021697222847792925,-0.0048374425584678795,-0.0007766893681702949,0.005194430389947485,0.035105159089770355,-0.01444512909724054,-0.026403062569550263,-0.0062475788541973545,-0.03333805824958408,0.012072855476993764,0.011903868909820715,0.01740064721500838,0.029602419725658687,0.015779855195645922,0.013659333583981526,0.032464435671357574,0.01597972628478142,0.02925359047544047,0.02632080437943078,-0.0042441496450175255,-0.03266422075361914,0.005288956703743027,0.0029242029239802407,0.02056558740866393,0.025679583697145777,0.035019499742179695
0.00308092539303761,-0.03256610517632807,0.023181088632256684,0.02692682913346591,0.023527517540549037,-0.02499141030457016,0.024750222669011286,-0.028000121214180815,-0.019717549758350772,0.013924322901143713,-0.02380465476163698,0.020233048283077697,-0.019387465209419755,0.019587243471895825,-0.002410407847577567,0.0026311393704887,-0.0019255057989857514,-0.031517548488153226,0.0012081403308374075,-0.0301459253193406,0.026385762264511246,-0.012981968588091407,0.013803627166361831,-0.01688817990938477,-0.027060531524730445,0.02678408584658635,-0.03223154992473793,-0.031496057971732466,-0.023674324547046297,0.022058132121028574,0.021174004712380366,0.008460862601845325,0.01037991122218903,0.01468430240998335,0.029360277707702484,0.014749897095105437,-0.0335161378684581,-0.017997645498049223,0.015852506168650124,-0.026465999617316098,0.021500251023728056,0.01895279953426963,0.006303811377686928,-0.005883751758590564,-0.03337797627624605,-0.03368130458211311,0.024449963528712978,0.0011431262924572775,-0.027073027506971326,0.03191705253245713,0.013245776351532033,0.021423739744153642,-0.014757090576043545,0.005406776587177194,0.002488802814156061,-0.035630533511734286,-0.01062463133716119,0.00928688006788255,-0.011600464509651234,0.029548964442732324,0.032484777894885415,-0.016229815740446386,-0.002885065502840121,-0.0216524258236638,0.01716569953163394,0.027371411505976537,0.01944295280128178,0.01960032114251261,0.03161087846266378,-0.02685195743419907,0.025698624840050633,-0.01963412626399462,-0.02006869971967361,-0.01605104332745125,0.004481227613360989,-0.026353096654321884,-0.026648043215229265,0.028943381670428724,-0.024522758489865355,-0.030568939855441655,-0.004415173590980671,0.02890079600170373,-0.03186892179602502,-0.025342446772586572,0.022294210356799,0.015755776122707423,-0.002179693650534744,0.02612108590533812,0.007346762748115087,0.006373596164897722,0.018228136486598632,-0.03145635609392363,0.02287657713709454,-0.027653885933250928,0.012204435298126839,0.031058402424482608,-0.022934972008541995,0.01164949194278816,0.0006358997323925239,-0.008907777248331113
-0.015009461303560505,-0.022315380230582067,-0.0048846823512969486,-0.02431388518925966,0.0072646599596739685,-0.010118339523809066,0.009320461729441828,0.0072107711826302585,0.002974998972382492,-0.03047384160658058,-0.02396913064936962,0.03140989633699268,-0.0012209956464824287,-0.009176802232375695,0.014322023392589159,0.022097475126701176,0.019604159728763722,-0.014517949104488847,-0.015706451177759047,0.01029816224443125,0.0042599484974760226,-0.011133956106180646,0.009742329050771482,-0.021369174046591957,-0.011248791349040832,0.01843451936238294,0.027650273931690544,0.024614352708829234,0.004848361020078774,-0.015899736802174373,-0.03491406757981201,-0.01307545901885134,0.027103651903193797,-0.03331393562489235,0.031744595229138216,-0.0013452445581175888,-0.015198796631210671,-0.01891142334751106,0.018442169894000025,-0.007253741146101102,0.02387330124012357,0.01828971943119585,0.013278207503764433,0.01629394530582438,-0.016300925891865308,0.017152194704588935,-0.02886727382718391,-0.009513345711228872,0.009871635347634022,-0.009083780712296272,0.010367344810083475,0.010786115229137718,-0.020213804258999258,-0.028634332510465686,-0.007307161427758446,0.006288964981177113,-0.03362184046022034,0.011533650029321127,0.0211949289355662,0.025824215913602257,-0.010115353873421365,-0.008876876955309983,-0.019733977287459098,0.025924800322353576,0.019829916686461602,0.009672926533910912,-0.005471209887871955,0.01953486813884489,0.004916282372358941,-0.01045657625958409,-0.031204461603529195,-0.032908435226721905,0.03195725005453515,-0.033958067787075184,0.002550011099464128,-0.017617736181585034,-0.00855081665522244,-0.0322700692598812,-0.014731097657097878,-0.00018698713722550248,-0.015276934301706768,0.016996467320730107,0.025327470601545492,-0.027924092989440527,-0.0012581518566710593,-0.026270510708899474,5.4611527339298045e-05,-0.014555890456218874,0.02137271463062021,0.010942145321536404,0.018525366670811096,-0.0068090730500124964,0.018051458130579495,-0.005239039870846254,0.024786101459799644,0.02596651137537523,-0.023670414293900467,0.009395498258025037,-1.415112510849692e-05,-0.013568873571173012
0.030576154069034675,0.029501074419740907,0.032213507398926304,0.007524764543279212,-0.03419718262351469,-0.024692811127685975,-0.002396756558637623,-0.02424269026165374,-0.026449665746712907,0.03581570498024188,0.011059878129542318,-0.03214270567264795,-0.017057918250948594,-0.030271898469684085,-0.010600398568742966,-0.020751509761367755,-0.013814010647097296,-0.017965975650609613,0.025132661561705738,0.03262842825828875,-0.016944267996237286,-0.02120233618777101,-0.01842873226411256,-0.006214447518647042,-0.031441475394794284,0.022068650539506823,0.03141961248200056,0.003519490917230931,-0.0055198565478577965,0.025284048784467123,-0.008646152780254993,-0.020113780592391335,-0.02447229820929329,0.0039822779858311825,-0.01807586738043355,0.024877866401501966,-0.0022415067852305697,0.013487005350310163,-0.0072014970018492545,-0.0066247251679196146,0.013087151942611928,-0.023277554501010295,-0.002399388370118913,-0.03016214041935284,-0.027515840817696285,-0.00145739330682821,-0.0040461868096703275,-0.023133056050417024,0.0013734899748501922,-0.009449238414224575,-0.005120869527182974,0.000503325238302048,0.01786868407397486,-0.008457404654669189,0.009670808882924872,-0.013590738204865654,-0.018625943046880415,0.01588479577037768,-0.030726849539372894,0.025531672002936004,-0.0186009731914021,0.013223851527879355,0.020759445483342104,0.0070809424646340454,-0.030621410206886787,0.018114134378680678,-0.025295281697800934,-0.02352909667670078,0.014957156852552979,0.014551310528159389,0.012505458606928328,0.006307356055400334,0.015384975893960049,-0.034924679110519725,0.003405893250023108,-0.01963990904335585,-0.00044776008290601393,-0.013260321448256491,0.009126476514789782,0.034760966049673964,0.007441770001156696,-0.01163322002893304,-0.03291135893928457,-0.035594643851697576,0.0005175409179309668,0.02708046277005827,0.01046104864702992,-0.016832270014526283,0.019810959772988867,-0.031682520634338004,-0.009527762294120737,0.033396310880248525,-0.0027640376454719996,-0.03487452261162896,-0.025327459316120404,0.02494827977879877,-0.030417530127188265,0.0008847010777470581,-0.027773046765939283,0.03205848758639851
0.013663067490997492,-0.0066977133703131535,-0.0031655606201415206,0.020275104172343107,0.002001399164320683,-0.030180844995911876,-0.019188357219019014,-0.00899623694240328,0.0004923513293540958,-0.032698488066859314,0.020134829965108517,0.028312043130521724,4.37414973972257e-05,-0.008209671151841673,0.004758009301660107,0.032583061781721795,0.009222495028928792,0.012047463454488625,0.014781192228361788,-0.015745319068547897,-0.03476295148794583,0.01402007394195813,-0.02730349977411302,-0.008274490398566814,0.01430340246700407,-0.01042892873260646,0.028213403411365665,-0.012975762022388104,0.012093599745212942,-0.014309150526070225,0.0070043917248421225,-0.008058596203340406,-0.03397364808566523,-0.007172644973229403,-0.012264837687885829,-0.0027149589975702373,-0.009494282700452307,0.036229652646892915,0.03396346141004784,0.029000496829365723,-0.01227660880281418,0.004904496890679159,-0.0055315685819493565,-0.009190605263822732,0.025471403382166278,-0.006915636939487489,0.03148273792777888,0.010451149094914404,0.03204935686944735,0.027717328199134028,-0.013469719888316838,-0.021570741766604493,0.0027574655258581857,-0.004488722424104907,-0.0069679347086947325,0.02540574109552675,-0.020572076886519474,-0.0022724889798510636,-0.010549419386305893,0.03156226006037642,0.010205068967519144,-0.032319031630991035,-0.015436410460393873,-0.03197346577447846,0.004235118426530442,-0.0003840971996173605,0.019839085421981595,-0.020950043834757712,-0.030111935644146822,-0.025571544940605238,-0.026313143239379583,-0.02484819144846073,-0.025570835796119202,-0.031226437214527912,0.022693672726701794,0.02312575498432965,0.02680150648277112,-0.020249106261452456,0.0075861840442585865,0.023183540461197853,0.0032705705838874297,0.028500969262073884,0.0011887892648322698,0.02764695886259615,-0.01478632021006406,0.03309044958845487,0.03413692213542555,-0.033093570242656446,0.025989457105801483,0.005962771637209166,-0.028284087112302052,-0.002388311514734491,0.017293961807175417,-0.033112310653059265,0.02317469628393927,0.024288007206310972,0.03040051816502878,-0.019929833155261797,-0.005344786887560004,0.002899631668666879
0.005892579152276195,-0.0008888164661369172,0.021150107389471696,-0.029032687673338147,0.010801765621385738,-0.008660528455676384,-0.009515919503148356,-0.024545369503182188,-0.03455114534313316,0.013746552240884231,0.01732940098776983,0.015669167741925137,0.03479383689154784,-0.022551180767199305,-0.007868685438926906,-0.0010378027595904851,0.024873153695022382,-0.026727096182386834,-0.01896051485042427,-0.0016159739796636936,0.027582013116890305,-0.026483933061422393,-0.019057145923564747,0.011972544127868844,0.006114556050221664,0.028500001406482796,0.0006317326199585535,0.015948917143703483,0.011211807988866687,-0.033932126945382904,0.0008108302570062852,0.020864547787474097,0.02283216346220833,0.03445374174389881,0.0028992605645858744,-0.017515806515122002,0.00088818359868413,0.03585120741179087,0.019066411650256496,-0.02345734038771744,-0.019740732663637964,-0.008760760898646278,0.02520302361218901,-0.015992691400787056,-0.0255234317856334,0.01841896081864146,0.032921547090524104,0.025892097479751738,-0.015018538611271653,-0.009781349235089361,-0.025811631671050366,0.022342000985100575,-0.006287709386915665,0.01856519019772056,-0.008249392784841138,-0.013206853862458599,0.011983297592974217,-0.0029161943392955053,-0.010514687341497056,0.011830632430531379,0.03231788822340933,0.018692210552584233,0.029957316182572497,-0.028066616680766043,0.027970140448902676,0.007373385556916046,0.015438469215531285,0.02447108886236373,0.023262148450560037,0.029334530966556662,-0.015278268373273346,-0.015953594880437936,0.02105234690329168,0.01701096268027964,0.015371917810861896,-0.015898873052235484,0.010209994370332917,0.004893302797254227,0.0011454550691141446,0.031029623068874357,-0.029197840501297895,-0.023711866080314167,0.015295743375825573,0.003199161641417299,0.01724928888632502,0.027407929458052566,-0.017338058897578723,-0.019709073342246003,0.03208844917778563,-0.024613804420056878,-0.025915881034401567,0.007481849602870471,0.01192404339935695,-0.011594781026076747,-0.017338227499752924,0.0015855703762082715,-0.03106396113751353,-0.01942993840815423,0.028215641219006535,-0.0034959235233674893
0.02187829938830773,-0.0066534002032207435,0.01694725203146738,0.03427238622767987,-0.02570582832530053,-0.02922040883561459,0.031088059988474904,0.026090296343992774,0.0015740667937827314,0.011818136157760483,-0.01427014060226237,0.003577180279734733,0.006246399398396924,-0.02707224383613359,0.03175761348509928,0.02140359831251356,0.027204507045519046,0.025794553477869117,0.015105182177824127,-0.0003378211532438164,0.001596481500946088,-0.002871532723780895,0.005411698323431404,-0.023636478798064298,-0.030260221052407717,0.030458425702306845,0.003881697989374879,0.03259251221462344,-0.02360167352250883,-0.02242527303068649,-0.03037525694686451,-0.014719708021253906,0.014848517595084421,0.029452216284346047,-0.02497410517296828,0.03504366161845094,-0.019881522208556535,-0.011500230262508258,0.020823978259738612,-0.0352156988114866,-0.014535758936246309,0.007606328088620717,0.030080028100285795,-0.0067996111908429375,-0.02348575459317627,-0.03481283470273632,-0.024858093679414446,-0.0014495166380303908,-6.29712434283003e-05,-0.01972682338440193,0.0013904158755581185,0.0018181068739943431,0.007975853300318246,-0.015210889415985985,-0.017786065294098194,0.013941665995946317,0.001054216234614857,-0.0006764318387218471,0.025423900540505823,-0.024178355762871546,0.006945718783080676,-0.021412948979184714,-0.023725486611345426,-0.002495351964338833,0.01997301066865601,-0.021826627610150133,-0.02971345002024182,-0.035258487875220484,-0.0052516140682119464,0.013913265689082072,0.012072308547462158,-0.009662528956643874,0.011516350784762572,-0.016896353975679238,-0.006783605239155292,-0.003262490999769958,-0.014703231104652045,0.01218035307289581,0.0049148215181793265,0.010053294353371748,-0.017083788928737218,0.003348559186930745,-0.02497074149667479,0.03408096837887343,-0.014089099879092114,0.027903920307325084,0.02822707558421702,-0.023330753329331183,-0.03403214978502256,-0.029912376794137496,0.013549662160484031,0.015446467278276524,-0.01782286447348455,0.019590133312882892,-0.015320996720936295,-0.0012745463143334545,-0.0025843561554227813,-0.027044831387345133,0.01089969087557943,-0.029993878958340953
-0.031856292308945586,-0.02737391093940621,-0.029413894009292667,-0.03593978736548348,0.007229834275529284,0.009782906589510297,-0.006469927365868592,-0.007724020840154953,-0.02486384426626547,-0.004496339149934741,-0.02351552604298465,-0.03004816624434302,-0.024948427439176673,-0.004207150760739162,-0.0214908879285601,-0.02822958030874756,0.00943861990206596,0.028729622924359814,-0.02446336111615825,0.012472524290802155,0.007711726587534881,0.028652448393186314,-0.013215180916675656,0.02028845736594343,0.0009681351790712375,0.0073427277439969555,0.002816242208629265,0.008409512768352624,-0.010842744652380746,-0.012139927044496046,-0.023204283503918104,-0.01682767715377853,-0.01884724588352987,-0.011430602641970022,0.0306319695052133,0.019727687016421205,-0.0032588797712331686,-0.025818218728277546,-0.006242895332097205,0.005779340790655881,-0.0300694603689088,-0.012670470150521014,0.01731180698211628,-0.029608808401746508,-0.022714590222924748,-0.010265776544947463,-0.011278634762022108,-0.029788197890290014,-0.011869279512047509,0.00533917847956078,-0.0014871229770754653,0.025335935915013354,-0.022269306123527288,0.0229520975999747,-0.0035092286429234515,0.013323808939994637,-0.004276859401671092,0.0031444746740508997,-0.004652591101710284,0.027049224351004226,0.024797533156033807,-0.03017832622361304,0.01526923199534762,0.03264132274392516,-0.01932167119819119,0.007365676815977978,-0.02041460945023561,-0.0025692239105110626,0.0067466748483434496,0.016778471779776573,0.011424620054864163,-0.011326532333948269,0.03435376860320407,-0.023609394156671095,0.01038615152610453,-0.019635995038902794,0.007950372256705727,-0.03172597754585487,0.02410722246009756,0.015017140779342778,0.01936786198874944,-0.03266749445418188,-0.018547170850723937,0.005607757196580776,-0.011240323999726982,0.017404983042412708,0.027854890567790967,-0.016574853575357273,0.025821138068823104,-0.00031563118526668874,-0.012816279577234857,0.014767122795149619,0.005439409278805153,0.03363734781484237,-0.004743343867960667,0.034264886547263736,-0.00662985536498645,-0.015772243218089507,0.0014467719933454887,0.00583410020323613
-0.032394684386830734,0.032818475701907976,0.009084354180013883,0.000708563045239291,-0.004936521480920024,0.025091880769279994,-0.03194364560084686,0.01247451396087516,-0.011915802025924125,0.029163460220942294,-0.02642785836648382,0.029602885771221096,0.030303572925291806,-0.0022652903920089666,-0.014928623223393812,-0.026788981294008356,-0.014745072172419844,-0.03427563831149671,0.021166536886175365,-0.020018927722631346,-0.03002937303495285,-0.020582888503280966,-0.034508004704124,0.0019696259247980073,-0.016961827136490623,-0.004874357928123232,-0.008777827835925702,0.002017685732605162,-0.005428101341674691,0.03456582479256927,-0.004523179399412339,0.015292221010892823,-0.029273596837690145,0.0028173597629643204,-0.010174041852330257,0.029822324981484873,0.02239162804807037,-0.006640803742482513,-0.0033199646988322806,-0.01482486032063796,0.005438650144426776,0.013136797144985673,0.03230323033015009,0.023287395478666255,-0.009904241415138631,0.017509450891075314,-0.03378846417660686,-0.03393896372891328,-0.02373860293900492,-0.025744777108661635,-0.0333127272948021,0.0005074771505089215,-0.026093913333414803,-0.03058098125673891,0.009638375926047141,-0.029344714380303717,0.032522065607826375,-0.0056999002516704735,0.016712153369336052,-0.03446507669920226,-0.014127839197353408,0.01928014169923927,0.02986855722035657,0.02036333125109143,-0.010621696959766955,-0.01936320821278731,0.0028719573503932687,0.011089674370129267,0.004699034835776203,0.01062695897377463,-0.03255700583731679,0.026939606097428646,0.012622802300507446,0.005522932440130195,0.011669793755041846,0.016936394377578764,0.03249209495493511,0.0037619216839840314,0.015539146396785584,0.028341648523032933,0.014633596726835554,-0.02368441457095203,-0.026475142682867568,0.028626532738022833,0.024962604549960826,0.0155616029010019,-0.008950564528642641,0.0100223087532523,0.0047531244550619925,-0.005586492970184525,0.019409287593713652,-0.006710864039956901,0.001198469142696986,0.034123411118323774,0.010862633383109485,0.0011602551036004095,-0.02500961901489648,-0.02702760302128989,0.032454080991834194,-0.030713446244049043
-0.014839713784641384,-0.034024628270931105,0.005687932833021173,0.00848666523236104,0.018684479441184135,0.011221066465251029,0.006102766436924075,0.0010505680382890247,-0.028226122626774625,0.03388459458096773,-0.008196908869581817,-0.012867590420987984,0.006364099039496993,0.03412328581933784,-0.03001204061494526,-0.025493257258136975,0.0035569818015844636,0.01229284505559972,0.029900050764863843,-0.03017326629284721,0.03309751800344152,0.03296435232644151,0.02827432035996927,0.002077276832943428,0.006068496741174066,0.02294254306010889,-0.006799395970049932,0.033421027081565226,0.028902650377744452,0.008452835948398624,0.030315309236890665,0.0310018654106748,-0.01126270549089327,0.030490407225544698,-0.03192306524468134,-0.012866460923582249,-0.020486951306877114,-0.005724089889775082,0.020712558969080967,-0.011821892884833226,0.018952968096009232,-0.020393390177501667,0.010928763714900376,-0.028713830203705163,0.008454598241512937,0.0057658678729298665,-0.03209039048539891,0.02437834223996478,0.03449509452742465,-0.03294847535533936,-0.008530993531347352,-0.02549977380662489,-0.020025186451491126,-0.020462831009802777,0.016857779195053997,-0.015519851900086621,-0.0014935264044412947,0.03451127110863693,-0.02707868167698763,-0.025022430902276873,0.02125958493298651,-0.002063570623549267,-0.017771626547089595,0.010833565672806486,0.019347148207053824,0.02063847344205555,0.033142014104340436,0.000928497842372205,0.022107331262392744,-0.004398318555146372,-0.023689764726273845,0.01311581379503245,-0.035016140316896746,0.010160846508083314,-0.002784898643660674,0.0011993637636418001,-0.025561020967404816,-0.011042799231666251,-0.03323838888304015,0.019938697564524044,0.022691726017022594,-0.019963574628330268,0.018096584787957684,-0.013274242342396521,-0.010464903315783855,0.031368121809997346,0.01897688605045059,-0.024146712168468056,0.027607714670159298,-0.01777200695293727,-0.01712762874641557,0.018343863498834583,-0.02460343016631318,-0.01814498329250367,-0.03242097734817503,-0.023486751336152727,0.003877883567274497,-0.015632734671207425,0.033262629096218174,0.012696074343508862
