layer 0:
-0.0026744289497696435,-0.003475548683063537,0.01729573704793564,-0.022677021401582818,0.0012444796608984902,0.026132233731166014,0.003954865390547004,0.011628446123559915,-0.016090047908791753,0.01642193064407304,-0.007726373885760903,-0.017789478614332548,-0.02626343426572458,-0.0080557040868206,-0.012658600119834778,0.015803054402169656,0.020358380109484823,0.0055714358769520436,0.015366018219473053,-0.017144537617460747,0.009308795592118316,-0.01203628502132929,-0.020297162765249326,-0.02863183407161309,-0.015323735446748038,0.002446776618666659,-0.01275663067552496,-0.030685074539717312,0.001333295491389008,0.0006542329190093676,0.01575453147833685,0.012233357794008895,0.027480325113113352,0.006182242067794501,-0.02165421740053793,0.007117787879534588,0.019556257090789363,0.021640831883182138,0.005933025082079518,-0.00927980294540858,-0.0037664451646456398,-0.019241998885413263,-0.00916704934717081,0.014922153883269475,0.010765457203079089,0.02076893612938347,0.001090670609404621,0.02693038114784137,-0.010946196139337505,0.01398017239882133,-0.024077906290127103,0.009842844721241924,-0.002366767915681991,-0.01891714001280363,0.019184639507982097,0.01089255445078677,0.008386084225565901,-0.020719849785138567,0.00241049357944529,-0.0023122879622448833,0.0011892296880515905,0.020647503242412484,0.022766918155306664,-0.018691161546644613,0.007691250007786123,-0.006512108755705037,0.005456965652398179,-0.007370914523918425,0.023212591560753865,-0.015129739529453904,-0.022987134901088436,-0.0254747280287314,-0.009984709743840758,0.021316579809439743,0.0032805649853709052,-0.025495814532989186,-0.029989950469916003,-0.02466985963199409,-0.011121895518472211,-0.016493019006618658,-0.027801122889797532,-0.027010426883078104,0.013676919693695848,-0.004395463875597538,0.0034937592097378373,-0.014936648800814698,-0.023737971381023546,-0.01776649237373638,0.005854372199018406,0.028742657513029186,-0.022883221767620386,-0.031093901084324402,-0.02716032766744279,0.024873362198386834,-0.010603711761838329,-0.010086984550993355,-0.029704413554724914,0.00503270783009398,-0.02870050092276516,0.011951809989746298,-0.02029588529939143,0.01954766627545681,-0.027902605385849606,0.014116734978254964,0.010095489110402133,-0.0034057348354600125,0.004761106663058969,0.006006143749498515,0.020835300426241876,0.017890082928456386,-0.011923557490341248,0.007260474229204318,0.031032917030834578,-0.024090875263732037,-0.006644261698667451,0.012023484227041489,-0.021786058745060753,-0.008065648996765514,0.01656394785950594,-0.006174645869369736,0.02370325162772607,0.009955819199207985,-0.031127454810966664,-0.006225205218262638,0.022147793256398433,0.00934241945958806,0.022085413583799837,-0.009763680531104749,-0.009504420145974243,0.003180965800285345,-0.026963268615301787,0.010414012403204151,-0.00491784612333113,0.008277879733791392,0.0255300122755851,0.001419631328316293,-0.00166117777971862,0.010171392574372074,-0.028005772371688616,0.02734361196794857,-0.02992553172094578,-0.0290206426591745,0.0040377780175365205,0.025992705453746486,-0.029202498924683396,0.022827197940745225,0.014736346263667805,0.003017827935402601,-0.0024578921972816855,-0.014007056723024897,-0.014112181005972021,-0.002537018683853634,-0.005119069092283439,0.019171331082979783,-0.024424015053403948,-0.02463038893340742,-0.028906846132251744,0.0011351730361235201,0.0019310505342418048,-0.010945710095887719,-0.02485688698830063,0.012022884676201271,-0.007004864588625117,0.027967805284031404,0.029617728137730365,-0.0035850880052326365,0.029445409922063095,0.005525035652728239,-0.026509557261459718,0.0255269482110393,-0.006415950404981926,-0.023102275205215135,-0.01861605699209842,-0.025973253173822215,0.014721354403703925,-0.0020233160131784968,0.014199616788582139,-0.027946191758921456,0.004557405684145431,0.007617784212171855,0.023545660778036395,-0.01203417648422146,0.028292033263668172,-0.018053249141932667,-0.01490138174116887,0.008862906934497247,-0.00047381632693089734,0.01843450775762984,-0.017661988487209422,-0.022077810202102918,-0.017685312436797905,0.01691572978655758,-0.03102909084869624,0.030550711437000992,0.004917762366071949,-0.016520880960795428,-0.02923387121854274,-0.00624158019365619,0.029851764221304086,-0.01624925044724899
layer 1:
0.015326187997101387,0.04154876140732152,-0.05747312957373642,0.038445222215713976,-0.05542669973202713,-0.04121773301095082,0.021673527124354244,0.0012483475918920039,0.042877452672741616,0.05030713256357363,0.05635171842688441,0.027851813037604943,0.061383629350337206,-0.06511053425106177,-0.07001215504663577,-0.03767610788598529,0.040720981984609786,-0.009329547282227051,0.0036304940559419878,0.04475166339080137,0.014721378824326201,-0.03986882984291481,0.014952183671555576,-0.06137163675764613,-0.06452604605312762,-0.05203782604791853,0.05249659097473204,-0.055737642044228465,0.03495945393596782,-0.013764606322740455,-0.01181333922981504,0.011468915414551441,0.05725137815592739,-0.05953740352376634,0.06621581356612159,-0.04888929046989779,0.03845456546277532,0.03532342161045252,0.037714330882605486,-0.02018707907868624,0.052557964327821914,0.03206077987906216,-0.04522808001321189,0.023177018034049576,-0.012859200013663807,-0.06500800967486652,0.040391741030724335,0.014898439858779105,0.06295888150830965,0.05585525492532347,-0.06379499481810044,0.028640058928672028,-0.07062783700288075,0.016268944921999588,0.02846965473822845,-0.012161831934199459,-0.042711829994130666,-0.02862029007407782,0.00914432696380261,0.0639482964072924,-0.0013642785105012312,-0.04513245811390445,0.049908437766570654,-0.00019178393981258914,-0.05860398583091641,0.00462147193785523,0.03598740396943008,-0.051587346955575396,-0.06656386383924319,-0.06346348456476521,0.04277938181140498,-0.06802834044836584,-0.03325586836766546,0.03150194938632905,-0.013277002532976227,-0.03122199701480418,0.0037048897910292042,0.06582231208472168,0.03856363715178795,-0.029636345134441563,0.0013588444244812777,-0.004714250448367009,0.05384448380846811,-0.010442375125030434,-0.04271502819930573,0.06416322187673819,-0.04726203688565345,-0.0440516789952199,0.0328008806435817,0.0633216675480281,-0.04705829898196118,-0.02523580770023094,-0.02520481562134605,0.021356243391162124,-0.06344908893629908,0.05504073034792841,0.06132630555953717,0.012704559828156596,0.03886378050485713,0.0693267103966851
layer 2:
0.015244559472705645,-0.10050646924678476,-0.05750519632590942,-0.016527504030939583,-0.09380789877849038,-0.03147204187035761,0.0716502750627311,0.056154396694589145,0.005196603842501976,0.08860367457111898
